//<![CDATA[

// a few things don't have var in front of them - they update already existing variables the game needs
lanesSide = 4;
patchesAhead = 4*4;
patchesBehind = 4;
trainIterations = 10000;

// the number of other autonomous vehicles controlled by your network
otherAgents = 2; // max of 10

var num_inputs = (lanesSide * 2 + 1) * (patchesAhead + patchesBehind);
var num_actions = 5;
var temporal_window = 0;
var network_size = num_inputs * temporal_window + num_actions * temporal_window + num_inputs;

var layer_defs = [];
    layer_defs.push({
    type: 'input',
    out_sx: 1,
    out_sy: 1,
    out_depth: network_size
});
layer_defs.push({
    type: 'fc',
    num_neurons: num_inputs/2,
    activation: 'tanh'
});
layer_defs.push({
    type: 'fc',
    num_neurons: (lanesSide * 2 + 1) * 5,
    activation: 'maxout'
});
layer_defs.push({
    type: 'fc',
    num_neurons: num_actions * 2,
    activation: 'maxout'
});
layer_defs.push({
    type: 'regression',
    num_neurons: num_actions
});

var tdtrainer_options = {
    learning_rate: 0.001,
    momentum: 0.0,
    batch_size: 64,
    l2_decay: 0.01
};

var opt = {};
opt.temporal_window = temporal_window;
opt.experience_size = 3000;
opt.start_learn_threshold = 500;
opt.gamma = 0.5;
opt.learning_steps_total = 10000;
opt.learning_steps_burnin = 1000;
opt.epsilon_min = 0.0;
opt.epsilon_test_time = 0.0;
opt.layer_defs = layer_defs;
opt.tdtrainer_options = tdtrainer_options;

brain = new deepqlearn.Brain(num_inputs, num_actions, opt);

learn = function (state, lastReward) {
    brain.backward(lastReward);
    var action = brain.forward(state);

    draw_net();
    draw_stats();
    
    return action;
}

//]]>
/*###########*/
if (brain) {
brain.value_net.fromJSON({"layers":[{"out_depth":180,"out_sx":1,"out_sy":1,"layer_type":"input"},{"out_depth":90,"out_sx":1,"out_sy":1,"layer_type":"fc","num_inputs":180,"l1_decay_mul":0,"l2_decay_mul":1,"filters":[{"sx":1,"sy":1,"depth":180,"w":{"0":0.09373090801074586,"1":-0.05370657792772692,"2":0.04741199557378624,"3":0.06604021323587675,"4":-0.050949068221973925,"5":0.0771316887713792,"6":-0.03923678573499418,"7":0.16438857576550758,"8":0.06564297415553666,"9":0.06269599101152326,"10":0.06719550708486972,"11":0.05881750059304555,"12":0.04534187307225175,"13":0.1704734379736353,"14":-0.023074777714887047,"15":-0.004821331449995482,"16":0.019761449942009894,"17":-0.017781967005712725,"18":-0.06612116792330648,"19":-0.0157635979963996,"20":-0.02575395872372831,"21":-0.029807268843081495,"22":-0.14153606769281288,"23":-0.014758031802910677,"24":0.0855265192590368,"25":0.05833157427644933,"26":-0.0034590511191879593,"27":-0.0472131137638988,"28":-0.15297043097129062,"29":-0.023377788653991566,"30":-0.007139593791426006,"31":0.12753034837599214,"32":-0.06616346175152443,"33":0.05013591943695914,"34":-0.13990812477282158,"35":0.09290346753439593,"36":-0.2112154480641988,"37":-0.04632808262889863,"38":0.04460936294176938,"39":0.13869805920707318,"40":-0.18258327415068165,"41":0.03725395041685592,"42":-0.16228856872694045,"43":0.029353171348589557,"44":-0.10005823988015976,"45":0.02546314235571169,"46":0.09832358179748982,"47":-0.06917704477422763,"48":0.003854450607210288,"49":-0.15497157511543144,"50":0.04464897326272604,"51":-0.012140603920746049,"52":-0.04831000997946771,"53":-0.07642544382994329,"54":-0.11571901145547019,"55":0.00008068685136817254,"56":0.006452520873639427,"57":0.05523439855579801,"58":-0.1259720303786412,"59":0.01879728365928266,"60":-0.02535722026725394,"61":0.051622477665163445,"62":0.19524499107421037,"63":0.08415626669538136,"64":0.05749809960386943,"65":-0.025108063460752297,"66":-0.0904891108863643,"67":-0.08013408225551462,"68":0.03637301772341362,"69":-0.04189215815184111,"70":0.06550132765765448,"71":0.02123837335025718,"72":-0.14048467718579127,"73":-0.05108722291934308,"74":0.011071133021674789,"75":0.002182208737556477,"76":-0.13447979615816513,"77":-0.08031699851573414,"78":-0.028132213587979363,"79":0.1141070239874347,"80":0.038716981772366425,"81":-0.013082741342901587,"82":0.029061492267154883,"83":0.023615920673035782,"84":-0.15739850492675994,"85":-0.11142130450555678,"86":0.03581924948021113,"87":-0.12661608492537127,"88":-0.004375737983343116,"89":0.1179101236061592,"90":-0.02073208224151757,"91":0.01581397898190406,"92":0.01837759225046913,"93":0.07792188302190628,"94":-0.12896973117549398,"95":-0.02580820003704069,"96":0.13290267419898727,"97":0.0286823974207678,"98":-0.009537854711558998,"99":-0.07065731039829246,"100":0.07351079178301488,"101":0.030550075446775245,"102":-0.04278956470663398,"103":-0.1930824939255741,"104":0.0370420864244848,"105":0.07824459481925126,"106":0.03811214205425367,"107":0.09650482955638343,"108":0.03718495050621473,"109":0.15935429395301007,"110":-0.03435730783678201,"111":0.11023494733321038,"112":-0.06555596582247895,"113":0.046402326229665475,"114":0.006003708164745155,"115":-0.025819452781014367,"116":-0.0025054211996281923,"117":0.10206999874551453,"118":-0.020998417023832313,"119":0.03334980239650185,"120":0.020927731608787907,"121":0.12117097256961544,"122":0.06692490819104997,"123":-0.10974507696012578,"124":-0.07302677556806837,"125":0.06850223851678763,"126":0.07972101989202329,"127":0.004526197759324206,"128":0.09026370542749398,"129":0.03248286883226433,"130":0.11785003272848009,"131":-0.04285687002408812,"132":-0.005778437241995711,"133":-0.07901605428292244,"134":0.15466241132200118,"135":0.07490658191185531,"136":0.0849318192465084,"137":0.11443712626199615,"138":-0.022153279160633765,"139":0.12138925309140847,"140":0.028110259020638795,"141":0.0335570152250978,"142":0.01169448132074717,"143":-0.014602949489596008,"144":0.050800668632334796,"145":-0.08022341353159337,"146":0.1014826450216466,"147":-0.09434746559205967,"148":-0.05911665619250281,"149":-0.007482187869337166,"150":-0.1236735916438634,"151":0.026461444691456823,"152":-0.004826006059405125,"153":-0.05579343302751161,"154":-0.08302180307708858,"155":0.10756177081680994,"156":0.038544799404318576,"157":-0.0492041645823399,"158":0.01990282299017907,"159":-0.03928094061089194,"160":-0.03645177935243055,"161":-0.06984602745816813,"162":-0.09825368513797035,"163":0.03477595593489593,"164":-0.010934123790396055,"165":-0.125226601713406,"166":-0.03818985823148729,"167":-0.19763818765697627,"168":-0.10386006805165063,"169":0.18061984338460074,"170":-0.03947467800450157,"171":0.03705735248481193,"172":-0.037394685446383566,"173":-0.07016438966134832,"174":0.014380390505886596,"175":-0.013542859983883023,"176":-0.2261038761167575,"177":0.036201927826564194,"178":-0.010312698032908723,"179":-0.008556746458951119}},{"sx":1,"sy":1,"depth":180,"w":{"0":0.09613514346833021,"1":-0.08742131488893934,"2":0.05226602696727096,"3":-0.036952181832053184,"4":-0.07053048743495781,"5":-0.09985447939031182,"6":-0.011595932311865809,"7":-0.022833729603327312,"8":0.0651097502535175,"9":-0.0017182756231887979,"10":-0.0370121761122451,"11":-0.04784517079640933,"12":0.09150953512419416,"13":-0.058786323821247335,"14":-0.08326682592806547,"15":-0.08548588775856197,"16":-0.03677702064998356,"17":0.011296998866656329,"18":-0.027077151150863198,"19":-0.15993244565242615,"20":0.0831140986959369,"21":0.026660644320686454,"22":0.049725756241436915,"23":-0.003083597405698128,"24":-0.04870004610783381,"25":0.059930323391965565,"26":-0.043332446976242604,"27":0.08887899199544692,"28":-0.011170944050603199,"29":0.03012364835985812,"30":-0.07213643109649144,"31":0.15176942132400895,"32":0.017454112825294545,"33":0.044456218207188716,"34":0.02347710302023953,"35":0.08196921567487414,"36":0.04952645587555767,"37":-0.0026132270841435147,"38":0.08335365648472859,"39":0.05936104670531277,"40":0.036780479580772366,"41":-0.05694212399107296,"42":-0.19176198051498758,"43":0.051025667560236965,"44":0.05325399682463761,"45":0.01332997290012235,"46":0.03370218250916105,"47":-0.14283934733245834,"48":0.20826612265979147,"49":-0.07223065451496573,"50":0.127825562482492,"51":-0.06916427943304082,"52":-0.07325656559261366,"53":-0.025053890438186156,"54":0.05589806517456795,"55":0.04723345863356604,"56":0.10333568159730093,"57":-0.08906126465924873,"58":0.12003378621616409,"59":-0.05513967489002707,"60":-0.031832546201222445,"61":0.0076058375542997925,"62":-0.04271571266543086,"63":-0.158525214960152,"64":-0.019329222235959627,"65":-0.07026643013969106,"66":-0.04501952272570469,"67":0.14557288097726026,"68":-0.028327080295440385,"69":-0.005751447757363713,"70":0.04669053079070815,"71":0.15805889332399384,"72":0.085324162672161,"73":0.010836179716251016,"74":-0.04144230219070688,"75":-0.11254933386765563,"76":-0.031202054574278694,"77":0.002640141178032244,"78":-0.004097823314203085,"79":-0.01850913318302927,"80":-0.025205548484881064,"81":-0.11552129354221065,"82":-0.09100552819560326,"83":0.07617281973070301,"84":-0.0670609497144312,"85":0.0852261694176701,"86":-0.08533472554404774,"87":-0.05459959194784786,"88":0.050137810354299275,"89":0.020512710547671505,"90":-0.05813392494579711,"91":-0.07156953215644991,"92":0.18097279207509595,"93":0.0926405217034426,"94":0.058634710416513934,"95":0.08540975089500895,"96":-0.03872471720716936,"97":0.10439415605879163,"98":0.0723185622453169,"99":-0.035502152520782614,"100":0.05575759567552008,"101":-0.027680071730283164,"102":-0.02677031343848399,"103":-0.0632470317980525,"104":0.19724948612603335,"105":0.0032043208682609263,"106":-0.004727976876846109,"107":-0.04010062157984004,"108":-0.05406718274038422,"109":0.09076793857933024,"110":-0.1844965645699689,"111":0.04405505097409044,"112":0.02766162007118927,"113":-0.01962382155685721,"114":0.1158367413680706,"115":-0.01746844571981364,"116":0.00817838640389381,"117":-0.006639292269328731,"118":0.09024839688186978,"119":0.06714086523779153,"120":-0.06434088426951802,"121":-0.06558446119564114,"122":-0.04506487223375103,"123":0.04610891016961939,"124":-0.06983301942683012,"125":-0.07786095770704281,"126":-0.075138062790572,"127":0.05924649558362073,"128":0.026440095141048347,"129":0.04822871490431077,"130":0.019877249496552132,"131":0.07529287132921536,"132":0.08764133126599401,"133":0.039400855702309986,"134":0.0982075324691467,"135":-0.06641647085844539,"136":0.09384526096010244,"137":-0.04286411919760999,"138":-0.1739711456439249,"139":0.058566097064673674,"140":0.11028364731518062,"141":-0.06907130713286556,"142":-0.08964742936162376,"143":-0.06642276147260703,"144":-0.055899792956914565,"145":-0.08667436084306226,"146":0.0725013748169973,"147":0.05676478284529295,"148":-0.03858448820058993,"149":-0.029385429874200217,"150":0.03932598936784876,"151":0.008719630588117026,"152":0.021757770149766962,"153":0.031620530098872654,"154":-0.06787900654342703,"155":-0.07374921396706935,"156":0.07695970090319718,"157":-0.07284445069707471,"158":0.0025468610271924762,"159":-0.01657457388213108,"160":-0.013540198293502354,"161":-0.10122462955860562,"162":0.07584469641539394,"163":-0.09366636472396112,"164":-0.05050065170528471,"165":0.044560542852701425,"166":-0.07276762781488641,"167":0.025741545425017758,"168":0.10999798557291637,"169":0.06837950278769708,"170":0.02267091549713002,"171":0.002199554455340068,"172":-0.07430755598405954,"173":-0.06376924626893242,"174":-0.06878820239249041,"175":0.010901780751479023,"176":-0.0934863521741688,"177":-0.025878799893196597,"178":0.06476020326366198,"179":-0.014546284858091747}},{"sx":1,"sy":1,"depth":180,"w":{"0":0.03490228058333065,"1":0.0979405686075412,"2":-0.21861588386519754,"3":-0.0242442746875473,"4":0.049261607385802667,"5":0.05850234178156491,"6":-0.011180533415674229,"7":0.06395327890674764,"8":0.04133934601222828,"9":0.10435292984096267,"10":-0.04097263358704907,"11":0.061821206931340925,"12":0.029702224098775983,"13":0.03658145172998199,"14":-0.02663664513057767,"15":-0.056092062257123744,"16":0.03410015431790583,"17":0.09976188880844783,"18":-0.04824862355580502,"19":-0.0392669626171901,"20":0.03017552757987911,"21":-0.055749827985526045,"22":-0.0005459842362768178,"23":-0.011973728916122748,"24":-0.029063423734454426,"25":0.01216286008328452,"26":-0.10245593383039193,"27":0.035573991249910036,"28":-0.07271437717556006,"29":-0.07079090986896384,"30":0.05387297232237695,"31":-0.22626045103448436,"32":0.01578125115227996,"33":0.08446277352227528,"34":-0.09763740444958662,"35":0.07548025553126136,"36":0.05258953535208724,"37":0.03738919426563298,"38":0.018393760572642862,"39":0.05080231042371644,"40":-0.016701357437580385,"41":-0.13236958859924747,"42":-0.11904521674774694,"43":0.0845803011359102,"44":-0.1389382979354228,"45":0.0965861979778531,"46":0.07539357589450907,"47":0.06712540293191047,"48":-0.0241893567011272,"49":-0.06032374637642073,"50":0.08010767205700851,"51":0.02711001322382753,"52":0.12162374723620786,"53":0.06705375456213294,"54":-0.01639127876504537,"55":-0.04122632896646001,"56":0.0936248804677423,"57":0.11470052601286591,"58":0.041908436063327975,"59":0.01705020464971883,"60":-0.06009204676518944,"61":0.03636457818411296,"62":-0.11636587376612635,"63":0.04296756775469538,"64":0.032057394914776445,"65":-0.13670561464615866,"66":0.037713354805688555,"67":-0.03152779541005636,"68":0.0631193569008761,"69":-0.023936198504006693,"70":-0.04348351234310897,"71":-0.036324497139300915,"72":-0.08435374127698125,"73":0.03769906535556303,"74":0.01332419981516734,"75":0.0296413031697738,"76":0.012086929450259637,"77":0.04771115457239797,"78":-0.08909690299083273,"79":-0.06071978724827615,"80":-0.06978834620651861,"81":0.05823096313854866,"82":-0.013073091315706387,"83":0.06985291357057334,"84":-0.0059629196893028515,"85":0.12084837800434807,"86":0.06850991568856726,"87":-0.0328971275233354,"88":0.07121984115464737,"89":-0.0068783631840340555,"90":-0.11203501870614026,"91":0.1450667924835403,"92":-0.11906739712281735,"93":0.03319685646522815,"94":0.02056479139468244,"95":0.06522638248638436,"96":-0.046630600065229455,"97":-0.06898442461903753,"98":-0.16908274923449804,"99":0.012687284224176275,"100":-0.10252668874490423,"101":0.03658809756334304,"102":-0.0062693899704434715,"103":0.014665118099107506,"104":0.0013816958823191917,"105":0.16401610348555026,"106":0.06574994364177526,"107":0.011607548168831607,"108":-0.1054700090722539,"109":0.016119042077422815,"110":-0.010981114858761765,"111":-0.020669373761491958,"112":0.17062160118129796,"113":-0.02321625113288425,"114":0.1098537358103107,"115":0.049122566981391155,"116":-0.03098639998374328,"117":0.033327991126956606,"118":0.14317328872248417,"119":0.009395169415880778,"120":0.23009235312693352,"121":-0.010827839543159443,"122":0.05635714972472917,"123":0.11419985959880054,"124":-0.03177996533702,"125":-0.08421905751247949,"126":-0.01528466710179776,"127":-0.004292356024179051,"128":-0.12983034226156603,"129":-0.06041023827258122,"130":-0.05219792487110449,"131":0.03566712717315619,"132":-0.04597098655867265,"133":-0.009680561939507882,"134":-0.044173259843937294,"135":0.014952280706044466,"136":-0.07360175024089295,"137":-0.07444975502403023,"138":0.011186802572541094,"139":-0.03843881837791593,"140":-0.03134532668283507,"141":-0.004388494957213344,"142":-0.12948529125153163,"143":0.0831391889755954,"144":-0.002123520237381152,"145":-0.008118818123012761,"146":0.039591186464364714,"147":0.06649529719091485,"148":-0.1348451072505664,"149":0.039869990772129715,"150":-0.017462954561375903,"151":-0.0031275364287458355,"152":0.005175497118863611,"153":-0.03471940587619291,"154":0.0852097697556301,"155":0.05807615829612176,"156":0.0663956788801534,"157":0.008215114165073291,"158":-0.034965875042427354,"159":-0.0014399961763498937,"160":0.03159328642283941,"161":0.09040210739572321,"162":0.043860149715413375,"163":0.03112300352408709,"164":0.01716559209701647,"165":0.17064633924550224,"166":-0.04681707501693267,"167":-0.048694796830571964,"168":-0.06906385149484642,"169":0.10273795981067402,"170":0.13289915817498923,"171":-0.023841378129761955,"172":-0.06826453673769795,"173":-0.12519945384078357,"174":-0.016137944490254137,"175":-0.014100039173795157,"176":0.04888299227848787,"177":-0.037359376228808014,"178":-0.03734287104880736,"179":-0.0408423305954481}},{"sx":1,"sy":1,"depth":180,"w":{"0":-0.1365044916268367,"1":0.07420767809320598,"2":-0.1815522617089358,"3":-0.09656551392258145,"4":0.028764028307270175,"5":0.00900026122878007,"6":0.02537683735911548,"7":0.07410799232489479,"8":-0.014066775813469764,"9":-0.07010923059748263,"10":-0.022455988248118383,"11":0.119646227991116,"12":-0.040146375938112606,"13":0.04890469604548889,"14":-0.05953368805539746,"15":-0.0005835336224778204,"16":0.00027351232717029965,"17":-0.049654351723774415,"18":0.016095447890358286,"19":-0.06906506266051507,"20":-0.08400935815858042,"21":-0.11527433300101925,"22":-0.019947274954309188,"23":-0.028446715568804286,"24":-0.020129193035061048,"25":-0.02348912080286222,"26":-0.004752005633004572,"27":-0.11165297828758379,"28":0.041708571271755084,"29":-0.029774166816375885,"30":-0.03400357025551848,"31":-0.23057524150342648,"32":-0.026357694675320557,"33":-0.08055839862114358,"34":0.15207284876629729,"35":-0.008171409010542332,"36":-0.09706298232877283,"37":0.015898726901137524,"38":-0.020927581847121075,"39":0.014668122291106643,"40":0.08838992324315445,"41":-0.09395523754799204,"42":-0.032261360401517954,"43":0.011454299135594032,"44":-0.025561210833544106,"45":-0.0896506298033595,"46":0.022298075015380923,"47":-0.10028751406971169,"48":-0.052745958755812845,"49":-0.045780225658887355,"50":-0.05501540859993478,"51":-0.10640340222129714,"52":-0.007768255238082982,"53":-0.05827535190444828,"54":-0.01246030978157482,"55":-0.02934128698326687,"56":-0.004844160721744316,"57":0.06565922307917857,"58":-0.008632110149559828,"59":0.04427193837735734,"60":-0.03534641977627919,"61":0.062027712155808996,"62":-0.03277411982132159,"63":-0.08736593896937951,"64":-0.04269583244697106,"65":-0.04335286519864836,"66":0.011790415808790923,"67":0.11742827077906082,"68":0.1781766333312953,"69":0.0018263369118162846,"70":-0.05405778741836873,"71":0.0009711877718949924,"72":0.08506156787818402,"73":-0.13684163288517734,"74":0.10379004597732264,"75":-0.10376731005602059,"76":0.02173585177877552,"77":-0.10918109894246768,"78":0.0027615699442932805,"79":-0.11946443507805247,"80":0.18370793443043248,"81":0.026991663114786225,"82":0.09432971640724377,"83":-0.07344094669030954,"84":-0.040081045595469884,"85":0.0015441504701519519,"86":-0.05365020262228243,"87":0.05554184271394558,"88":0.06655293168187439,"89":0.022536639569320175,"90":0.0468302691770917,"91":0.03927263425157157,"92":-0.025085597889416486,"93":0.03223436599176097,"94":-0.012797651247337033,"95":0.10862390229325318,"96":-0.16994164712291407,"97":-0.09123607829384926,"98":-0.044827285143438686,"99":-0.00898893230522519,"100":0.06696179005591424,"101":-0.15468445156799351,"102":0.03074237577011345,"103":-0.04388379334693934,"104":-0.01698145702547575,"105":0.05856782438066777,"106":-0.08067357503275924,"107":-0.06245877578016722,"108":0.11820388061877077,"109":-0.03245127957691755,"110":-0.01796245338573305,"111":0.022803347248956482,"112":-0.03913164144820546,"113":0.02626439695993189,"114":-0.18529537071435034,"115":0.00781393039101976,"116":0.015486920553929563,"117":0.03852611638706187,"118":0.005487198595009024,"119":0.07440110344272452,"120":0.009687882440252397,"121":-0.08111858212875754,"122":0.06083626665420654,"123":0.10355887181377507,"124":-0.022074160559851553,"125":-0.0935921909240458,"126":0.07857521031233858,"127":0.043987038973941184,"128":0.012564002917389856,"129":0.15024613369447667,"130":-0.033349211111306634,"131":0.046757056381509385,"132":0.06808433026888772,"133":-0.014125172480845678,"134":0.04545354381887552,"135":0.068298923719503,"136":-0.0616615796351275,"137":0.077075821495626,"138":-0.021266049226724582,"139":0.06729143258847943,"140":0.04611748685162813,"141":0.033427046590345885,"142":-0.028882440202343995,"143":0.05126400377305474,"144":-0.08612439747283805,"145":0.008962997078471256,"146":-0.038606610026588745,"147":-0.08310839281836556,"148":0.13533186345705214,"149":0.04036133978453882,"150":0.024588972862586905,"151":0.07409372041014362,"152":-0.03741917702572393,"153":0.02334915779203462,"154":-0.07666064650736817,"155":-0.00717692920546502,"156":0.024663178868008097,"157":-0.029210585033165516,"158":-0.08392633646458166,"159":0.022387202369411868,"160":0.04895360339778443,"161":0.020617280517721354,"162":0.16445902336109466,"163":0.08972957781190763,"164":0.07338502480650963,"165":-0.03053406501563482,"166":0.13191983335719118,"167":0.07771060118926311,"168":0.020888660791238613,"169":0.022968471475793537,"170":-0.0102470059060292,"171":0.05968427921910649,"172":0.15105788968267395,"173":0.0025095463660925357,"174":-0.012539009025320886,"175":-0.0038090142170700402,"176":-0.019854323916919846,"177":0.11275030071411841,"178":-0.059676940739529956,"179":-0.050821962972600034}},{"sx":1,"sy":1,"depth":180,"w":{"0":-0.005470368710930172,"1":0.10660263476272644,"2":0.06225589484926665,"3":-0.04225471209710008,"4":0.06842752374999748,"5":0.0944315237473237,"6":0.05631206197856441,"7":0.09442789850811412,"8":-0.0457017405474924,"9":0.12325841196691392,"10":-0.12533845701723517,"11":0.041759936847044925,"12":-0.007307254005236205,"13":0.06472034027450585,"14":-0.08542307311472509,"15":0.1296342318309664,"16":0.07492249331491596,"17":-0.041557859003175324,"18":0.062067446986228896,"19":-0.061144963403362874,"20":-0.017527661694732584,"21":0.0378669615842737,"22":-0.05694299467011755,"23":-0.08303126306835547,"24":-0.026689969446930775,"25":0.11324152384143532,"26":0.01319870856745789,"27":0.02736181987354548,"28":0.035463938982233975,"29":0.08079638709785147,"30":-0.05087246020081332,"31":0.007879278150013859,"32":0.17805746135507436,"33":0.15826828243836305,"34":-0.0228928461078571,"35":-0.16580765965536687,"36":0.05527216034090938,"37":-0.05657123058914877,"38":0.021337509003271783,"39":0.13222560761472263,"40":-0.06102366232697426,"41":-0.08614013553861577,"42":0.013698909516847475,"43":0.13472998003030515,"44":0.03320815242089227,"45":0.06085412509603203,"46":-0.0513436910517164,"47":-0.06514344695939897,"48":-0.09938721147594995,"49":0.00594433201434809,"50":0.055680590592099496,"51":0.03670186200837861,"52":0.002772481533661482,"53":-0.1541735569412921,"54":-0.01739458342582612,"55":0.03439749602634155,"56":-0.10756232484131174,"57":0.016061256971202333,"58":0.01120092004277365,"59":-0.008866819688850423,"60":0.012679431975450847,"61":0.04923615498852545,"62":-0.030191908577330277,"63":0.015859550038131724,"64":0.031421773959634955,"65":-0.10614338771299331,"66":-0.02173530526548172,"67":0.045001270021822054,"68":0.03276056170153873,"69":0.053586027808866225,"70":-0.0314817924574532,"71":0.19957714289072767,"72":0.030906897171548455,"73":-0.03970396736339612,"74":0.04138468009754639,"75":-0.04961582170035534,"76":0.000893645901948093,"77":-0.08743656731376812,"78":-0.026590860691891163,"79":0.09247909688174988,"80":-0.0020903546564560635,"81":-0.06449786348002591,"82":0.05236127290628497,"83":0.01522871864896216,"84":-0.03703749080427991,"85":0.07582309977287807,"86":-0.0021613606171002214,"87":0.015171460482027934,"88":-0.04363005816200655,"89":0.003741029940803501,"90":0.09556894256207153,"91":0.03338202320851404,"92":-0.13126134705647957,"93":0.026975010096154002,"94":-0.00896666245675753,"95":0.03428386881428145,"96":0.08934541500770295,"97":-0.05975874678366472,"98":-0.06426034655410012,"99":-0.04337784674839217,"100":-0.010539512090032614,"101":0.0698979170125454,"102":0.05770770230402741,"103":-0.0008738894828556241,"104":-0.11484345276702981,"105":0.025828399731562215,"106":0.1558644046795624,"107":0.10143424757360908,"108":0.09581597292946599,"109":-0.02163481190757139,"110":-0.06129410175006762,"111":0.03126853354820562,"112":0.051018295590701916,"113":-0.007994347294378621,"114":0.012389446850698458,"115":0.11200287503168412,"116":0.020467970518889423,"117":0.04890854260914871,"118":0.03192583119693504,"119":-0.109168977647988,"120":0.012794440221149337,"121":-0.0575199026454199,"122":0.08396854848409543,"123":-0.036042916683736756,"124":0.051641702769068376,"125":-0.10643681887874351,"126":0.06337710875812529,"127":-0.012995042363105383,"128":-0.047349544170120786,"129":0.04701476284571881,"130":0.04457528303612291,"131":0.0353795790507064,"132":-0.07539091283530604,"133":-0.02993465153449118,"134":0.03946236259772235,"135":0.053090772150220025,"136":0.04047560090550376,"137":-0.13033024873602736,"138":0.019864680633566154,"139":-0.06440632138313425,"140":-0.10567024249925025,"141":-0.07087068933106724,"142":0.022718785695644787,"143":0.0066140196867408565,"144":-0.11360926131299111,"145":-0.06344250698862702,"146":-0.09991850849561859,"147":0.0583840790507125,"148":0.047632014644031814,"149":-0.1086429713463317,"150":-0.05023260892802027,"151":0.1852817227193117,"152":0.0028709124976072074,"153":0.010937374287765103,"154":-0.07634377278093818,"155":0.04158672758903441,"156":-0.10453223960878803,"157":0.06893638845968149,"158":-0.15590671790556734,"159":0.021083386223118974,"160":-0.002583374995753632,"161":-0.05103708663025396,"162":0.03515678710159051,"163":0.07821715622608637,"164":0.007137047300579822,"165":0.07290622559315948,"166":-0.0046408218219271226,"167":-0.12550772647249292,"168":0.07408537839675843,"169":0.0958437977007874,"170":-0.06580673103923916,"171":0.13547759550896052,"172":0.059317652486646937,"173":0.010977848715946866,"174":-0.04195827484372966,"175":-0.0969907900550818,"176":-0.08117454142874646,"177":-0.07237870645352583,"178":0.00037488994041622205,"179":0.024359353707620948}},{"sx":1,"sy":1,"depth":180,"w":{"0":0.011113123172748233,"1":0.08974964023068767,"2":0.0873236729960453,"3":-0.05632627837239795,"4":0.011562135825943483,"5":-0.07226895102643174,"6":0.0051558401394309625,"7":0.011414949073071449,"8":0.06268257625270107,"9":0.13829837687357618,"10":-0.10694387530196728,"11":0.013506719761775806,"12":-0.028367210637377304,"13":-0.012769647514613217,"14":0.02801962200649581,"15":0.030121384707480818,"16":-0.0458549232203324,"17":-0.015123174706749854,"18":-0.12026155056803163,"19":-0.022033214051283032,"20":-0.07162695175523565,"21":-0.08380002919990501,"22":0.007221820752499029,"23":-0.11169479390262288,"24":-0.046447643415432255,"25":0.022829253551157565,"26":-0.013852301275685356,"27":-0.047944896980641104,"28":0.054780283483159636,"29":-0.04071947775572272,"30":0.016680497519756456,"31":0.07643866105025242,"32":0.024043495548968872,"33":0.023329989969819803,"34":-0.029595291555644804,"35":-0.0035896969724976534,"36":-0.0775518794717931,"37":0.007971216437356418,"38":-0.0080590026907098,"39":-0.065672318385923,"40":0.07806744172914723,"41":0.10923270569164155,"42":-0.16631218251683236,"43":-0.0020120993053050064,"44":-0.0414855490005713,"45":-0.10929595246991376,"46":0.050123455718694795,"47":0.009878785642101894,"48":0.0142982268756879,"49":-0.0103036483499999,"50":-0.08367048386462825,"51":-0.03236511070043142,"52":0.042799401474582124,"53":0.07506220323733183,"54":-0.0011827249672987422,"55":-0.007267062743357869,"56":0.10967662713718287,"57":0.025749594774954965,"58":-0.14756926270046924,"59":0.18129803673896086,"60":0.06356999731922632,"61":0.04257604848729628,"62":0.028334770850659406,"63":-0.02853182767421816,"64":-0.0843146194121666,"65":0.044642471152185434,"66":0.12098339015438068,"67":-0.044418857781891426,"68":0.031867900607973385,"69":-0.15260497849905746,"70":0.008700033341400364,"71":0.056590530422838875,"72":-0.005224809751676007,"73":-0.25622821739700496,"74":-0.05458108354024672,"75":-0.04085964389727631,"76":0.006640223416621297,"77":0.09298103730093747,"78":0.010571612512838415,"79":0.04174456075474379,"80":0.003345512922015467,"81":-0.024481787022310016,"82":0.08266281542102974,"83":-0.04126798155377199,"84":0.046681606910186434,"85":0.21516010204218006,"86":-0.022824663464110485,"87":0.12016327210481698,"88":-0.041920939162523874,"89":-0.08309049218457712,"90":0.025513411075978175,"91":-0.02825202979733304,"92":0.09578032074722215,"93":0.09381543079447983,"94":0.08118309989552454,"95":0.06515438544624973,"96":0.06618948314297254,"97":0.1161169703125392,"98":0.04156317620526921,"99":0.07176832524426713,"100":-0.10006373350229177,"101":0.0030079603641004152,"102":-0.03266217562879879,"103":0.06621621686702783,"104":0.08845719684304132,"105":0.06829707170877523,"106":0.0297520146803375,"107":0.029660836666031608,"108":0.1184386436757851,"109":0.05968538442163729,"110":-0.19169686594812405,"111":0.07651165751696044,"112":0.08815206367698543,"113":0.003704586759972194,"114":-0.09959032397514724,"115":-0.01940804183265755,"116":0.026983202176794955,"117":-0.03181424408493657,"118":0.044562547718050585,"119":-0.016076117375626826,"120":0.08430633416906615,"121":-0.0011407671319125109,"122":-0.09193425509566185,"123":-0.06845791647841841,"124":0.06283611795312422,"125":-0.020515249011975507,"126":-0.07743095500545939,"127":0.049628829334438906,"128":-0.04879381244798834,"129":0.06143057830699399,"130":-0.04571191409262541,"131":0.021381285073140133,"132":0.10125974236881988,"133":0.020341771373536034,"134":-0.007489387456984258,"135":0.0009689525827843166,"136":0.015477943628060804,"137":0.018439925968524867,"138":0.0007674107472301459,"139":-0.03431711372207055,"140":0.07610170480402731,"141":-0.03383103268856103,"142":-0.03388748852984837,"143":0.09456195245593639,"144":0.1070694649487855,"145":0.011432237640129362,"146":-0.007327351831605769,"147":-0.08111717987444333,"148":0.09736225879716844,"149":-0.051879834484942926,"150":0.11524622414958266,"151":-0.058463905065366154,"152":-0.01246461129315719,"153":0.023198968003475758,"154":-0.04187175411284681,"155":0.1223913930147248,"156":0.06286530543149264,"157":0.029611173839048547,"158":0.06302708459614208,"159":-0.09757792569973806,"160":0.04598221022274718,"161":0.018281124122266217,"162":-0.059348701445665564,"163":0.13538213965538273,"164":-0.050366671768324774,"165":0.015548999548621604,"166":-0.03900218042648784,"167":0.06586755016721921,"168":-0.05940797835596149,"169":-0.2244111974276864,"170":-0.06430888016557271,"171":-0.03992051340595601,"172":0.032878056780909194,"173":-0.1544808653985473,"174":0.12742502581449605,"175":-0.1028584481011257,"176":0.018073627048037128,"177":0.04613774285314971,"178":0.06935722339960018,"179":-0.10222079561026438}},{"sx":1,"sy":1,"depth":180,"w":{"0":0.004563090470915583,"1":-0.043852563029789876,"2":0.038881708601993824,"3":-0.17619520125202337,"4":-0.011698443420232093,"5":0.03491316975312372,"6":-0.0313906771524256,"7":-0.06588745804912603,"8":-0.015381149840064919,"9":-0.05520364978951092,"10":-0.07396710664417162,"11":0.05590694459861565,"12":0.08671997760432157,"13":0.0727057267696449,"14":0.01534996178009842,"15":0.0396436645040855,"16":0.0562674102223191,"17":0.1258165599277043,"18":0.03558961217810807,"19":-0.056207728630001084,"20":0.03442756343595368,"21":-0.008098805918357847,"22":-0.004033856515599539,"23":-0.04168712595523385,"24":-0.03972430742591696,"25":-0.09377796729794434,"26":0.0023282521485078387,"27":0.06036413572657393,"28":0.01696688649990769,"29":0.042326666715921064,"30":0.03592285953193245,"31":-0.048936992086707945,"32":-0.03374794844566607,"33":-0.032396971004747255,"34":0.13484049629050207,"35":-0.005698818796178837,"36":0.07099376699812529,"37":-0.13585482069843602,"38":0.08439708916586401,"39":0.13091814881519756,"40":0.030146735462565796,"41":-0.0009411293188214298,"42":0.01200755372585229,"43":0.0724367102273084,"44":0.05439813918541088,"45":-0.055052273838563835,"46":0.0322509595601026,"47":0.07933178161324228,"48":-0.044012265170456207,"49":-0.053758591957430234,"50":-0.08240489531044291,"51":-0.04341758786281024,"52":-0.03094584373787665,"53":0.05310291113062387,"54":0.051770380697234004,"55":0.06790418179438597,"56":0.03754148703351691,"57":0.015174330278783985,"58":0.02068474331428113,"59":-0.024743919788774695,"60":-0.030970082048651894,"61":-0.004020165340156391,"62":0.01776956200597322,"63":-0.015946090018125837,"64":0.09693428663216218,"65":0.07001081279020076,"66":-0.08077540337119186,"67":-0.0199306561276004,"68":0.024266885285663557,"69":0.1692000045434011,"70":0.06282982480378707,"71":-0.08337112190620331,"72":-0.029492247710290822,"73":-0.16845850593494155,"74":-0.040073087245033064,"75":0.017901191095701575,"76":-0.04874451729590159,"77":0.02317950265110033,"78":-0.009302513900422244,"79":0.06420102435764213,"80":0.08291770248807467,"81":0.09765838441147195,"82":-0.04258127711002208,"83":0.021783725453473558,"84":0.021240799831740514,"85":0.07017190018464196,"86":0.04938751042194979,"87":-0.059241428963476915,"88":-0.005054615425644859,"89":0.061147498967120475,"90":-0.013847544233971356,"91":-0.12544477841131885,"92":0.048997651519820815,"93":-0.15786040276207036,"94":-0.07752208988172253,"95":0.03253469122997784,"96":-0.007464835466133339,"97":-0.03640726426445432,"98":0.15542118984067746,"99":0.046621337096473425,"100":0.02447360169751902,"101":0.05101513566276421,"102":-0.0013035390526918503,"103":-0.011552861228369092,"104":0.13688310996961994,"105":0.05490274374704261,"106":-0.1273509379078826,"107":-0.1212140182776876,"108":0.07141340256052904,"109":0.004282692531493476,"110":-0.12013423354894781,"111":-0.08950845216281327,"112":0.016115910597752834,"113":-0.016999537910171714,"114":-0.0030013162453343743,"115":0.018492692973754155,"116":-0.07657133911775968,"117":-0.04944625829854524,"118":-0.09096019358684286,"119":0.0677973178359182,"120":-0.07257051737117756,"121":-0.23538834596047237,"122":0.029979052830562535,"123":0.05250946862129557,"124":-0.060635419614636664,"125":0.16212996047442438,"126":0.027976126169118293,"127":-0.04948543385310546,"128":-0.01965207844237626,"129":0.044571115455979436,"130":-0.003994680181436166,"131":0.10456759153391212,"132":0.031207971100987716,"133":0.019911852239825487,"134":-0.031283934070926035,"135":0.07888136691322144,"136":0.04345835158149185,"137":-0.10930819095148733,"138":0.1254784252966336,"139":-0.07676305992627663,"140":0.0888897957778549,"141":-0.06131042578893389,"142":0.014729048157184324,"143":0.07332324511400568,"144":0.09263629857429151,"145":0.04697016825101577,"146":0.024253264593996047,"147":0.014635362503030195,"148":-0.11581048432011017,"149":0.03426071175595437,"150":-0.13548903721358857,"151":-0.0030837389009045627,"152":0.058056815066244764,"153":0.02535213539188253,"154":-0.026841229526624714,"155":-0.0017200378754917995,"156":-0.09753567280952159,"157":-0.07544586207691624,"158":0.060899349128965205,"159":0.10900660282653059,"160":-0.009731001478849362,"161":0.056319511130496096,"162":-0.0917392189862568,"163":0.0015965544232598254,"164":-0.014200490013234372,"165":-0.07694158051552695,"166":0.023934231244539098,"167":0.018994730027127763,"168":0.06430695200911478,"169":-0.08247319935570946,"170":-0.04837625528736697,"171":-0.08431584458882435,"172":-0.03912338757365326,"173":0.061816369221562494,"174":0.0701881758686969,"175":0.042184809340116765,"176":0.18140723500233194,"177":0.08679011694883142,"178":-0.028460401544563998,"179":-0.04171053674340691}},{"sx":1,"sy":1,"depth":180,"w":{"0":0.08270156971126064,"1":0.14853889713588644,"2":-0.09066359024721174,"3":-0.01239476036744958,"4":0.04695220639973846,"5":0.06491734589192995,"6":-0.023013945248873135,"7":0.03915746543152724,"8":0.02071202013159196,"9":0.06304958982606707,"10":0.024091190153108927,"11":0.046988991908117894,"12":-0.011107199936243201,"13":0.07246683556355253,"14":0.009910982285821383,"15":0.016060595468471942,"16":0.09473302360495225,"17":0.1914012214475,"18":-0.011900697156410988,"19":0.041400884275957825,"20":0.029824980506502015,"21":-0.07414568371266943,"22":0.032112812931097745,"23":0.012495624556917233,"24":0.01839949326624868,"25":0.0796937136373949,"26":0.016730630130113954,"27":0.06693159322211935,"28":0.012323964860939828,"29":-0.08053708307052622,"30":-0.010064591653655959,"31":0.2965115515654931,"32":-0.016424738679895644,"33":0.09412846160678634,"34":0.021038561764044294,"35":0.020301713236601956,"36":-0.028073892894697732,"37":-0.09014939113639053,"38":-0.0393649377683409,"39":-0.07852821820576773,"40":-0.1785252629730933,"41":-0.10142172715945141,"42":-0.04272205616330887,"43":-0.12160171560115728,"44":0.014987922721657016,"45":-0.11098603625231705,"46":0.021036357923348944,"47":0.08236364961361801,"48":0.04071782303858202,"49":0.015697690273472502,"50":0.006256192099690427,"51":-0.1142833474405287,"52":0.12738218859620776,"53":-0.09588855909291062,"54":-0.0798839372226826,"55":0.04107612405598243,"56":0.031840950730923336,"57":-0.012540943118419395,"58":0.06292114438818819,"59":-0.08373960078487507,"60":0.059037255460209,"61":0.060608754895925904,"62":0.16793159845255462,"63":-0.13429501456059686,"64":-0.037282876705281624,"65":0.03912308052172959,"66":0.0356130609265525,"67":-0.0220206578360842,"68":0.12727877487651693,"69":-0.013600939707602776,"70":0.13888641335669935,"71":-0.002191539394090205,"72":-0.00978417168352199,"73":0.0023774508785286406,"74":-0.05336680077522474,"75":-0.032285329073085255,"76":-0.01352126929475506,"77":0.05325762400625305,"78":0.020832246297653158,"79":0.022979512691102277,"80":0.03713597405398769,"81":0.049580352774770554,"82":0.01400719844857579,"83":0.10792697809051378,"84":0.030282916043120722,"85":-0.08402898654260545,"86":0.08249240093703615,"87":-0.0045292724421466,"88":0.09324778438786432,"89":0.06678459316964798,"90":-0.053896857547337626,"91":-0.15195084908884376,"92":-0.020617387736597284,"93":0.1200805509501941,"94":0.007179792671148692,"95":-0.019852934996421902,"96":0.04725114954555195,"97":-0.033266021148616966,"98":0.035855138795307065,"99":-0.002774619825132188,"100":-0.07926701156282263,"101":-0.18483591677446648,"102":0.10020284635500896,"103":0.09330915405476686,"104":-0.05782628652318314,"105":0.05316986818317493,"106":0.04552122563625638,"107":0.09949486824860164,"108":-0.11100542684858694,"109":-0.020808490220113995,"110":0.08589660354967275,"111":0.04291587695198978,"112":0.008459476386160777,"113":0.03671078616909478,"114":-0.10376063729328919,"115":0.03158925633019185,"116":0.026461399083095683,"117":-0.015973713878578474,"118":-0.0643737806945406,"119":-0.202476779739371,"120":0.003755857690805075,"121":0.027883689111219603,"122":-0.015353780302518187,"123":0.10287808832320494,"124":-0.07924330087081251,"125":0.0651764744852937,"126":0.04533164600130054,"127":0.0385681244140263,"128":0.02655779979859986,"129":0.045369485280334576,"130":-0.06924965949601848,"131":-0.026469983416159453,"132":-0.06186567438378374,"133":0.021712713091471346,"134":-0.029376170368334245,"135":-0.0652598475832441,"136":-0.09729938420355437,"137":0.09208969851015192,"138":0.06901025942401928,"139":0.2068830733140584,"140":-0.07706667314947793,"141":0.12183536837498332,"142":-0.08822871772889111,"143":0.03267981206183748,"144":0.044359927341512194,"145":0.05239255417444049,"146":0.09945457154841099,"147":0.07486104879770145,"148":0.06412630961878714,"149":-0.01208896494772459,"150":0.10971697945003399,"151":-0.016507301702710676,"152":0.06562127510532431,"153":0.007176653873843819,"154":-0.0005958838658061263,"155":0.12638802905729116,"156":0.016920207141542562,"157":-0.016303563470727037,"158":0.05912241574180187,"159":-0.07819789621775779,"160":0.05090355413984678,"161":-0.012426384831646958,"162":-0.07976616399788648,"163":-0.04293493442131856,"164":0.06945983237065888,"165":0.13494887426517763,"166":-0.07404826464021164,"167":0.09466287291525223,"168":-0.0005810679545601785,"169":0.06495013085024788,"170":-0.008801445487193766,"171":0.035303079497962526,"172":-0.05672710102888924,"173":-0.029410157541976418,"174":-0.04988070165604626,"175":0.04030149310181473,"176":-0.0007850281413948956,"177":0.07567304960240645,"178":0.0950381292008295,"179":0.0029354406024059425}},{"sx":1,"sy":1,"depth":180,"w":{"0":-0.0951043462598053,"1":-0.20579945155086957,"2":-0.018564366441132112,"3":-0.10065702554973766,"4":-0.03937480358009633,"5":0.13466610556866576,"6":0.0020783017763883415,"7":0.09164677020491255,"8":0.05770983924570133,"9":0.13429893246877672,"10":0.015452339571356081,"11":-0.021632426565053462,"12":-0.022143396350290265,"13":0.03859096628169705,"14":0.04495289183597516,"15":-0.04395578315186031,"16":-0.0317541235339575,"17":0.02051926190709916,"18":0.006891228677037741,"19":-0.03792248085177902,"20":-0.09963889235362491,"21":0.02215131398528403,"22":-0.05131323321444989,"23":-0.035067446439233624,"24":-0.014493865385758415,"25":0.0009862202814718132,"26":0.030014385607080904,"27":0.006923481856111456,"28":-0.19083356066519677,"29":-0.04040756496708672,"30":0.021528863250070307,"31":0.000730741013372308,"32":0.10553200964770966,"33":-0.12315242358709558,"34":0.07266963195697604,"35":-0.033000280691575505,"36":-0.08880972833673333,"37":-0.04315822236839184,"38":0.039094533186890275,"39":-0.05170906572578539,"40":-0.030339073288031843,"41":0.07826208204709857,"42":-0.006138202044818322,"43":0.09044214990275018,"44":0.15921866840292836,"45":0.005802934034921729,"46":0.06567493521751766,"47":-0.04668043436154822,"48":-0.06421430882832804,"49":0.10530545450330511,"50":0.01694353252265523,"51":-0.027700105006508085,"52":0.01908091916741807,"53":0.04712251868590949,"54":-0.002956926667552284,"55":-0.08023645871485101,"56":0.09982969615759908,"57":-0.022177497811915498,"58":0.11956589493924183,"59":-0.07392991144112204,"60":0.08489047494885754,"61":0.0830209994777692,"62":0.10515783715556973,"63":-0.15683168976987896,"64":-0.14816387507872322,"65":-0.05378426947246647,"66":0.04714942667442431,"67":-0.04049032029689435,"68":0.011922038681620587,"69":0.013185526303402667,"70":0.11273944438703871,"71":0.058657926988905575,"72":0.003065945725717464,"73":-0.046224619771478584,"74":0.009969657970119188,"75":-0.03362388431596573,"76":0.02995637974716514,"77":-0.08216618214318469,"78":0.1962445090516631,"79":0.08237362117780887,"80":-0.03310979235125218,"81":0.013211913785248483,"82":0.03262616789768196,"83":0.06563096366939745,"84":-0.02370032430707945,"85":0.0015862492023868558,"86":0.14638764918392974,"87":-0.17071984752553251,"88":0.00925793722785584,"89":-0.11005893824805368,"90":-0.06817185083448835,"91":-0.14137682104622915,"92":-0.07939569468957916,"93":0.08031358142776461,"94":-0.09368887559619994,"95":0.007104411986595935,"96":0.09124245200508073,"97":0.0013625236220249869,"98":0.0522608450612838,"99":0.06437899111258018,"100":0.03599727177052369,"101":0.06443733095908348,"102":-0.010583446590125509,"103":0.049905859124370705,"104":0.046520405891118916,"105":-0.15973711327450676,"106":0.02750834281237716,"107":0.14676258955438387,"108":-0.026018915951895854,"109":0.031589856682001254,"110":-0.14536658627303262,"111":0.061495511811547124,"112":-0.1521651301365678,"113":-0.2219581799973035,"114":-0.005912205637946437,"115":-0.0628579638781495,"116":-0.07986412924601059,"117":0.02795141114564091,"118":0.0040224678302727135,"119":0.04519837912497823,"120":-0.007226355933220923,"121":0.03453155346716183,"122":0.02473040853180078,"123":0.07894822063419825,"124":-0.10869072021304337,"125":-0.09701487277677404,"126":-0.10572606324118125,"127":-0.03739673068401674,"128":0.050968438715324325,"129":-0.13482980357287633,"130":0.08272968906300235,"131":0.0805071818033559,"132":0.05260389313240209,"133":-0.021992091998809374,"134":-0.0121415066274064,"135":-0.006054577020634441,"136":0.04074153211833474,"137":0.015202005167594736,"138":-0.02775283753897046,"139":0.05836234482680507,"140":0.05522827676415381,"141":-0.12090447137415115,"142":0.13601790360201413,"143":0.019304249271202348,"144":-0.03441109293045195,"145":0.06965510224541491,"146":0.016802411428379634,"147":-0.10389582393385066,"148":-0.0502359678111346,"149":0.0621925766880071,"150":0.012127694157934703,"151":0.017194775968226782,"152":0.03202523478166851,"153":-0.033361850548451734,"154":0.007387276634405142,"155":-0.058077754295453296,"156":-0.024772330397810745,"157":0.00573276020054757,"158":-0.06906150276237236,"159":-0.11012327611600621,"160":0.011074352125839649,"161":-0.026810591819694935,"162":-0.18353154602594535,"163":-0.04059547399962188,"164":-0.11837586031431419,"165":0.0883241985408768,"166":-0.02825252741160219,"167":0.05984503160919262,"168":0.016999749922600407,"169":0.15691450374394728,"170":0.04963961421160979,"171":-0.051298154067013636,"172":-0.16273975904018093,"173":0.10778243257553054,"174":-0.042917626440755606,"175":-0.04597146254870759,"176":-0.0988930916418194,"177":-0.032690069365292174,"178":-0.05364999477574597,"179":-0.03941933211818446}},{"sx":1,"sy":1,"depth":180,"w":{"0":-0.018059080961831633,"1":0.08569882539812884,"2":0.014010828297092045,"3":0.0910392244619139,"4":0.11641163283054531,"5":0.002289709541212471,"6":-0.022454232859798084,"7":-0.05076642343045316,"8":-0.09030464839736464,"9":-0.009596755041715145,"10":0.022699169757724777,"11":0.0698021640220479,"12":-0.05500227687090099,"13":-0.0510480205406012,"14":0.1248459114476496,"15":-0.00892509725770111,"16":0.09870205740852658,"17":-0.004932065290885236,"18":0.060187435942389345,"19":-0.0258210837748786,"20":0.010201076458314298,"21":0.10285154087923237,"22":-0.05164824617136391,"23":0.07662038435471497,"24":0.1375749252048311,"25":0.04769109734007613,"26":-0.1184768364859981,"27":0.06799077620832286,"28":0.011144935535063327,"29":-0.05269918214999864,"30":-0.008574844611094494,"31":0.03757403556838176,"32":0.007831624291611756,"33":-0.014587561695801244,"34":0.041016225784791714,"35":0.03789667431398915,"36":0.01375766378293185,"37":-0.03362412450487741,"38":0.07783967089177844,"39":-0.040241066966397884,"40":-0.07991539495168618,"41":0.029048119187026936,"42":0.04769622775748161,"43":0.07819346146743437,"44":0.09253463285089665,"45":-0.05987998716384013,"46":-0.116959140640581,"47":0.03765633472755477,"48":0.058304951427615985,"49":0.06120580757813221,"50":0.09419976489984193,"51":-0.05502249756718705,"52":-0.01603466877940812,"53":0.012023249093230126,"54":-0.02136598476612984,"55":-0.020407374041837473,"56":0.015706721106288506,"57":-0.0179917403231073,"58":-0.062302643809077296,"59":0.08551691015476534,"60":-0.10560034209522465,"61":0.013961365926579669,"62":-0.01565540601202789,"63":-0.056988508379478844,"64":-0.0639293488848737,"65":-0.0353458999733961,"66":-0.021024961431755203,"67":0.14482121777121534,"68":-0.08283474778571401,"69":0.015768550535098437,"70":-0.0650191249945062,"71":-0.025319271433220346,"72":0.03775939529572983,"73":0.10208687313451113,"74":-0.011195944318245101,"75":-0.08181109938283537,"76":0.17690570544608325,"77":-0.10654636832325436,"78":0.10942118145421909,"79":-0.017524008805850894,"80":-0.011093331369481919,"81":0.03797097960503358,"82":0.028366179912991913,"83":-0.19101119926221732,"84":-0.0649653360627248,"85":0.17214091496499007,"86":0.07396326907143347,"87":0.12432245464660707,"88":-0.014427380448195684,"89":-0.02763025652465589,"90":0.06183064839199254,"91":-0.1563875136652726,"92":0.053446923835330104,"93":0.0213511944704852,"94":0.014338084359069166,"95":0.10305859094050872,"96":0.0671496343086859,"97":0.2632019195009963,"98":0.01398881613133059,"99":0.058596840684209575,"100":0.0795388467347002,"101":0.08428944076513432,"102":0.24811177928036116,"103":-0.1569134599934245,"104":-0.0796585687221737,"105":-0.027806007247812736,"106":-0.10864279754036665,"107":0.03521810749626132,"108":-0.02097382023762092,"109":0.03277107397577009,"110":-0.044116180822311966,"111":-0.1008467812407081,"112":-0.06363967250473536,"113":0.0024802909277511728,"114":-0.08655622960665793,"115":-0.020831237748982764,"116":0.14701600574338558,"117":0.024682858422813123,"118":0.03916442269692195,"119":-0.0880932121647398,"120":-0.0034232082697473417,"121":0.04671441441356866,"122":0.0030741634201911345,"123":-0.003912424090030614,"124":0.0636257251945436,"125":0.12936932929463402,"126":0.07201696792500382,"127":-0.010680679460317177,"128":-0.025080809658215217,"129":0.06259845676493715,"130":-0.020112863771288538,"131":-0.07130545789091003,"132":0.14540571335133654,"133":0.017273719780080667,"134":0.019093635266654547,"135":-0.08181503191445838,"136":-0.005573037086438758,"137":-0.023791757790784688,"138":-0.02878235821555941,"139":-0.012537897339165792,"140":-0.09309226959242939,"141":-0.02466659493286138,"142":-0.04488929401032511,"143":-0.02510599225253065,"144":0.01224221326591166,"145":0.03600244744413951,"146":-0.10887821715747847,"147":0.03664407322061813,"148":0.05884346369274587,"149":0.07136696486488671,"150":0.0362160752500298,"151":-0.042404627144683925,"152":0.019434771281350897,"153":-0.05796265748139733,"154":-0.04470076253508783,"155":-0.11467396745660634,"156":-0.010521581355370659,"157":-0.04722094147535722,"158":-0.01724396647676635,"159":-0.06257054319883679,"160":-0.02622801457332257,"161":-0.001470112874135941,"162":0.07502196737840079,"163":-0.0494730215563738,"164":-0.07716260055843126,"165":-0.09648674509312788,"166":-0.07074636294935532,"167":-0.015531788179644665,"168":0.004343004454829819,"169":0.04652631028367239,"170":-0.0015406355474992806,"171":-0.026361270481695554,"172":-0.04381616657908823,"173":-0.18767861286702148,"174":-0.07356254544511512,"175":0.011979423292745761,"176":0.040625022400759866,"177":0.00021864856244235977,"178":-0.08902395146320682,"179":0.1038857893856995}},{"sx":1,"sy":1,"depth":180,"w":{"0":-0.02877221215995222,"1":0.01462240527122547,"2":0.11733200430917252,"3":0.02005687018946628,"4":0.15353425862080267,"5":0.0633446848216807,"6":-0.03209894894759026,"7":0.11247227145825683,"8":-0.012255523297693643,"9":-0.024944218222203406,"10":-0.10515115572301392,"11":0.026833673924506696,"12":0.006473297964235402,"13":0.016227232690527334,"14":-0.040477131444445424,"15":-0.09008100819648576,"16":-0.03516610734585492,"17":-0.0751573059419798,"18":0.04284097134521419,"19":-0.061108602090747186,"20":-0.1298692817668154,"21":0.004812392196646215,"22":0.10486155475358314,"23":-0.051714524227823556,"24":-0.026656693648277708,"25":0.048978750771204886,"26":-0.13121982598336543,"27":-0.034753645873649514,"28":-0.04728625737768685,"29":0.019327399200666954,"30":0.048215051474753565,"31":-0.1309775483865439,"32":-0.11345248361444231,"33":0.1147763448915964,"34":-0.0019038606399007932,"35":-0.009171293159315344,"36":0.017713241114829734,"37":-0.05912034236954009,"38":-0.10925403697691825,"39":0.07260298673575946,"40":0.03300731538176879,"41":-0.021237683503448977,"42":-0.006160674541556136,"43":-0.07132027575575405,"44":-0.06078677973369119,"45":0.01035092265219333,"46":0.13537012968737935,"47":-0.03671274498364043,"48":-0.054062421133536924,"49":0.10136989747616919,"50":-0.08460835092382922,"51":0.060520740613592756,"52":0.010343607489187081,"53":-0.027963397483034492,"54":-0.03811705760402697,"55":0.08869911663826209,"56":-0.009540367737607485,"57":0.04514778682680317,"58":-0.1688070437835232,"59":-0.023983132884518418,"60":-0.012097074530090186,"61":0.05309758255551058,"62":0.10791957018904773,"63":0.019079974901935658,"64":0.10368068513967747,"65":-0.15872902893453875,"66":0.09198111328430465,"67":0.02507672442460609,"68":-0.08672430542101266,"69":-0.0768231035578617,"70":0.07080014320673857,"71":-0.08802235355259892,"72":-0.10018470297794513,"73":-0.04768521950867003,"74":0.061080421274264086,"75":0.01729046513147953,"76":-0.1945781893637369,"77":-0.07620509016119938,"78":-0.08946315630763335,"79":-0.030477248200522937,"80":0.03503343401333693,"81":-0.03649296479881314,"82":0.11971120614594453,"83":-0.04754694507998398,"84":0.10218131222028949,"85":0.164230231386832,"86":0.1413442055859886,"87":-0.06529495152063046,"88":0.10136909752807194,"89":-0.043359898518658874,"90":0.012274727223309695,"91":0.1646694494980557,"92":0.013731247474853828,"93":-0.08749234108713566,"94":-0.054747298355724255,"95":0.11681935727720542,"96":-0.12201497831948398,"97":-0.0850626787183246,"98":-0.013888063473761193,"99":-0.007752126983783768,"100":0.011513041552466649,"101":0.015452957789292555,"102":0.060712182642463496,"103":-0.04290081196229878,"104":0.04799990704900524,"105":-0.08700618531155166,"106":0.028774096138836115,"107":-0.064886169162673,"108":0.0836540366198466,"109":-0.11670042184733097,"110":0.026590151539697304,"111":0.030750695412729623,"112":0.07040429697826286,"113":0.04904462695445862,"114":0.03970961365688979,"115":0.11955179257930146,"116":-0.02540174031173417,"117":-0.027227579446381756,"118":-0.04130841648370491,"119":0.08398754875144486,"120":0.03907694501428481,"121":-0.07477457605429691,"122":-0.01905264315649351,"123":0.024850573835344045,"124":-0.07617889173491574,"125":-0.036445838286929766,"126":-0.051077993405675856,"127":0.004335477464359818,"128":-0.1510212898365047,"129":-0.08566340431764571,"130":0.08892222407029732,"131":0.0029923554132205727,"132":-0.025912181000288123,"133":-0.05376733148260789,"134":0.03656328150182461,"135":0.0667981864256833,"136":-0.051066448481632984,"137":0.10676403660673829,"138":-0.11422608840499297,"139":0.13466806745884008,"140":-0.0892341944307537,"141":0.051757295632967444,"142":-0.053655574875775325,"143":-0.052082755518699626,"144":-0.165868270477373,"145":-0.01996419625229246,"146":0.07053113286293139,"147":0.02486777222568502,"148":0.05405617164537034,"149":0.06663489629627,"150":-0.12353175875415844,"151":0.07823927846564034,"152":0.1869358182915672,"153":-0.002425650498696188,"154":0.17039535363548153,"155":-0.020540347497068408,"156":-0.016936100886695286,"157":-0.05013537969932683,"158":0.08969152061084198,"159":0.09516627359099165,"160":0.11294499077114316,"161":-0.1050186061075557,"162":0.05493970292196255,"163":-0.0946209077274028,"164":-0.045040116861736076,"165":-0.03827473988769597,"166":0.037831675152379216,"167":-0.047274550907523354,"168":-0.06933529478764398,"169":0.03821418575302028,"170":-0.029678578109532432,"171":-0.00411549422934833,"172":0.07788853418827373,"173":0.03677711848125805,"174":0.017446271493125817,"175":0.19652723509640424,"176":-0.003102504063857168,"177":0.1674441618167604,"178":0.024216429480447235,"179":0.01656036150103702}},{"sx":1,"sy":1,"depth":180,"w":{"0":0.0021980323128208174,"1":0.10450459484724367,"2":-0.04096673550336417,"3":-0.0934774373113193,"4":-0.10968315520051995,"5":-0.09987652015689935,"6":-0.05284564136262596,"7":-0.07844312486158164,"8":0.1182358953814359,"9":-0.10589639221546394,"10":-0.0669206930169454,"11":0.007391861958192264,"12":-0.11479675831147602,"13":0.0013453411591985236,"14":-0.04165706863717103,"15":0.0049324488344437084,"16":0.008995488994162588,"17":-0.1922573455305205,"18":0.049887006600399054,"19":-0.13126760629195178,"20":0.1035887221325133,"21":0.0984008429928918,"22":0.015482502086541556,"23":0.05246541048341871,"24":0.007718120535530125,"25":-0.026913989738837123,"26":0.008177566514349753,"27":-0.0014067290574058331,"28":0.01507843160975806,"29":-0.015388569454503176,"30":0.022623230808029197,"31":0.12033717225233809,"32":-0.018944530737919907,"33":-0.03489173543834594,"34":0.04109361349812281,"35":-0.057638604680045905,"36":0.04933022473131887,"37":0.010551020668107853,"38":-0.02312976317752562,"39":-0.06378228739552501,"40":0.00384442645638804,"41":-0.022975219997831007,"42":0.02015530191343065,"43":-0.05152401892108058,"44":0.06667876733040937,"45":-0.08964335925627717,"46":-0.08912142880263765,"47":-0.05352535302068815,"48":0.09377915761947744,"49":0.03425925357004257,"50":-0.1107104853678111,"51":-0.012377432922079483,"52":-0.08129798107345518,"53":-0.016266305981272926,"54":0.07472718945172978,"55":0.03583913801688159,"56":-0.0409319215266511,"57":0.014857701913606644,"58":0.10429605613158331,"59":-0.08561976870904857,"60":0.04251674754958045,"61":-0.034493765015448215,"62":0.11169884864723095,"63":0.008843094523861087,"64":-0.02141561040610225,"65":-0.13341689380653124,"66":-0.020647115504387675,"67":0.06605321962911002,"68":-0.04802951944910886,"69":-0.031073646167994195,"70":-0.01130841107427027,"71":0.004105887711507911,"72":0.0500212056842657,"73":0.13056127405251367,"74":0.022779738122775003,"75":0.08876912437649288,"76":-0.07045660874012273,"77":0.015860058775581908,"78":-0.12438016847759065,"79":-0.11543611632036947,"80":0.003720205509354507,"81":0.02391795030744005,"82":-0.0010591068373112425,"83":0.04074047134840027,"84":0.004875848142194449,"85":0.013632807985667086,"86":0.1496033456600375,"87":-0.007529372209176119,"88":0.052217306492386685,"89":-0.16733612668365974,"90":-0.14559481063834986,"91":0.034508714210056274,"92":0.0708115270065839,"93":-0.12202380530019485,"94":-0.10066366448218592,"95":-0.003234384732197784,"96":0.07411711494072297,"97":-0.01961556425214403,"98":-0.023122219532109235,"99":0.10821021633550722,"100":0.03159127670042618,"101":0.0008348292636188417,"102":-0.061476179554143626,"103":0.08172686603792118,"104":-0.044755772937987,"105":-0.09666023642524148,"106":0.0498190186783532,"107":-0.032922043528720406,"108":0.023655109155485014,"109":0.15659821867509308,"110":0.05472881360547293,"111":-0.010232135848835013,"112":0.035208041575925976,"113":-0.05704769032915111,"114":0.014203880744899491,"115":-0.08293902747867168,"116":0.05063903772766441,"117":0.00447860669316325,"118":-0.08195289287243568,"119":-0.030834111232990097,"120":0.040087181353515904,"121":-0.030655750459283412,"122":0.11503712668040333,"123":0.019054390463616924,"124":0.0276972078508054,"125":-0.1295358872948991,"126":-0.13069087295265402,"127":-0.09997577759777916,"128":0.044422252128973175,"129":-0.08491941813457125,"130":-0.06301315375768023,"131":-0.06587876142360741,"132":-0.052512255133815626,"133":-0.03341715265388453,"134":-0.05432608300248237,"135":-0.015244297828469101,"136":-0.020670905393578395,"137":0.04451736070076157,"138":-0.00047072815330994407,"139":-0.13618764965562624,"140":0.168636537767025,"141":0.0016416735546049067,"142":-0.04890392292768091,"143":0.058963820547565576,"144":-0.060416651171451216,"145":-0.14210871681923892,"146":-0.058941282101699126,"147":-0.01780740995068845,"148":0.005567353668163747,"149":0.07661053363367146,"150":0.17273608332046897,"151":0.01015916355461789,"152":-0.03228202415244036,"153":-0.038585496894062786,"154":-0.10398125826913747,"155":-0.060840442598909555,"156":0.014842276547591075,"157":0.16942454223589762,"158":0.009236237553722281,"159":0.1013279245397171,"160":-0.18812693969615443,"161":-0.024682759945054682,"162":0.04324220372613427,"163":-0.055398384622782904,"164":-0.09061087265156421,"165":-0.03639758076949736,"166":0.12420480478352348,"167":0.024565607059278204,"168":0.0767330515665559,"169":-0.09708670879250317,"170":0.07164115963767068,"171":-0.022918969114547667,"172":-0.034987100299385204,"173":-0.019037669699473635,"174":0.04872783067075787,"175":0.03631489045542532,"176":0.1330618807022623,"177":0.09008109298788264,"178":-0.18099982635402947,"179":-0.12180691697902002}},{"sx":1,"sy":1,"depth":180,"w":{"0":0.03296841292256938,"1":-0.015441308409466833,"2":-0.08818142313710374,"3":0.050046993876342996,"4":-0.07423585834879064,"5":0.020415282285577152,"6":0.025036030506796376,"7":-0.010363523133026098,"8":-0.06199372456469849,"9":0.002459380204901063,"10":0.04971945079714429,"11":-0.07618976241498199,"12":0.04337964506178435,"13":-0.0938814477200554,"14":0.12174424557396148,"15":-0.08170985065017379,"16":-0.04128740357701199,"17":-0.05535267991970003,"18":0.024412891584589883,"19":-0.07496827466313949,"20":-0.03549035380920036,"21":-0.012901618793546265,"22":-0.058662646763207545,"23":-0.011635015072814515,"24":-0.09981990230754727,"25":0.016023298337220434,"26":-0.13059447427088441,"27":0.0889549766126044,"28":0.03710575654031654,"29":-0.09086883974898766,"30":0.060898836164204016,"31":0.017709032775541683,"32":0.014401220570809342,"33":0.009922832420804257,"34":0.1100339303320158,"35":-0.026467572591920677,"36":0.009654791829849442,"37":0.0375557555479106,"38":-0.07251840794631151,"39":0.09282535158310516,"40":0.03647587330617648,"41":0.06718047324885733,"42":-0.004844675672752426,"43":0.03266552417119814,"44":-0.07339289222573249,"45":-0.10849382986510364,"46":0.08490787697057085,"47":-0.0029986716491512237,"48":0.03743100657873537,"49":-0.15629500829422668,"50":-0.08001112879189877,"51":0.08171094326907291,"52":-0.057649402790357455,"53":0.014984795890510013,"54":-0.0028950956694477887,"55":0.15563943268676877,"56":-0.08281478265547595,"57":-0.034675836818381545,"58":0.10611214231093039,"59":-0.08098882493287948,"60":-0.05937670558360206,"61":-0.12750754425716365,"62":-0.045296328618812984,"63":-0.09498657602826649,"64":0.011666430627047938,"65":-0.00662934250988163,"66":0.050944035969480474,"67":-0.036443351631935315,"68":-0.07817655542553173,"69":-0.012367580032043078,"70":0.026411790051519734,"71":-0.017295057440310662,"72":0.20839048528775783,"73":-0.10089223132542155,"74":-0.03061344598252562,"75":0.01002624461367366,"76":-0.036750104557689116,"77":-0.12217739435268139,"78":0.024780078574758644,"79":0.02776074922566089,"80":-0.009940636414866453,"81":-0.03488146892348406,"82":0.08407481123600945,"83":0.01778845729220073,"84":0.18651638770209067,"85":0.05887131634315083,"86":-0.02104092418322104,"87":-0.11694720501151298,"88":0.0057889903083192485,"89":0.15678092710025254,"90":-0.11829238657871376,"91":0.04443887047701108,"92":-0.04961802485519094,"93":-0.012079287740638642,"94":-0.11600338010433597,"95":0.014933609819014922,"96":-0.17036829363446063,"97":0.010609539452340758,"98":0.0527302936157749,"99":-0.0909827743766668,"100":-0.012152833549981309,"101":0.051386358795782766,"102":0.17590726311254487,"103":-0.11143656152677368,"104":0.20536518514561466,"105":-0.08193385729808257,"106":0.0017976440995845482,"107":0.08319650459379348,"108":-0.04690226369780927,"109":0.008063267275684271,"110":0.03386964714852791,"111":-0.08957266998404646,"112":-0.12505655330784854,"113":0.009641125063145257,"114":0.15155194349011938,"115":0.08586111709137152,"116":0.06437587069848841,"117":-0.0010360031011097369,"118":0.032950922703098254,"119":0.013148248111816635,"120":0.06276745442229234,"121":-0.0031134875267668587,"122":0.0742955275834992,"123":-0.008273963785695261,"124":-0.006234704009631494,"125":-0.037728688924440236,"126":0.014907053113606076,"127":-0.05246534986124553,"128":0.09327929199288637,"129":-0.049784412292530576,"130":0.0017688525535026474,"131":-0.12019019896565679,"132":0.07244423258143778,"133":-0.13387744388904346,"134":0.04140228123275296,"135":-0.0496391149051741,"136":0.0005488136545901598,"137":0.0020764914140779245,"138":-0.1648143402252086,"139":0.045508057252257025,"140":0.006233442900633535,"141":0.003188187229677003,"142":0.023363577967954616,"143":-0.0010082063055456977,"144":0.07828320504185611,"145":-0.05591874313764412,"146":-0.05748003800671035,"147":0.05561135959422584,"148":-0.0556174667635209,"149":0.0574270338759574,"150":0.059191092693224985,"151":-0.05348510336280768,"152":-0.0573262822798336,"153":-0.1122252333208141,"154":0.02220627785109089,"155":0.09679685637434968,"156":0.016382677098161963,"157":0.05333016918113081,"158":-0.10938010457668895,"159":-0.0025089985599959772,"160":0.0678509892000673,"161":0.0938548150301228,"162":-0.03321735889668929,"163":0.04715585757928863,"164":-0.017128554263214357,"165":-0.0405279144411743,"166":-0.03031535651226377,"167":-0.06317731600694221,"168":-0.06900768073884411,"169":-0.03296700579984193,"170":0.01842937107820673,"171":0.1524289542858667,"172":-0.02320126086345072,"173":0.06956691565463682,"174":0.161886139266668,"175":0.13282076326974313,"176":-0.017868483040017615,"177":-0.09442136159351115,"178":0.009226164478934751,"179":-0.18582581533102233}},{"sx":1,"sy":1,"depth":180,"w":{"0":0.03827466532389604,"1":0.06026161413882065,"2":0.049098041207070064,"3":0.013234390495522181,"4":0.0572935166128166,"5":-0.06445855184920657,"6":-0.07318655859107216,"7":-0.009861809850454317,"8":0.00413303914424179,"9":-0.012950669875084529,"10":0.02512461761013164,"11":0.06588884696446153,"12":0.040708859913772356,"13":0.11083827241778949,"14":0.00821710633859347,"15":0.0826755491743776,"16":0.005159443448722903,"17":-0.06406861980378217,"18":0.04221954132762733,"19":0.03124131813976064,"20":0.14383901789966666,"21":0.09332229170310394,"22":-0.02702678810274315,"23":-0.05831399698287068,"24":-0.0548912648876425,"25":0.07184122334381862,"26":-0.015291857056283411,"27":-0.04666781128336689,"28":-0.0783505880036758,"29":0.03073046576511492,"30":-0.01858321744013817,"31":0.06950127229639874,"32":-0.004172558241566151,"33":-0.06626652858010267,"34":0.056557252222183475,"35":0.021529835532909603,"36":-0.00887602816453925,"37":0.0563488278509711,"38":-0.05900903763941689,"39":0.04996016026021653,"40":0.05013415645421263,"41":-0.05043765291413442,"42":0.01532305984552486,"43":0.08710089893058959,"44":0.1648844114455124,"45":-0.009157968721155168,"46":0.025040405975758784,"47":-0.06683276392870265,"48":0.08488681549762275,"49":0.07673675380415693,"50":-0.00976791741179246,"51":-0.030003986932911196,"52":0.20485826564539417,"53":0.006800361093182304,"54":0.022923965952237026,"55":-0.03679133100663855,"56":-0.06995552265290875,"57":-0.05737772478421057,"58":-0.05410753275603481,"59":-0.053870193505169764,"60":-0.01901949187436893,"61":0.02879766787444816,"62":0.015181108735591349,"63":0.06592669868196026,"64":0.14904117982622628,"65":0.00488743766141297,"66":0.03688412442355239,"67":-0.05467522497576345,"68":0.038238997992898226,"69":-0.004575392370457093,"70":0.02371426942894822,"71":-0.06151350216751667,"72":-0.11800921633217051,"73":0.03507775365927211,"74":0.08289549171199782,"75":-0.026977972691396405,"76":0.01271114409373331,"77":0.06639099909804815,"78":-0.04817692147050723,"79":0.07320626723380158,"80":0.04355537247850353,"81":-0.04438398688047865,"82":0.006171716868785783,"83":-0.035398866429796866,"84":0.007123425800399049,"85":0.02675287902572939,"86":0.1327208145505705,"87":0.015396281492110607,"88":0.031223110664057967,"89":0.003080588540183848,"90":0.028289316268703776,"91":0.008378285605746563,"92":-0.05341035520336346,"93":-0.10099634081488616,"94":-0.016818382667208698,"95":0.05916187795619689,"96":-0.1154262136641535,"97":-0.020023013836805856,"98":0.0012201613880617164,"99":-0.025726287292737134,"100":0.04012902852729204,"101":0.012342594079216278,"102":0.04896322541870901,"103":-0.00469830430290493,"104":0.06804202147138219,"105":0.11136580790495451,"106":-0.11377791323941598,"107":-0.009953194596795632,"108":-0.1428081152471285,"109":-0.05125549539070439,"110":0.021018825470864682,"111":-0.12664118441629346,"112":0.06134810648371248,"113":0.05922074668433673,"114":0.15272766962218726,"115":0.15864983306705915,"116":-0.016162480885223148,"117":-0.015823154309319538,"118":0.14560638270628576,"119":0.057692146912339946,"120":0.011044699077011923,"121":0.03976677943748783,"122":-0.07340060575243745,"123":0.10799629886201505,"124":0.08274522223636491,"125":0.025034481871630442,"126":0.011533115384457959,"127":0.001361656987789412,"128":-0.08930099363387634,"129":-0.012192996453959966,"130":-0.029080428811859373,"131":0.01620992616428883,"132":0.006550335838421584,"133":0.08712495918272162,"134":0.13097364005012235,"135":0.06392759149966172,"136":0.06183999732353446,"137":-0.06073486975709823,"138":-0.16496317688019702,"139":0.04766933877521594,"140":-0.025876771135703892,"141":-0.1681720863985394,"142":0.09149636417619574,"143":0.009191350762968398,"144":0.11096758165581798,"145":0.09475212391747964,"146":0.09669241572637464,"147":0.060335658127347085,"148":-0.040140642734115786,"149":-0.05913110679868704,"150":0.040459007933648324,"151":0.04243221685030376,"152":-0.03761204023397059,"153":-0.13420802142629398,"154":-0.10916305063089585,"155":-0.07354287307075388,"156":-0.024729446395126795,"157":0.0455586975425238,"158":0.00446366198601627,"159":0.14239092040235446,"160":-0.06452505973039409,"161":-0.037621027908209474,"162":0.016449540741587446,"163":-0.05461080099040931,"164":-0.15819507024888552,"165":-0.11508241767827007,"166":0.07066119764509413,"167":-0.08898623060789833,"168":0.07892605574269664,"169":0.10368138913035864,"170":0.12568430600883435,"171":0.14490495272867526,"172":0.04264376666420211,"173":0.02344824395013588,"174":-0.15466269250003678,"175":0.10139932647823853,"176":0.021737915133858896,"177":0.10400018646828674,"178":-0.013853318522628288,"179":0.05905953741690991}},{"sx":1,"sy":1,"depth":180,"w":{"0":0.09687329426726103,"1":-0.07954351649350296,"2":0.014600009822029776,"3":0.01783061602635975,"4":0.003214230803038813,"5":0.058463486025490896,"6":0.0714570947180402,"7":-0.06677149471715822,"8":-0.01222501135832767,"9":-0.047881139808877426,"10":0.03080010401321452,"11":-0.13120297769229422,"12":-0.015565065220184797,"13":0.05523802633199334,"14":0.02133116259248132,"15":0.0014788546396903516,"16":0.05378203662066584,"17":0.03056073984108425,"18":0.039132611752530626,"19":-0.20038514186815531,"20":0.07427492103930869,"21":-0.07898156769751377,"22":-0.03577954620824257,"23":0.07055450442121204,"24":0.058054798366837655,"25":-0.06280185560457913,"26":0.04980865735113245,"27":0.023768821617100307,"28":-0.043614525263529255,"29":0.067836956599992,"30":0.08386773318971442,"31":-0.07055691070797111,"32":-0.06540999941598889,"33":0.0009909521845842507,"34":-0.0017775301150584856,"35":0.006367928101255886,"36":0.05726671817530702,"37":-0.011159371692164561,"38":-0.034534747595669366,"39":-0.011653232713485109,"40":-0.08430570070944864,"41":-0.05097997222719337,"42":0.13588860568025957,"43":-0.08468680707763347,"44":-0.01158332652752949,"45":-0.0309547159308453,"46":0.17452897917639054,"47":-0.09367218658499496,"48":0.02843562126121119,"49":-0.13252212953266868,"50":-0.04008755822803847,"51":0.04918603217264885,"52":-0.009813212419684107,"53":-0.09293543047175014,"54":0.02453552058046524,"55":0.03081437967272439,"56":-0.03217577966067904,"57":0.07854965911427016,"58":0.030705251110628648,"59":-0.05551467161845091,"60":-0.11138927893811369,"61":0.10317329590485949,"62":-0.02109852255480508,"63":-0.07580997968407449,"64":0.0008804302653497322,"65":-0.16113887344992936,"66":0.10455766722576543,"67":-0.006541448567707262,"68":-0.01681474818911892,"69":0.06848864725531881,"70":-0.09690776442921065,"71":-0.0034868416601313962,"72":0.04576947816587343,"73":-0.02271359371752972,"74":-0.10187246356457261,"75":0.08821368207091726,"76":-0.009693681766593253,"77":0.03700286329108745,"78":0.07889049137861506,"79":-0.06005215566787788,"80":0.051062803858695736,"81":0.016184868908421305,"82":-0.09322071080064205,"83":0.0068352553494421715,"84":-0.061420717567226564,"85":0.011308605937706842,"86":-0.07771933086310014,"87":0.0712462815205875,"88":-0.08030575139218785,"89":0.09775620376897931,"90":-0.020831313882546075,"91":-0.019477110875567503,"92":0.151736054661049,"93":-0.06625555181438852,"94":0.025027125818309046,"95":0.04887355089243359,"96":-0.09019252448532802,"97":0.0012323913246103139,"98":0.12123725854688562,"99":-0.012997878286928338,"100":-0.10810707821519451,"101":0.05622922634651202,"102":-0.02668246131464137,"103":0.14731414617798042,"104":0.05763452289179416,"105":-0.0785457509263085,"106":-0.009246932342503934,"107":0.03314805954813182,"108":0.1304302481351521,"109":-0.04084490566800785,"110":0.04763336472140152,"111":-0.024948183728316874,"112":0.12348108797271658,"113":0.08224312835354373,"114":-0.1149334410829787,"115":-0.06343798892871395,"116":-0.11338506639801821,"117":0.040343124658266664,"118":-0.03278681354278267,"119":0.11352284910974243,"120":-0.038595117891687174,"121":-0.02940819282454234,"122":0.027939969285201063,"123":0.07154709573697803,"124":0.21284845589348103,"125":-0.13736694523692852,"126":0.0031582112350451177,"127":0.03188766979043277,"128":0.0020899064784200582,"129":-0.008124596857821464,"130":0.061917247270382614,"131":0.002492853136651578,"132":0.07810082584045401,"133":-0.04825089858393482,"134":-0.0010172659853736124,"135":0.015183657547695384,"136":-0.0354896875355584,"137":0.00641209512873623,"138":0.03924282324408005,"139":-0.01991277738379057,"140":0.12190792195562651,"141":-0.030223577184220213,"142":0.18881409832512455,"143":0.059467705403733404,"144":-0.002845522366055512,"145":-0.00996483852236648,"146":-0.026827360365793647,"147":0.06830363289162406,"148":-0.06277512031171356,"149":-0.015257893896905128,"150":0.0036316682235423142,"151":0.06438810475338716,"152":0.010418697536726269,"153":0.08293385740490045,"154":0.06051099696831013,"155":0.1225862724354993,"156":0.07012020150516,"157":0.04383445340203165,"158":0.0414679049352759,"159":-0.03641652663669267,"160":0.026483684180332624,"161":-0.0288901236746853,"162":0.105379285448445,"163":0.007308181303792197,"164":0.01999760873070983,"165":0.031429520115358205,"166":-0.017178588396822812,"167":0.044235822427354535,"168":-0.0986629124767077,"169":0.13406356966929747,"170":-0.04869012206256946,"171":-0.07987962865312537,"172":0.05190289419766107,"173":0.02134361174655639,"174":-0.05131739172822316,"175":-0.07575810068017891,"176":0.041043973300485356,"177":0.09827164503526502,"178":0.06550135389667928,"179":0.015923618331878157}},{"sx":1,"sy":1,"depth":180,"w":{"0":-0.12068487958073876,"1":0.008876213002648072,"2":0.0005466510892317474,"3":-0.0812846133358689,"4":-0.08406649748263137,"5":-0.04366402378102486,"6":-0.08348785488550778,"7":-0.08653721713791716,"8":-0.24349466952668067,"9":0.09330166040657835,"10":-0.017100098465450932,"11":-0.08015485710094511,"12":-0.019312584435687705,"13":-0.01446129810446037,"14":-0.09417132193298272,"15":0.09845775107386219,"16":-0.05847484395683095,"17":0.07342616292652158,"18":0.07366409617585437,"19":0.05024547699600848,"20":0.12782246400028302,"21":-0.05271858633360231,"22":0.03418578477338158,"23":0.002507889116143655,"24":-0.0788388507241707,"25":-0.0846443764245437,"26":0.05605482272974384,"27":0.027023271358609616,"28":-0.030802664309807482,"29":0.05194743242801886,"30":0.03174008258396748,"31":-0.02898567727024016,"32":-0.06439218461512507,"33":-0.018632003738606694,"34":0.002062077671828406,"35":0.02184540792480277,"36":-0.032750169623040594,"37":-0.1275961081146775,"38":-0.0208779711883582,"39":-0.08428668954902084,"40":0.08159560067024318,"41":0.10884445768021296,"42":0.11114909229859879,"43":-0.057230141730426565,"44":0.0792523705359059,"45":-0.010370262232496241,"46":0.052176187077509636,"47":0.05361848093472957,"48":-0.03138539531505945,"49":-0.024732097603590728,"50":0.06178718195574532,"51":-0.04331562889178712,"52":-0.042825160916343315,"53":0.22766070357947077,"54":-0.05164969287930954,"55":-0.048858845437644564,"56":-0.00955488508474847,"57":-0.008593762394761088,"58":-0.08261213394605375,"59":-0.00920468411839207,"60":0.1289556122340286,"61":-0.008996596983138927,"62":-0.1470783858014669,"63":-0.08454747456787684,"64":-0.1009448219147004,"65":0.032638219221712436,"66":0.1966632982127119,"67":-0.02172582660628367,"68":0.03306886260737928,"69":-0.03567004623411152,"70":-0.03916790005661663,"71":-0.16028328287494598,"72":0.0003117128762745488,"73":-0.0451565404106195,"74":-0.046792262926557575,"75":-0.0010544859055600995,"76":-0.006222492054138558,"77":-0.05997851048168309,"78":-0.023506978100469374,"79":0.01770195237800733,"80":-0.03148455483879586,"81":0.014322063705397925,"82":0.04047259538701907,"83":0.048435838938706496,"84":0.019790954677215984,"85":0.11437784383213245,"86":-0.013214430620015096,"87":-0.006392055720335027,"88":-0.004400917378649908,"89":0.030177776398628866,"90":-0.0023091733835711994,"91":-0.09257679615995563,"92":0.0007263929130971598,"93":-0.03266351739309318,"94":0.17288684797222995,"95":0.05110117356600343,"96":-0.025454425911771064,"97":-0.10160614866989726,"98":0.06529068819620393,"99":-0.008820347518374603,"100":0.040713550425435736,"101":-0.000916887129674903,"102":0.18187504948918173,"103":-0.007889248379937605,"104":0.007747399748440315,"105":0.09881657703924945,"106":0.014135718811130243,"107":0.035466746635973094,"108":0.1216616938719292,"109":0.04512732191360209,"110":0.007413355762876244,"111":-0.008448479646429962,"112":0.3056538254640417,"113":-0.05204980741822797,"114":-0.045816257998379774,"115":-0.014252358740897576,"116":-0.03636961734305277,"117":-0.0868811595469371,"118":0.05651761440302281,"119":-0.03908235924387819,"120":0.10342348530781248,"121":-0.034345622793797125,"122":0.060444945614721156,"123":0.02478126009015003,"124":-0.08422952595121791,"125":-0.07068353660062768,"126":-0.01868946341498742,"127":0.02426058752318787,"128":0.18758350173401406,"129":-0.08517600405641201,"130":0.14401987078515874,"131":-0.10981505112367261,"132":-0.015801027899002743,"133":0.09930181454921275,"134":-0.07365564158997173,"135":-0.13428164241276658,"136":-0.005584874674496611,"137":0.06574518757468625,"138":-0.0021572696893471773,"139":0.022705010853493468,"140":-0.05203908290145995,"141":0.03863146348601277,"142":-0.08846696438032257,"143":0.07647527078156097,"144":-0.07934865457783363,"145":0.05741231509369847,"146":0.053690988222008185,"147":0.031097169504520638,"148":0.0863254319154683,"149":0.05522228613112061,"150":-0.033325190239340566,"151":0.04633404788890977,"152":0.061122195730285586,"153":0.08528518945358365,"154":-0.01610780970336471,"155":-0.021688358567135798,"156":-0.06345196062604429,"157":0.06523330423662571,"158":0.03312859020599082,"159":-0.06372120013297224,"160":0.0791002709888323,"161":0.10898061848260314,"162":-0.06695581606878136,"163":-0.052045514693396244,"164":0.03803217274672159,"165":0.04377103287655449,"166":0.030256317568180063,"167":0.05867405845202362,"168":-0.01578515322082468,"169":0.04193354280311237,"170":-0.0063532929318458956,"171":-0.02179427283974315,"172":0.020329542810682884,"173":-0.058060588024583304,"174":-0.07574587255728331,"175":0.023616685096581522,"176":-0.03136820866414535,"177":-0.024941361159550427,"178":-0.03636368638861238,"179":-0.0028309724590367268}},{"sx":1,"sy":1,"depth":180,"w":{"0":-0.011721964997729166,"1":0.01690562125415801,"2":-0.054310324325632084,"3":0.08082753016435541,"4":0.059112448938864505,"5":0.1058803203499327,"6":-0.023722736390764308,"7":-0.06485594191309403,"8":-0.06443055288529799,"9":-0.20997488810252177,"10":0.04469052475103386,"11":-0.05180403457056754,"12":0.010829844309746543,"13":-0.003975897597533603,"14":0.0018018250959027393,"15":-0.09443704881197837,"16":0.02366028263472282,"17":0.05560491121315244,"18":-0.04866085432822686,"19":0.18134113683020264,"20":0.09562781249444081,"21":-0.04307963184258565,"22":0.009468200935509414,"23":0.09338284000489405,"24":0.02443192236505296,"25":-0.01321293710624605,"26":-0.00037544289460658784,"27":-0.02220627743432836,"28":-0.11499891610458553,"29":-0.11197769399113554,"30":-0.15205358104164515,"31":0.027262883758871245,"32":0.190716820060452,"33":-0.08431964932788794,"34":-0.040868617893946864,"35":-0.025277530296896937,"36":-0.0491101342242328,"37":0.1096722758779784,"38":-0.05463156183458005,"39":0.059119172525473745,"40":0.014183728321309168,"41":0.030188066278609677,"42":-0.008864418784612202,"43":-0.027978520822360787,"44":0.017999435878526922,"45":0.010406127537262595,"46":0.0040353730177636465,"47":-0.02881351418792001,"48":-0.03250319309255226,"49":-0.040159886014048705,"50":-0.06389691640947004,"51":0.09196953175499978,"52":0.023176871861174744,"53":0.00716503894944689,"54":-0.09930716273148868,"55":0.0139129085974013,"56":-0.07499997965856148,"57":0.042627875507668285,"58":0.048181594387785874,"59":-0.21587608909613645,"60":0.10575507441420622,"61":-0.04392771025044432,"62":-0.07139214721942935,"63":-0.020055765672215585,"64":0.05039485298307567,"65":-0.11011702499754647,"66":-0.08016435689041262,"67":0.05534266721436455,"68":0.08740952123107772,"69":0.12280775929111983,"70":-0.013401507779214832,"71":-0.03193605245727057,"72":0.04824098988825894,"73":-0.03828865711025663,"74":0.05897769334970886,"75":0.06675408855540034,"76":0.01791946614995398,"77":0.02090116539851171,"78":-0.04075633807583909,"79":0.07759269272057559,"80":0.10997893706751395,"81":0.02815418920640538,"82":-0.12318180724494099,"83":-0.04729813232900848,"84":0.04090733877741694,"85":0.1847943723813749,"86":-0.04488540975965322,"87":-0.0001856434189514234,"88":-0.05286779122383435,"89":0.08434534722586831,"90":0.11157819560931119,"91":-0.06679290428741345,"92":0.10280548051932972,"93":-0.06694033303199537,"94":0.11394971075112338,"95":-0.21084089079232865,"96":-0.10761708145341847,"97":-0.030793164881919858,"98":0.03124688490845396,"99":0.0654713546503903,"100":-0.031316045235043465,"101":-0.10072201144367009,"102":0.0296715081041589,"103":0.1255049308289174,"104":0.2108874361572386,"105":-0.02713988469635386,"106":-0.04141473501420317,"107":0.17320569400814387,"108":0.08507500762587986,"109":0.13951955397552612,"110":0.014644761063067111,"111":0.07425318797430445,"112":0.02426721339394726,"113":-0.05414736924304439,"114":0.05971110752613663,"115":-0.013305283013568942,"116":-0.04293406170652953,"117":0.12733140299505605,"118":0.0016412398619512305,"119":-0.03919553961003929,"120":0.15770411438862647,"121":0.07040540301675631,"122":0.011518581078874615,"123":0.01050288262582921,"124":0.002792764144995285,"125":-0.01613174193682885,"126":0.13524046114375074,"127":0.031861342271395476,"128":-0.05661454134502515,"129":-0.1010156942480125,"130":0.004839594987973065,"131":0.0408366951538944,"132":-0.04410905240381306,"133":0.057486314379821504,"134":-0.004576623256737714,"135":0.022466665960174284,"136":-0.15167708509593217,"137":-0.00622479195568899,"138":0.060940916416519074,"139":0.08953833724410562,"140":-0.015280547105241156,"141":0.04896271640181069,"142":-0.09329263660792143,"143":0.030025751477815363,"144":-0.0598074893570701,"145":-0.03808087613252474,"146":0.0428194150650637,"147":0.17229159754842063,"148":-0.0028926043114533505,"149":0.04146774286285322,"150":0.025127314788872774,"151":0.12222626067663138,"152":-0.11432925203776957,"153":-0.06620659310090449,"154":-0.06745518935181218,"155":0.05753451100945005,"156":-0.19550829973919936,"157":0.008165291482968736,"158":0.0023602915962477296,"159":0.02788706354159905,"160":0.04903698634407769,"161":-0.0407698640193356,"162":-0.08864482944150086,"163":0.05440522307292582,"164":-0.08157610518831906,"165":-0.04224355410726867,"166":-0.02570227506718442,"167":0.03377005195916395,"168":-0.03664743798098747,"169":0.025960109360162922,"170":-0.06734802608950921,"171":-0.010409885367844273,"172":-0.09093615730508607,"173":0.01899258315738796,"174":-0.07087531251289154,"175":0.01687575471776452,"176":0.014204418363238892,"177":-0.014218398011226669,"178":-0.014752388441474036,"179":-0.13601912853579068}},{"sx":1,"sy":1,"depth":180,"w":{"0":0.09889615119223917,"1":-0.08484927046886971,"2":-0.006088781036122966,"3":0.10180730236176125,"4":-0.057222305575907684,"5":-0.01993621181633084,"6":0.04680499945067942,"7":-0.05659003834352823,"8":0.06534164535272402,"9":-0.023465253247993683,"10":-0.005027989604621302,"11":-0.03280602374866641,"12":-0.04668013752877532,"13":-0.0072095963464431905,"14":0.033735589270106774,"15":-0.030732007094934007,"16":0.04321376450375438,"17":0.03808903576904962,"18":-0.07017946968530013,"19":-0.006724823833802222,"20":-0.05402691610836722,"21":0.04569176485717083,"22":0.027929100975604707,"23":0.032270432301066895,"24":-0.03508537935708708,"25":-0.022580560513881614,"26":0.03804067852828148,"27":-0.06241498907479218,"28":-0.0014909580198763245,"29":-0.05615374423775223,"30":0.09935238476742597,"31":0.019346657849353882,"32":-0.003176929823666225,"33":-0.1076230854470958,"34":0.06706912687673072,"35":0.16877410914831076,"36":-0.05228929901808117,"37":-0.11207580392151541,"38":0.02388876525139722,"39":-0.009760256965361268,"40":0.07666708530247537,"41":-0.10552038946212511,"42":-0.1842630521717592,"43":0.04649162089861792,"44":0.03468380176037414,"45":-0.12818139429539593,"46":-0.12382976677035752,"47":0.211652154249972,"48":-0.019330692721052315,"49":-0.04304888056672262,"50":-0.07497892249016198,"51":-0.02484044865602208,"52":-0.03250251497956527,"53":-0.052679895847477114,"54":0.1484250347396762,"55":-0.1197731812223098,"56":-0.01928877309215463,"57":0.06710473303075538,"58":-0.03535016005904237,"59":0.09567771666555762,"60":-0.06787827291459624,"61":0.08399098244291638,"62":0.02809424843366098,"63":-0.007368865586210303,"64":-0.016618369228307523,"65":0.12610935809003335,"66":0.1472042809298629,"67":0.09863691728013461,"68":-0.01925396265233855,"69":-0.10701854287419431,"70":-0.03413439670740092,"71":0.006109164064019882,"72":-0.14128782420338634,"73":-0.06599428026606308,"74":-0.005012833832421308,"75":0.09195009594507333,"76":0.023181200340170714,"77":0.0724717173077017,"78":-0.07741624462987601,"79":-0.04316957760468556,"80":0.11562696945825536,"81":-0.0070006271077436445,"82":-0.028089584035275113,"83":-0.045388649103019284,"84":0.11359056464971366,"85":0.07058910497331994,"86":0.04156860568043923,"87":0.12917318366519764,"88":0.09070253303532677,"89":0.0015357951908126582,"90":-0.13130386402181765,"91":0.04936920995492925,"92":-0.0379045529448264,"93":-0.05422745262232328,"94":0.09749268695769818,"95":0.05686161641472108,"96":0.11792366469621472,"97":-0.027878275697241935,"98":-0.016816697958808777,"99":0.0091056958143221,"100":-0.07318423711144836,"101":0.021647477989897496,"102":0.048040381568933976,"103":0.008937356121566006,"104":-0.03393027300185327,"105":0.038568921060319804,"106":-0.043545001882279784,"107":-0.15954705665376942,"108":0.18934178623153514,"109":0.14653280925508158,"110":-0.007742728280388625,"111":-0.12031468963812965,"112":0.10927915505880474,"113":0.05028606658864274,"114":0.026585865797839787,"115":-0.09164006264766762,"116":0.006386321128609874,"117":-0.04372748808939188,"118":-0.06239143484992159,"119":0.13606421176954642,"120":0.039610697000296964,"121":-0.06351020668907081,"122":-0.061611455374960905,"123":0.10672073197424702,"124":0.02030620170197531,"125":0.008692067486647167,"126":-0.032743393348998125,"127":-0.039855947985879756,"128":0.015118044378545714,"129":0.05548284402825717,"130":0.009492512410755194,"131":0.023886362446830373,"132":-0.04200994677551864,"133":0.06528988899447863,"134":0.08502787710260759,"135":0.10071824539416913,"136":-0.05161190759701633,"137":-0.07518763147697291,"138":0.03731273270260094,"139":0.06633015091341911,"140":0.11715776291175237,"141":-0.171533525498349,"142":0.021072978929443747,"143":0.03728787447055407,"144":-0.04167721149082123,"145":-0.0478052083587187,"146":0.06958107590715092,"147":0.03812441417258646,"148":-0.07182008276463409,"149":-0.08094660032080105,"150":-0.17445397358555798,"151":0.010802117764658194,"152":0.12878858473910726,"153":0.08280397207513444,"154":-0.010901487862951947,"155":0.0008521865128873976,"156":0.027365375353081128,"157":0.00955766926228713,"158":-0.02648280271066719,"159":-0.01425178062584897,"160":0.09082195789580544,"161":-0.031874308165483506,"162":0.09511238678316354,"163":-0.02428967114472469,"164":0.08157190811144222,"165":-0.005429358531255771,"166":0.011125879280247268,"167":0.004986144812145461,"168":-0.09093206914654806,"169":-0.06073170110644968,"170":-0.10751862299469298,"171":0.02427816561297682,"172":0.05928325299153077,"173":-0.12195772686520663,"174":-0.06366668135844511,"175":-0.16293777497722095,"176":-0.0300831006201232,"177":-0.020997715861102773,"178":0.0427783756839072,"179":-0.04106854409071152}},{"sx":1,"sy":1,"depth":180,"w":{"0":0.11833831218961394,"1":-0.00613278459500488,"2":0.0491791251455833,"3":0.13348809044051813,"4":-0.0379903206291274,"5":0.12119497158707648,"6":-0.1780166221358185,"7":0.049559324921868333,"8":-0.03321801332817336,"9":0.1582421366804217,"10":-0.0176728188425081,"11":0.007025616022219035,"12":-0.05168291656295114,"13":0.0057237119649901184,"14":0.07902080015391423,"15":-0.00674829561640261,"16":0.07518027321283313,"17":-0.0016009868149385942,"18":0.09418694788508365,"19":-0.02794054504377268,"20":-0.08150519868363812,"21":-0.055148369217484984,"22":-0.06668574990834539,"23":0.10190362406943577,"24":-0.024863409078112353,"25":-0.0854266980983465,"26":0.09750243923181894,"27":0.027949699832944222,"28":0.00810181390792954,"29":0.09819750138779391,"30":-0.03237261267894584,"31":-0.12633464697382424,"32":0.03475551876571653,"33":0.14011423763838046,"34":0.06950995002133536,"35":-0.08999291974343615,"36":0.08886407180885735,"37":0.05942108294918765,"38":-0.045282799062166174,"39":0.013122742328236651,"40":-0.05534048922381489,"41":0.01760470956123336,"42":-0.053653561700906995,"43":0.07800982763109361,"44":0.01757292886037489,"45":-0.0056609896710819,"46":-0.009378255175429296,"47":-0.04875042489612641,"48":0.017877017091549288,"49":0.03188702551726032,"50":-0.0013481897428273323,"51":0.05666599548049716,"52":0.07979758159501553,"53":0.14022571523617325,"54":0.038121764623512286,"55":0.07803996059176635,"56":-0.06904607930204687,"57":0.0032792014125114367,"58":-0.15272045171977533,"59":0.05495416763731346,"60":-0.13058929918869963,"61":0.021918821302629947,"62":0.06962934520542977,"63":0.030475430125380273,"64":0.020870281373256062,"65":-0.13129932226280103,"66":0.031257658475868595,"67":-0.055890852034501955,"68":0.03779105142110888,"69":0.055897831631832304,"70":0.0639254832530777,"71":0.056192078496001815,"72":-0.09120376732210815,"73":-0.06620228287065094,"74":0.049442435728977316,"75":-0.05767465561896666,"76":0.0044039260175935515,"77":-0.006026565801788721,"78":0.12437246741955611,"79":0.07740565460261596,"80":-0.0550838646346869,"81":0.06706540239020785,"82":0.0337467085919987,"83":0.0053527997900108875,"84":0.22476248381293734,"85":-0.08056289263981514,"86":-0.013371376615083436,"87":0.01890271013254441,"88":-0.027298532566262315,"89":0.0006015695146141917,"90":0.012994946236054622,"91":0.006112637906016876,"92":0.027794038927110496,"93":-0.06085909908062114,"94":-0.2049578010292122,"95":-0.06629406968446175,"96":-0.1679487494306512,"97":0.11465192125138936,"98":-0.04100017163757306,"99":0.05310893456273306,"100":-0.010661199883048549,"101":-0.0435459862728705,"102":-0.019375594142110066,"103":-0.1397131477750754,"104":-0.011256392819460302,"105":0.013002961509107114,"106":0.04136276924472981,"107":-0.10909518059482481,"108":0.13174077353128177,"109":-0.0004322650793979521,"110":0.0689185634094016,"111":0.00629199636531582,"112":-0.04673906189160104,"113":-0.03967364092088885,"114":0.07427870223100633,"115":0.14080839075925866,"116":0.05980901642264912,"117":0.022021180819921344,"118":0.019204810890931182,"119":0.10609840837627674,"120":0.019084967576408925,"121":-0.04118366262621861,"122":-0.06527316621341593,"123":0.10157891886836727,"124":0.08266245885362669,"125":-0.1305978116225281,"126":-0.006379303091390063,"127":-0.02196591313130148,"128":0.059027612845561905,"129":-0.08574421792178404,"130":-0.13181018256498092,"131":0.1186570135146727,"132":0.04493204469863661,"133":-0.045131239125055636,"134":-0.07551454261496354,"135":-0.13407531049844718,"136":0.03680343319810717,"137":0.09339427727185212,"138":-0.05899451688431537,"139":-0.04915340350335864,"140":-0.0296086394959407,"141":-0.04187144685050907,"142":-0.0825240426615619,"143":0.12472618985165815,"144":0.076746940653656,"145":-0.041824895785773926,"146":-0.09342904649790783,"147":-0.03969908660194959,"148":0.04052229587549872,"149":-0.0453210721182372,"150":-0.10230166742010866,"151":-0.18178466449205946,"152":-0.012125541734904098,"153":0.015472098402212227,"154":0.0887707440964906,"155":0.05476659534686336,"156":-0.10242779160032821,"157":-0.051832825576848436,"158":-0.04681902909914186,"159":-0.12039392693621968,"160":0.22454298853545354,"161":0.025020030609124045,"162":0.03153266518405005,"163":0.02209606260849647,"164":-0.2619488617132526,"165":0.14452034269993327,"166":0.031926881068719146,"167":-0.06078888805663327,"168":-0.11001226591460994,"169":-0.028689096558567273,"170":0.1843778919042991,"171":0.013713411104040561,"172":-0.06850080741836913,"173":0.059615015392448706,"174":-0.16290887855734207,"175":-0.04935801317097179,"176":-0.08306063969066074,"177":0.03688201930627946,"178":-0.019219555990503946,"179":-0.06780874870307824}},{"sx":1,"sy":1,"depth":180,"w":{"0":-0.04062940813928905,"1":0.1355155924835907,"2":0.1406677566139804,"3":-0.039417778828984534,"4":-0.11789238894482348,"5":-0.08045249432761396,"6":-0.005177268178021318,"7":0.06330646399744402,"8":0.01660400527625266,"9":-0.1284153700467393,"10":-0.019350572790488997,"11":-0.010927833396561124,"12":-0.04023470152956888,"13":-0.04630747808125929,"14":-0.06342771260460364,"15":0.03424002108385803,"16":-0.07490726960226542,"17":-0.014166449570040821,"18":-0.07818742893259563,"19":0.011132368449489278,"20":-0.03749702595787096,"21":0.023861161217647506,"22":0.03298959818258468,"23":0.04335620568277867,"24":0.03082010029779292,"25":-0.03140707021645521,"26":0.02424692032511842,"27":-0.016333987603714867,"28":-0.08016837920904464,"29":0.03366003357177112,"30":0.04496939784323313,"31":0.059910034569937,"32":0.08007280193301877,"33":0.017984217366635358,"34":0.10287814649401986,"35":0.09763193189790971,"36":-0.21215574966858913,"37":0.07582288880531031,"38":-0.016802770512609477,"39":-0.10886280706924938,"40":0.007513000825274745,"41":0.0015993910064482535,"42":0.04157943225498837,"43":-0.04983375710322192,"44":-0.1530549694728053,"45":-0.06665558411004183,"46":0.0021924396205647064,"47":0.0625474264213323,"48":-0.07418744427764994,"49":0.09876692402627432,"50":-0.016329922575487193,"51":-0.038907394347853765,"52":0.030592975422229725,"53":0.024101772752566877,"54":-0.05037044909515896,"55":0.057606402484455636,"56":-0.015288388949265088,"57":-0.10071733013431333,"58":-0.014456118641632787,"59":0.09242142853682225,"60":-0.03980364423410859,"61":0.05121184127782593,"62":-0.027770173915508022,"63":-0.0176640532848346,"64":-0.02415438041538758,"65":-0.05922620891030735,"66":0.00913789723183428,"67":-0.0552005314770697,"68":0.036196422941673585,"69":0.033031619576004034,"70":-0.011462794810178612,"71":-0.008408667273934158,"72":-0.10312720190350172,"73":0.013901648691557938,"74":0.03426391185374596,"75":0.015716061263220716,"76":-0.157618611794093,"77":-0.053825763754621066,"78":-0.03352979282931429,"79":-0.03086143293231643,"80":-0.07390396303983247,"81":0.0997965201604354,"82":0.06886291593193634,"83":-0.03474958553763302,"84":-0.05989771011599656,"85":-0.06852899587237998,"86":0.06771756030359377,"87":-0.033731786023773906,"88":-0.13378650804914588,"89":-0.039264171673679446,"90":-0.05518268497532663,"91":-0.01282122175166987,"92":-0.03213461246843279,"93":0.02131586676454601,"94":0.03675109614903826,"95":-0.0014493071185652958,"96":-0.020354604295222043,"97":0.022735501299124366,"98":0.024845640229755196,"99":-0.0728140143629005,"100":0.03883334818216003,"101":0.0857578261102891,"102":0.0623232528328793,"103":-0.08588853891033658,"104":0.010766578564741837,"105":0.04657440254161609,"106":0.18822376854990674,"107":0.07368961507596614,"108":0.06499644539390764,"109":0.06592253757879916,"110":0.0076214265266778426,"111":-0.12625830021723794,"112":-0.09263028787695998,"113":-0.0646132927100615,"114":0.021105176236152635,"115":-0.013458738113718626,"116":-0.015522766687004155,"117":-0.01871830563864219,"118":0.10543943828981157,"119":-0.10369408746019453,"120":-0.034164295477615035,"121":-0.17030511634472037,"122":0.04808536767396544,"123":-0.0005055513083224695,"124":-0.06399565232848253,"125":-0.06086035591599686,"126":0.010389932626335682,"127":0.00920880280113026,"128":0.01435126982503388,"129":-0.027603250529932327,"130":-0.07235990657890408,"131":-0.032152461595589425,"132":0.08419383413878985,"133":-0.09258964939182815,"134":0.10510354881043156,"135":0.046387517081525664,"136":0.05660311683588935,"137":0.14765385916795848,"138":-0.0011554222122403767,"139":0.018749146333472598,"140":0.038806129791588415,"141":-0.09668486020104759,"142":-0.025997949113255297,"143":0.10449685350329532,"144":-0.06842689566117457,"145":0.013715339981402914,"146":0.10957513355859207,"147":0.08721697078448201,"148":-0.10632412758777644,"149":-0.002573016202782646,"150":0.05710804372546035,"151":0.06840557778032594,"152":-0.029483392318438408,"153":-0.09946605674150517,"154":-0.028111625868760596,"155":0.15352166994301436,"156":0.028653455469686805,"157":-0.13173887876584878,"158":-0.06305267639844775,"159":-0.011710907505137657,"160":0.021252629668433668,"161":0.10174422720214414,"162":-0.034597675694734986,"163":0.0076521853338281185,"164":-0.0707290911570838,"165":-0.026672435741040876,"166":-0.06492471006595157,"167":-0.0021191622838529697,"168":-0.04253997699184559,"169":0.03578641685678307,"170":-0.023645018148596198,"171":0.009291456061567147,"172":-0.045254548144548906,"173":0.09919512913782831,"174":-0.03885853817047533,"175":0.09194969762337778,"176":-0.022223476549817798,"177":-0.056951099023232934,"178":-0.03822725579328915,"179":0.0626422642918822}},{"sx":1,"sy":1,"depth":180,"w":{"0":0.04967149400598201,"1":-0.012236340694795535,"2":-0.012883742217717667,"3":-0.037438474998150194,"4":0.06237019078118349,"5":0.04331130746611625,"6":0.0057093696853056305,"7":0.0423643472636815,"8":-0.06919581997342593,"9":-0.061059807085758845,"10":-0.01967172793730853,"11":-0.03769824719232234,"12":0.02402642897594805,"13":-0.057409017680157486,"14":0.06384934094972082,"15":-0.16699952735693363,"16":0.007624803126236792,"17":-0.16484967589770297,"18":0.03435822856720164,"19":-0.0730103869454211,"20":-0.13422385763704386,"21":0.09918686855748383,"22":0.0038311666851231297,"23":-0.10176943540068295,"24":0.04183666879650787,"25":0.06946362136087968,"26":-0.13630422644281978,"27":-0.12307625225242826,"28":-0.027744429054954587,"29":-0.004168734386160066,"30":0.11412478615973745,"31":0.0164864910974647,"32":-0.07433645148400454,"33":0.0006946017162577118,"34":0.10264086932874085,"35":-0.02993805747644328,"36":-0.08171858386840444,"37":0.022869107699242823,"38":-0.03918762883075386,"39":-0.10241987348451384,"40":0.0334638672831344,"41":0.01619588289861566,"42":-0.05711404046530234,"43":-0.09560379035706161,"44":-0.13741038339964706,"45":-0.08496356691832506,"46":0.06269744478288357,"47":-0.03185501492753523,"48":-0.08420722030586773,"49":-0.10191736634405447,"50":0.05740253142351196,"51":-0.07593826128600384,"52":0.03173222806840545,"53":-0.002717215571211549,"54":0.06815725061896871,"55":0.12962884326860108,"56":0.017376805463898318,"57":0.10689761262331161,"58":-0.0009075040698332727,"59":0.05203048518931367,"60":-0.057584531579713535,"61":-0.004148477208339137,"62":0.14225791143892372,"63":-0.12777376320779957,"64":-0.07383124366142495,"65":-0.039904777331618624,"66":-0.006014740531965486,"67":0.07157740125370977,"68":-0.08026735878744581,"69":0.037543655736709765,"70":0.03770522073481559,"71":0.053761758188354165,"72":0.03717709320833632,"73":-0.048010311140282355,"74":-0.07179142233878312,"75":-0.004414476441069364,"76":-0.12844097050153827,"77":-0.03545847191607226,"78":0.06068753876373905,"79":-0.04573173744765999,"80":-0.000017888511899248436,"81":-0.0340597755163254,"82":0.06510512039098654,"83":-0.019386420337687692,"84":-0.0010226486451131833,"85":-0.014046836317281326,"86":-0.15614854274191564,"87":0.1399742569797201,"88":-0.02048337796243747,"89":0.0043385670439872685,"90":-0.042237299445839316,"91":-0.06740554594900469,"92":-0.047913444858498584,"93":0.08118489122743583,"94":0.11390045857398222,"95":-0.03858315603528281,"96":-0.021783134796497232,"97":0.07777435015141418,"98":-0.05488165930632783,"99":0.014055960547958189,"100":-0.012284975224503804,"101":0.010657097471085862,"102":-0.05801231714887646,"103":-0.0360431970064196,"104":0.05220312828614186,"105":0.10171944221466049,"106":-0.01844211336665751,"107":-0.003146487119215467,"108":-0.05610275073042042,"109":-0.025725824583941608,"110":0.03838173783291171,"111":-0.046708499205337,"112":-0.09400126112487704,"113":0.05321072341241216,"114":-0.04266160361131781,"115":-0.07203164748067564,"116":0.06456319935403637,"117":-0.05416854485810553,"118":-0.09779384830869857,"119":-0.08834173609292258,"120":-0.1391978537723587,"121":0.04250460715467284,"122":0.03283861296753322,"123":0.0158359155362117,"124":-0.0315043931058282,