//<![CDATA[

// a few things don't have var in front of them - they update already existing variables the game needs
lanesSide = 6;
patchesAhead = 4*3;
patchesBehind = 4*2;
trainIterations = 10000;

// the number of other autonomous vehicles controlled by your network
otherAgents = 2; // max of 10

var num_inputs = (lanesSide * 2 + 1) * (patchesAhead + patchesBehind);
var num_actions = 5;
var temporal_window = 0;
var network_size = num_inputs * temporal_window + num_actions * temporal_window + num_inputs;

var layer_defs = [];
    layer_defs.push({
    type: 'input',
    out_sx: 1,
    out_sy: 1,
    out_depth: network_size
});
layer_defs.push({
    type: 'fc',
    num_neurons: num_inputs/2,
    activation: 'maxout'
});
layer_defs.push({
    type: 'fc',
    num_neurons: (lanesSide * 2 + 1) * 5,
    activation: 'maxout'
});
layer_defs.push({
    type: 'fc',
    num_neurons: num_actions * 2,
    activation: 'maxout'
});
layer_defs.push({
    type: 'regression',
    num_neurons: num_actions
});

var tdtrainer_options = {
    learning_rate: 0.001,
    momentum: 0.0,
    batch_size: 64,
    l2_decay: 0.01
};

var opt = {};
opt.temporal_window = temporal_window;
opt.experience_size = 3000;
opt.start_learn_threshold = 500;
opt.gamma = 0.5;
opt.learning_steps_total = 10000;
opt.learning_steps_burnin = 1000;
opt.epsilon_min = 0.0;
opt.epsilon_test_time = 0.0;
opt.layer_defs = layer_defs;
opt.tdtrainer_options = tdtrainer_options;

brain = new deepqlearn.Brain(num_inputs, num_actions, opt);

learn = function (state, lastReward) {
    brain.backward(lastReward);
    var action = brain.forward(state);

    draw_net();
    draw_stats();
    
    return action;
}

//]]>
/*###########*/
if (brain) {
brain.value_net.fromJSON({"layers":[{"out_depth":260,"out_sx":1,"out_sy":1,"layer_type":"input"},{"out_depth":130,"out_sx":1,"out_sy":1,"layer_type":"fc","num_inputs":260,"l1_decay_mul":0,"l2_decay_mul":1,"filters":[{"sx":1,"sy":1,"depth":260,"w":{"0":-0.041256183693039565,"1":-0.025875360496276107,"2":-0.025189288661327244,"3":0.040284861607798136,"4":0.041003604209756524,"5":-0.08061529865170008,"6":0.016041061697666822,"7":-0.005197449550457868,"8":0.01293369924078509,"9":-0.025071577737440894,"10":-0.0161984020942145,"11":0.0064280451443253445,"12":0.08517830940958732,"13":-0.0427050926729988,"14":-0.02934858087867799,"15":-0.04258809740222186,"16":0.03114883059801912,"17":0.011843549146331905,"18":-0.030312277662442953,"19":0.07733872362811907,"20":-0.01841130478763218,"21":-0.056423835009481955,"22":-0.05635338954364986,"23":0.03847870297886151,"24":0.04709920340181426,"25":0.019333299060485132,"26":-0.06165334061810943,"27":0.03833336699276091,"28":-0.027890351686282025,"29":-0.0826414802889475,"30":0.03700514800374308,"31":0.061698418917620144,"32":-0.031808447916806454,"33":0.003959224695362632,"34":0.01545347558569167,"35":0.051730639437860694,"36":0.016443552916765736,"37":-0.09918934897763788,"38":-0.08912722633658321,"39":-0.06466037013536122,"40":0.009703604202728523,"41":0.05801777517935523,"42":-0.015636409132160904,"43":-0.019341219506207933,"44":0.01518266107990116,"45":-0.08207172860725231,"46":0.062347958454637975,"47":-0.004209405785784622,"48":-0.00449556781957212,"49":-0.023608242031865217,"50":0.05293118748982171,"51":0.05819065000894617,"52":-0.10891446727368127,"53":0.027859986049121814,"54":-0.045061081603284654,"55":-0.09852267589987883,"56":0.03969319149223707,"57":0.02721641159446726,"58":-0.053187023463926404,"59":0.004474429770230006,"60":0.05800471205385628,"61":0.00822701501638692,"62":0.026181945992574583,"63":0.08496496774281835,"64":-0.004648587188552497,"65":-0.05939571055759862,"66":-0.04893756318495715,"67":-0.07612766577230332,"68":0.0063906421931546435,"69":-0.02496125572562851,"70":-0.035876919691777046,"71":0.004347375777856518,"72":-0.011187532964904915,"73":0.014540824978212664,"74":0.003575326103152255,"75":0.12477073592313523,"76":0.018116138731769867,"77":0.08725838058210314,"78":-0.0832998051756449,"79":-0.09045834046644582,"80":-0.0625603918274421,"81":-0.09842310453703183,"82":-0.07144242361704047,"83":-0.01336670297066609,"84":0.0405244661297678,"85":0.023468814329900674,"86":-0.0016635417572905507,"87":0.029309724469948666,"88":0.08544830795778373,"89":0.04449878326518458,"90":0.02978450220787786,"91":-0.10989736689462251,"92":-0.049341184384579025,"93":0.003505903306228367,"94":0.12452517833532269,"95":-0.04274850986777575,"96":-0.047598520938355045,"97":-0.01584649046278211,"98":0.016827881847005545,"99":0.012210926812000275,"100":-0.07257481100754445,"101":-0.03216195570331047,"102":-0.026674272681070685,"103":-0.04022661236459166,"104":0.03545070986361245,"105":0.018846338929555267,"106":0.05847616587592325,"107":0.06785612465523629,"108":0.00018860110187335802,"109":-0.0001658352576909253,"110":0.038705962794184874,"111":-0.0027546244668779953,"112":-0.04798741159307985,"113":-0.05274414117811997,"114":0.007727447112907966,"115":0.1039863890517835,"116":-0.039980373221457234,"117":-0.013016343326592484,"118":-0.001942350915451435,"119":-0.026995548339936545,"120":0.06649452326506328,"121":0.11976802127407407,"122":-0.061811126898811734,"123":-0.05001556274832881,"124":-0.06955866160412662,"125":-0.025868426785911725,"126":0.01462086523964537,"127":0.05649634094865612,"128":0.00310052416794761,"129":0.062395114402123086,"130":0.042654027945256065,"131":0.04224131760669746,"132":0.08111257306744186,"133":0.029396422997918253,"134":0.032232647651878325,"135":-0.011016551536486223,"136":0.09545453513664179,"137":0.049606796656039225,"138":-0.03963742914062752,"139":0.07649362999959795,"140":-0.1655399978647426,"141":0.003551914830016188,"142":0.07010789198421434,"143":-0.01762563045478991,"144":-0.10364704622099156,"145":-0.04356991756092165,"146":0.0005287490403546699,"147":0.025536564053075177,"148":0.011180388938308873,"149":-0.005781067394745523,"150":0.02249434832385057,"151":0.07318342805575934,"152":0.0936368660417089,"153":0.006571388385595456,"154":-0.0020236224194482913,"155":-0.010273658738827313,"156":-0.023576972232177817,"157":0.0047463669536009145,"158":0.08419178116436593,"159":-0.10612076682690126,"160":0.06704609334613772,"161":-0.06705191508782468,"162":-0.04342805404653476,"163":0.06253744608387726,"164":-0.0737712242421537,"165":-0.03246065969280257,"166":0.07583805014668736,"167":0.07478851216432973,"168":-0.10753941841993735,"169":-0.022040275966924615,"170":0.051856663664754776,"171":0.11154730239785449,"172":-0.04077524948813147,"173":-0.05740502068785447,"174":-0.02261332982322186,"175":-0.05675591526028696,"176":-0.09366106215246126,"177":-0.030273946429850176,"178":-0.040047280977977794,"179":0.06409376152245277,"180":-0.006725302227737065,"181":-0.05844292815238129,"182":-0.02647231634253728,"183":0.05529512370775808,"184":0.034462267794128004,"185":-0.07510197649944685,"186":-0.037149023544755015,"187":-0.06695008749978268,"188":-0.05122368002289116,"189":0.11043120376286295,"190":-0.00946511325416234,"191":0.04621761454510053,"192":0.05268840451299054,"193":0.03137964313050376,"194":-0.02277121267445659,"195":-0.013728781368325851,"196":-0.09992606440351126,"197":-0.015151456905501282,"198":0.04516359282127935,"199":0.03832373026442811,"200":0.034634535714401844,"201":-0.025496587179445883,"202":0.07600802514958396,"203":-0.007883926404788844,"204":0.049649374644765015,"205":-0.02080035595970445,"206":-0.041408002841375406,"207":-0.00733618350687917,"208":0.11172595173684019,"209":0.004607052915307405,"210":0.010405363209970443,"211":0.006920560636331003,"212":0.028261779828344363,"213":0.0497801744347712,"214":-0.09539672906238847,"215":0.016534254874741673,"216":0.011365054315862622,"217":0.1046703491975661,"218":-0.047205544340954524,"219":-0.04165301544477135,"220":0.01398829542751252,"221":0.09197285764100044,"222":-0.052447102574393875,"223":0.023292848935728666,"224":0.0023163261649988085,"225":-0.052982144457700754,"226":-0.11144643677343584,"227":-0.0334009391261391,"228":-0.00979109652912054,"229":-0.08256349624766654,"230":-0.047801425541220674,"231":0.09701517023096802,"232":0.03717371136680053,"233":-0.005642481601379202,"234":-0.04039806282235695,"235":-0.09083665873885634,"236":-0.05318569390305986,"237":-0.08081718164762546,"238":-0.05289482631394491,"239":-0.0059417918944722386,"240":0.0490498861086001,"241":-0.04113041706045361,"242":-0.02662396013488102,"243":0.03790722748774949,"244":-0.03930636089110066,"245":0.04256482437823538,"246":0.025367338701669837,"247":-0.045636826515246316,"248":0.02723223463753265,"249":0.01621642087735234,"250":-0.03975131121465111,"251":0.056677646357246855,"252":-0.10663332967654746,"253":-0.09338643119930172,"254":0.06836708897075382,"255":-0.0017777605177860946,"256":-0.015558113353009618,"257":0.05838158506262582,"258":0.00625639640462572,"259":-0.05403507391988985}},{"sx":1,"sy":1,"depth":260,"w":{"0":-0.0792166410054336,"1":-0.03705144971295438,"2":-0.08775018794875267,"3":-0.08182634013356753,"4":-0.11902355665388217,"5":-0.013934959533090463,"6":0.09574612005132763,"7":0.11175954480494484,"8":0.09950074384870691,"9":-0.002218245012183374,"10":0.05363576959261743,"11":0.029395032378502856,"12":0.0034350917277615437,"13":-0.06613239161931822,"14":-0.056981377799096795,"15":0.04948384002044455,"16":-0.017254289476408696,"17":0.11092189604595731,"18":0.058892702560937434,"19":0.08702133542639236,"20":-0.0532716847250959,"21":0.11481239749643982,"22":0.006763736380605724,"23":-0.028018394192106198,"24":-0.017518354343677434,"25":-0.03914994717221734,"26":0.007057634129000381,"27":-0.05753506880953259,"28":0.04813426503401201,"29":0.09371146056539455,"30":0.0742698859852698,"31":-0.004821748795103412,"32":0.05729603821017243,"33":0.02266830023239205,"34":-0.028903521403604387,"35":0.0020661839318891237,"36":-0.0891068679954646,"37":0.06498019032245868,"38":0.060770756683740296,"39":-0.03624097724665356,"40":0.017918374098039303,"41":-0.06624930757088274,"42":-0.03558726816499031,"43":-0.05441282725757295,"44":-0.014252317070999625,"45":0.0322393944741218,"46":0.011596706597715266,"47":-0.11474577842242491,"48":0.030595612057844383,"49":0.05249284236516631,"50":-0.044506929882287063,"51":0.015048992275718868,"52":-0.027293615647511014,"53":-0.09245103586212045,"54":0.09361123037934517,"55":0.04303209081684246,"56":0.08149434360833198,"57":0.12818598639634762,"58":0.07137959638642341,"59":-0.0027565835723655906,"60":0.05044631527067921,"61":0.09300511249076783,"62":0.009153534063014215,"63":0.03351030851658104,"64":0.051845070436844866,"65":0.038333219147911254,"66":0.15207074974210877,"67":0.034251602974611675,"68":0.011456699903449965,"69":-0.0746194039910921,"70":0.08571119614935553,"71":0.16855380784577487,"72":0.030414261383623416,"73":0.043650601497315956,"74":0.06014978168053414,"75":-0.00000322980840704547,"76":0.11873999888931791,"77":0.03495998645643256,"78":-0.08034248986916037,"79":-0.11265945295881884,"80":-0.018013265726242678,"81":0.11827515456487231,"82":0.012952530632120313,"83":-0.007697337659531927,"84":0.09824332792974208,"85":0.034582336217167685,"86":-0.06027600090522404,"87":-0.03440879340855017,"88":0.0786634667781297,"89":-0.006140145664440874,"90":0.025721146017152592,"91":-0.024519604524427984,"92":0.0008405585629158514,"93":0.018726729885639663,"94":-0.018963660118487425,"95":0.11278458764949892,"96":-0.005433770395717501,"97":0.12286122827342494,"98":0.003174618132610011,"99":0.10109271533009682,"100":-0.10083847888498962,"101":-0.0023774395912964535,"102":0.01590711099672718,"103":-0.0124221559654752,"104":0.013275425663613314,"105":-0.034892749299987244,"106":0.09275480886481481,"107":0.014013706231674115,"108":0.12428949672495761,"109":0.007580139452010147,"110":0.08856168572423258,"111":0.0912647497622779,"112":-0.012811267503043629,"113":0.0032149463256148036,"114":0.015296195565676204,"115":-0.020148691024595326,"116":-0.06288011350645512,"117":-0.04466841747416731,"118":0.011383365247672927,"119":0.09044308319233844,"120":0.11558026086169584,"121":-0.00499446076444767,"122":-0.04018616131746007,"123":0.021397887822331606,"124":-0.06436214027144473,"125":0.029970161803933807,"126":-0.025407852399802443,"127":0.039536387280025384,"128":-0.1559331325357269,"129":0.02917795796865238,"130":-0.0456506450990338,"131":0.06853940376081627,"132":-0.005841143776160127,"133":-0.04106347718116491,"134":0.020732643988322436,"135":-0.020541306468643553,"136":0.033746621979534146,"137":0.03772692991611689,"138":0.0025786260384121737,"139":-0.07195568876657032,"140":0.10243082360899157,"141":0.037736101791537816,"142":0.00626514177699149,"143":0.013216966067976874,"144":-0.01971174753352507,"145":0.08535981349123885,"146":-0.06382203446770891,"147":-0.01026889918719384,"148":-0.053059785128650686,"149":0.07992364395741082,"150":0.06212058746913963,"151":0.0785671932029734,"152":0.028636926771907514,"153":-0.0016989161207197545,"154":-0.04643056172592514,"155":0.10850509318360299,"156":-0.004044880650419074,"157":0.08065058095050676,"158":-0.06241677222318537,"159":-0.055529314534188974,"160":0.03979239796064149,"161":0.059160064930978515,"162":-0.06206140669064294,"163":0.0535605203216899,"164":-0.02974530906300815,"165":0.08259331854766858,"166":-0.0038082219858302483,"167":-0.07076297371205377,"168":0.011600341043023512,"169":0.055193675768818035,"170":0.09847423844001622,"171":-0.06084642265360435,"172":-0.01611748823509024,"173":0.06388375588320669,"174":0.02814656986632702,"175":0.007668558439914908,"176":-0.08553702351621713,"177":0.11117535592718975,"178":0.013439505950514454,"179":-0.1381330503337667,"180":-0.051977339093117865,"181":0.012064399305647896,"182":-0.018326060009690136,"183":-0.039811045095745685,"184":-0.09850285557728018,"185":-0.05996274335868149,"186":0.021708255922669086,"187":0.06864410979962202,"188":-0.02263871883077004,"189":0.0005355388615963998,"190":0.07044902763249193,"191":-0.06064187684973961,"192":-0.06944300930824654,"193":-0.0312216780012204,"194":0.06578535697124513,"195":0.038453617621228016,"196":0.05967618836828407,"197":-0.0019000399794278716,"198":0.022807239687882605,"199":-0.07290919818089098,"200":-0.00807147909636177,"201":-0.0037875950407236392,"202":0.08774154133944817,"203":-0.04297076276564945,"204":0.07161855188836326,"205":-0.01759771299213824,"206":0.037487331078381564,"207":-0.09797294590099691,"208":-0.0006847615587660269,"209":0.05325286084961573,"210":-0.12994281174860733,"211":0.14073242068750424,"212":0.077722802156914,"213":0.09949763887307898,"214":-0.03775173185823445,"215":0.06824690783370997,"216":0.07872890651650728,"217":0.03435131669872185,"218":0.01307909385667652,"219":-0.037752709862722174,"220":-0.01778082192430684,"221":0.056152832892482456,"222":0.025439720177041793,"223":-0.03530972779366472,"224":-0.03974507673770893,"225":-0.04443674662668145,"226":-0.0498471840542804,"227":0.005066185656940773,"228":-0.004594829538169983,"229":0.01430248125958476,"230":0.02047966891453609,"231":0.03573761025837539,"232":0.08891223728685263,"233":-0.07541032222351539,"234":0.10858508163688799,"235":-0.01587187061558698,"236":0.02639951550432765,"237":-0.015253778913695516,"238":0.059752802173773094,"239":-0.03506331094884282,"240":-0.029435877270332148,"241":0.0998997115478896,"242":-0.038603417584573405,"243":0.03655412745338257,"244":-0.04338494299458305,"245":-0.004295259155488585,"246":-0.06529178138880543,"247":-0.02286331965004035,"248":-0.16867874148669754,"249":0.09425850580160135,"250":-0.08578606406604843,"251":0.06953130216899182,"252":0.05524280630973945,"253":0.09138611959269904,"254":-0.003081979354529,"255":-0.030863153902466148,"256":0.06944937237025789,"257":-0.009262807775683272,"258":-0.08195233503340785,"259":-0.04457961839696506}},{"sx":1,"sy":1,"depth":260,"w":{"0":-0.07823450487546121,"1":-0.09712012890523875,"2":0.07265266038658759,"3":0.1137611656185702,"4":-0.019319647091832443,"5":0.007946721380409992,"6":0.07035534399533595,"7":0.005514322807247697,"8":0.0742651256878689,"9":-0.0006518452381305205,"10":-0.012204939678031193,"11":0.04419667336183108,"12":0.06424858165826193,"13":0.019372745305324943,"14":-0.019535570603623462,"15":-0.08025527228251769,"16":-0.08403718123785256,"17":0.08144406359733444,"18":0.017668601739332136,"19":0.04524775999703597,"20":-0.12158602404104905,"21":0.02530448768078646,"22":0.1669278498915615,"23":-0.0824079672507151,"24":-0.0062867035807393735,"25":-0.04237308462783366,"26":-0.08295723575735561,"27":0.07251417241747121,"28":0.09110872775019199,"29":0.007327540713070409,"30":0.14528830168002188,"31":0.042168512253187795,"32":-0.12238543946400672,"33":-0.09295938071974935,"34":0.061137782354200296,"35":0.001436719902552508,"36":-0.03177619543096303,"37":0.0453215546829492,"38":0.09253443910837972,"39":-0.10672336673540275,"40":-0.055641576792779764,"41":-0.03014325074328248,"42":-0.016967316611937948,"43":0.034222341456605423,"44":0.05687795002337973,"45":0.03207627082362291,"46":0.02840967682128489,"47":0.004304005772808824,"48":0.04517180665696747,"49":0.07240045179854047,"50":0.009190758400542624,"51":0.06453451116122773,"52":0.004299726967107648,"53":0.05830037457755637,"54":-0.009247032585835256,"55":-0.008661351157192475,"56":-0.06753664379191361,"57":0.09548600416093468,"58":0.06165145456238944,"59":0.06097422957728759,"60":0.07818824283919462,"61":-0.0018698406203641383,"62":-0.03699095211501036,"63":-0.024685051999416757,"64":0.046710539632973634,"65":-0.02729097303367013,"66":0.016421647870132713,"67":0.03604678690969161,"68":0.0922173952359218,"69":-0.04537668464621046,"70":0.037711082354863625,"71":0.2609222354200888,"72":-0.041449230923578065,"73":-0.023786569601263123,"74":-0.02097403427232009,"75":-0.06683793946091277,"76":0.00899641076649068,"77":-0.035193943810579026,"78":-0.018090652253435816,"79":0.003721747118416141,"80":0.0788920900075744,"81":0.13229773546451418,"82":0.1086436515199926,"83":-0.017298226095624515,"84":0.22341542903874406,"85":0.061480074090756565,"86":-0.10687341137847148,"87":-0.09071600316381394,"88":-0.02339020314038243,"89":0.1384615106329759,"90":-0.004481316710746925,"91":0.03524398612915936,"92":-0.018198427421351023,"93":-0.10773446000083516,"94":0.10596948848370798,"95":0.08414369420735732,"96":0.11984192176221303,"97":0.07952859168867943,"98":0.02666539970123467,"99":-0.04082133706508001,"100":-0.040795887575001986,"101":0.08780185925730681,"102":-0.006796174228293189,"103":0.0006747468442328721,"104":0.05069892030216427,"105":-0.012948702397379849,"106":0.1160210805626176,"107":-0.02399675107063761,"108":0.03676340788500141,"109":-0.06232032989881636,"110":0.15899564661785023,"111":0.027462770780255535,"112":0.03885215785814747,"113":-0.010692869598049694,"114":0.039852659091904635,"115":-0.018877675323834248,"116":-0.032020793233105374,"117":-0.09825255092070037,"118":-0.06557716446467093,"119":-0.04429030704730038,"120":-0.006384539722100085,"121":0.008478425679486156,"122":-0.03794877393550491,"123":0.01729359934512538,"124":0.09443742756887546,"125":-0.013783089608630759,"126":0.10155203052317213,"127":0.06382499256897282,"128":0.073833306114627,"129":-0.023387302644800708,"130":-0.04066616899734431,"131":0.0885331313397268,"132":0.02545733118350862,"133":0.09913819976883578,"134":-0.03308463719142575,"135":0.03215071731291282,"136":-0.1020801174754902,"137":0.028408954025244487,"138":0.06489178374186635,"139":0.1053668620317164,"140":-0.0393062686896169,"141":0.06600892297863645,"142":-0.13556302866419445,"143":-0.06107824269619454,"144":0.02598928647643328,"145":0.06354184303144689,"146":-0.04583094773892106,"147":0.07019446663480756,"148":0.01570570397513876,"149":0.1483855607612433,"150":0.057957084390727366,"151":-0.04238733773072085,"152":-0.03528399577275359,"153":-0.10789544392491038,"154":-0.024377424582409195,"155":-0.010188757587505358,"156":0.05005600900405286,"157":0.08506034722187154,"158":-0.01959590919559529,"159":-0.009137660278261331,"160":0.020671061183509302,"161":-0.04037587288329008,"162":0.0628910878397116,"163":-0.023498591992293497,"164":-0.027823304534736082,"165":-0.09075495279395085,"166":-0.07928709872336567,"167":0.005469663300076802,"168":0.024471765193539045,"169":0.12380899400223547,"170":0.06072890817881733,"171":-0.058921051126402134,"172":0.014490659353525745,"173":-0.0420715643428638,"174":-0.13075378517368694,"175":0.039680478326744296,"176":-0.030232197448312924,"177":0.0338540497225138,"178":-0.07243679589107647,"179":-0.06635823810906738,"180":0.014671797659846926,"181":-0.1662445087946525,"182":-0.04061065896775523,"183":0.031582261629393094,"184":-0.020767842811927676,"185":0.06262914471648123,"186":-0.08422878622135442,"187":0.07977532713856567,"188":0.0002719672827355214,"189":0.1061712665180626,"190":0.16705954220410799,"191":0.12970451641613737,"192":0.01739588817776537,"193":0.013643011067439707,"194":-0.060808340136641256,"195":0.14402741803052194,"196":0.0228959775911613,"197":-0.033110364232622105,"198":-0.03708437022438594,"199":0.043656841518931865,"200":0.0709901109605124,"201":-0.04467313137896927,"202":0.10290530384741454,"203":-0.045405287689088025,"204":0.0058980140997829285,"205":-0.0061901274279209575,"206":0.003296919335257379,"207":-0.1163653688131136,"208":0.13317450405963904,"209":0.022091276910130856,"210":0.061503472874238546,"211":0.005166596700016267,"212":0.04108497533568487,"213":0.009993672437081857,"214":0.06993685864984674,"215":-0.006096529783495045,"216":0.020916990728952527,"217":0.003927623288076098,"218":-0.1138164058452358,"219":0.022637519405164938,"220":0.09627252076039958,"221":-0.08707047366163388,"222":0.03663543778606209,"223":0.10175477605438218,"224":-0.04673084045665053,"225":0.04233435909409079,"226":0.043163828372839275,"227":0.03423573661881496,"228":-0.03401001610623823,"229":-0.0421030281292801,"230":-0.03523997117964686,"231":0.014522235927660554,"232":0.029643094394134106,"233":-0.06417794832708122,"234":0.000013955007790746183,"235":0.010315889213903537,"236":0.036393350072251765,"237":0.033527760539730465,"238":0.0026846116161340504,"239":0.009196811109174577,"240":-0.03839022123943304,"241":-0.011382681668668097,"242":0.03116011345933662,"243":0.014716423339220719,"244":0.019645852160042557,"245":0.11280894785830982,"246":0.05433208354888627,"247":-0.02488969301205202,"248":-0.04659163682986475,"249":0.009708939271451136,"250":0.1257354029938481,"251":-0.06322629579425552,"252":-0.015375838869099906,"253":-0.004322543600343519,"254":-0.009911897087646773,"255":0.19561429838104633,"256":0.10073824335072344,"257":0.11658869789704587,"258":0.0028079993311351005,"259":0.045178748654151626}},{"sx":1,"sy":1,"depth":260,"w":{"0":-0.05071901234972956,"1":0.015286072978025826,"2":0.06932057531845925,"3":0.007583047769404348,"4":-0.05587193121303388,"5":0.10044803066035243,"6":-0.049547046598084524,"7":-0.04602666504471424,"8":0.11006778781809262,"9":-0.0746357889546312,"10":0.07142712577214907,"11":-0.055050036490695085,"12":0.07704659530231417,"13":-0.07594533139352566,"14":-0.026192695243149332,"15":0.08001964756550566,"16":-0.03710053873901575,"17":-0.02156881957585232,"18":-0.03857151793399674,"19":-0.04147271624091098,"20":0.056864348012190494,"21":-0.06665997296360633,"22":0.0011523157269520002,"23":-0.0018461743817637342,"24":0.01348210053823189,"25":0.09536298950527392,"26":-0.024072054770757297,"27":0.009195482566531696,"28":-0.02539374983676732,"29":0.028020560849562948,"30":-0.0057016272825404024,"31":0.05425146988176178,"32":-0.02387768172370031,"33":-0.049735818208585865,"34":-0.02014241856746906,"35":0.024952368773385008,"36":-0.08149789384953147,"37":0.003001544964430453,"38":-0.03752806156227834,"39":-0.03833954863808327,"40":0.013758641021815753,"41":-0.07054176282291928,"42":-0.09262497302528121,"43":0.07978364873794223,"44":-0.0018569235983307082,"45":-0.04313170777482686,"46":-0.11748985059735631,"47":0.0388317173210474,"48":-0.07966430682311634,"49":0.010712445751385182,"50":0.01784649483313316,"51":0.050236171149294476,"52":-0.007067420245215916,"53":0.0018101905876588352,"54":-0.04489840450730411,"55":0.12334179937247146,"56":-0.08028800003046849,"57":0.14842419447011893,"58":-0.04441655170948858,"59":-0.03239892672120495,"60":0.09723768059741611,"61":0.03658776952219086,"62":0.07204150700894778,"63":-0.10629671483051492,"64":-0.18452164235644256,"65":0.15803893783630057,"66":-0.022820250100422802,"67":0.07499861970627157,"68":-0.045844327678794594,"69":-0.006302480958646439,"70":-0.0006826545655882712,"71":0.07154791223341118,"72":-0.03767254568784309,"73":-0.08439850798983221,"74":-0.0047347196400522994,"75":0.08971108234484326,"76":-0.05667203557764775,"77":0.012157453750004899,"78":-0.12458606832958086,"79":-0.07232603382115409,"80":0.03329439267613229,"81":-0.07354008018891582,"82":-0.04150279184308398,"83":-0.07603335403469315,"84":-0.018073631557599924,"85":0.04440470167120818,"86":-0.03243067448931798,"87":0.05951245307833458,"88":0.06740362006953517,"89":0.12601834590813094,"90":-0.03503285427891198,"91":0.019102985630019793,"92":0.02263802782731629,"93":-0.021925435999989546,"94":0.0324213528722045,"95":-0.05803135409701608,"96":0.059710078263000406,"97":0.0702677833363873,"98":-0.07504345397147097,"99":0.027628745433028307,"100":0.06684566788608723,"101":-0.05795765065114437,"102":-0.07043786348799744,"103":0.015569589168511781,"104":0.06437128822277827,"105":0.01369327432763877,"106":-0.07753343016028243,"107":0.10337628872093678,"108":0.04081679999949432,"109":0.05873879837653368,"110":0.03934083627768208,"111":0.14135808555470245,"112":0.06919449597379249,"113":-0.017003414073642576,"114":-0.094353209550794,"115":0.032897087024245715,"116":0.0165753955654435,"117":0.017636968257380255,"118":0.025072678268001313,"119":0.011865474028187686,"120":0.10219139271506737,"121":-0.04786080829322021,"122":-0.13026336121693602,"123":0.0559127300110094,"124":-0.05529143735192225,"125":0.025255533171780985,"126":0.007404515880374729,"127":-0.09298193182413884,"128":-0.005603549718794323,"129":-0.02954095899633564,"130":-0.0014613377619392648,"131":-0.0006143129553143996,"132":-0.07574474817682236,"133":-0.08470492190467008,"134":-0.006529983850819892,"135":-0.03909183468088866,"136":0.001424920693791282,"137":0.07782829723285938,"138":-0.14220985784224707,"139":-0.09870450727213989,"140":-0.039719639490890725,"141":-0.006639401239912389,"142":-0.1547973955778025,"143":0.07576483395197012,"144":0.09718498143839359,"145":-0.047394207432326536,"146":0.00027760150333923047,"147":0.06724328760771163,"148":0.1406650496332916,"149":-0.01702887943789834,"150":0.022477408938989533,"151":-0.12527269453444426,"152":0.03432401167013371,"153":-0.10427396148616672,"154":0.009094899135884701,"155":-0.11585507531824478,"156":-0.01420544756668641,"157":-0.08941665622566772,"158":0.012444601077279903,"159":-0.06729608907709651,"160":-0.07607258560361178,"161":-0.07286331761551679,"162":-0.040884949780077715,"163":-0.03517711552728103,"164":-0.01954062261277274,"165":-0.0325285731139688,"166":0.10035762083695957,"167":-0.07208633491843387,"168":-0.03880637774426212,"169":0.05061842821316587,"170":0.015589857201928924,"171":0.016172344014392468,"172":-0.041604171549683704,"173":-0.09175509769378612,"174":-0.007548150063688574,"175":0.01424348367655624,"176":-0.009614371701740464,"177":0.04576575547796663,"178":0.0027612379637279795,"179":0.005638798121086451,"180":-0.010523243864196532,"181":0.07845418398628745,"182":0.045172642038224645,"183":-0.10583393069527988,"184":-0.012389641787508447,"185":-0.043028043511733845,"186":-0.0816031630204281,"187":-0.1273969742474965,"188":-0.07999473272597016,"189":-0.02571643396728206,"190":0.061260459772021846,"191":0.0083182818232525,"192":0.001340302506332424,"193":0.07067232514112819,"194":0.014982510501246476,"195":-0.055123489203141876,"196":0.046131559979521,"197":0.05312750183323117,"198":-0.015427032023801603,"199":-0.0038435865241655694,"200":0.13817849090384662,"201":-0.06555626743183232,"202":0.011852027724452296,"203":0.013534772112720507,"204":0.04436567671870974,"205":0.06700232595512824,"206":0.01666385356475453,"207":-0.05955330902936764,"208":-0.09710273463792639,"209":0.037647939977463116,"210":-0.055156659287684866,"211":0.06956227693884226,"212":0.10494097703502221,"213":0.007855936234927644,"214":-0.03133466925939014,"215":-0.0710673448850351,"216":-0.04949061246212416,"217":0.020835637510942036,"218":-0.07865586916255557,"219":-0.0802713205110688,"220":-0.04890294870330859,"221":-0.053875572632990074,"222":-0.0007668610170239663,"223":-0.06801490460336329,"224":-0.10464163466071953,"225":0.12059881282724452,"226":-0.018055631612856334,"227":-0.011348218934900556,"228":-0.036908359208709704,"229":0.04080975947056678,"230":-0.022129019634903012,"231":0.06580839760888328,"232":-0.0734002540455009,"233":-0.022940194166992625,"234":0.009944824472262751,"235":0.037496476031700574,"236":0.03001620529438291,"237":0.09503869394560256,"238":0.04894541206028651,"239":0.01655558353260256,"240":-0.0035999736783125565,"241":-0.06866912682332876,"242":0.1037665429649005,"243":0.015096303000972441,"244":0.029433141481949136,"245":-0.0182051819244803,"246":0.003194306245541316,"247":-0.018734956388683853,"248":0.06689201051189293,"249":0.022884671622058823,"250":0.044954747506816474,"251":-0.023042138610432646,"252":-0.017506320000482082,"253":-0.04187768183056113,"254":-0.015814427447011167,"255":-0.07763400691798066,"256":-0.0378641758202393,"257":-0.1683372136929067,"258":-0.03552921953405827,"259":0.06667786855391238}},{"sx":1,"sy":1,"depth":260,"w":{"0":0.032140127861682494,"1":-0.026773647691085277,"2":0.027632544380888125,"3":0.006940384310165826,"4":0.012653565816818866,"5":-0.14218412685934456,"6":0.06849500891103867,"7":0.07835005096925904,"8":-0.020090547937295887,"9":0.03119766166295521,"10":0.07732867481638102,"11":0.042486215499523965,"12":-0.038467392892152064,"13":-0.07602914020137978,"14":0.022193323850056273,"15":-0.03840236262521317,"16":0.057114068172406884,"17":-0.013806791747866316,"18":0.056129233544748976,"19":-0.02182123512715348,"20":0.12278037467863971,"21":0.03576854644145678,"22":0.03291718706100597,"23":-0.022617820260788665,"24":-0.025992191148601258,"25":-0.04240618087278246,"26":-0.050278049165292604,"27":0.09852382138932114,"28":-0.06835995022112863,"29":0.029185052442886952,"30":0.061492201931123695,"31":-0.0060825632590503715,"32":-0.104719945948668,"33":-0.02510051995021287,"34":0.07058870950535075,"35":-0.20866851385913598,"36":-0.09325838628960807,"37":-0.0054636318067095915,"38":-0.015393789935748253,"39":-0.15669224183727443,"40":0.03507435352153059,"41":-0.03180970972824683,"42":0.06508597659074346,"43":0.10281097808761064,"44":-0.01690545606904598,"45":-0.020368304108282727,"46":-0.04828340216034761,"47":-0.004817224467814116,"48":-0.08174516183838353,"49":-0.07699234174034139,"50":0.07003227908090506,"51":-0.02873912489973455,"52":0.028761122986817624,"53":-0.05340396930396294,"54":0.01890274775357195,"55":-0.08514942956106711,"56":0.013409818253246183,"57":0.010306722144057695,"58":-0.02022862429418525,"59":0.001588412692797282,"60":0.04528134456969717,"61":0.09666254217013218,"62":-0.04339135818096248,"63":0.07171400553070778,"64":0.044048537884979644,"65":0.0618308714486897,"66":-0.04056865939663736,"67":-0.0018628682284306732,"68":0.09399948450158248,"69":0.030662829052536447,"70":-0.04304848468040284,"71":0.07056273081915215,"72":-0.03293966437575111,"73":-0.0669467329274761,"74":-0.013290344432789205,"75":-0.011560129945244555,"76":-0.0699268544773275,"77":0.07135242121710074,"78":-0.015260452133760299,"79":0.12383682951712115,"80":-0.04868841748772437,"81":0.06624019894801643,"82":-0.05659406094626885,"83":0.04089032816847995,"84":0.021725577626741432,"85":-0.06779279459519207,"86":0.0001435178875618761,"87":-0.05687910551489121,"88":-0.16279550952112615,"89":-0.020523293115912857,"90":0.058374124272305344,"91":-0.0013305214359051968,"92":-0.021927439572046736,"93":-0.03458126620584608,"94":-0.06728925837559373,"95":-0.007961040776708925,"96":0.11820803092498242,"97":-0.07843616727355253,"98":0.006747903820309208,"99":-0.015495489098879165,"100":0.0653121147521462,"101":-0.010306220996148576,"102":0.006519739596532952,"103":-0.005912548123223581,"104":-0.04596185711622172,"105":0.036113277078941665,"106":-0.10862706868731765,"107":-0.0625599650560262,"108":-0.10106705977757532,"109":-0.13934543138135044,"110":-0.06817543168825263,"111":0.0472622877349997,"112":-0.013085861158834936,"113":-0.06460416346167241,"114":0.016022598591601742,"115":-0.03742026204610253,"116":0.02316453325554606,"117":-0.0966428639405175,"118":0.07701114664573065,"119":0.10090633396103056,"120":0.0070770517193677615,"121":0.05955783169045441,"122":-0.02499050851700876,"123":0.05282568868940269,"124":-0.011047642143967694,"125":0.03178004905999325,"126":-0.005995688813490491,"127":0.003320821466283754,"128":0.05939730158220837,"129":0.004951022215877219,"130":0.0009695130677022161,"131":-0.04836368052259466,"132":-0.0022226242995029666,"133":0.0031099160914734247,"134":0.051734217280871124,"135":0.0736696820093571,"136":0.0046745350099232225,"137":0.04233634739151889,"138":0.011784921641676242,"139":0.02082011289304924,"140":0.0900395734387227,"141":0.07654658410787017,"142":0.01326240183628389,"143":0.061941312064880606,"144":0.05551013381777445,"145":-0.015174247999768754,"146":0.07178601380969257,"147":-0.11725773344366809,"148":0.08229873715879747,"149":-0.2124943992440523,"150":0.023556474593713028,"151":0.01208633865216507,"152":0.09553422619960468,"153":-0.07477328179900773,"154":0.08256524259140305,"155":0.048035396487174704,"156":0.022848995332789966,"157":-0.015954073672594406,"158":0.0212315445296257,"159":0.046106766722265304,"160":0.06261575557329095,"161":0.03779337303912444,"162":0.09111847581369137,"163":0.039013508171631364,"164":-0.03627052378088312,"165":0.057341019514215254,"166":-0.028927393532552158,"167":-0.09496501778405389,"168":0.09701191281227502,"169":0.07486634328948283,"170":0.01948355888681806,"171":0.06743734437301463,"172":0.06351745329690861,"173":-0.0243311063278777,"174":0.010392018657996388,"175":0.02029765015581896,"176":-0.04769547898752507,"177":-0.026260777593496785,"178":-0.18007474200580842,"179":-0.09382673424220866,"180":-0.048370477033701814,"181":-0.1366961046751291,"182":0.00034395133993640666,"183":0.0942244748605185,"184":-0.0285038247346955,"185":-0.006519463177633054,"186":-0.0765699942320093,"187":0.001828714888939754,"188":0.009344706496598871,"189":0.09376311657663965,"190":-0.046011281837242735,"191":0.012310219564851888,"192":-0.07183959748917795,"193":-0.14020410246372558,"194":0.052678017830058696,"195":0.08606300213235114,"196":-0.008142393343450493,"197":0.1308330555048741,"198":-0.060293289647692414,"199":0.05133817890214165,"200":0.016529860842028458,"201":0.08674090939483561,"202":-0.11028895945936797,"203":0.14414933272293443,"204":-0.031959005975111136,"205":0.014982681496047302,"206":0.15010181581906795,"207":-0.01181734812963773,"208":-0.06405502222335151,"209":-0.023113492637794535,"210":0.02734344840258776,"211":0.09373960764108247,"212":-0.07982293130323138,"213":0.007898663177180248,"214":0.1543437516717696,"215":-0.031427879852312116,"216":-0.07711134254976856,"217":-0.06694656125121479,"218":-0.07552194514383796,"219":0.018162666689914765,"220":0.006980224710675164,"221":-0.04250419848089008,"222":-0.07057432122304064,"223":0.10372552253902981,"224":0.04085402182457213,"225":-0.03794133870409985,"226":0.049153415435625014,"227":-0.001235205492105386,"228":0.05660772746402997,"229":-0.004962583751738687,"230":-0.015587699830275225,"231":-0.06999215509599471,"232":0.14001871365178364,"233":0.0749168345415331,"234":0.02117822099439877,"235":0.044721321431755855,"236":-0.1361825687407864,"237":-0.02373057539918373,"238":-0.03426260283910495,"239":-0.013699656039366617,"240":-0.003155749156734761,"241":0.08867297661566859,"242":0.026439473259300104,"243":-0.06635398992008391,"244":-0.047610523498747497,"245":0.026324803148585915,"246":-0.05346190781817991,"247":-0.02070229373501857,"248":0.017440525801089075,"249":0.0007412045827346168,"250":0.011643966417921113,"251":-0.02624735320164486,"252":0.0318329479807628,"253":-0.092253547750472,"254":0.098880643649519,"255":0.006475124031983378,"256":-0.0845056993831537,"257":-0.041978637247287606,"258":0.08442032002873512,"259":-0.0668788268408167}},{"sx":1,"sy":1,"depth":260,"w":{"0":-0.018920418294618234,"1":0.12314843857744959,"2":-0.005601116683528601,"3":-0.0855738794606963,"4":-0.02018721255909324,"5":0.0695912904990568,"6":-0.02999771144668267,"7":-0.07941827690281163,"8":0.013576979308928226,"9":-0.014801515005324336,"10":0.00788090597933474,"11":-0.00503531975545783,"12":0.08798147765465213,"13":0.07119333390510928,"14":0.05597015916156282,"15":-0.02646290053263964,"16":0.08521873524769036,"17":0.03793108683348463,"18":-0.049654351378204675,"19":0.0817810183219533,"20":0.149951588690918,"21":0.005143524533925072,"22":-0.07433351857486456,"23":0.017248056942411265,"24":0.0614406863385603,"25":0.06998614289848858,"26":-0.04191888826644211,"27":-0.011620965253303417,"28":-0.08656514769558349,"29":-0.017119071826631267,"30":0.031147800508477902,"31":0.013882983093776845,"32":-0.11478674369107282,"33":0.03489430304970625,"34":-0.00923781359325541,"35":-0.09625398943324212,"36":0.002004939091969746,"37":0.1277543347975105,"38":-0.01760034918511825,"39":0.04809149855563374,"40":-0.08521747475144413,"41":-0.08541642138554095,"42":-0.0474029049079715,"43":0.028200077493737388,"44":-0.0988980725651814,"45":0.015060459880953146,"46":0.044898849511682784,"47":0.09524077547946863,"48":0.1376745391733034,"49":-0.003996476914728857,"50":-0.007877174261975926,"51":-0.06284559890475785,"52":-0.07929300978097191,"53":0.05885108622358852,"54":-0.06015375881498927,"55":0.07246858662936048,"56":0.04988431619929078,"57":0.0616088891220758,"58":0.035927290198420156,"59":0.030387252503027172,"60":-0.018124742937856472,"61":-0.009361172907632673,"62":-0.036649244099162544,"63":0.04941052603233257,"64":0.07335126230279249,"65":-0.05352639799570634,"66":0.012167771998391986,"67":-0.02367619629773373,"68":-0.0047555155988823605,"69":0.06570918275580652,"70":-0.07803084199649082,"71":-0.048539213626212566,"72":-0.00887289003833132,"73":-0.025379882585592012,"74":-0.1404201851825819,"75":-0.05880753215851999,"76":0.07662400974963754,"77":-0.042639328582306214,"78":0.03165902982007455,"79":0.011650625828792116,"80":0.1031817856673188,"81":-0.014801555721764214,"82":0.13284018591150004,"83":-0.03137844280018201,"84":-0.22363856162415668,"85":-0.04165939464264204,"86":0.060218000274260275,"87":0.0947412995475514,"88":-0.07583512518272828,"89":0.08928887114045919,"90":-0.10415228288802819,"91":0.044903304465770864,"92":-0.06007809721667059,"93":0.0017081208832773064,"94":-0.047222921395022134,"95":0.004268769673908181,"96":-0.044060246484944714,"97":-0.07242091154642319,"98":0.1110242019197465,"99":-0.055161365929269776,"100":0.0591757096075058,"101":0.028075467147623063,"102":-0.10004599362449343,"103":-0.02108198899319514,"104":-0.02582557162549572,"105":0.12384390688472349,"106":-0.04348404443846243,"107":0.0518699750729164,"108":0.024110906876290455,"109":-0.006036513275160414,"110":-0.015843374760677844,"111":-0.07654077518047286,"112":0.04784740257932718,"113":0.12021126319711077,"114":0.034969318046229325,"115":-0.018065881679713052,"116":-0.0049166260007197475,"117":-0.01624005604192912,"118":0.00897754301487042,"119":0.0321369413130477,"120":0.0023250399978379933,"121":0.0015673143649283339,"122":0.1271086503675647,"123":0.09458351956261088,"124":0.03490848496629621,"125":-0.009752017475673886,"126":-0.02914310766252083,"127":0.06683799396508583,"128":-0.05588398388512086,"129":0.08838854374756759,"130":0.019302914613421564,"131":0.12739961157709687,"132":-0.045107414937320144,"133":-0.019641526098876757,"134":-0.0004665877687573607,"135":-0.036953825293791175,"136":0.09979009299589649,"137":-0.04505556843475934,"138":-0.08839157085112598,"139":0.115237453746647,"140":0.04718379360622604,"141":-0.0021519396381904144,"142":0.029935635143497452,"143":-0.19840775394427776,"144":-0.0408143411768486,"145":-0.06480696524788192,"146":-0.0012734557118253334,"147":0.021969406869941692,"148":0.11431775207260526,"149":0.0142089634393108,"150":0.06993176477038147,"151":0.07799631341315648,"152":-0.04994480449635586,"153":-0.01216163621015625,"154":-0.0639611012565482,"155":-0.15334800936649592,"156":-0.004659099950538186,"157":-0.043508152041545234,"158":-0.14549199956013958,"159":0.05929134636193951,"160":0.043434318530992944,"161":-0.050557873333955866,"162":-0.0012703034980118212,"163":0.021528807870667563,"164":-0.007411670572846041,"165":-0.08371271068188735,"166":-0.09273297815013218,"167":0.014168490210655367,"168":-0.09432493308973852,"169":0.08150591180388823,"170":-0.022375178849781165,"171":0.002532592773696331,"172":-0.027183855548635994,"173":0.0825635113614753,"174":-0.005819247544107984,"175":-0.04270920301650283,"176":-0.009793342103791739,"177":-0.04592728384378898,"178":0.015191970166794662,"179":0.09159824123639579,"180":-0.02614527843801532,"181":-0.029099315829347817,"182":0.14443790625952407,"183":0.060673104575581414,"184":0.02054955366761253,"185":0.021279718534504444,"186":0.0001340826465212956,"187":-0.049433877939302956,"188":-0.008757237383149596,"189":0.07192500186941032,"190":0.10149246037112705,"191":-0.0780424696038609,"192":-0.01905766880538408,"193":-0.039081450929552806,"194":0.0016637685778390502,"195":-0.018428674567688832,"196":0.0357559711495836,"197":0.10488021405980992,"198":-0.0039645556563506846,"199":0.10515925099408871,"200":-0.02093457974394714,"201":0.029898401605339037,"202":0.04922979640991569,"203":0.05836302504583989,"204":0.01986694069235216,"205":0.05723008845824847,"206":0.0004714298216611565,"207":0.021603415001617263,"208":0.10294318314674654,"209":0.047038105220943933,"210":0.03753501563474322,"211":0.018719532429230863,"212":-0.03825716651776575,"213":-0.020893294352342655,"214":0.018744936542490393,"215":-0.0022200199542317047,"216":-0.03830622782962358,"217":-0.0898194914448811,"218":0.029327178277335386,"219":0.01174745323526989,"220":0.0862582807546797,"221":0.016012823021853213,"222":-0.01073755926699775,"223":0.05701803781694426,"224":0.0034494041986888047,"225":0.02840784108810112,"226":-0.062452772161953364,"227":0.04449585437380687,"228":0.1035336952174627,"229":-0.10049163885541967,"230":0.022600922382684126,"231":-0.08871157299596233,"232":-0.034368051038018245,"233":0.04747108653398149,"234":-0.035509904603682606,"235":0.04106323063396182,"236":-0.03973656165627664,"237":-0.06862358706829434,"238":-0.0756850787770517,"239":-0.07157305038631769,"240":0.08470478280160233,"241":-0.01847156800787434,"242":0.05040638830402548,"243":-0.005823912725302026,"244":-0.09485770772047732,"245":-0.0017296168026643543,"246":0.0053596844332248214,"247":0.07307871414481473,"248":0.0016914815042276693,"249":-0.0337861448729625,"250":-0.11536288177164088,"251":0.028466690975368598,"252":0.05590421453176724,"253":0.08190874274896666,"254":0.050846664048002053,"255":-0.1330100814021901,"256":-0.03587314093975771,"257":-0.0008134983769429667,"258":-0.0935490766662744,"259":0.036111798679367924}},{"sx":1,"sy":1,"depth":260,"w":{"0":-0.17075417853531563,"1":-0.07194504008767531,"2":-0.06902928160340449,"3":0.10915973188646143,"4":0.023999429433009277,"5":0.04409653304382692,"6":0.07983901854730106,"7":-0.04658595640517136,"8":-0.0394181784244668,"9":-0.008462441178011235,"10":-0.03942089497800553,"11":-0.03206309536580582,"12":-0.029559853900346284,"13":-0.10574905147106572,"14":-0.08211163245660366,"15":0.003972785061111057,"16":0.019144302584104992,"17":-0.16883058512151294,"18":-0.022598832350073646,"19":0.05768703491083837,"20":0.074893734684389,"21":0.06616599349957446,"22":0.054953513264465514,"23":0.05858189017502226,"24":0.15541550020328193,"25":-0.052317964621000794,"26":-0.052719500899148355,"27":0.07257371669234157,"28":0.04614587754755606,"29":-0.0035759042633030608,"30":0.010513888683558853,"31":-0.06463956708077104,"32":0.005908229038188802,"33":0.10036671025164048,"34":-0.09571780843568337,"35":-0.06049132621695461,"36":-0.026825733806777243,"37":0.007796304076976729,"38":0.02157169511906416,"39":-0.11026569455326835,"40":0.0021904143136455847,"41":-0.17289059831313566,"42":-0.06785325331051435,"43":0.09179157952350002,"44":0.03943186910363276,"45":0.06949233816171208,"46":0.023458626144752286,"47":0.045618202794663845,"48":0.043257283156915134,"49":0.02790705514159024,"50":0.009221073428694684,"51":0.1210430455613257,"52":-0.04051788176923416,"53":-0.0024647003641028752,"54":0.01845599220611107,"55":0.023295696845419732,"56":0.062026432665908245,"57":0.030379231783183983,"58":-0.14935525779143458,"59":0.010034108173271862,"60":0.05102241481506374,"61":0.07011684937953572,"62":0.0028272757788977304,"63":-0.05640273360822686,"64":-0.13321034786706074,"65":0.04894050701926571,"66":0.021479099555695155,"67":0.0014245961242788212,"68":0.0045206303514494246,"69":-0.01964781276894296,"70":-0.07450009666415686,"71":0.001280137180510976,"72":-0.04072885381465669,"73":-0.06681226664554685,"74":-0.06801830634280825,"75":0.027489741059324314,"76":0.052646664773318134,"77":0.06710051419346937,"78":-0.00744775691628647,"79":-0.013468637356839256,"80":0.0176887422280879,"81":-0.03333928990359779,"82":-0.021588475116579034,"83":-0.05840995743086534,"84":-0.04779443349374142,"85":-0.012390690457434381,"86":-0.033140323962981035,"87":0.061587296749395795,"88":-0.1285470702873227,"89":-0.055872047870625816,"90":0.0029980635953112244,"91":-0.0036982565575161704,"92":0.045320198228733184,"93":0.038753841102585077,"94":-0.1291414370572183,"95":-0.028720289644679278,"96":0.07683815047511255,"97":0.02375960991602833,"98":0.010981664610672796,"99":-0.03442071200677169,"100":-0.06250324395513043,"101":0.062154679345961195,"102":0.04359208444371819,"103":-0.06810028086351905,"104":0.04284114947445585,"105":0.07203710183809905,"106":-0.0068577974762549,"107":-0.076117116388809,"108":0.03503187431897408,"109":-0.023356931662174042,"110":0.031754334402633,"111":-0.011610589866236977,"112":0.04094884626049749,"113":-0.027501072016243612,"114":0.0277013681493494,"115":-0.020749049169748734,"116":-0.14431680753334197,"117":-0.05725662169344673,"118":-0.01665270604329484,"119":-0.07876137763130145,"120":0.05955026270513442,"121":0.04551185683013394,"122":-0.00017099620762175367,"123":0.023767580656913256,"124":0.051355299066886545,"125":0.04816285803837865,"126":-0.05451564694817427,"127":-0.11200173331841258,"128":0.14705469794043258,"129":-0.02367346565692077,"130":-0.02453157691337178,"131":-0.00395852785139122,"132":-0.08095424998736268,"133":-0.0045348936442875165,"134":0.0807469449838523,"135":0.07480147366013563,"136":0.002942062427583764,"137":-0.02308809492986836,"138":0.03564355535865715,"139":-0.019579569426165462,"140":-0.04584798681994466,"141":-0.04162040416064329,"142":0.02955768718466363,"143":-0.0654283727654153,"144":0.04171003000631119,"145":0.07918404794421233,"146":-0.046870431392352876,"147":-0.0005988408821976753,"148":-0.05554510764518141,"149":0.04174394845703582,"150":-0.06526296884023228,"151":-0.05915880083905651,"152":0.08777180913311662,"153":0.06349907492702854,"154":-0.03128147924495652,"155":0.04906163215421265,"156":0.04170679648711315,"157":-0.08275432828270121,"158":-0.018301438311602844,"159":0.03853891477524527,"160":-0.10175234441118457,"161":-0.048278939382185214,"162":0.0020140337574576315,"163":-0.051516470318047146,"164":-0.019685302816825644,"165":0.03217640753785298,"166":0.030972454610081825,"167":0.1673393591002272,"168":0.018938585298620966,"169":0.08832247966075162,"170":0.02540220067825648,"171":-0.06850293526114949,"172":-0.03716772942172905,"173":0.035040706832654055,"174":0.03348322093408624,"175":0.020412587998240493,"176":-0.008244153124130637,"177":0.08255341098894405,"178":-0.012544508831719401,"179":-0.04997124091096773,"180":-0.06743780297175576,"181":0.020524121921058288,"182":0.04428473945698213,"183":-0.00524039833895967,"184":0.002265921609308171,"185":0.035819791872087746,"186":-0.02942920130718402,"187":-0.036775969125202215,"188":-0.039026185351664106,"189":0.054602969261420595,"190":0.050722159148865645,"191":0.030708873615283298,"192":-0.02280059482037537,"193":-0.0008454378661937037,"194":0.042099410487331825,"195":0.062111971288642855,"196":0.025956146027353806,"197":-0.025259536121985494,"198":0.04529056350221362,"199":-0.028747812680130654,"200":-0.03938497765316648,"201":0.00944240780057265,"202":0.014323027381857315,"203":0.15204753505933002,"204":-0.13320229056048158,"205":-0.15532179570461366,"206":-0.00514372886901385,"207":-0.013639928757709122,"208":0.0237992812856122,"209":-0.017799084353786063,"210":-0.13613689605651202,"211":0.05325507576606442,"212":-0.01880570284376621,"213":0.0022706875327532018,"214":0.08258064553616706,"215":0.09309350293989625,"216":0.006782249423395224,"217":-0.11857816199398882,"218":0.022657542023436325,"219":0.041535667073195934,"220":-0.06520104913606524,"221":-0.11339706849426236,"222":-0.025540566728768317,"223":0.03477859106044392,"224":0.04340063134391623,"225":-0.11815180950473772,"226":0.014209279417051803,"227":0.014954262692282968,"228":-0.05188539286307906,"229":0.08613484786860849,"230":0.055311317349402526,"231":-0.04889328428372009,"232":0.007151931609621711,"233":0.15746809780624427,"234":-0.04933624403311412,"235":-0.01754937621650669,"236":-0.048193598922835604,"237":-0.027378290698306086,"238":-0.08672766858737367,"239":0.03798577904918656,"240":0.03730743275941457,"241":-0.027408003397280077,"242":0.12829003049238374,"243":0.09905961978142101,"244":-0.03619424047300023,"245":0.10452656443622667,"246":0.03948620651257778,"247":-0.019255687970075576,"248":-0.01276962455488257,"249":-0.013925050102715093,"250":-0.052998341339840674,"251":0.008226838847573177,"252":0.0423690379316209,"253":0.005443929088484577,"254":-0.039630716997141824,"255":-0.014467658804835951,"256":-0.11515240557039062,"257":-0.0977362523752071,"258":0.06569651478182299,"259":0.0652457785394671}},{"sx":1,"sy":1,"depth":260,"w":{"0":0.02070160812160787,"1":-0.01743333742195613,"2":0.03911932519735455,"3":0.020703352549648658,"4":-0.046415093215696916,"5":-0.05070021970898623,"6":0.05597407702268455,"7":0.05482817841883947,"8":0.02147286019381584,"9":0.007661227887368727,"10":-0.0411670074304676,"11":-0.0004731071680121469,"12":0.1114405798540387,"13":0.12466392691554526,"14":-0.08092082189852308,"15":0.05422124663232126,"16":-0.038781520177969354,"17":0.062393038940110106,"18":0.0030521585027333165,"19":-0.04376619718020527,"20":0.01424416387869664,"21":0.003954613679754792,"22":0.00832886238222707,"23":0.02050915898439917,"24":0.15480534976883975,"25":0.03253609028844375,"26":0.03668612829577347,"27":0.04420150247645814,"28":-0.08896608908316068,"29":0.11467993783561545,"30":0.01839856106899139,"31":0.08925147842732545,"32":0.055429028577944524,"33":0.006433345559952236,"34":0.030043823058682695,"35":-0.02037889048463137,"36":-0.03293211180564645,"37":-0.006118344538977363,"38":0.036408298155762096,"39":-0.05076556316061181,"40":-0.05680803065825878,"41":0.11860655098493333,"42":-0.013680442596814902,"43":0.04802821102007128,"44":-0.026509762615245062,"45":-0.10865740114413855,"46":-0.040860427258546085,"47":0.0634916501019023,"48":0.028137390099519582,"49":-0.001370878846723429,"50":0.05577881052836945,"51":0.061664427183635136,"52":0.08506734579463653,"53":-0.0037464754892948984,"54":0.07002147552094763,"55":-0.005588554162095153,"56":-0.004281939033921993,"57":0.0269568439954901,"58":0.005984459527269582,"59":-0.04365789172131918,"60":0.1278576278086625,"61":-0.024224615938888874,"62":0.06900947308550728,"63":0.0546254062535871,"64":-0.03486372149534425,"65":-0.05712535011274876,"66":0.05783312087268594,"67":-0.009434069250921006,"68":0.0305077928541816,"69":-0.07581470736959878,"70":0.03240007625173231,"71":0.1108938327676094,"72":-0.0866740878982455,"73":-0.017169350966161845,"74":-0.07237390218762707,"75":0.02975094837600903,"76":-0.03700715771261382,"77":0.007999161533951506,"78":-0.0009601772811554135,"79":-0.027306001123104353,"80":0.03488650352660712,"81":-0.03483445395076399,"82":0.10272934140100298,"83":-0.05164063686138569,"84":-0.026981001703908124,"85":-0.029558878188585793,"86":0.01224352302879497,"87":0.059371582230232194,"88":0.041889675084158716,"89":-0.14294069184431588,"90":-0.07056217168288191,"91":-0.005065453436346266,"92":-0.044577471537819525,"93":0.045044032289815406,"94":0.08465872743931915,"95":0.04016926018695931,"96":0.07954575007622383,"97":0.043152832259712705,"98":-0.015203174489629965,"99":0.10494756790840878,"100":0.01627618989387198,"101":0.0657763009969065,"102":0.034020772416288966,"103":0.0002903624272455158,"104":-0.0812176441463412,"105":-0.025401501200470387,"106":-0.0446131189069253,"107":0.04071805681668487,"108":-0.05155716263339365,"109":-0.027512168140144396,"110":0.12117082822023345,"111":-0.06891205053700347,"112":-0.10701977900230174,"113":-0.08130044572939484,"114":-0.05581334480482788,"115":0.0241286391774453,"116":-0.09918527483210614,"117":0.010302353071529423,"118":0.0703363435782065,"119":0.04768079151288374,"120":0.0027027739420109565,"121":0.029756797822606495,"122":-0.03341826414273766,"123":0.004014701829909615,"124":0.09703197866944405,"125":-0.030100683719114396,"126":0.013038817243405115,"127":-0.03796125576218797,"128":0.014419464780126033,"129":0.008788380336812163,"130":0.019579067095392665,"131":-0.039004317976119134,"132":-0.00568113029784387,"133":0.03906031863233274,"134":0.022519676586962762,"135":-0.024389607812080952,"136":0.09219276899608801,"137":-0.09753012521010226,"138":-0.044535082178942045,"139":0.13641554972699305,"140":0.029265722910508447,"141":-0.10331309552359083,"142":-0.24637291944274706,"143":-0.001342168232614418,"144":0.11837252620987118,"145":0.0474293162781693,"146":0.04320281023318972,"147":0.10366995035815156,"148":-0.02679403832915477,"149":0.03970951940126934,"150":-0.022011597922118507,"151":0.019365444859307225,"152":-0.043462659565186385,"153":0.11763715655708132,"154":0.014834384084750164,"155":-0.0015119844869370886,"156":0.022490023901025797,"157":-0.028580382484374726,"158":-0.055930743196960384,"159":0.03105845254010634,"160":-0.06760979179046021,"161":0.027256406572881618,"162":0.006521869384437909,"163":0.06728928019883644,"164":0.009891689330703503,"165":-0.0386899095613104,"166":0.03467530358380565,"167":0.06389704985922671,"168":-0.014773872069907695,"169":-0.07032512258851775,"170":0.09583741817519568,"171":0.025137338656463552,"172":0.13184516022115295,"173":0.08380283395143746,"174":0.0856395359271814,"175":0.09973776200890885,"176":0.004507854532276748,"177":-0.02888907339888603,"178":-0.03647656740969563,"179":0.061983692521025424,"180":0.018897706282996078,"181":0.12024222803664078,"182":-0.011503602277641896,"183":-0.019191882952255355,"184":-0.030968315352212217,"185":0.045862410089544337,"186":-0.02792938968651367,"187":0.058725495084043844,"188":0.08296966350296599,"189":0.07859080189970809,"190":-0.11555000467318956,"191":-0.019663388368541524,"192":0.005314950907202483,"193":0.05187627645219928,"194":-0.02352827584804767,"195":0.1129275545878501,"196":0.042006563178715636,"197":0.04788837333439407,"198":0.0007962505525336977,"199":-0.03807042320240003,"200":-0.037095564576423774,"201":-0.03375197065830387,"202":-0.06131897409521427,"203":0.01152623995108709,"204":0.04343738470618037,"205":-0.008679533947551842,"206":-0.016528977390065536,"207":-0.02896153152671628,"208":0.07069894395160398,"209":-0.00603366101277321,"210":0.05905060782034055,"211":-0.025592629136816532,"212":0.018057472316183366,"213":0.03470033658168702,"214":0.047462071887693635,"215":-0.01720830878884403,"216":-0.028863045880853106,"217":-0.04474987773885411,"218":-0.015337466909806504,"219":-0.004919587304986964,"220":0.03405707162282935,"221":-0.003479339003058697,"222":0.030723692123076338,"223":-0.09791845409609112,"224":-0.01746894881522364,"225":0.0006096242473958178,"226":-0.023537992095655186,"227":0.08355000269225143,"228":-0.02217272552754744,"229":0.009011936213269088,"230":0.029085985544878106,"231":-0.06321548118828234,"232":-0.002602426121179743,"233":0.1046605100334073,"234":0.06048081297704076,"235":-0.040555927390840144,"236":0.0015256665753559308,"237":-0.03858723707055551,"238":-0.06966220992879554,"239":-0.008740782324752956,"240":0.02433675210056019,"241":-0.04814113664592962,"242":0.025008972622776775,"243":0.07502764112691032,"244":0.009310871350330234,"245":0.0012051538721849341,"246":-0.025146093211201898,"247":-0.007655937808991197,"248":0.0593208505509634,"249":-0.010520326359499113,"250":0.06641506756280838,"251":0.06041456517589967,"252":-0.08211160835628468,"253":-0.08545894962132533,"254":0.003912878962835405,"255":0.019801423028849796,"256":-0.01427112856787169,"257":0.08529987634279906,"258":0.07683266943221076,"259":-0.02902718132753134}},{"sx":1,"sy":1,"depth":260,"w":{"0":-0.0015789673454282816,"1":0.04615220368203574,"2":0.0847917841950982,"3":0.06018142280399096,"4":0.00025137735273682684,"5":0.02297124917590059,"6":-0.12414354080320962,"7":0.12669549707915867,"8":-0.008126674474480927,"9":0.023641079457227116,"10":0.026181300105556728,"11":-0.017188147043255924,"12":0.09769513648013395,"13":0.012651284240827758,"14":0.011966423149802933,"15":-0.036120935280053446,"16":-0.00692013274612915,"17":0.05466789778038027,"18":0.08776051921405763,"19":0.0004689407283406096,"20":-0.0944842496975442,"21":0.05362671558178842,"22":-0.017528399639404797,"23":0.1692142089421818,"24":-0.07149651397225894,"25":-0.026017079444222904,"26":-0.06302481722015175,"27":-0.033462947197886395,"28":0.014838843664533249,"29":0.0855417325638617,"30":-0.019877304261532138,"31":-0.007724891136475612,"32":-0.18108789766905836,"33":0.011290670699941295,"34":0.013573755149469414,"35":0.07019033858775688,"36":0.10728207058252272,"37":-0.0212651773575795,"38":0.0027582905693995905,"39":0.042756820258353874,"40":0.03111458483641257,"41":-0.04950790461484207,"42":-0.018265374314507463,"43":-0.07507382803304441,"44":-0.032414097209682566,"45":-0.08147446286404349,"46":0.08612007070560733,"47":-0.09473855828031577,"48":0.013104575204797584,"49":-0.009508774536692513,"50":-0.01600044251604254,"51":0.0069365925926787335,"52":0.06410730806347799,"53":0.010904173574972555,"54":-0.031018052290156892,"55":0.04132628028775429,"56":0.028276373492242816,"57":0.03166226190022468,"58":0.07544253074728709,"59":-0.07420501957962894,"60":0.006369973323836756,"61":-0.04200280909470621,"62":-0.056399151740722776,"63":-0.06682081117397048,"64":0.06470526790163879,"65":-0.060734401196206746,"66":0.14462773350573568,"67":0.009962333848597162,"68":-0.027132956594606156,"69":-0.05083173240477561,"70":0.016346112635347777,"71":0.06676751263223006,"72":-0.06277371644044294,"73":0.23790815717611014,"74":-0.03334480872871522,"75":0.14406176051698055,"76":0.05137011635287408,"77":-0.12392407892630662,"78":-0.0215640828329197,"79":-0.015313611556570421,"80":0.027092901039900683,"81":-0.04369808755179197,"82":0.007720781069212895,"83":0.029440247377484175,"84":0.05527177892540993,"85":-0.07432054786395212,"86":0.0728834639659354,"87":-0.07693173665363633,"88":0.024551380900780143,"89":0.030368286273413644,"90":0.07139501591848701,"91":-0.029277171084854735,"92":0.11408326265934197,"93":0.0005636740570212889,"94":-0.03223524263870201,"95":-0.0925947434499326,"96":-0.041109075349360466,"97":-0.10665440187426631,"98":-0.009472701342608308,"99":-0.18148961649467554,"100":0.05197658129029925,"101":0.06165886764605544,"102":-0.04214944382050361,"103":0.11931595647322582,"104":0.06119235393494384,"105":-0.00813619559501385,"106":0.006128283716873499,"107":-0.025766077908026774,"108":-0.09297197386632983,"109":0.031797409257161006,"110":0.016634485101670086,"111":0.00005137203465174309,"112":0.015092472873061005,"113":0.04615520695514788,"114":0.10179770697399237,"115":0.07526520101917916,"116":0.061430304888833734,"117":0.11969219072560303,"118":0.10028755996584268,"119":0.029388340894484874,"120":0.07426120010751305,"121":-0.0534601403376854,"122":-0.05635922020930071,"123":0.046786324423660715,"124":0.07195483886881819,"125":-0.030860132470868912,"126":-0.0588072592516766,"127":0.03969289485879618,"128":-0.009415024198133531,"129":-0.09261094787424105,"130":-0.08311150907837489,"131":0.032752442464563845,"132":0.05283248254211565,"133":0.05283285027182036,"134":-0.011085825983634013,"135":-0.03609942536688319,"136":-0.08908511030832757,"137":-0.08550842144920753,"138":-0.11254705778449245,"139":-0.018087911180775594,"140":-0.042494632662596406,"141":-0.030569912444081557,"142":-0.0014710463390967693,"143":-0.001605737519624801,"144":-0.00013663002287558676,"145":0.04415871420939083,"146":0.05890966604543189,"147":-0.02374291833042506,"148":0.04050417153872987,"149":0.023980312535283658,"150":0.062289792511455805,"151":-0.06747203145563546,"152":0.05295396305102823,"153":-0.08596020294211312,"154":0.025584773092292547,"155":0.09128195822865413,"156":0.03461273434701958,"157":0.15562788262271737,"158":0.0688211018875277,"159":-0.029819143587381355,"160":-0.009669429855534433,"161":0.09447204985766401,"162":0.018685129500763575,"163":-0.030958429844181012,"164":0.07814295926159301,"165":0.033014247537050734,"166":-0.011537592186766088,"167":-0.07586333364985696,"168":0.04533247172782504,"169":0.11527714441106762,"170":0.16147093370540586,"171":0.025879723969537517,"172":0.04314016523958135,"173":-0.01914675535015047,"174":-0.1637343834167209,"175":0.027110740299920156,"176":-0.09636097057523758,"177":-0.03801016620114411,"178":-0.02155177138763396,"179":0.04180513588905517,"180":-0.018064376162451025,"181":0.12788393820725158,"182":-0.038907075251892985,"183":-0.003662181866110381,"184":-0.016141547426806832,"185":0.08422805371787452,"186":-0.014688199957861027,"187":0.042965220690389376,"188":0.019879962452741175,"189":-0.050088347973528055,"190":0.024684014166173274,"191":-0.11672704700819694,"192":-0.01650737402805749,"193":-0.10246904164864645,"194":-0.058049083063783535,"195":-0.04505013925825867,"196":0.034711188013937265,"197":0.021567455103494497,"198":0.022283505390050723,"199":-0.04568131074275261,"200":0.015585896162523595,"201":0.0014973449009603069,"202":0.0063914849927827555,"203":-0.006675478526467252,"204":0.006683541429230167,"205":0.09295167490923843,"206":0.012688790173768361,"207":0.038424870882077966,"208":0.02756912821891439,"209":-0.011073123974040871,"210":0.02616390553338884,"211":0.025770663174112224,"212":-0.14178863162827884,"213":0.0869923233672548,"214":0.05405921678543194,"215":0.034593626169668594,"216":-0.07838049728750876,"217":0.010618111789148118,"218":0.06424369011575184,"219":-0.025136151523478686,"220":-0.06551350147778592,"221":0.0730470198908227,"222":-0.027470112218384145,"223":-0.06868665293314072,"224":0.051181309521251335,"225":-0.0016230017281783026,"226":-0.050602777541350355,"227":-0.006832570006955817,"228":-0.045545051386792566,"229":-0.06738863809968366,"230":-0.04003934500321004,"231":-0.12312478671338951,"232":-0.07251736660662284,"233":-0.02197450284892185,"234":0.02219586107502197,"235":-0.04625089846923779,"236":-0.01757585921733792,"237":-0.11078176582052604,"238":0.0555119014732961,"239":-0.0048324390907443435,"240":-0.03945490416025204,"241":0.032493579347276876,"242":0.07356283322285517,"243":-0.09302606287791063,"244":-0.04759541319498814,"245":-0.004569012535668866,"246":0.02184997502211883,"247":0.02491255906980175,"248":0.0337337674119625,"249":0.010191657791692968,"250":-0.051225237314299975,"251":0.11431034682286403,"252":0.04065889529086878,"253":0.06403025447690179,"254":-0.07242487823330065,"255":0.051536304778361464,"256":-0.03543945684527686,"257":0.07637644083933463,"258":0.07571668102313431,"259":0.15522635324430226}},{"sx":1,"sy":1,"depth":260,"w":{"0":-0.063277167455596,"1":-0.04833523371963042,"2":-0.09441046832563721,"3":-0.029762641553354584,"4":0.03760394185409715,"5":-0.05351345030855471,"6":0.012962126915423075,"7":0.025173395266634892,"8":0.042076762973799184,"9":0.001445235893929081,"10":-0.028600774793694696,"11":0.06117312932311522,"12":-0.015132819087545352,"13":-0.09150613421100319,"14":-0.08795150754554959,"15":-0.052965024009512356,"16":0.11784031127464845,"17":-0.07455721080074658,"18":-0.08095778518187072,"19":0.09666626159629654,"20":-0.05411866221080722,"21":-0.015599141426670368,"22":-0.0685079727504356,"23":0.1170625010814765,"24":-0.15421431450996018,"25":0.05871940840251695,"26":-0.08098270310458844,"27":-0.02372777252673754,"28":0.02436882005823411,"29":0.05871364794939218,"30":0.0734998348962301,"31":-0.08040086652087511,"32":0.05711154905920543,"33":0.02612902438394055,"34":0.027853534768314283,"35":-0.10341124293883493,"36":0.10756336040212917,"37":-0.0020394586114638974,"38":-0.06461635535870766,"39":-0.08086652268390326,"40":0.09741258702035147,"41":0.031205647993349604,"42":0.047452644325234876,"43":0.009284389991791304,"44":-0.010172310856031205,"45":0.046588583585193084,"46":0.06296276845244517,"47":0.014020133520361014,"48":0.03316854740958641,"49":-0.015040795966931359,"50":0.11862934073785161,"51":-0.04577990877098326,"52":0.0989739126820159,"53":0.013113285085540435,"54":0.08195923697603526,"55":-0.03205247484856613,"56":-0.0169537403795148,"57":0.02141951945689874,"58":0.03643219423593346,"59":0.01035059823440779,"60":-0.04844387143103914,"61":-0.009341270976275184,"62":-0.12099352865419569,"63":-0.0620579632116296,"64":-0.0663093276505587,"65":0.07472567179581929,"66":-0.021281066171596152,"67":0.1478598568470485,"68":-0.009735973982403818,"69":0.008611527345422152,"70":0.02766653334508719,"71":-0.05234824054496936,"72":0.009343592136419476,"73":-0.023379492145236516,"74":0.09649782095596833,"75":0.08305187030708017,"76":0.030584695939387216,"77":0.02597442257739019,"78":-0.04480633081067049,"79":0.07222784740631355,"80":0.05129916150940977,"81":-0.04634420925075718,"82":-0.02054824484466181,"83":-0.02102736811753603,"84":-0.09509877151744775,"85":0.02588156625448053,"86":-0.10425300004345961,"87":-0.040529009076411666,"88":-0.00281842745062516,"89":0.008173214109895365,"90":0.04249719327797048,"91":0.00554285116202712,"92":0.07163225301325785,"93":-0.03140190719799848,"94":0.012358464637076102,"95":-0.016633156015388725,"96":0.042729633558819695,"97":0.020625646434701415,"98":0.021327496064097798,"99":-0.0012544581537271638,"100":0.11756513927563411,"101":-0.07739361733514097,"102":-0.08118582839070067,"103":-0.033210194444486134,"104":0.0444283558181248,"105":0.026607704709624383,"106":0.004476816049759594,"107":-0.005371098725803893,"108":0.0653614255693303,"109":0.09069926516900477,"110":0.0013897409111007333,"111":-0.019968856090142043,"112":0.03062370165273636,"113":0.10643912325820609,"114":-0.043081352059270446,"115":-0.019346795946849224,"116":-0.004589319534908988,"117":0.10275601175409427,"118":0.0936852359404344,"119":0.012416088210237944,"120":0.08820023237379666,"121":-0.04074985901295854,"122":0.027091782230598643,"123":0.030533239250488824,"124":-0.007423848073022029,"125":-0.025739180698908393,"126":-0.07300420287263466,"127":0.010995379375323267,"128":-0.0604361802690331,"129":-0.008994680156117563,"130":-0.014325400122426056,"131":0.012613502643852227,"132":0.09440211757031262,"133":-0.07341759504386841,"134":0.006685907066359856,"135":-0.0400094326545804,"136":0.08124085757254139,"137":0.007339750610692894,"138":0.03342672445620163,"139":-0.038622363087777466,"140":-0.05362012064517273,"141":-0.06756388257420141,"142":0.06541803007522151,"143":0.02092562126118463,"144":0.06631862905773013,"145":0.07688578278720817,"146":0.0465364281220082,"147":-0.10980763417947943,"148":-0.11406030747255823,"149":-0.0639447337683357,"150":-0.058005404412601144,"151":-0.02290637178529132,"152":-0.03751386771329185,"153":0.050435463462208376,"154":-0.06467239546778246,"155":0.008445831951525788,"156":-0.03383525733300231,"157":-0.015453372353090283,"158":0.1104649360696249,"159":0.04973877041006801,"160":-0.09195468025971007,"161":-0.11732003193657045,"162":-0.09592481128174893,"163":-0.009904229843285945,"164":0.15003556293535716,"165":-0.08996033127612198,"166":0.06232209511247799,"167":0.05873896643442,"168":0.01846749981370811,"169":-0.015390921951852437,"170":-0.031472896256802045,"171":-0.040488271214346186,"172":0.02233307216493161,"173":0.00012392904880939348,"174":0.13936717071270616,"175":-0.05183856986471166,"176":-0.09332680604572352,"177":-0.05154665110597317,"178":0.09835365099887548,"179":-0.009710637356576577,"180":0.1356642538118777,"181":-0.12599819637422854,"182":-0.13496256857486044,"183":-0.053453398285592604,"184":0.056046840352470845,"185":0.0026359426844450185,"186":0.16293857032224515,"187":0.0193560191183252,"188":-0.06744090672457816,"189":-0.0002535008593532483,"190":0.0447227999680379,"191":-0.0700789689902449,"192":-0.06537869579763607,"193":-0.07135417455273836,"194":-0.04271447830033646,"195":0.04622777998668525,"196":-0.07595772884595607,"197":-0.052216717970100274,"198":0.018223773698795694,"199":0.016256270475007887,"200":0.09951848719647402,"201":-0.06495886440037972,"202":0.028770222081021906,"203":-0.02932879473503456,"204":0.052434113218267075,"205":-0.017237731920944663,"206":0.011971716874242332,"207":-0.03307914389693043,"208":-0.02593417607172861,"209":-0.07800956088235383,"210":-0.053027156979584496,"211":0.0008017672938518389,"212":0.026289777284245797,"213":-0.06732591510490843,"214":-0.016046245578258712,"215":-0.13559044999682887,"216":0.061013404033203815,"217":0.06453703358556136,"218":0.07825997765817803,"219":0.024130278678908695,"220":-0.07744797452749462,"221":0.049573497240378975,"222":-0.19726361523918817,"223":0.03634143891291964,"224":0.029888669598044943,"225":-0.05698851279889881,"226":0.13642137777248095,"227":-0.0023571585714357453,"228":0.10942463374850624,"229":-0.0528171886550545,"230":-0.049243766325693134,"231":-0.08826564520209514,"232":-0.02982751000322086,"233":0.07756297611414259,"234":-0.09415361389602306,"235":-0.0030015452574112577,"236":-0.036451416196372134,"237":0.005550854873612751,"238":0.1272226748999785,"239":0.18336886944841135,"240":-0.06207273389207511,"241":0.01163842338323653,"242":0.08043458273140155,"243":0.07389615182077347,"244":0.04759200475364443,"245":0.012380999109163552,"246":-0.003937636775639938,"247":-0.08052364478683022,"248":0.01916452969654694,"249":-0.041607689377217816,"250":0.0165311711107279,"251":0.06124501724623704,"252":-0.12972609079286349,"253":-0.08241666500105845,"254":0.05016050697777375,"255":0.05185772991100899,"256":-0.058012161175054665,"257":0.034189406102431597,"258":-0.009385414359777395,"259":0.0017278056993718747}},{"sx":1,"sy":1,"depth":260,"w":{"0":-0.031947552123765925,"1":0.007604758065639199,"2":-0.08080705151220775,"3":0.014604009377031317,"4":0.07002809729152636,"5":-0.007955239011859743,"6":-0.06014485414505683,"7":0.04093371610425969,"8":-0.06420757664020495,"9":0.03556922558446828,"10":-0.017555853271076546,"11":-0.020182255504002464,"12":-0.028723932971019956,"13":0.013946805988058938,"14":0.12991074225585084,"15":-0.11299042509659644,"16":0.018936232964437808,"17":0.09238537360365989,"18":-0.01156729274137042,"19":-0.0665823388085704,"20":0.07270109251608693,"21":0.03205888819546,"22":-0.1047944697363659,"23":0.00673732025630481,"24":-0.07568007608641886,"25":-0.03697028210430873,"26":-0.0190882198025415,"27":0.07029308495901657,"28":0.010765875365899043,"29":0.0039212667723214556,"30":0.08056320331561215,"31":0.06512072644776484,"32":0.0011215082812275595,"33":0.07335914833105014,"34":0.08182157473373235,"35":0.056412235235206824,"36":0.075272301319129,"37":0.11921094779974563,"38":-0.019435880131197344,"39":-0.1118173135852435,"40":0.01242600423838178,"41":0.037462652760929416,"42":0.058647529951861364,"43":0.0023740434637647156,"44":-0.03461002254630759,"45":-0.0035876877930593656,"46":0.008695538838956436,"47":0.006386902681330477,"48":0.015034341936934828,"49":-0.026270246569500773,"50":0.01195979445823906,"51":-0.018065257845267597,"52":0.051588075681656034,"53":0.11154592114562253,"54":0.03764550710866389,"55":0.008333621022965424,"56":-0.016630313183789595,"57":0.11586366644116192,"58":0.11755240101694278,"59":-0.0466001007049049,"60":-0.05828326086159663,"61":-0.06046890009323001,"62":0.06018522353436565,"63":-0.03553842166225597,"64":-0.022158158349577746,"65":-0.010555005019765678,"66":0.06273455759211866,"67":-0.09396438192732648,"68":-0.05192774802419924,"69":-0.05146510113655887,"70":0.08861311161939783,"71":0.027659948645218167,"72":-0.01726287172379456,"73":-0.11380307515065484,"74":-0.05775424378592698,"75":-0.13200017823507595,"76":0.02090237627621632,"77":-0.004677584494765705,"78":-0.0767652447380394,"79":-0.015954812416381168,"80":-0.05128927489633806,"81":-0.07752641709162433,"82":-0.04556374775063844,"83":0.045505804065847914,"84":0.009684724248186725,"85":0.05101915996023524,"86":0.06058378036553155,"87":0.0074904977299087815,"88":0.024588035855138513,"89":-0.005710815463008808,"90":-0.03638864381387635,"91":0.03123567276096289,"92":0.054494024264688516,"93":0.03337996216198951,"94":-0.09524798216815085,"95":0.05293461413133144,"96":-0.009538710089820239,"97":-0.1105556015651308,"98":-0.07403865478430319,"99":0.026089145625918974,"100":-0.13114875323610115,"101":-0.09019461311938712,"102":-0.04044152427360033,"103":0.05148767684167571,"104":0.034820715422341796,"105":0.033131589245400536,"106":0.06334862214373393,"107":0.07325945503929562,"108":0.015063120399088182,"109":-0.1613836013521604,"110":-0.11793228273801823,"111":0.08764037346281339,"112":0.006865373317463555,"113":-0.038225155950963194,"114":0.05160102632605923,"115":-0.07743201762035766,"116":-0.015256419694965405,"117":-0.07182886290034457,"118":0.007946581802221188,"119":0.08323691478690255,"120":-0.030330624151364113,"121":-0.06841714141064838,"122":-0.07028301933737732,"123":0.07732997305426699,"124":0.021801594874883208,"125":0.0006040446848248355,"126":0.06548136682975023,"127":-0.027987184811601108,"128":0.0011159648125365926,"129":-0.004505324082828536,"130":0.017706837742881624,"131":0.04685886529118706,"132":-0.013671019721734621,"133":-0.06443888697493216,"134":-0.12462500322349772,"135":0.014504308066608565,"136":-0.05508421714093476,"137":-0.0010538368492024977,"138":0.12640806744294747,"139":-0.042866835276281205,"140":0.003438833019690091,"141":-0.0032424970872306515,"142":-0.11040363176906082,"143":-0.031160378252910834,"144":-0.008902944948738655,"145":0.010429536632804928,"146":-0.030212849148889005,"147":-0.06939172403401869,"148":-0.1124729719277592,"149":0.022890957338768173,"150":-0.026131471601693185,"151":0.058311022201796986,"152":0.05199735745576916,"153":-0.11026075835062857,"154":0.001348248899446964,"155":-0.014971193287010805,"156":0.062385682340622244,"157":-0.08578873223827346,"158":0.08583761673543212,"159":0.10069062786964081,"160":-0.10436257720682175,"161":-0.07874052631953078,"162":-0.01739610391824094,"163":-0.20245361548317445,"164":0.019550870890342978,"165":0.08012402296042062,"166":0.0030497554528315573,"167":-0.0893681665350672,"168":0.052919376720644416,"169":0.13024559100684477,"170":0.05644313904255653,"171":0.00040152507598849985,"172":-0.025680746814808114,"173":-0.043004664138882875,"174":0.10173571335149367,"175":-0.1481430206989948,"176":-0.0785040895544781,"177":0.06471875884791532,"178":-0.09558970035614438,"179":-0.017923569294929154,"180":0.04921060127562334,"181":0.07512036280533826,"182":-0.030985006745213272,"183":-0.016310295186208017,"184":0.042163405265349084,"185":0.022269300152027525,"186":-0.08682515932541572,"187":-0.0966663183928783,"188":-0.0019367721090902902,"189":0.0073711666842613665,"190":-0.04011400706841057,"191":-0.03766575929213496,"192":-0.23842232286139523,"193":0.04614292934246204,"194":0.04762540623002906,"195":-0.04842204079306519,"196":-0.04398119632028071,"197":0.04762133692174546,"198":0.10610411592047016,"199":-0.09634239109805316,"200":-0.03500755989055557,"201":0.030064458474642338,"202":0.04803017909128917,"203":-0.03139130273474844,"204":0.01944165634607975,"205":-0.006535203367779218,"206":-0.05518284824556199,"207":0.010228288801143681,"208":-0.06446057166919794,"209":-0.06138948863701806,"210":-0.01299870783823323,"211":0.010899754857877936,"212":-0.0510904922112459,"213":-0.025904418462369325,"214":-0.0322101985775706,"215":-0.007960744631431337,"216":-0.13554075118681144,"217":-0.06553334384115901,"218":0.007679957942514491,"219":-0.0573363553568305,"220":0.06801113891196692,"221":-0.011665311227788806,"222":0.10939875231856672,"223":-0.056108997028369904,"224":-0.019010144884237457,"225":-0.0019500295053021172,"226":-0.03517831160570872,"227":-0.10867811809616995,"228":0.05831608207021035,"229":-0.010440742815613434,"230":-0.003797312580655474,"231":0.0007279260241292016,"232":-0.02818540554405419,"233":-0.011946251846525594,"234":0.03754793032353689,"235":-0.034387277411029954,"236":-0.016531255772015474,"237":0.05367468749468906,"238":0.034128173499398326,"239":-0.0033791185577525134,"240":-0.002526255927797409,"241":-0.059878055136817966,"242":-0.00357630639675925,"243":0.06627002318809017,"244":-0.04555160006967871,"245":-0.10024999983291397,"246":0.026309633238440322,"247":-0.05206201397386541,"248":0.09332479843975165,"249":-0.08375167261421554,"250":0.10617014757622333,"251":0.015532511794036386,"252":-0.04572308322534228,"253":0.03190101279163165,"254":-0.04755028915656528,"255":-0.018051760477386995,"256":-0.04498835029538379,"257":-0.016691858707340912,"258":-0.03943468493827955,"259":-0.03225930137990589}},{"sx":1,"sy":1,"depth":260,"w":{"0":-0.030020491505452256,"1":-0.058923478454327265,"2":0.06466059535650052,"3":-0.08098028791867215,"4":-0.0952636678849867,"5":-0.030425027945522043,"6":0.05318818761328482,"7":0.0030068672573912367,"8":-0.010628348941544822,"9":-0.022044560958228213,"10":-0.0189555575401051,"11":-0.017228647537550348,"12":-0.09198712468444781,"13":0.0012128331929655669,"14":-0.008086954447939061,"15":-0.03269011837461253,"16":-0.06481028798619126,"17":0.047161765569601694,"18":0.046180023087022896,"19":-0.04365665251458556,"20":-0.003368562114210673,"21":0.10584135383358798,"22":0.05335633341142779,"23":-0.1155503787679278,"24":-0.05895631748438913,"25":0.03985926671681986,"26":-0.04796037510871166,"27":-0.007230250528487211,"28":0.024294320496378214,"29":0.03304224832434809,"30":-0.03558460514650118,"31":0.01949199311811444,"32":-0.028180542652757164,"33":-0.06286136579073931,"34":0.06770667193291274,"35":0.007203765682933453,"36":-0.12037975600465171,"37":0.08260653373470998,"38":0.0315831140002339,"39":0.02190835497124743,"40":-0.0064231938541160424,"41":-0.026434112151095077,"42":0.046023580959528645,"43":0.023695786001563083,"44":0.019642487092876082,"45":0.018713617307414773,"46":0.026354976540576766,"47":0.0488618027190742,"48":0.028992245830826345,"49":-0.030852194829818696,"50":-0.004406867880738876,"51":0.0071086276565784255,"52":0.12276228245072647,"53":-0.04624490502769302,"54":0.00008844040092346241,"55":-0.0021950530443458328,"56":-0.01042281380665685,"57":-0.044116595362547355,"58":-0.10999053007049579,"59":0.008931849412583855,"60":0.02889763937633176,"61":0.008707094449532483,"62":-0.03164126527715905,"63":0.002031623741363999,"64":0.018648314429726375,"65":-0.038110691971674576,"66":0.02084565285318298,"67":-0.08913631261383521,"68":0.025591285051781144,"69":0.008553325889905943,"70":-0.00435107803372045,"71":-0.04934663086327054,"72":0.07749649544175055,"73":0.0029701342855727743,"74":0.03680428895413816,"75":0.04295532197409404,"76":-0.006268954991010718,"77":-0.08198899391360207,"78":0.04609283827781652,"79":0.06410813369050768,"80":0.02728146744580183,"81":-0.04412704429671743,"82":0.066585918021391,"83":-0.03976361685315058,"84":-0.08321989551126177,"85":-0.11450837039654291,"86":-0.0621091312804857,"87":-0.024368554600370056,"88":0.055197960887864835,"89":0.04863715887923677,"90":0.0014526662596785849,"91":-0.06743166632352597,"92":-0.007337110424243172,"93":-0.16216532891797275,"94":0.10831828707348456,"95":-0.03778663410801389,"96":-0.020027086832128053,"97":0.04313666535219283,"98":0.0509702558137393,"99":-0.13519704967271265,"100":0.05625945465774937,"101":-0.049571168145499216,"102":0.0059225620426147756,"103":0.053376149662989605,"104":0.03408488916372059,"105":-0.11835632566731792,"106":0.024239516639503838,"107":0.03427027554342019,"108":-0.017298049774044987,"109":0.007459328027891941,"110":-0.03739406288213582,"111":0.10263586743790502,"112":0.015349774688777754,"113":0.011618281279076565,"114":0.02690489016596168,"115":-0.17514897450179803,"116":0.0004494841406314925,"117":-0.00006564073755374165,"118":0.00907711590733917,"119":0.0866408139333073,"120":-0.003775971394235787,"121":-0.03819510698089057,"122":0.12316384642143578,"123":-0.09083360946488243,"124":0.07225604787482486,"125":0.12496931669237944,"126":0.03545403751918558,"127":-0.05301171432140468,"128":0.024813602452884307,"129":-0.03656894102552242,"130":0.0494537758832001,"131":-0.004819436545891937,"132":-0.07676589600922716,"133":0.03654769502687117,"134":0.046586863058417145,"135":0.0730702852601501,"136":0.06619156917054095,"137":0.0682615798778904,"138":-0.0735210323328686,"139":0.03694115112496691,"140":-0.07113546591311201,"141":-0.10057575212302197,"142":-0.0830347897894609,"143":0.033653108694892755,"144":0.08806141016773242,"145":0.05063124210200151,"146":-0.009948209971866158,"147":0.030084197384294537,"148":-0.05305622663578536,"149":-0.038467672711008295,"150":0.02013156648439079,"151":0.0416168835243144,"152":0.044454658561995514,"153":0.031150208019903747,"154":-0.03634244975478948,"155":0.0339148053317547,"156":0.03817274974318761,"157":0.02195475641673575,"158":0.12847634773636987,"159":-0.07863457068323781,"160":0.09819711029589155,"161":-0.08691702667166448,"162":0.0944491435822171,"163":-0.023516359653241448,"164":0.14716903685172977,"165":-0.1356855616902118,"166":0.08827202736083663,"167":-0.08653443460839677,"168":0.01118924032330507,"169":-0.14240337612182763,"170":0.011465523312548432,"171":-0.04811085538331115,"172":-0.10984601001752081,"173":0.05394748311378562,"174":0.054989206653405946,"175":0.007705678330984433,"176":0.0031727955775103377,"177":-0.12755879151480226,"178":-0.08121776568716517,"179":0.030760181870522745,"180":0.036746687080441175,"181":-0.023607139229987556,"182":-0.05054818647282804,"183":0.023853477082923215,"184":0.05222093194150801,"185":-0.024111567587736964,"186":0.0057154469813145954,"187":0.0510221222289889,"188":-0.005201861565521283,"189":-0.019266455942174538,"190":-0.057241000613707405,"191":-0.00222002048297924,"192":-0.0020115064841490253,"193":-0.027869680814851836,"194":0.16801936880157628,"195":-0.07586835141340781,"196":-0.053177499923639494,"197":-0.02015715600954842,"198":-0.005619180502213037,"199":-0.05837099789652003,"200":0.002701753933506093,"201":-0.019541353507036036,"202":0.02837206122947248,"203":0.01015419340843487,"204":0.009973700001192427,"205":0.01905257249349825,"206":-0.17522743047687184,"207":0.030857410666118856,"208":0.009013810483693614,"209":-0.01172953707066843,"210":0.032273025712385106,"211":0.05295287870959922,"212":0.04613856750746605,"213":-0.09915926918495283,"214":-0.03557513882450121,"215":-0.0004765552156581728,"216":-0.04183627633060214,"217":-0.042771107145648204,"218":0.015089536337856684,"219":-0.031855958651302384,"220":0.11780849156321913,"221":0.12487477615628186,"222":-0.037704198403357134,"223":0.011423917620998925,"224":-0.03049522367224723,"225":-0.0029263432291536796,"226":-0.030437417906850082,"227":0.12519356276285165,"228":-0.004963930739644331,"229":-0.06284084818749759,"230":0.06058528772295858,"231":0.00045329922503504154,"232":-0.033646176741442074,"233":-0.03193872376142061,"234":-0.11112694941680419,"235":0.04260650235930602,"236":-0.03674566467004218,"237":0.06003089186360328,"238":-0.04333867487385265,"239":0.029732931889891748,"240":0.09827562824632513,"241":-0.06528959205133554,"242":-0.003045930032726029,"243":0.014973166277079028,"244":-0.058637178357320824,"245":0.0258757409851833,"246":-0.027940462844617087,"247":-0.05930745919999507,"248":-0.0776823542769195,"249":0.0004770678785819895,"250":0.12264068800118325,"251":-0.010474452929117344,"252":-0.0033509150515908283,"253":-0.03389384752091126,"254":-0.0685302501423694,"255":-0.04153483799909505,"256":0.050682676390208306,"257":-0.024824664925035544,"258":0.07081552260740345,"259":-0.07603665259461995}},{"sx":1,"sy":1,"depth":260,"w":{"0":-0.016736530175644672,"1":-0.051099426655808695,"2":-0.07763693622734653,"3":0.00866796592328647,"4":-0.062358979880889544,"5":0.17799166105328781,"6":-0.03497792055421084,"7":0.011951068545285416,"8":0.10761183678225036,"9":-0.017618324608823975,"10":-0.04973849584388867,"11":0.0014376002134515666,"12":0.01276068621755432,"13":0.008408197654171319,"14":-0.12351291650773923,"15":0.0015030787026910862,"16":0.05276127885228171,"17":-0.045125709700549674,"18":-0.07157157611550063,"19":-0.08722689198260906,"20":0.16231645296201605,"21":0.06751539212298842,"22":0.09643412863181612,"23":0.07839205040726788,"24":0.03482317227121685,"25":-0.09238458430616292,"26":-0.1462467095058117,"27":-0.0578853587751445,"28":0.02950648317702043,"29":-0.08419461464921832,"30":0.03895483280025291,"31":-0.04561050375531964,"32":0.03164459315599096,"33":-0.07695039563528498,"34":-0.06228064990449185,"35":0.08920510830206076,"36":-0.12456217859871352,"37":-0.13551821728135885,"38":0.030691317735168755,"39":0.03344919653127469,"40":-0.08341103120116072,"41":-0.026003181147066953,"42":-0.07005186769991058,"43":0.03423441059158774,"44":0.0010049405586462007,"45":-0.10047970048419794,"46":-0.022066154128571817,"47":0.11258447891105315,"48":0.18892783542404776,"49":-0.019291272670388226,"50":0.0033890058739106006,"51":0.026366556890430326,"52":0.02359839140232853,"53":-0.02629009156326339,"54":-0.022321470355355658,"55":0.034314463324775224,"56":-0.03893160880598684,"57":0.09565230487217123,"58":-0.05717266006035119,"59":0.030501915795358058,"60":-0.00968241391786288,"61":0.05934294278022723,"62":-0.08925888023473422,"63":-0.03817983869293438,"64":-0.07267110384101727,"65":0.04150118709390052,"66":0.03927358589741935,"67":0.0935055204417127,"68":0.004312331790021773,"69":-0.0528818105955159,"70":0.01900519643506777,"71":-0.02813276604790437,"72":0.02593444930760414,"73":0.052300832876884196,"74":0.08917248024324452,"75":0.014506541904582728,"76":-0.039623186195173354,"77":0.13505910804466917,"78":-0.1249602971556892,"79":-0.06511039484661615,"80":0.06676310763340199,"81":-0.052233434938420205,"82":-0.14085887606201586,"83":0.0448052315196716,"84":0.021443419547245057,"85":-0.01061371123065728,"86":0.15171747724413914,"87":-0.058089314308919573,"88":0.09115885709363582,"89":0.0011735002709220195,"90":-0.0666423023538531,"91":0.08516167020886951,"92":0.050348324347535264,"93":0.032288445164475585,"94":-0.011347545819474085,"95":0.014811765024461137,"96":0.033080208759508706,"97":0.026430330916474433,"98":-0.012239932196644593,"99":-0.0007364279216985346,"100":-0.045626000841746846,"101":-0.048778331228474664,"102":0.12505801120555404,"103":0.07832796041938182,"104":-0.010942774505901857,"105":-0.04141409064256651,"106":0.01372549286205927,"107":0.10324169014156165,"108":-0.12927226604851297,"109":-0.1287915077390585,"110":0.07329842249507014,"111":-0.08228501697026104,"112":-0.11223076678763019,"113":0.011031861325990825,"114":-0.03901878612684343,"115":-0.011799239737456056,"116":-0.07192670866913019,"117":-0.03407088298129758,"118":0.025787056321590656,"119":-0.013406435016834157,"120":-0.10068137907781712,"121":-0.050923459623867566,"122":-0.024770287836939704,"123":0.014363893282682465,"124":-0.04238132099537085,"125":-0.024843613028348366,"126":0.050299630456398854,"127":-0.17443069571200817,"128":0.017630319836162384,"129":0.09816036125647133,"130":0.01570969102889607,"131":-0.04475208514425987,"132":0.05872151473624027,"133":0.05916726972081578,"134":0.015989198426853254,"135":-0.041126607534368906,"136":-0.12023107352983815,"137":0.03575884947380303,"138":0.014681232823142359,"139":0.01393350447770008,"140":0.014370629208204599,"141":0.07011791887052075,"142":0.03123529691729661,"143":0.11031001547801901,"144":0.02706141843096295,"145":0.031363037730538196,"146":-0.024459510635510513,"147":0.011506418983348456,"148":-0.12729968760272656,"149":0.036729303095055295,"150":-0.0862087160373762,"151":0.01740541039294711,"152":0.06540444433647488,"153":0.03611393391574652,"154":-0.13584789758899957,"155":-0.03378482276462327,"156":-0.07717473999306232,"157":-0.06328342745754104,"158":0.06364323132872864,"159":0.0028005513494433983,"160":0.0650648024194379,"161":0.07669973659129665,"162":-0.0644672593422184,"163":-0.07812479898813766,"164":0.028701226347844347,"165":0.08040330585800923,"166":0.012987707813610258,"167":-0.13189866720301976,"168":-0.06848940981184751,"169":0.057473893497909934,"170":0.026046831943401922,"171":-0.0075351836611417125,"172":0.055853222942070756,"173":0.09026442409691887,"174":-0.03236428832282409,"175":-0.015794480212750366,"176":-0.08478460802894609,"177":-0.005588122739166817,"178":0.011906403642756625,"179":-0.0034602259087843385,"180":0.08801782230531657,"181":-0.02869889363421933,"182":0.05007593167324509,"183":-0.0012376046493860686,"184":-0.09722927437554686,"185":-0.006874623329625734,"186":-0.08506993552347493,"187":-0.030201768031697707,"188":-0.021910788935479802,"189":0.1456279995987243,"190":0.02681002663765579,"191":-0.05398339092577641,"192":0.0032885076853869694,"193":0.12224045404076757,"194":0.0832594209518864,"195":-0.017453773936634227,"196":0.07184301233774407,"197":-0.06885361031779376,"198":0.09194794322451795,"199":-0.00821469537930165,"200":0.043821263886241,"201":-0.050555467951129855,"202":0.010699587010846934,"203":0.014125569520940401,"204":0.022101740918579603,"205":0.06579665034734763,"206":-0.017846706401748447,"207":-0.10964232879242002,"208":0.0025282134289602632,"209":-0.04180240784700982,"210":-0.051123580385097,"211":0.05913017782074352,"212":0.030973958261809268,"213":-0.19307225369878256,"214":-0.14563289132914956,"215":0.034598788619440005,"216":-0.029135214844247418,"217":-0.01636513863557088,"218":0.06045657813619328,"219":-0.002749476017408277,"220":-0.04199953931046248,"221":-0.06268632308875051,"222":-0.046970783728399426,"223":0.09526032748339498,"224":0.00699318988279156,"225":0.01472065939756759,"226":0.011272750018920686,"227":-0.032916467291495805,"228":-0.014875035038897151,"229":0.0013394428014778408,"230":-0.03495094701155945,"231":-0.05549509902244602,"232":-0.05611104679895351,"233":-0.11691240176839357,"234":-0.07786882690277547,"235":-0.05399929925520612,"236":0.00011464255279066511,"237":-0.056764853038023755,"238":-0.02006922310894053,"239":-0.09107294531751786,"240":-0.03351568264406871,"241":0.01609099913907439,"242":-0.05191696557868409,"243":-0.007327594936532049,"244":-0.11982998274268924,"245":0.012795773257129002,"246":0.07001050130100546,"247":0.07124115095134641,"248":-0.055455390384861025,"249":0.01754093513221283,"250":0.02465323575012038,"251":-0.033926148491977254,"252":-0.004975739732291565,"253":-0.08147686752944146,"254":-0.09723276146741881,"255":0.07849918796539915,"256":0.0017604227351089886,"257":0.018539949576422122,"258":-0.017371141806507152,"259":-0.02245809832420465}},{"sx":1,"sy":1,"depth":260,"w":{"0":-0.034048943359406274,"1":0.03596897082816821,"2":-0.03628261613857266,"3":0.02522805519770187,"4":0.09060147661623076,"5":-0.08102937452126968,"6":0.014628614293174167,"7":0.08656904893215968,"8":-0.024749797091627605,"9":-0.01446706412901788,"10":0.07153841010262817,"11":0.018954929533649377,"12":-0.024767153282422464,"13":0.08618330070404992,"14":0.09845806230326475,"15":0.1395994998272091,"16":-0.002823341555868018,"17":-0.04658905616935411,"18":-0.18601299779957822,"19":0.0027018512156093636,"20":0.009454455512253067,"21":-0.01834328262236201,"22":-0.08693201605725183,"23":0.07501402564859116,"24":0.03872083348527496,"25":-0.034194203038763055,"26":-0.05729008394048656,"27":0.12766192048241795,"28":-0.04575381505922843,"29":0.01717554315661867,"30":-0.057878445207323895,"31":0.06675216375715244,"32":0.09437398997483745,"33":0.013165647072241868,"34":-0.0340993167477863,"35":-0.013660196890598292,"36":0.009755631608307596,"37":-0.05698144752506662,"38":-0.03598919067129216,"39":-0.0038147767679391027,"40":0.030537300907735366,"41":-0.1689328098520002,"42":0.03895948771681558,"43":0.032438779248858636,"44":0.0649938027111309,"45":-0.04598637147256754,"46":0.0422253416535053,"47":0.10999977148520725,"48":-0.01211421039465261,"49":0.0542111583104206,"50":0.04485196789282768,"51":-0.009722627601098377,"52":0.014378589398494249,"53":0.050218717815269424,"54":0.07272993639153205,"55":0.08839136067106566,"56":0.1663032952106088,"57":-0.03358118921763488,"58":0.01330612425928003,"59":-0.046716218324697946,"60":-0.04257144204820502,"61":-0.005186527711669487,"62":-0.024873745173035727,"63":0.04421647767785443,"64":0.06100964006197514,"65":-0.07101945669297387,"66":-0.006401940449584479,"67":-0.07042302975235935,"68":-0.08994583473859367,"69":0.05243484142199359,"70":-0.07232893148895408,"71":-0.017882410935724513,"72":0.07433112297811949,"73":0.019470266362967465,"74":0.0035034937801085033,"75":-0.10448752526388043,"76":-0.14266865434988252,"77":0.06890818923159522,"78":0.0921842673423619,"79":-0.1048664306185717,"80":-0.01238643279281081,"81":0.05389181548309837,"82":0.06370071661556075,"83":0.029823113594207,"84":-0.02776221270948656,"85":0.009566698376052419,"86":0.13185215847888146,"87":0.054054913353838795,"88":0.0031492761812444013,"89":0.07829171889360341,"90":-0.004133299826356193,"91":-0.05169371293756953,"92":-0.06980246906150553,"93":-0.06711475490906284,"94":-0.06359662611748003,"95":0.10958916924235854,"96":-0.11024729169004704,"97":-0.023478125902106992,"98":-0.09034049693405183,"99":-0.026040791974120268,"100":0.05818332929306007,"101":0.036116402631891545,"102":-0.022458123151315824,"103":-0.04211809044428748,"104":-0.018851319639774683,"105":0.07313271795467996,"106":0.040880999779998914,"107":0.0912654310048552,"108":-0.047742088578759063,"109":-0.10777195775315142,"110":-0.013845939725237578,"111":-0.00789586809059241,"112":-0.05472260462077503,"113":0.042922931999432194,"114":0.06399639796789744,"115":0.004282241078873395,"116":0.04864905071382533,"117":0.11166706940393986,"118":-0.056479815643064646,"119":0.0571073998030391,"120":-0.11411605120633395,"121":-0.018949072091786746,"122":-0.014000815868941443,"123":-0.00476977613955334,"124":-0.03912179813205254,"125":0.017783349040889244,"126":-0.060661816435534234,"127":-0.04703652385362272,"128":-0.03658765614202637,"129":0.040464006731989986,"130":0.019712160844290026,"131":0.11742853199249927,"132":0.04817309642697875,"133":-0.08991412158228886,"134":0.05280502071785865,"135":0.01938478651895267,"136":0.0650026496554896,"137":-0.030324528258813075,"138":-0.04396213305654826,"139":0.0005328850121072552,"140":0.0406762344185565,"141":0.02910482372328659,"142":0.043054063656984005,"143":-0.026094626758118317,"144":-0.040355158507020296,"145":-0.015563565346046644,"146":0.0604769608176414,"147":-0.00821374820426222,"148":-0.050168618125879444,"149":0.07381900517704017,"150":-0.02839058527062111,"151":0.04480717514214416,"152":0.04922440962729569,"153":-0.016989575841183335,"154":0.035439331449304425,"155":0.07929060506988646,"156":0.02038151068239605,"157":-0.1067117360080037,"158":0.0002823424679592581,"159":0.007010720412783911,"160":-0.046887016709765236,"161":0.03957820017164688,"162":0.013813107805317113,"163":-0.11764881503499953,"164":-0.09804816487589886,"165":-0.03997939117093793,"166":-0.0809270000277571,"167":-0.008327301259274406,"168":0.026532481827077105,"169":-0.010753682003025346,"170":-0.08598167039432245,"171":0.10180496455002269,"172":0.05046479426897914,"173":0.1489238854612515,"174":0.02147832035308307,"175":-0.03392448810206576,"176":-0.06228436911498776,"177":-0.022557268041954136,"178":-0.01536185751342493,"179":-0.024236939152533627,"180":0.01173372338185401,"181":-0.030729223615034947,"182":0.0047499640168255025,"183":-0.07659555925497002,"184":0.10324458202027835,"185":-0.06288769599360279,"186":-0.02460851972264894,"187":0.04488120945667553,"188":0.004075312045559567,"189":-0.1525207702259236,"190":0.011721920475786716,"191":-0.011272335165922515,"192":-0.11199454339587311,"193":0.02193846259196502,"194":0.10763271674433997,"195":-0.10252600484968397,"196":-0.0978054801116499,"197":0.03487187733182606,"198":-0.01714828327811642,"199":0.032456872947523634,"200":0.07436338928097475,"201":-0.051625716694334106,"202":-0.010966855283061691,"203":-0.007514082126884285,"204":-0.01791333024297235,"205":-0.020667135134777095,"206":0.047620863166625046,"207":0.07556788696293487,"208":0.03819925788927171,"209":-0.06402288298920525,"210":-0.003944909489923684,"211":-0.13385173326257413,"212":0.0520651700522071,"213":-0.05506003846333044,"214":0.049272603615531964,"215":0.02521093870269229,"216":-0.04315120981768202,"217":0.015601590432841346,"218":0.06453592015088527,"219":-0.03708396252322382,"220":-0.09481130041731196,"221":0.026318677247211104,"222":0.006336000355901176,"223":-0.044741463338021425,"224":-0.01880468390167414,"225":0.08359448739420121,"226":0.06696018145307073,"227":0.04177231878366544,"228":-0.07086775500791007,"229":0.0444925100970024,"230":-0.05389022127575403,"231":0.04536180000098299,"232":0.054264526837964566,"233":0.06934395519528913,"234":-0.11502024526518435,"235":0.0062373345245962004,"236":0.08184715950365987,"237":-0.01981811804309504,"238":-0.08022693185420826,"239":0.006340408389379793,"240":0.0106371337800471,"241":0.010240714057289699,"242":0.06962897410154367,"243":0.015231701077191679,"244":-0.044609197522622,"245":-0.05921185225946891,"246":-0.04241765112391284,"247":-0.0693796123605416,"248":0.07436424765287653,"249":-0.0017006022811585195,"250":-0.03681543275819268,"251":0.006238383731525237,"252":0.0692770573565034,"253":-0.012297122122480257,"254":0.009469397043122963,"255":0.07072165403167614,"256":-0.00364687730815919,"257":-0.00430239426363355,"258":-0.05257917024831328,"259":-0.08397265374835987}},{"sx":1,"sy":1,"depth":260,"w":{"0":-0.057825138832455956,"1":0.003453352554802923,"2":0.032588829128183026,"3":-0.011351099897950941,"4":-0.07390047576198101,"5":0.01595950128063814,"6":0.06951121308151023,"7":-0.1318066883773504,"8":0.008344049952740875,"9":-0.09975047027064243,"10":0.16362800918427153,"11":-0.048205882267217136,"12":-0.07338455661329195,"13":0.032571946295426736,"14":0.03334409761249087,"15":-0.050123410851813155,"16":0.062303553452828446,"17":-0.04941097782844874,"18":0.05032027535262029,"19":-0.036005562484946116,"20":-0.04800150476882026,"21":-0.022726053081236472,"22":0.0448522763501197,"23":-0.12396257825305936,"24":0.025534038060716358,"25":0.054842884341528154,"26":-0.10511380874996677,"27":0.023512537603551514,"28":0.1356597939040536,"29":-0.04793971522001199,"30":-0.007952702851205275,"31":-0.035814026866180494,"32":-0.026471837075103984,"33":0.08229508899074309,"34":0.030692475573122085,"35":-0.020094899598894652,"36":-0.0027094346749365465,"37":-0.06983678371808473,"38":-0.04967357067227011,"39":0.057723813072468155,"40":0.005957059669519072,"41":-0.09201540161812222,"42":0.048021419905465636,"43":0.08831632529903057,"44":-0.0125925742173676,"45":-0.13268663279564472,"46":0.04746742689599394,"47":-0.12976413445343002,"48":-0.021289621407184302,"49":-0.019704211274883515,"50":-0.07639849299511026,"51":-0.101725994865379,"52":0.03982877362526593,