//<![CDATA[

// a few things don't have var in front of them - they update already existing variables the game needs
lanesSide = 4;
patchesAhead = 4*8;
patchesBehind = 4*3;
trainIterations = 10000;

// the number of other autonomous vehicles controlled by your network
otherAgents = 0; // max of 10

var num_inputs = (lanesSide * 2 + 1) * (patchesAhead + patchesBehind);
var num_actions = 5;
var temporal_window = 0;
var network_size = num_inputs * temporal_window + num_actions * temporal_window + num_inputs;

var layer_defs = [];
    layer_defs.push({
    type: 'input',
    out_sx: 1,
    out_sy: 1,
    out_depth: network_size
});
layer_defs.push({
    type: 'fc',
    num_neurons: network_size/2,
    activation: 'tanh'
});
layer_defs.push({
    type: 'svm',
    num_classes: network_size/4,
});
layer_defs.push({
    type: 'fc',
    num_neurons: num_actions * 3,
    activation: 'tanh'
});
layer_defs.push({
    type: 'regression',
    num_neurons: num_actions
});

var tdtrainer_options = {
    learning_rate: 0.01,
    momentum: 0.0,
    batch_size: 64,
    l2_decay: 0.05
};

var opt = {};
opt.temporal_window = temporal_window;
opt.experience_size = 10000;
opt.start_learn_threshold = 5000;
opt.gamma = 0.9;
opt.learning_steps_total = 10000;
opt.learning_steps_burnin = 1000;
opt.epsilon_min = 0.0;
opt.epsilon_test_time = 0.0;
opt.layer_defs = layer_defs;
opt.tdtrainer_options = tdtrainer_options;

brain = new deepqlearn.Brain(num_inputs, num_actions, opt);

learn = function (state, lastReward) {
    brain.backward(lastReward);
    var action = brain.forward(state);

    draw_net();
    draw_stats();
    
    return action;
}

//]]>
/*###########*/
if (brain) {
brain.value_net.fromJSON({"layers":[{"out_depth":396,"out_sx":1,"out_sy":1,"layer_type":"input"},{"out_depth":198,"out_sx":1,"out_sy":1,"layer_type":"fc","num_inputs":396,"l1_decay_mul":0,"l2_decay_mul":1,"filters":[{"sx":1,"sy":1,"depth":396,"w":{"0":-0.013186835990235665,"1":0.028312385322815693,"2":-0.004729323199398688,"3":0.012100885335343167,"4":-0.005757672405891914,"5":0.06635255812687833,"6":0.006809949838975511,"7":-0.0069629053008221815,"8":-0.02766745529022178,"9":0.10537917458979336,"10":0.060847937080952055,"11":0.014347377719323814,"12":0.05585659458199195,"13":0.035559367745725844,"14":-0.0975906399682115,"15":-0.060378145753008775,"16":0.07641536447005641,"17":-0.02921876096820096,"18":-0.017586275494112034,"19":-0.13600991010450197,"20":-0.011349309254194813,"21":0.0005843794223698402,"22":0.03590497883032107,"23":0.009675577746641722,"24":-0.0160091158059677,"25":-0.011928005142828355,"26":0.022142608435438606,"27":-0.00016187354804347897,"28":-0.05080603475631711,"29":-0.03191103144790806,"30":-0.013836869690939073,"31":-0.04746891210316536,"32":-0.04951501259081699,"33":-0.07079175032099529,"34":-0.0008715410590801356,"35":-0.02015883682920611,"36":-0.019255774310465146,"37":0.0025258447821474334,"38":0.045282638094403006,"39":-0.09424705317166907,"40":-0.09069869837854802,"41":0.03878776419173118,"42":-0.05137447200795345,"43":0.037532253920705534,"44":0.015505797576912098,"45":-0.07076618710788407,"46":0.02587572947054388,"47":0.024024886433561522,"48":-0.04810138476587601,"49":0.002405885716277735,"50":-0.03532090497460353,"51":-0.026941433441350603,"52":-0.000050054119277806415,"53":-0.020074612033634816,"54":0.013852628672295026,"55":0.06521152354238854,"56":0.037721312998559416,"57":-0.017783053234420365,"58":0.001064042700865195,"59":-0.03384285521793839,"60":0.017699635429165327,"61":-0.06178800591608334,"62":-0.026364906205861918,"63":0.0519803308771167,"64":0.050493553009748414,"65":-0.022680994977757066,"66":-0.06526300248828935,"67":-0.007266584841906301,"68":0.03299581623071502,"69":-0.04593355747594259,"70":0.13236774294059503,"71":0.024063081137921386,"72":0.08604812397570943,"73":-0.056671870837440845,"74":-0.04216230187285251,"75":-0.04098713303114858,"76":0.06029524627596195,"77":0.07980812488309535,"78":-0.008776079143998871,"79":-0.013016388412344586,"80":-0.003708931007924513,"81":0.01298323770004038,"82":0.04480958498059541,"83":0.02869048281871739,"84":0.04219673965369756,"85":-0.011925309223231106,"86":0.03204095962339983,"87":0.07446276595634604,"88":0.021720118557897725,"89":-0.03458144317583136,"90":0.1298183002935971,"91":0.003446861068894278,"92":0.02359506437420366,"93":-0.004713824817298861,"94":0.07388058267726814,"95":0.05267959207935456,"96":0.04983275513803296,"97":-0.03951819772172769,"98":-0.03450882264948036,"99":0.020338355445275753,"100":-0.0035444348496452894,"101":-0.03554088561872945,"102":0.01548797223446551,"103":0.05354481996036291,"104":-0.05277543380869201,"105":0.08204307259996281,"106":-0.011210058298922777,"107":-0.011781625348945128,"108":-0.012246764620845133,"109":-0.007195607694634769,"110":-0.04396886527566393,"111":-0.0102708224844782,"112":-0.035569308581218866,"113":0.05369476163532414,"114":0.08620045744528777,"115":0.03465388603697184,"116":-0.06370647589606497,"117":-0.04199336804154845,"118":-0.08188245080147408,"119":-0.013065541710836192,"120":-0.0511143068333324,"121":0.030080000462654768,"122":-0.031964511251797244,"123":0.021970054636596868,"124":-0.05447529211399869,"125":0.007245061360215698,"126":-0.006744604759829736,"127":-0.02548603700976371,"128":0.013248078730507155,"129":0.03700992090903065,"130":0.0311024812755957,"131":0.08438799531443705,"132":-0.006191707312724129,"133":-0.0004748354862428145,"134":-0.030161852409355983,"135":-0.03440735398623054,"136":0.005351687954507349,"137":0.025165757055951626,"138":0.020586514820013058,"139":0.04045367225575293,"140":0.04289833810354975,"141":-0.06226728826871471,"142":0.02777740800751428,"143":-0.009254051211685084,"144":0.03056628761746845,"145":0.07603746058945897,"146":0.04991233975482294,"147":-0.042915698511254236,"148":0.03662146348974007,"149":0.009180385424214838,"150":-0.014151554086908515,"151":0.004225123970969097,"152":0.027405838109407617,"153":-0.06986225111433818,"154":-0.005355390675422863,"155":0.045493975410889016,"156":0.030309054963544073,"157":-0.05513663641802561,"158":-0.0699061889492018,"159":0.00977149553531382,"160":-0.020126884174415327,"161":0.021878151292396848,"162":0.010685447499000198,"163":-0.05733330745397853,"164":-0.036569149759807504,"165":0.041782455839174386,"166":0.06440973643532424,"167":-0.04018522487275549,"168":-0.04515125747257321,"169":-0.015771542539869458,"170":-0.01230297039120704,"171":0.08426580148588597,"172":0.08312643037071464,"173":-0.041418673856215456,"174":-0.10361216149267397,"175":0.024692386691578413,"176":-0.030208049196214972,"177":0.006075801679793037,"178":-0.009815810202539577,"179":-0.007710767863885859,"180":-0.052297531087062414,"181":-0.07405451377806471,"182":0.03855552126140747,"183":-0.08011349688622456,"184":-0.07405288818684928,"185":0.09588636104094378,"186":0.11683320797397066,"187":-0.004497543002517768,"188":0.02060554806405824,"189":-0.05761719007169192,"190":-0.026322540783996446,"191":-0.041385860232376635,"192":-0.07432590040171277,"193":-0.00011456610169302613,"194":0.09830535027352053,"195":0.0009377029644617254,"196":0.024060435015735675,"197":0.07420885622412389,"198":-0.0044180010041273135,"199":0.04172516167237911,"200":-0.047158850528498567,"201":-0.016961068271573336,"202":0.056467109954519465,"203":0.029637864961053403,"204":-0.0003410167318278223,"205":-0.04151051283498085,"206":0.00874181957712868,"207":-0.019979280490377303,"208":-0.0800711553751625,"209":-0.034823137898966364,"210":0.050262854237850714,"211":-0.022103819555198745,"212":-0.018772125169540632,"213":-0.008787292230285935,"214":0.03009128748510387,"215":0.006285480504035342,"216":0.05524449508042327,"217":-0.05082240944922576,"218":0.030932031707962764,"219":0.00470385547418624,"220":0.04894426750095056,"221":-0.012039027278335846,"222":0.016642554711327966,"223":0.01261031937953023,"224":0.014074185310145681,"225":0.04876061591079215,"226":0.017109050494377023,"227":-0.004891566699747255,"228":-0.03990147154964404,"229":0.029101296307050325,"230":0.007444885301437813,"231":-0.032343373743743624,"232":-0.01292879019180091,"233":0.0749467936731147,"234":0.02250398549369774,"235":0.06365622374087426,"236":0.02901020320549691,"237":-0.033546924972969704,"238":0.04932394610270996,"239":0.03758539729920427,"240":0.04253480907850233,"241":-0.08209354432556308,"242":-0.009602262099386758,"243":-0.03244256384962451,"244":-0.01182623069916183,"245":0.024205690265956627,"246":-0.014801068031003534,"247":-0.0270983072748956,"248":0.06017853408801209,"249":-0.020810595419595523,"250":0.008141508027262639,"251":0.06594630373541896,"252":0.014517792567991714,"253":-0.014635203054971995,"254":-0.04039065948543413,"255":0.05101169449035258,"256":0.03230103643803371,"257":-0.021164041395501945,"258":0.024565818621508098,"259":-0.0018040114316933925,"260":-0.09758355659529165,"261":-0.01893908804809756,"262":-0.03010569680569278,"263":0.017194878938518825,"264":-0.08870301707402924,"265":-0.023841748099444757,"266":0.020126022407422773,"267":-0.027629185409528998,"268":0.0902364899673183,"269":-0.03392096693333402,"270":-0.031072082772851752,"271":-0.004113184168497523,"272":0.011038038800547456,"273":0.013920938830024418,"274":0.04702456979876067,"275":-0.08801930637117837,"276":-0.02898504380331772,"277":0.020272643723400863,"278":0.00661760759173129,"279":0.004959675258940138,"280":0.02520915241722074,"281":0.05051094665516891,"282":0.03457323378308296,"283":0.01507296840849858,"284":-0.021512037563748986,"285":-0.013155704486149958,"286":0.05959380249380146,"287":-0.05393009692396378,"288":0.019762675077761648,"289":0.018977959358968705,"290":0.041152611891298076,"291":0.04981374664669721,"292":0.04391949971628622,"293":0.01657314634057306,"294":-0.011889851685218422,"295":0.04823746555276303,"296":0.019759745368897765,"297":-0.012086163141254535,"298":0.027475674253736135,"299":-0.0006401371324098515,"300":-0.004399242673475426,"301":0.015052950419816085,"302":-0.026870919269694926,"303":-0.06839171774164007,"304":0.008440613518792075,"305":-0.01089011406053485,"306":0.07369205346506989,"307":0.03880787959103456,"308":0.026296941363254504,"309":-0.023767371868418312,"310":0.04420617718701929,"311":0.10200061476171972,"312":0.05038905581743171,"313":-0.013977085150234634,"314":0.037510754464616235,"315":0.017239253140462873,"316":-0.03211523873216693,"317":-0.004179244134372317,"318":-0.039534177475059794,"319":-0.019828537384527604,"320":0.05219641578925986,"321":0.030370805133218107,"322":0.03603611932760504,"323":-0.004426866598015529,"324":0.021992640630839277,"325":0.13208327545528115,"326":0.026445148666022527,"327":-0.0643285306960709,"328":0.02539794831909951,"329":0.01243485824808037,"330":0.009473378958035173,"331":-0.0074934573979359926,"332":-0.012545099490335353,"333":-0.012743658854425289,"334":0.03422794851346428,"335":0.0784319726103842,"336":0.026842422015692344,"337":-0.03660656852556668,"338":0.05790466263858995,"339":0.0066951586310971855,"340":0.0069574161833194205,"341":0.009191686324104005,"342":-0.002797407086465193,"343":-0.02566831982261658,"344":0.03827469241564015,"345":-0.00006671810947524336,"346":-0.02400883516314544,"347":0.03437604389998703,"348":-0.062462322025581024,"349":-0.021624792109664417,"350":-0.02535280032954048,"351":0.003937160078359941,"352":0.05712574905713153,"353":-0.030626331657941736,"354":-0.025599528165815694,"355":0.022106900327371382,"356":-0.009474206770965525,"357":-0.005753793462970563,"358":0.052746242830840236,"359":0.07280877187904863,"360":-0.012257838058692476,"361":0.02110021307452514,"362":-0.015175422860605227,"363":0.11362712935108787,"364":-0.02530041092844874,"365":0.07933406557031022,"366":-0.052415031428509555,"367":0.06470425841756781,"368":-0.013436772067249058,"369":-0.0026020323176352074,"370":0.00412132826103361,"371":-0.0574460729760021,"372":-0.0890137220703686,"373":-0.026889907328398445,"374":-0.04162812207631961,"375":-0.031006071527513022,"376":0.05992183431645499,"377":0.0015225413960879223,"378":0.005196999259810558,"379":-0.027554493050796842,"380":0.008727584174212717,"381":0.05177929172773373,"382":-0.06514981146606351,"383":0.004119377600799961,"384":0.049200935589994485,"385":0.026432753575156894,"386":-0.05620075621781254,"387":-0.012475236326564805,"388":-0.02105378615309388,"389":-0.019457925231922142,"390":0.03960328367238083,"391":0.05625167139199827,"392":-0.038109896676971164,"393":0.020458298168991175,"394":0.008236757326839468,"395":-0.02847901063741044}},{"sx":1,"sy":1,"depth":396,"w":{"0":0.028057965306952603,"1":-0.061131245084134506,"2":-0.013728548912935686,"3":-0.049215214222313085,"4":0.0003319220882474658,"5":-0.005643233139878456,"6":0.06102910721988011,"7":-0.06664786598976923,"8":-0.017680068411206444,"9":0.029045047947231027,"10":-0.02286056989357517,"11":-0.04026938772349035,"12":0.007806986339043908,"13":-0.020121422710553404,"14":0.0335695191890643,"15":-0.04228592830164656,"16":0.013124215155494714,"17":-0.007569312182795715,"18":-0.037884854977108536,"19":0.033358865191978115,"20":-0.004389996640174039,"21":-0.00681390540145916,"22":-0.0009869452782774002,"23":-0.011232166298239855,"24":-0.014583920234814881,"25":0.004289142263305798,"26":0.04438447718662442,"27":0.02229161220626731,"28":0.004814244854236203,"29":-0.011066959105662182,"30":-0.01727728000867762,"31":-0.02616767654076453,"32":0.03941660338405423,"33":-0.027092242263520187,"34":-0.004439224256161665,"35":0.03696360580429329,"36":-0.05582266388678826,"37":-0.057894401426921045,"38":0.026175651720361563,"39":-0.025981370389640632,"40":-0.03773803229668487,"41":0.0863176732438466,"42":-0.049430833184333896,"43":-0.04761240319682328,"44":0.007231543302936476,"45":0.05533580015442992,"46":-0.0027268329127731815,"47":0.01454728181859438,"48":-0.044792881921299176,"49":0.010632794766242331,"50":-0.031518313951201846,"51":-0.005837505386920799,"52":-0.01849581367508162,"53":-0.03994066807848229,"54":-0.026233295149790153,"55":0.07588742006316149,"56":-0.03604795958401841,"57":0.004387670080845027,"58":0.08184061131849624,"59":0.015252625355458918,"60":0.06455158035822231,"61":0.02763801349915624,"62":-0.07545092094217995,"63":-0.01913107456874214,"64":-0.0767683516289586,"65":0.04452383171173233,"66":-0.04170554675760653,"67":0.015190174594686376,"68":0.06667238852351036,"69":-0.006800281907366473,"70":-0.020399599472572114,"71":-0.019188385308573856,"72":0.016353296725409548,"73":-0.02007714873563126,"74":-0.028813835175573618,"75":-0.08340641090995153,"76":0.09052647010930875,"77":0.0509694501303168,"78":0.014349752975455345,"79":0.03663403410747234,"80":0.016003810600065997,"81":-0.03447339520147046,"82":0.051191526876084255,"83":0.024188509414934282,"84":-0.007703181653987863,"85":0.0005548969273350715,"86":0.019965716099684925,"87":0.08366983874216012,"88":-0.029010066362743663,"89":-0.004571479742076017,"90":-0.0004955191056771309,"91":-0.032051893180417027,"92":0.055938182539619595,"93":-0.08125266483729586,"94":0.02064674149315634,"95":0.09215911632073423,"96":0.06358025914503175,"97":0.023466257954726233,"98":-0.08086758419635678,"99":0.013999244689739615,"100":0.06669256579563917,"101":0.0026526452996291105,"102":-0.05600956112335551,"103":-0.004234364240776868,"104":-0.009650715747607699,"105":0.040628027051221226,"106":0.002361839954154313,"107":0.007529921326148129,"108":-0.026410419822937632,"109":0.012947445217127576,"110":0.030007220156154316,"111":0.0785958647856741,"112":-0.038591947814555466,"113":-0.003033396547291536,"114":0.024025672510735323,"115":-0.05227685403446515,"116":0.025429490306792736,"117":-0.007201295301710443,"118":0.02282193930323513,"119":0.040075697901911685,"120":-0.007965836562534127,"121":-0.0374397161190457,"122":0.0003699205233056227,"123":0.011676545422283639,"124":-0.0023750429666024252,"125":0.03547088992579695,"126":0.005555934259207796,"127":-0.043291921452856326,"128":-0.05219727717423321,"129":-0.011618425268292607,"130":-0.032107239135234285,"131":-0.011032007984450046,"132":0.004687204140128082,"133":0.026280031596484153,"134":0.09571431602760597,"135":0.038480330953396896,"136":-0.03897842015668933,"137":-0.0005582176150437878,"138":-0.0036603819224085444,"139":-0.03689749522638921,"140":0.06762728920981999,"141":0.0783310291596471,"142":0.03464410237631636,"143":0.022939103183692834,"144":0.05422790840071772,"145":0.022815188640628765,"146":0.007346864432590564,"147":-0.020942002118510796,"148":0.04406656840670613,"149":0.006807405749974695,"150":0.016606851598915305,"151":0.055746691116826466,"152":-0.032556561536169336,"153":0.02307851336683526,"154":0.04163839909851428,"155":-0.034521712319787276,"156":0.08865812085938206,"157":0.028017357966098094,"158":0.018001067519823152,"159":0.0024267559818166346,"160":-0.006505837201260557,"161":-0.008027806766583257,"162":0.08727820296844621,"163":0.020046189654308554,"164":0.04735391902398454,"165":0.030112712750125024,"166":0.027634978700741,"167":0.023081568951793488,"168":-0.018016045269380845,"169":0.020272729409808316,"170":-0.06274023430449148,"171":0.032416068521692355,"172":0.019005373535701153,"173":0.009312585328187597,"174":0.021786985682692463,"175":-0.06071082354456491,"176":-0.01603928001781435,"177":0.07006310415097418,"178":0.046298635869770614,"179":0.0257758954199646,"180":-0.14670821354596603,"181":-0.010384675603060592,"182":-0.02876959511969057,"183":0.03011352920263141,"184":0.02106940823912783,"185":0.03862891242999269,"186":0.005646065388418983,"187":0.05608477957297677,"188":0.05443257695678485,"189":-0.11136456634285387,"190":-0.02907151663743881,"191":0.025465930586486392,"192":-0.0077427080802394115,"193":-0.024386480848072923,"194":-0.014818448632770998,"195":-0.15942619287625637,"196":-0.003350614032433948,"197":-0.03202565644660255,"198":0.04910131591801922,"199":-0.02945425764264342,"200":-0.001518695151218522,"201":0.05550211451543637,"202":-0.14538156551262243,"203":-0.015345511925932752,"204":0.022634638731681565,"205":-0.014736289077153727,"206":-0.006738529116896264,"207":0.006142015919125504,"208":0.06599038490016297,"209":0.056028794698760154,"210":0.018922826123858795,"211":-0.04289583324068031,"212":0.08180301335357015,"213":-0.06868689787054745,"214":-0.07108907121544598,"215":0.001820580823071458,"216":-0.024672140070521684,"217":-0.04406840043653269,"218":0.028675476547186305,"219":0.018553929861869357,"220":0.00622282699038613,"221":0.07226790032596783,"222":-0.0010223200323641404,"223":-0.0597910462099678,"224":-0.06953156301560616,"225":0.038748377538225236,"226":0.03312703509707497,"227":-0.004262272839438707,"228":-0.028546324526320412,"229":0.003984020627667376,"230":0.00876255831226143,"231":-0.015975955043849036,"232":0.007805826181472171,"233":-0.03565633498136366,"234":-0.0276757644564617,"235":0.04611758829896212,"236":0.02254871513488476,"237":-0.004697486048896553,"238":-0.012615803619274803,"239":0.05492772136772951,"240":-0.00793389889646594,"241":0.022853858819245447,"242":0.012284411734926585,"243":0.019188013050425595,"244":0.01156090913085205,"245":-0.10123986705202483,"246":-0.00776747194492917,"247":0.006192623787782087,"248":-0.002534827222132901,"249":-0.03521877106026987,"250":-0.03615721786171369,"251":-0.0236576712153437,"252":0.02273451912954245,"253":-0.04622061088828318,"254":0.011684215265867208,"255":-0.022030058042760182,"256":0.005775493298106003,"257":0.024829117299412343,"258":0.016549327271786606,"259":-0.021856550701493806,"260":0.06260301665665649,"261":-0.05160949977353513,"262":0.05256748071609295,"263":0.018688032460274236,"264":-0.030690596392339876,"265":-0.00960281356911767,"266":-0.08325683196610537,"267":0.008218651632785061,"268":0.05119036284540133,"269":-0.008493747121237752,"270":0.006556876620934977,"271":-0.07184298966582338,"272":0.0028771589244840443,"273":-0.002982804508324536,"274":0.03295914028829762,"275":0.013084460301623116,"276":0.03877145192451,"277":0.031751627043780276,"278":-0.0041803410176354675,"279":0.0645475033783797,"280":-0.0009672539931720441,"281":-0.005176003083458461,"282":-0.00826762063615794,"283":-0.007766429944884012,"284":0.07673930860323576,"285":0.034978271097454494,"286":0.08628733221796203,"287":-0.06068995042589624,"288":0.006306606438695496,"289":-0.06804686932976466,"290":0.01878487799973965,"291":0.004789881872860737,"292":0.029706816198558913,"293":0.0190214376249964,"294":0.05035964583744277,"295":-0.05747104744517603,"296":-0.01141923057713577,"297":0.016192550668012638,"298":-0.056328021463135,"299":0.10914785864310507,"300":0.017447928277318697,"301":0.01094111556174308,"302":-0.020385580380408306,"303":-0.015472787598508472,"304":-0.04366678787067595,"305":0.035331830955017955,"306":-0.07086875433947383,"307":-0.0007082016913262222,"308":0.03140841806348986,"309":0.044121022645495965,"310":-0.001614495115295037,"311":0.07103948649153684,"312":0.08156053711668315,"313":0.016779171364701147,"314":0.059319340879704044,"315":0.037259151219429666,"316":0.09208645421942237,"317":-0.02276994038397299,"318":0.009940109010311057,"319":0.07642520653710624,"320":-0.007987447933141344,"321":-0.042543886381502465,"322":0.02261525391061221,"323":0.01564927237345898,"324":0.00489815995447175,"325":0.0005817054896394885,"326":-0.005065652031490565,"327":-0.011299963175230047,"328":0.019367239687395125,"329":0.10602191637630515,"330":0.005988299330353128,"331":-0.043049971463902034,"332":0.05432621239741474,"333":0.0036304229164384515,"334":0.01965744021297541,"335":0.02999100059308674,"336":-0.08269845678940642,"337":-0.013406673298523238,"338":-0.08270412770813496,"339":-0.012022187791016901,"340":-0.040339011372057205,"341":-0.04434387376231898,"342":0.03369632957489001,"343":-0.029003311676306206,"344":-0.0759167115584073,"345":0.004113976861430293,"346":0.0090004461526094,"347":0.009275054572234957,"348":-0.006126091299718085,"349":-0.02192477172034688,"350":0.0031130288240941275,"351":0.010575850732524527,"352":-0.015605051334280267,"353":-0.00499980971944125,"354":0.10625586297977534,"355":0.016891725495132955,"356":-0.039088700654482826,"357":0.019857900819460594,"358":0.0352459253844328,"359":0.058382423693357395,"360":-0.01648997186926249,"361":0.017263984347961118,"362":-0.04280208311807137,"363":-0.08898183745098678,"364":0.013144591822095814,"365":-0.011061781735094452,"366":0.0024463409136193763,"367":-0.024874429849417193,"368":0.034328062733884404,"369":-0.03518538819261672,"370":0.10918901579310027,"371":0.03724210646463584,"372":-0.032954355795808105,"373":-0.048482437310737626,"374":0.03681048240110424,"375":0.054857172404622366,"376":-0.0027590708174417265,"377":0.07583710883961803,"378":0.008754629131850404,"379":-0.019009448781858392,"380":-0.0629165350930398,"381":0.06662924348334891,"382":-0.010383518730823665,"383":0.08005430986875664,"384":0.04091212057036859,"385":-0.01550723659447763,"386":0.0478187684782327,"387":0.015322890681460028,"388":-0.0294265722517146,"389":-0.026016662585726772,"390":0.0031213700369285436,"391":0.011574264100097213,"392":0.08878799606311202,"393":0.015179558490817441,"394":0.04062792147425484,"395":0.011656508613874624}},{"sx":1,"sy":1,"depth":396,"w":{"0":0.007327997994572787,"1":-0.050949580905090025,"2":-0.010847828532813958,"3":-0.04710727643793632,"4":0.007984579857130253,"5":0.009025786519713575,"6":-0.006499098514816983,"7":-0.01153516457128438,"8":0.045148995590901624,"9":-0.03553824814704318,"10":0.015637230472077306,"11":-0.006631241848927603,"12":0.0363443656614502,"13":0.06224325039923444,"14":0.0294563477014353,"15":0.05132712433608759,"16":-0.0058138738233768205,"17":-0.03669521234262769,"18":0.04605569888946983,"19":-0.058186827336428104,"20":-0.06555047255005463,"21":0.029451145478196026,"22":-0.021760510572836508,"23":-0.017812779025872562,"24":-0.08855083543558778,"25":-0.00945179473572666,"26":-0.0237868094916664,"27":-0.10207631767622477,"28":-0.08961098005675355,"29":-0.02051487318617275,"30":0.013738801788618069,"31":0.023574709047394105,"32":-0.019630563246643966,"33":0.002406113876465655,"34":-0.02152978609818927,"35":-0.011649713753760905,"36":-0.027315793123371655,"37":-0.05074115355420606,"38":0.026962588237077877,"39":-0.02308760087839255,"40":0.02329590473414073,"41":-0.044900380768415585,"42":0.00830734203266315,"43":-0.00562444599745266,"44":0.003924310375623092,"45":0.0343638914427561,"46":0.05636312065590244,"47":0.03246621280292013,"48":0.03298497450026791,"49":-0.028563094454601836,"50":-0.05019640594894797,"51":0.01533611459418308,"52":-0.04727736946415712,"53":0.03136559319257343,"54":-0.045541146649536554,"55":0.013941401613363796,"56":-0.015359956000485614,"57":-0.05271159339207531,"58":-0.02986752912480003,"59":-0.015407356134220306,"60":-0.049144138502734754,"61":-0.03296401014908445,"62":-0.007041877801004644,"63":-0.07012318771953285,"64":-0.024819752728211884,"65":-0.006440477927407101,"66":0.06398551228413099,"67":-0.027890527111349445,"68":-0.0020500622291430314,"69":0.03546803767551643,"70":-0.013194253314040312,"71":-0.014807534134293955,"72":0.0434399822963239,"73":-0.01798162438876032,"74":0.04835255875698569,"75":0.09786038079325766,"76":0.04763890677138829,"77":-0.05211627416266566,"78":-0.03265378601772423,"79":0.1018031143336585,"80":0.043177706027502975,"81":0.037390163299278335,"82":-0.020680816857307174,"83":0.0048373380516932955,"84":0.09791176292740879,"85":-0.021044815226688773,"86":-0.047990719553924824,"87":-0.025533512384512794,"88":-0.006644413025523328,"89":0.05818025637845006,"90":0.08033328895495784,"91":0.03403984002776157,"92":0.010281628378946566,"93":-0.03020305162516925,"94":0.03660842107526348,"95":-0.035431715884966755,"96":0.006171271821247071,"97":-0.048852906096453236,"98":0.005100331370909391,"99":0.021857210553763013,"100":0.033639840910317916,"101":-0.07366530848972937,"102":0.030325077686263822,"103":-0.07242320698193577,"104":0.006559935359028623,"105":0.05787887064692203,"106":0.07739064225419806,"107":0.008298250565782199,"108":-0.07890193112796358,"109":-0.061928020834524256,"110":-0.041337689046740844,"111":0.03188569371596633,"112":0.047415377183947074,"113":0.05730745294522608,"114":0.018424760325464317,"115":0.009562907067840869,"116":0.06361727688763251,"117":-0.027467944184646452,"118":-0.0043001959379858614,"119":-0.02052652718922969,"120":0.03744964960407886,"121":0.05233420914780264,"122":0.044063971482657026,"123":-0.002038752603894204,"124":0.10257980720384838,"125":0.008593436727959569,"126":-0.00213187071374754,"127":0.02551925733961847,"128":0.03324155425962674,"129":0.028847694465104694,"130":0.05327430312620218,"131":-0.01450632670452775,"132":-0.05385570289625406,"133":-0.006483213431579076,"134":-0.021701450406280097,"135":0.015128187657553135,"136":0.029271119270760846,"137":0.02295370510736514,"138":0.027837800754097884,"139":-0.05760684263055226,"140":-0.016686776600050912,"141":-0.003565522490196191,"142":-0.004979456110790659,"143":-0.05884440386455572,"144":0.014330765999762527,"145":-0.0260551601822457,"146":0.05066533043890672,"147":-0.03596830707270975,"148":0.038043374169425485,"149":-0.011465941285972515,"150":0.11662636802649046,"151":-0.01363819721594667,"152":0.024797919209863354,"153":0.05328209055779797,"154":0.0027912380099731487,"155":-0.04719718322002399,"156":-0.08577274799935276,"157":0.015459504898637677,"158":0.022596442141145444,"159":0.0764239416310557,"160":-0.013300792423961077,"161":-0.007120988712807492,"162":0.03489135647058374,"163":-0.07361375735858293,"164":0.0027971974775228307,"165":-0.010863445731108383,"166":-0.00869189868428187,"167":-0.07698863995664657,"168":-0.06755176920224969,"169":-0.022516784061856674,"170":-0.030462435955131782,"171":-0.03366867755764043,"172":-0.03403222973209648,"173":0.011813654162517003,"174":-0.08178221620029696,"175":-0.03382516204084101,"176":-0.02619087318917514,"177":-0.008427408019243094,"178":-0.04973720820584049,"179":0.02901979492726256,"180":0.020375656046999136,"181":-0.05148780413301393,"182":0.03429878342143261,"183":-0.004840934076385176,"184":0.027573312534732657,"185":-0.04958627235771717,"186":-0.10792880181854328,"187":0.041373688269655116,"188":-0.046907905771559524,"189":0.000728493818613597,"190":0.008353136581715343,"191":-0.08388806424110913,"192":-0.0012299131511310233,"193":-0.006807549648772746,"194":-0.025829428519852354,"195":0.0010201370730316408,"196":0.006859169134993326,"197":-0.014966219828099018,"198":0.01432571075476537,"199":-0.020325071746928082,"200":0.043429564759538096,"201":0.016057438582135566,"202":-0.05499304860150257,"203":0.011286911141763748,"204":-0.08297794232167968,"205":-0.017660076289910672,"206":-0.013702817538847535,"207":-0.005448975042414594,"208":0.022985190856857,"209":0.013965872146274007,"210":0.047815456112681946,"211":-0.03317992496427957,"212":0.04661076233037664,"213":-0.02679709878308941,"214":0.06860496958443908,"215":-0.01770996735821339,"216":-0.09236664556575325,"217":-0.013819647744389029,"218":-0.06061332844661596,"219":-0.07306072847997093,"220":-0.018090835309567028,"221":-0.00958667595682383,"222":-0.05477965487113752,"223":0.006516261067238343,"224":0.04056397108365938,"225":-0.016659799795420895,"226":-0.02556584324792821,"227":0.016258169367356613,"228":-0.12630434725885586,"229":0.025441629723305294,"230":0.024452611195141086,"231":0.032259796250598965,"232":0.06247206810229023,"233":0.05859525339577182,"234":-0.09329430102196386,"235":-0.013644047933834244,"236":0.00654210714397805,"237":0.010991521945363712,"238":-0.10537780596000784,"239":0.007417702990964332,"240":0.00893782104826213,"241":-0.058273745844085005,"242":-0.011621356179248643,"243":0.05902289355400358,"244":0.018244339993663414,"245":0.02571809469178869,"246":0.051156988950327914,"247":0.006921703475804343,"248":0.06952723867933243,"249":0.04579896215441368,"250":-0.05289749875616854,"251":0.007181830372745307,"252":0.06204107830472274,"253":-0.015852159080442487,"254":-0.008398749636423912,"255":0.04647948677961904,"256":-0.004956037763841082,"257":-0.08086165351885169,"258":0.05281760569485925,"259":-0.0206072959670297,"260":0.00023610024587645436,"261":0.019298278539836785,"262":-0.05752961205812542,"263":-0.002458668965465006,"264":0.038326702552717924,"265":0.023585942784653282,"266":0.008448469241713429,"267":-0.08704594099092786,"268":-0.06262177878153934,"269":0.020630528295077784,"270":0.005451742491606757,"271":-0.056251040076268376,"272":0.016074550809778605,"273":-0.012921325002927198,"274":-0.07666182874174522,"275":-0.01390419227950578,"276":-0.0441291231719804,"277":-0.016144870079650857,"278":-0.018984635508344755,"279":0.05546499168484232,"280":-0.036971793491096375,"281":0.03672424869408945,"282":-0.01287067997183573,"283":-0.07860873081584291,"284":0.035777357177767415,"285":0.00689845492481468,"286":0.012517713330247067,"287":0.06419959876989086,"288":0.04247949019087037,"289":0.03494632080430412,"290":0.05253942145136816,"291":-0.029239038500572932,"292":0.034890705624582796,"293":-0.048111705650160125,"294":-0.06106433355687757,"295":-0.05246481770350095,"296":-0.04203180973328915,"297":-0.03901888416694259,"298":-0.029252345295488095,"299":-0.008746026503926443,"300":-0.011309270460878644,"301":0.0337434514083219,"302":0.011242350582940522,"303":-0.049358207894393005,"304":0.01773939279921385,"305":-0.012781424923692353,"306":0.07634611779435738,"307":0.051478593182009,"308":0.03184953134830372,"309":0.012550056864912765,"310":0.014224214267670607,"311":0.038331413640900786,"312":0.04873408513668199,"313":0.005378699657716322,"314":-0.08049128799211225,"315":-0.044835373781601504,"316":-0.016860424509412678,"317":-0.0875621091260104,"318":0.03547068042733335,"319":0.016433642869011823,"320":-0.03308532627086669,"321":0.0535276074611342,"322":-0.026447458971165332,"323":0.07068497134533158,"324":0.09747134175145014,"325":-0.06464430730993777,"326":0.06111625749047407,"327":0.050661084555232945,"328":0.07620340814023692,"329":-0.025100093907956027,"330":0.0359807555955798,"331":-0.031094969197205863,"332":0.026450303280282694,"333":0.03721547247048215,"334":-0.021650427170075575,"335":0.040172933714604224,"336":0.008321248188787697,"337":0.029701816829299583,"338":0.010089267558572205,"339":0.01630779556561568,"340":0.0868831418260901,"341":-0.05552197606919559,"342":-0.017970104393960438,"343":0.024704914678232343,"344":-0.058018858766658465,"345":-0.04286992132757218,"346":0.0008771942565691083,"347":-0.015354070404892835,"348":0.007173087690741688,"349":-0.07075884475332517,"350":0.0143643901354765,"351":0.008327317098331894,"352":0.08129454036575699,"353":-0.07292036308465777,"354":0.07544441375764596,"355":-0.07164155149130302,"356":0.051238786194918735,"357":0.05902786536505418,"358":0.02938555679933058,"359":0.0017306493355177346,"360":0.02537572386425683,"361":0.049512195824961296,"362":-0.02115955912897929,"363":-0.057515536516977384,"364":0.030751230378759674,"365":0.009910231831459762,"366":-0.02141298245883823,"367":-0.10428017268746953,"368":-0.020508168686128574,"369":0.07879286877768359,"370":-0.037504491366831226,"371":0.00840078355431243,"372":0.002238232121350533,"373":0.021986159014634896,"374":0.050470384530731695,"375":-0.011856651638320174,"376":-0.03938799138261617,"377":-0.008086612254983963,"378":-0.022720106645617945,"379":0.031544431571998086,"380":0.0076349262839270245,"381":-0.025943177236408384,"382":0.08314096985236762,"383":-0.018112289280064055,"384":-0.042212275799798936,"385":0.03178459629594999,"386":-0.02032560150474265,"387":0.05319439066591185,"388":0.009318471639855235,"389":0.0073511167291237765,"390":0.005714483421378301,"391":0.020545591797302438,"392":-0.044623007887376796,"393":0.08999156956316118,"394":0.029805556742223637,"395":-0.0073565762110798915}},{"sx":1,"sy":1,"depth":396,"w":{"0":0.04755513746049834,"1":0.036751342434549736,"2":-0.042138836366700884,"3":0.011206257471120914,"4":0.04252559161367567,"5":0.06712534979516004,"6":0.0942021513582562,"7":-0.03724230983701588,"8":-0.06064624231038672,"9":-0.00007281613205777987,"10":0.10699175554464135,"11":0.009829431641393067,"12":0.04218912085618359,"13":0.06919482306355619,"14":-0.020855451953844674,"15":0.024790028774881297,"16":-0.05240679061486446,"17":0.10225078339078965,"18":-0.04254585979462858,"19":0.012226672482568682,"20":-0.0610516684513483,"21":-0.06681213916250647,"22":0.11887389814091168,"23":-0.06093277587514718,"24":-0.042907713118118154,"25":0.06307584805469842,"26":-0.10127565416397824,"27":-0.02981211576673577,"28":-0.010035513576413725,"29":-0.03296423128525656,"30":0.05469779597556667,"31":0.06543211024457392,"32":-0.02529491183588065,"33":0.01741889709613122,"34":-0.015577576036717184,"35":-0.04990577828983511,"36":-0.0658922611006091,"37":-0.09280763919503664,"38":0.041731787299142876,"39":-0.018254502511627833,"40":0.0583909237360642,"41":0.05130244251300274,"42":-0.013270806511653539,"43":-0.05625923183170876,"44":-0.029783406265331398,"45":-0.036714843990738384,"46":0.025504915664263505,"47":-0.03032874763874662,"48":-0.052715109778941144,"49":0.022131031714988703,"50":0.03357492469164841,"51":0.02843488184117694,"52":0.035271479293555556,"53":-0.03362915253347101,"54":-0.057615501675512285,"55":-0.01740448985859304,"56":0.020387658844020613,"57":-0.04328431700555245,"58":0.01507182265046647,"59":-0.014109697710815269,"60":-0.0013486232312782335,"61":-0.03025725171917374,"62":0.020119342053148574,"63":0.036095253423547004,"64":-0.03327155797474788,"65":-0.01456033372574593,"66":0.0017148264230050258,"67":-0.03630856220130311,"68":0.00029631038777140335,"69":-0.040867148965546864,"70":0.051155910383383324,"71":-0.020698453386546172,"72":-0.013570840569604045,"73":0.08909056572031311,"74":-0.09122268385663991,"75":-0.08421994737960128,"76":-0.005476556160919213,"77":-0.004851946670771292,"78":-0.059721467196118365,"79":-0.014943031767599613,"80":-0.027033222070711856,"81":-0.0440483427652503,"82":-0.02189471484853771,"83":0.03754245986552874,"84":0.01664887500854478,"85":0.06358406500924561,"86":0.03098811431847287,"87":-0.047777360304019655,"88":-0.041263946415701726,"89":0.02245954162106119,"90":0.07886297725292078,"91":0.02132950929958706,"92":0.04893583914917926,"93":0.03115666928478413,"94":0.004330660731919974,"95":-0.06919494524281387,"96":-0.07222753033400399,"97":0.06420916579474324,"98":-0.11856429830307963,"99":-0.005222350572883666,"100":0.0004855363057765949,"101":0.049720788993301956,"102":0.004533502234891643,"103":-0.015157753526211999,"104":-0.04398064875034584,"105":-0.048962442316124136,"106":-0.008704048112196062,"107":-0.02977726409239427,"108":0.005044346643599342,"109":-0.022950489641713596,"110":0.016025641839258815,"111":-0.021227197175002353,"112":-0.041694197759652996,"113":0.009170375938173438,"114":0.01049278420795855,"115":-0.0016052405226880736,"116":0.005244965101429664,"117":0.04023677825326115,"118":0.03297967344797831,"119":0.0151909610987821,"120":0.06112255993995661,"121":0.01005717482666382,"122":0.04518830605908406,"123":0.044551333942234365,"124":-0.055847812702635655,"125":0.03190442422989398,"126":-0.06901650083737383,"127":-0.014069827676102669,"128":0.003995527404546611,"129":-0.006266163094998779,"130":-0.060697186313723624,"131":-0.04466771976907615,"132":0.13130849674974243,"133":0.004321319015576748,"134":-0.030967101242352652,"135":0.041812775066815897,"136":0.03887089313255223,"137":-0.07020398970481193,"138":0.02544087983773645,"139":0.03100537933774457,"140":-0.04657464993971185,"141":0.023402451269009993,"142":-0.05574679842214216,"143":0.011471410054667962,"144":-0.09901320485645645,"145":-0.07207138317840943,"146":0.03202025840216702,"147":0.09148271377840257,"148":-0.008577478825452718,"149":-0.043188039360820815,"150":-0.03159396407179709,"151":-0.10818326676028088,"152":0.024823490512685426,"153":0.009651930029690168,"154":-0.03307012218988242,"155":-0.04008422799692211,"156":0.035741606586774256,"157":-0.04268697659934243,"158":-0.06134142612021569,"159":-0.03924370559918929,"160":-0.017153973264570205,"161":0.03555289966050612,"162":-0.024767449857200457,"163":-0.004164865370887819,"164":-0.05239247230279396,"165":0.018971906992310186,"166":-0.060251084001014504,"167":0.04794678648460458,"168":0.03475642852389771,"169":-0.02294781838182955,"170":-0.06605017370041172,"171":-0.05639962392557746,"172":0.007674185222995859,"173":0.02374070522566959,"174":-0.03183881914981818,"175":-0.038646592516594434,"176":0.043561583270744705,"177":-0.020333421038324178,"178":-0.05760205395215718,"179":0.028904061509409305,"180":-0.0010901066090324822,"181":-0.03091349478628161,"182":0.06259702631980672,"183":-0.0735676088209021,"184":-0.017901402270508158,"185":0.003804617149628461,"186":0.05785831169794689,"187":0.013671247510315097,"188":0.0036502943059330225,"189":-0.03122592667883888,"190":0.011662527324112375,"191":-0.05555889803547955,"192":0.06160375838487301,"193":0.06539463866362549,"194":0.05325389113347163,"195":0.015607707833743977,"196":-0.007257685571350405,"197":-0.046700468234948694,"198":-0.040227026517377126,"199":0.06593387047472486,"200":-0.053306152479665796,"201":-0.07541815490982016,"202":-0.02302613676076102,"203":0.005814885109011006,"204":0.04248482756407927,"205":-0.005816835428629527,"206":0.07751463596345594,"207":0.005213367658880178,"208":-0.0008560849309825787,"209":-0.04916305067896104,"210":0.027738481086037416,"211":-0.002239848931120071,"212":0.011949857356018724,"213":-0.044133148800393304,"214":-0.07158262575918313,"215":-0.04714711926479423,"216":0.03088505120224709,"217":0.051480480208238644,"218":-0.01286312239683057,"219":0.007871366107590769,"220":-0.0906574076336117,"221":0.06642639256908613,"222":-0.04048653713183953,"223":0.05650648352750962,"224":0.027956846157201714,"225":0.051526210310511314,"226":-0.05222255343215817,"227":-0.04865332566866126,"228":-0.03168866917078155,"229":0.09260519202688204,"230":0.005341630146855375,"231":-0.011976155530304027,"232":0.00870331271818969,"233":0.06021088333525801,"234":-0.02915699689084911,"235":0.016159342418159858,"236":0.10302673482955725,"237":-0.034475388906012754,"238":0.039499309811955895,"239":0.02694177019445662,"240":-0.08699237043503827,"241":0.002463078420830497,"242":0.08417045796106738,"243":0.033529070052244904,"244":-0.02785314894470528,"245":-0.031786748858696624,"246":0.02080593764810837,"247":-0.06154446029018045,"248":-0.04121651002201344,"249":-0.002806179335810048,"250":0.023039757367376495,"251":0.014705058038241639,"252":0.025070094897694274,"253":-0.02778592538202491,"254":0.06843509740480658,"255":0.023134425330816444,"256":0.045797578069338984,"257":0.0012595417974054304,"258":0.01647280200726452,"259":-0.07934058466204627,"260":-0.02646759482967521,"261":-0.0449408477527977,"262":-0.018863430305676582,"263":-0.050185940045211104,"264":0.08006600996075523,"265":0.04832868932847726,"266":-0.003389845109960171,"267":0.0362378090196899,"268":-0.009068032599935499,"269":0.005073297952270264,"270":0.013950043487918104,"271":0.008786436670361508,"272":-0.014096924379052429,"273":0.02220875771968342,"274":-0.0018947901839864094,"275":0.025771462187147633,"276":0.07981917995550938,"277":-0.10344939917441896,"278":-0.020981541135702265,"279":-0.027164615201858703,"280":0.014780173828387025,"281":0.03940146937937063,"282":0.012940275514843873,"283":0.07704471377201924,"284":-0.0014279343536465576,"285":-0.044262184083848195,"286":0.01744547524711695,"287":-0.007845186313109907,"288":0.03601835708592559,"289":-0.018185429872451253,"290":-0.013771052905008654,"291":0.07494174314084452,"292":0.059979857054047514,"293":0.02736281253514607,"294":-0.016510614716175778,"295":-0.0814187445506866,"296":0.04087528770869632,"297":-0.00840221685583433,"298":0.06063066651965292,"299":-0.006634738657057226,"300":0.028465067974950627,"301":0.08069766623325658,"302":-0.05358731880035734,"303":0.02186361271068495,"304":-0.047109844355954604,"305":0.02742236917141472,"306":0.06160546292773001,"307":-0.06571300629262573,"308":0.015897675676033746,"309":-0.06172924925555786,"310":-0.007307725001388239,"311":0.07272053391708767,"312":0.01470275389705855,"313":-0.04255489586320312,"314":-0.0013389843115632662,"315":-0.08365952545449556,"316":0.024399876819279426,"317":0.05832069601544465,"318":-0.016927078772491073,"319":0.021636381321115665,"320":-0.015529098885919143,"321":-0.03071337132298476,"322":0.01797378366747961,"323":0.007903941967113437,"324":0.002446371754034378,"325":-0.0368374256186175,"326":-0.07426672668196095,"327":0.06245911259341837,"328":0.040599958496644495,"329":-0.062314487584865796,"330":0.004846371798026968,"331":-0.013363314936310901,"332":-0.002070761447574652,"333":-0.04530240344267206,"334":-0.02263644306864497,"335":-0.0274856449436082,"336":0.007654044213337233,"337":0.015759577600089975,"338":0.0006671378390145016,"339":0.031756093734793024,"340":0.05263289200469334,"341":0.07413667361789919,"342":0.03330806111756511,"343":0.03572515231499413,"344":-0.00814626929087429,"345":-0.04110909012549491,"346":-0.06556838390573203,"347":-0.015996402240279588,"348":0.030872797708419705,"349":-0.033364679086342004,"350":0.04724369849136761,"351":0.023939106059147914,"352":0.007021643829889951,"353":0.06453908106530588,"354":-0.05190590245040184,"355":0.06613635955415265,"356":0.0740154802917182,"357":-0.023891141842611974,"358":0.03069827921157406,"359":0.024571241727096953,"360":-0.0348745002002728,"361":-0.021137500217767592,"362":0.09383572020433437,"363":-0.023301406650453216,"364":0.03741256785075416,"365":-0.013066958473714125,"366":-0.02004049048749385,"367":-0.03559226590671581,"368":-0.06960082074897916,"369":0.020048452877507377,"370":-0.06745199452564563,"371":-0.013969425859724329,"372":0.02074545383316408,"373":0.014113453138484737,"374":0.004054452111494293,"375":0.025639792384054623,"376":-0.05641647189780192,"377":0.010552618973908075,"378":-0.061928567976603184,"379":-0.03534876211266327,"380":-0.0015681037817129183,"381":-0.020999406854135563,"382":-0.10532736380535646,"383":-0.059180125669796566,"384":-0.02258499961568365,"385":-0.03486751297829392,"386":0.034265609354401295,"387":-0.007014642850371176,"388":-0.029348996277721535,"389":0.011513596637082369,"390":-0.023653974313691914,"391":0.02410320886467751,"392":0.017193149025135607,"393":0.08906204580218095,"394":0.0223939592067251,"395":0.01837293651876447}},{"sx":1,"sy":1,"depth":396,"w":{"0":0.04150691683471861,"1":-0.048423746200434846,"2":0.06464977337648392,"3":0.02384644014907459,"4":0.06119574893889954,"5":-0.05798714410469427,"6":-0.032772068041251164,"7":0.012464171224024476,"8":-0.004273084311088219,"9":0.019058765205524318,"10":-0.01164855799061319,"11":0.07383219036819963,"12":0.03882661865708298,"13":0.015489176830509335,"14":0.00034125989191087204,"15":-0.0397582226362489,"16":0.059304157741899614,"17":-0.005344332377193137,"18":-0.02296817550855712,"19":-0.06777041856017546,"20":-0.012248426392016079,"21":-0.016838155796654583,"22":0.037080664306132105,"23":0.030169798402543944,"24":-0.005008198601531374,"25":0.017777103637450515,"26":-0.02646941159364215,"27":-0.007237311882888462,"28":0.06339909109544944,"29":0.014196916574790053,"30":0.013317052246307406,"31":-0.02977882311672833,"32":0.10890247061418916,"33":0.03208014932069198,"34":0.032157180065254955,"35":-0.025040890113807102,"36":0.026999693305651624,"37":-0.0515084280397502,"38":-0.005336152326441083,"39":-0.035823163552048114,"40":-0.042713641483268464,"41":0.0013781795179544682,"42":0.06396965000535133,"43":0.002667095072750794,"44":-0.0394563030741008,"45":-0.005017775293676729,"46":-0.01864247352677018,"47":0.04099127470326134,"48":0.014592648985269765,"49":-0.011532549358060893,"50":-0.013923271115531061,"51":-0.06306787340202655,"52":-0.01213763603507538,"53":0.012918395928090243,"54":-0.03773120855588442,"55":-0.01516841383558318,"56":0.004936649693732242,"57":-0.06747987366466905,"58":0.0009136919905428456,"59":-0.029516025085562926,"60":-0.049738399676092816,"61":0.07681344866735804,"62":-0.04885274249985524,"63":-0.04351378568486905,"64":0.013562767750269137,"65":0.020069696210911953,"66":0.038834838051288345,"67":-0.024735703636272754,"68":0.0220625386239882,"69":0.07697411003814617,"70":-0.0048394175232651165,"71":-0.06678726561934685,"72":-0.014911808134731003,"73":0.07031354531494208,"74":-0.0078438771987772,"75":0.0013635696761251641,"76":-0.00744711588664148,"77":0.03159414257372635,"78":-0.054996975548363816,"79":-0.014122561952246676,"80":-0.03938609671673347,"81":0.0006672724660101277,"82":0.04263019887156561,"83":-0.027218433481703323,"84":0.03775191155661741,"85":-0.039278200890871466,"86":-0.038951352978123015,"87":-0.004928889553011685,"88":0.030970401084177278,"89":-0.016018702560458984,"90":0.003747615552568941,"91":-0.024085007617293295,"92":-0.0220368521593695,"93":0.028233688543196925,"94":-0.09215954328578108,"95":0.004718956395662039,"96":-0.030351599985823128,"97":0.035273994832865654,"98":-0.0003787846299945393,"99":-0.026158808598162227,"100":0.005176529661673431,"101":0.0016603413077476514,"102":-0.039286088007402305,"103":-0.05676733772428545,"104":0.03886777170918916,"105":-0.04542148169567287,"106":-0.04005723442810756,"107":-0.026684378041398674,"108":-0.035028981697755916,"109":-0.014306768438139918,"110":0.001750333764322943,"111":0.005579932358243633,"112":-0.06261813318238324,"113":-0.07454147410474087,"114":0.0032704146223207064,"115":0.024681237326945188,"116":-0.03138637612723577,"117":-0.000697345746023883,"118":-0.048819908519424,"119":-0.0042095035248808825,"120":0.043314236433771705,"121":-0.055044259845089295,"122":0.08712328839245985,"123":0.07860969291904268,"124":0.0031984733036251926,"125":0.012294430139300639,"126":-0.05498579563040515,"127":-0.016544191341997617,"128":0.0449849982771382,"129":0.016075152456519717,"130":0.00005782708028780988,"131":0.07421127488283198,"132":0.05787220543053625,"133":-0.03483018803372931,"134":-0.0058847980586174435,"135":-0.01478114127099002,"136":-0.05932557950065063,"137":0.02208192106975814,"138":-0.11252115066812064,"139":-0.04639538299718173,"140":-0.014665534411414155,"141":-0.006719296303717387,"142":0.016077321175268815,"143":0.013611507303984988,"144":0.0400553094082018,"145":0.10346242377594315,"146":-0.009524457971903169,"147":0.02471190300142702,"148":0.02039754963255236,"149":0.0628569115645501,"150":0.03473241760006403,"151":0.02003859187734862,"152":0.012758234874677324,"153":-0.0062545534317647354,"154":0.015247984086502166,"155":0.030262929299969408,"156":0.009575771230248185,"157":0.0872392103096733,"158":-0.11182238126739892,"159":-0.02912437916689336,"160":-0.04751704584150743,"161":0.01176950926922092,"162":0.026025744561619338,"163":0.0714247096307177,"164":-0.04332095604346258,"165":-0.03472381868656998,"166":-0.048781076592424595,"167":0.04029850726783564,"168":-0.009922657784541551,"169":0.008639907484424936,"170":0.0027237964562137488,"171":0.05705436343588527,"172":-0.01543353831546412,"173":-0.02222819235766888,"174":0.03118069978561422,"175":-0.0682273171010364,"176":-0.003424867863025883,"177":0.019012856063991918,"178":0.01007307234122033,"179":-0.027650139027421344,"180":0.019504118911187137,"181":0.05685258124744733,"182":-0.07021758308851554,"183":0.010129119912148208,"184":-0.025510061067789646,"185":0.01718033085731629,"186":0.05912738300316549,"187":-0.017505110027084277,"188":0.05323365227451849,"189":-0.048288872924327826,"190":-0.06438979261925562,"191":-0.027534865224715478,"192":-0.027981743156149725,"193":0.010503946136753355,"194":0.0313868273190466,"195":0.005045088600829814,"196":0.026859386205392684,"197":0.06571362213656623,"198":0.049533067710610286,"199":0.03942122308521682,"200":0.03221461179696693,"201":0.011378151319281464,"202":0.05541540150794525,"203":0.033371391250620046,"204":0.009121822240824813,"205":-0.03153891971570139,"206":-0.011862325963548524,"207":0.010786102347786035,"208":0.05544008495001258,"209":-0.08793180891209543,"210":-0.032102689920271155,"211":-0.07141078219149005,"212":0.029329749738857668,"213":-0.008839069795258152,"214":-0.014024149810888101,"215":0.011016780530789229,"216":0.06849001790375042,"217":-0.044104187796273876,"218":-0.07213448254700724,"219":-0.00028528470756566433,"220":0.055943828610589746,"221":0.006685066534230717,"222":0.014378731126729029,"223":-0.0444337448460651,"224":-0.010469028180859192,"225":0.036732530197833686,"226":-0.07157152459451528,"227":0.06142252386361551,"228":0.06590081720729311,"229":0.003086089128393242,"230":0.020658190755411854,"231":-0.041585932516763874,"232":0.01361906483301783,"233":0.10120991307834976,"234":-0.0911946051539531,"235":0.021573825529599452,"236":0.000348540298020591,"237":0.026599456226036888,"238":0.03138672988884781,"239":-0.03065678640877187,"240":-0.05097588609305791,"241":-0.05386950207973724,"242":-0.03798257797990619,"243":-0.057101919529438404,"244":-0.02320706829883668,"245":0.022409827289635982,"246":0.013932356278878798,"247":-0.04067690219807914,"248":-0.052564266561264054,"249":0.0462166736523835,"250":0.011191775685031847,"251":0.016045799519207697,"252":-0.04087128413532984,"253":0.06415953804668867,"254":0.015267719684216302,"255":0.012994534731480755,"256":-0.002110309017262222,"257":-0.08397423974342422,"258":0.10944303436948798,"259":0.01723999711631199,"260":-0.028194901415562818,"261":-0.013049324010370199,"262":-0.07721718619933332,"263":0.032279937351679944,"264":-0.0383378921280631,"265":-0.047590464908478125,"266":0.06924634640117336,"267":0.0986221114470966,"268":0.019275872066881427,"269":0.015545423653506935,"270":-0.038675978212685855,"271":0.040437947512368365,"272":0.008024506230312574,"273":0.02530508144288706,"274":0.01576954714138658,"275":0.023033634502478913,"276":0.0588784658027066,"277":0.05255735615467401,"278":-0.0425362522055471,"279":0.002738697405864712,"280":-0.027403067586773106,"281":-0.04902867909178855,"282":-0.06896508103706436,"283":0.009943399288990283,"284":-0.008827828697587518,"285":-0.05280246201435742,"286":-0.03209177290216955,"287":0.06421966387712422,"288":0.002747455161647132,"289":0.017953219371161778,"290":0.005687372033305589,"291":0.0099904291416244,"292":0.012571950977619846,"293":0.020380956310569708,"294":-0.04304609358582868,"295":-0.029297772785803523,"296":-0.02306840766552476,"297":0.03925245761748545,"298":-0.016198879105452122,"299":-0.014876475508150433,"300":-0.03117516838098894,"301":0.008417765857979346,"302":-0.0033394237538669383,"303":0.018065282083323572,"304":0.02053247419809233,"305":0.0008360224001993702,"306":0.06462686890562146,"307":0.09315755040130207,"308":-0.03992021766462409,"309":0.0014577514407895474,"310":0.0421356150943226,"311":-0.04398092390899686,"312":0.023487192025236706,"313":-0.01669577038594402,"314":0.09886401630815565,"315":-0.010507335540049796,"316":-0.04758372096070755,"317":-0.014244624643168884,"318":0.012671215196311746,"319":-0.03104008485932588,"320":-0.00023553087755425777,"321":-0.039167495699136363,"322":0.003888807357566608,"323":0.0021351832369492464,"324":0.04144077996829513,"325":-0.029889834350237943,"326":-0.009918032290519995,"327":0.08559094682842908,"328":-0.02433812742598976,"329":-0.020187337492318946,"330":-0.010970591484056571,"331":0.017612912872515422,"332":-0.059382776848457906,"333":-0.053277751952454114,"334":-0.008582127235918304,"335":-0.05810204420819749,"336":0.06307607858646518,"337":-0.032501640643173575,"338":-0.018120652065014946,"339":-0.019934540583788705,"340":-0.04172580564778087,"341":-0.015852520808322786,"342":0.03201880947576626,"343":0.005695379346885182,"344":-0.05710006094397059,"345":0.015698773991437043,"346":-0.027882717003700704,"347":-0.016459180428748554,"348":0.019445055082975757,"349":0.0950980677788985,"350":-0.01898184532072882,"351":-0.022841500528945725,"352":0.002579813812642153,"353":0.06754574549612802,"354":0.08073261712976824,"355":0.02282220906240048,"356":0.007524966876014119,"357":-0.07053665231231292,"358":0.08004625192479953,"359":-0.019066309436626194,"360":-0.05745639649326681,"361":-0.001444610410131717,"362":0.028999851592906745,"363":0.030122608664120136,"364":0.035699345009479536,"365":-0.04987469171203083,"366":-0.04578873212159513,"367":0.00023903988771255288,"368":0.013655505600166502,"369":-0.0536287134403726,"370":-0.02369343973506881,"371":0.06799030554743742,"372":-0.010253817853280568,"373":0.02757193382097462,"374":0.034206690317432016,"375":0.0014133099291188348,"376":-0.03159017456368833,"377":0.049149394507809474,"378":0.09064560538444258,"379":-0.03497323789955758,"380":0.012569197310408757,"381":0.014274855386725432,"382":-0.02287719639606574,"383":-0.0009796784340583605,"384":0.02897421325003562,"385":-0.02720555575080652,"386":0.0007945175161195267,"387":0.000550740755260947,"388":-0.03352345262664201,"389":-0.0015958300786887184,"390":0.0054878730795696416,"391":-0.04600293636030388,"392":0.06982931099928487,"393":0.0593727842898304,"394":-0.0601827566696896,"395":-0.010601368847585299}},{"sx":1,"sy":1,"depth":396,"w":{"0":0.006706459318171982,"1":0.0026783224561967955,"2":-0.09145776246376218,"3":0.07863502044010247,"4":-0.007002465831966383,"5":-0.013925181162096999,"6":-0.018978450973412456,"7":0.026078167987604418,"8":0.06628637725252076,"9":0.05881430480566243,"10":0.005235534750802242,"11":0.015682516963538656,"12":0.026647521525495224,"13":-0.05242653633734358,"14":-0.047495578442694704,"15":0.027689159473427816,"16":0.09553309511473912,"17":-0.0044842441510401,"18":0.06953159606105405,"19":0.02059080778869598,"20":0.02714616583959821,"21":0.0018046412885160113,"22":0.02921456210867858,"23":-0.07132661528397718,"24":-0.0564705074239657,"25":-0.026711788017334665,"26":-0.04024631893513782,"27":-0.0006052902061489382,"28":0.013008827509042855,"29":-0.051111493079372045,"30":-0.07934433550356118,"31":-0.06077778710790409,"32":0.031766584929511364,"33":0.02660479534171584,"34":0.008704515241132447,"35":0.005851240086198191,"36":0.04990397800546042,"37":0.012390996891908737,"38":0.013691926629695223,"39":-0.013222687882303059,"40":-0.0010606957940440121,"41":-0.004641433696210553,"42":0.002974591352939986,"43":0.05126245144684343,"44":0.0783128459523599,"45":0.07457292424526375,"46":-0.10077273918074352,"47":0.049457337163481406,"48":0.005637382714148435,"49":-0.058246799597991325,"50":-0.007205699787423491,"51":-0.01670471699653798,"52":-0.05375848487187181,"53":-0.06045844268176343,"54":-0.015616743712724819,"55":0.020074561270537264,"56":0.05646178186498104,"57":0.07888058792495792,"58":-0.013800376500230669,"59":0.05546462862986529,"60":0.00416513620563697,"61":0.007936544028476733,"62":-0.029057465778445573,"63":-0.040713607696093286,"64":-0.059105678916067744,"65":-0.008292612871687444,"66":0.03318486268910507,"67":-0.04659564187153031,"68":0.004675782153108372,"69":0.017522686097192052,"70":-0.0003610206209805295,"71":0.01616063022844416,"72":-0.005930669679580415,"73":-0.034530780777810494,"74":-0.024787300014981938,"75":0.014354361829908886,"76":-0.014559468079084757,"77":0.025573021678909166,"78":-0.0917253237349378,"79":-0.008793341911058189,"80":-0.03811893686616565,"81":0.007229206369515935,"82":-0.04411004301015185,"83":-0.03826567809195303,"84":-0.03224793087814124,"85":0.06026651109811485,"86":-0.019942455740478347,"87":-0.0038790449431358553,"88":-0.025119101158608707,"89":0.04717798313632363,"90":-0.058128614516910836,"91":-0.04422723237544966,"92":-0.03189431218586244,"93":-0.04624310033195277,"94":0.02440131956281414,"95":0.0006615279885295779,"96":-0.028394584988779906,"97":0.042519334795834404,"98":-0.020776996103459393,"99":-0.009246345661125893,"100":0.06788046180112982,"101":-0.06212067601352789,"102":0.07236379704769351,"103":0.008269336104696675,"104":0.023944522394843966,"105":-0.03220577893150184,"106":0.0038945918269092552,"107":-0.03603176000352809,"108":0.024447472729640853,"109":-0.04299193869881654,"110":0.005797832380562349,"111":-0.0424493783495517,"112":-0.05249494719006969,"113":0.02441987402974019,"114":0.05338311210110212,"115":-0.02714521843838507,"116":-0.03369211856684193,"117":-0.0030592794156816664,"118":-0.0579735138976504,"119":0.00827883201393976,"120":-0.07337605928720131,"121":0.050726031598618805,"122":-0.07206407454720946,"123":0.0635759430415935,"124":0.0013090612185262225,"125":0.06725608800287618,"126":0.08176813735247368,"127":-0.059180464829114335,"128":-0.06964969130075144,"129":-0.04905090241851366,"130":-0.038869665727911173,"131":0.00745977475575358,"132":0.025926641788445903,"133":-0.0003729847639407309,"134":0.09670794953880825,"135":0.011107906738309893,"136":0.08127395217661565,"137":-0.010223239775560094,"138":0.0370303495034859,"139":-0.008076864523360452,"140":-0.010378274300523321,"141":-0.040077905609917246,"142":-0.017384041077500332,"143":0.007282603622374263,"144":-0.004886235647113736,"145":0.01039179327931431,"146":-0.010585939969866533,"147":-0.025735963116317043,"148":-0.006687605384056223,"149":-0.059671270541441744,"150":-0.027339461687799358,"151":-0.07942787013899412,"152":0.0027505583222359165,"153":-0.019707267540214037,"154":0.03867493505226506,"155":0.057012621035453445,"156":0.010381604666482636,"157":-0.062373948481453584,"158":0.015322545627066555,"159":0.0005168906072643798,"160":0.01004259102099398,"161":-0.0012391412212114296,"162":-0.009306317997921199,"163":0.03404906253667668,"164":0.00942963993583652,"165":0.04161802685210879,"166":0.000953192174053425,"167":-0.049462876093308156,"168":-0.035674125363251125,"169":-0.04696487034778038,"170":0.01509737765941823,"171":0.08026415063010386,"172":-0.05487588761051065,"173":-0.018251203025239054,"174":-0.06722908486962285,"175":0.03661215669355541,"176":-0.0366117541947916,"177":0.024668824387132245,"178":-0.020750753068783295,"179":-0.03183892647091797,"180":-0.024217106685661904,"181":0.015057037659055151,"182":-0.07913778624115118,"183":0.06714797351531619,"184":-0.026737883037017206,"185":0.018357651092194057,"186":-0.0515286280317993,"187":0.005115486109409474,"188":-0.04260816809687911,"189":-0.0065063860378631174,"190":0.02393579498093545,"191":0.022790307463170893,"192":-0.03866275924495116,"193":-0.03726597805395397,"194":0.031238358763659886,"195":-0.033413036401798026,"196":0.074110384558604,"197":-0.011230140722593483,"198":0.02701761670749511,"199":0.0023498331952904786,"200":0.09668880566287638,"201":-0.014142556962276318,"202":0.0381710862360402,"203":-0.014424339489001231,"204":-0.04637368268485664,"205":0.013221067178319966,"206":0.04225217930220089,"207":-0.036278158335627225,"208":-0.04275641253392919,"209":0.03911463480460353,"210":-0.014167231009233533,"211":0.007178658845170114,"212":0.055779103562054594,"213":-0.023046567032113968,"214":0.03885653872409755,"215":-0.07114510772536317,"216":-0.004125953063161216,"217":0.012161749246960014,"218":0.07820658179621638,"219":0.006662893581482713,"220":-0.029982737326296038,"221":0.046458928539024974,"222":0.0232988695119984,"223":-0.033249219066297235,"224":-0.023047361787129697,"225":0.09678474606546292,"226":-0.0066495015799102235,"227":0.04279592440382433,"228":-0.019010123670478978,"229":0.017497674389468938,"230":0.01970753399034177,"231":0.016459932295929843,"232":0.0014050557461153656,"233":-0.09531103847574314,"234":-0.045004121032559255,"235":-0.01993587394574392,"236":0.03830916386677748,"237":-0.018468233135643195,"238":-0.050134554984153465,"239":-0.04772168849150708,"240":0.04737143616366996,"241":0.00837505390162887,"242":0.12145723833758049,"243":0.009366773248500491,"244":0.004397260933241315,"245":-0.007774215603827425,"246":0.008217633300251584,"247":-0.0036225028269041555,"248":-0.0006655116599135933,"249":-0.028342765764629598,"250":-0.038538921457282334,"251":0.030488329273385722,"252":-0.012940649127230242,"253":-0.04173133470378067,"254":-0.00279309231660437,"255":-0.01341373618486073,"256":-0.07020545899161804,"257":-0.06056930795118123,"258":0.03164848567934987,"259":-0.06796776247063116,"260":0.015048922055508293,"261":-0.03744057178152849,"262":0.006637290933603393,"263":-0.03675364539364218,"264":0.013310314577431563,"265":-0.02211560068162019,"266":0.0267039952669809,"267":-0.056006343534593515,"268":-0.050924941696637506,"269":0.08219800112461796,"270":-0.01891127328070637,"271":0.06301094693716422,"272":-0.024755876739215144,"273":-0.04354571375112453,"274":0.043006132015022736,"275":0.023943614169576105,"276":-0.04751645952679033,"277":0.02564423466358103,"278":0.015025423813851158,"279":-0.06753187902298101,"280":0.006068204811470139,"281":-0.006673390237426693,"282":-0.018199388264140016,"283":0.033316461347342986,"284":-0.03779568962340675,"285":-0.06375807600798201,"286":0.03126119585926607,"287":-0.013636460954290849,"288":-0.0009540369156932852,"289":0.013925743439775097,"290":0.018849503185937495,"291":0.021953067834047803,"292":-0.02413982026789017,"293":0.02779981854982011,"294":-0.027449881393139593,"295":-0.04061910891304693,"296":0.05706862071418143,"297":0.05159531506487987,"298":0.009621197209693198,"299":0.0010649428028308896,"300":-0.010212980179181153,"301":0.06207574371308612,"302":0.04675222188282655,"303":0.035847803438275136,"304":-0.0870278334052705,"305":0.10410908667713292,"306":0.07095182685987794,"307":-0.007169173061567307,"308":-0.03302303608637263,"309":-0.01484871450200441,"310":0.039464562011315804,"311":-0.005845355615840572,"312":0.011295311585401414,"313":0.034594341916296734,"314":0.017257656560056234,"315":0.011106439091223679,"316":-0.012686017559523083,"317":-0.020622413841997766,"318":-0.001908420200294132,"319":0.043898974324831044,"320":0.0028240042110657727,"321":-0.0160570237576209,"322":-0.03580522148024282,"323":0.03117338223412287,"324":0.027450458768611397,"325":-0.057847318628642744,"326":-0.020970266120552975,"327":-0.06302069977613083,"328":0.01993613070943958,"329":0.028561241742028422,"330":0.05131328018667261,"331":0.045733707895868156,"332":-0.0243844293582428,"333":0.10258614999730803,"334":-0.00890259591485498,"335":-0.01711900534589958,"336":-0.007505855243793672,"337":-0.00762095681378254,"338":-0.025476018501656834,"339":-0.06221181674064918,"340":-0.04054111473358263,"341":-0.03943316329545235,"342":-0.0320843030744966,"343":-0.02575960177141023,"344":-0.015334625573602706,"345":-0.02436035456041058,"346":-0.002294828418745982,"347":0.03954405363086935,"348":0.07180735290183245,"349":0.008044657827539096,"350":0.01410586569207724,"351":0.03159533782848572,"352":-0.08726570056796189,"353":0.07746871542737467,"354":-0.11817883288725989,"355":-0.03902818717954269,"356":0.028057845984322906,"357":0.019302302015426702,"358":0.019562580944564582,"359":-0.014070231227483944,"360":-0.05343894485379053,"361":0.05265160858525966,"362":0.0489173433972577,"363":0.0429681602684565,"364":0.04522459656905795,"365":0.03830353472362777,"366":0.0012910619148495236,"367":-0.05355348764969775,"368":0.015134462552940561,"369":-0.005308646907653585,"370":-0.007696337569756176,"371":-0.005554857279539537,"372":0.06329314091523232,"373":0.007290387442556127,"374":0.008577896918149605,"375":-0.02603648790791629,"376":0.035783764427759206,"377":0.034998535168764534,"378":0.016710373027771095,"379":-0.00048249412824909356,"380":-0.00037124323472926445,"381":-0.031378089806027826,"382":-0.06819083601710155,"383":0.016887749010687608,"384":-0.0695357173022548,"385":0.013533962021416794,"386":0.08585369404182827,"387":-0.04238768615005115,"388":0.04351772131293447,"389":0.009405428330766649,"390":0.017791386337881805,"391":-0.02704917002494071,"392":0.012725308991043262,"393":-0.03131488505649841,"394":0.00782367016654141,"395":0.03982805146489033}},{"sx":1,"sy":1,"depth":396,"w":{"0":-0.011211136025162558,"1":-0.07589443105531865,"2":0.016968594701283632,"3":0.008898061533341328,"4":-0.04301673430128338,"5":0.0015122862132493978,"6":-0.028358112517487783,"7":-0.044454838990317616,"8":-0.06420165341761203,"9":-0.027068164180584067,"10":-0.06851777108936065,"11":-0.025294757187813252,"12":-0.08055552864640356,"13":-0.04797856607866381,"14":0.01549786743061053,"15":0.01381863858318068,"16":-0.018636561612506555,"17":-0.03208802416867608,"18":0.023580763236328975,"19":-0.009609023829006025,"20":-0.00040105425934003954,"21":-0.011753633749054157,"22":0.0576284629844017,"23":-0.06016337437991748,"24":0.013964195507479285,"25":0.06294963437538842,"26":-0.08191097266340837,"27":0.021676584353932302,"28":0.0325214259946077,"29":-0.05191435806310312,"30":0.0202428502359931,"31":0.0013545543771605307,"32":0.025896251149288264,"33":0.020766456139070556,"34":-0.007644782194273859,"35":0.05595329876362066,"36":0.003092675307965367,"37":0.025961258476711872,"38":0.01681655506968729,"39":0.08585069432532123,"40":0.04571856362584708,"41":-0.11589145674364433,"42":-0.02653723400637543,"43":0.024929108045785364,"44":-0.005515137721533532,"45":-0.0911328558829117,"46":-0.045696011162620995,"47":0.12989662092286686,"48":-0.04017244125246573,"49":-0.02562891475285739,"50":-0.0826483444086426,"51":0.042849232600206365,"52":-0.015176091505944806,"53":-0.02904541605842124,"54":-0.017798354244607982,"55":0.004485479632676634,"56":0.07956869679610648,"57":0.03519286352394412,"58":0.0065740945234801906,"59":0.02758001855406639,"60":-0.023192130643478834,"61":0.05873841065881015,"62":-0.03603717797028659,"63":0.029422766327693417,"64":-0.09243010422959272,"65":-0.025641846204675186,"66":-0.009124931145017966,"67":0.008872064949352927,"68":0.01695151274263101,"69":0.00021442861703521233,"70":0.009783722318417492,"71":0.034070978824612796,"72":-0.012024071086325628,"73":-0.0816099917537583,"74":-0.06928729619053531,"75":-0.033899968110300195,"76":0.013002249456098706,"77":-0.034762214779368326,"78":0.07871936006073446,"79":0.00014580275035496598,"80":0.038532423898092014,"81":-0.01350635730921873,"82":-0.07659194704975414,"83":0.10603979852169121,"84":0.08096686196567306,"85":0.01966968796396575,"86":0.013214678946210751,"87":-0.013107287058771074,"88":0.06524244428927371,"89":-0.06024881611125686,"90":0.020696794926238694,"91":-0.012940323906551419,"92":0.01825707947039812,"93":0.06755272853453587,"94":-0.017749741709357118,"95":0.013611847724732784,"96":-0.016235293545093465,"97":-0.009418067317117489,"98":-0.012277156601195126,"99":-0.03967923926842247,"100":-0.0018704397213024663,"101":-0.048729395548535004,"102":0.008705002402461411,"103":0.024307908432808153,"104":0.04228511135280041,"105":-0.015577539830068583,"106":-0.03085785717578675,"107":0.005131585870705941,"108":-0.03487173441839234,"109":0.0015656895606327437,"110":0.02851230435866874,"111":-0.02177691239329624,"112":-0.023364510648668204,"113":0.03469406552879654,"114":0.034649368494136,"115":0.07115801939611033,"116":-0.02393775588000844,"117":0.031161529774275994,"118":0.0008961764503785986,"119":-0.01106599865980036,"120":0.017794086842871974,"121":-0.011415031312618158,"122":-0.03872269877038403,"123":0.06208908641121692,"124":0.013067249125361823,"125":0.022941391712188015,"126":0.02882880195200523,"127":0.07892369833072964,"128":0.015168994879612815,"129":0.044064190492804495,"130":0.050807886460259244,"131":-0.08925401984867287,"132":-0.004097541343223671,"133":-0.020057306597595914,"134":-0.04169536387630348,"135":-0.023976862436624065,"136":-0.004769761046904612,"137":0.006203230697910067,"138":0.041253526190574985,"139":0.018379475921176783,"140":-0.008395173830553715,"141":0.024066330317874293,"142":0.05483697069341061,"143":0.06041005276167097,"144":-0.009433769765618563,"145":0.0063417632343853,"146":-0.02215397551440065,"147":0.08602652774720844,"148":0.003977117535006397,"149":0.04398802589664068,"150":-0.030456675822362635,"151":0.06036007285821027,"152":0.061497743507755116,"153":0.019505498015837428,"154":0.0024282964495984808,"155":0.026688384316837406,"156":0.036426642938655725,"157":-0.02664590320956014,"158":0.0024472554989231764,"159":0.03386300536360236,"160":-0.015172987850502053,"161":0.13306923438150986,"162":0.015386386503392732,"163":0.04100838323108633,"164":0.0005208970433024539,"165":0.09367236456084771,"166":-0.024598049060511825,"167":0.04381962078412468,"168":-0.09575144139900033,"169":-0.0238799512424033,"170":0.02185476434352476,"171":-0.030824616214046786,"172":-0.020465189416475026,"173":-0.042065963853311114,"174":-0.008093675392406276,"175":-0.052266109524852174,"176":0.012125994305525495,"177":0.07485705147784985,"178":0.0008923497850449043,"179":-0.05230301132243906,"180":-0.14088350408410222,"181":0.06712828486328333,"182":-0.007024702184095573,"183":-0.006908183692692033,"184":0.028231335636405758,"185":0.005474794457158249,"186":0.05880063233375628,"187":-0.09489586310786505,"188":-0.055560391517245754,"189":-0.02940330017249768,"190":-0.0209992052873124,"191":0.047829364003415274,"192":-0.00619383410635593,"193":-0.022942622350912205,"194":0.08759231517571046,"195":-0.007596281368968451,"196":-0.04688876591979954,"197":-0.051860414792295535,"198":-0.06528153351999753,"199":-0.08927397966078074,"200":0.018181212844766793,"201":0.06921319079530419,"202":-0.008227231879004246,"203":-0.046405106407631666,"204":-0.004679085874184772,"205":0.014875022270653623,"206":0.0407785752189733,"207":0.13564378994516368,"208":0.05252681512172271,"209":-0.003941324861229149,"210":0.01619095865187015,"211":0.005013193698881215,"212":-0.046992851014276145,"213":0.06867139421086146,"214":0.04885092690922561,"215":-0.04891951595143617,"216":0.008404021636543009,"217":-0.005123602971029004,"218":-0.015310494563121392,"219":0.0064195998067473154,"220":-0.04578486292545996,"221":0.04565303901075833,"222":-0.008838744547544722,"223":0.015608399978355256,"224":-0.03161300151180791,"225":0.013227753267454167,"226":-0.04310313844548817,"227":-0.05737864726237041,"228":-0.04453822672701005,"229":0.050238315398239586,"230":0.010236301584380183,"231":-0.016849226808350652,"232":0.007444391456841822,"233":0.03117967542011327,"234":0.05935792046402615,"235":-0.028525016896209645,"236":-0.015118538926802243,"237":0.0597037004463894,"238":0.0287236730619431,"239":-0.06183577266165771,"240":0.034569234800780585,"241":-0.06612574928326138,"242":-0.03936843819939741,"243":0.003184488409280546,"244":0.04325753397634234,"245":0.023182298952935478,"246":0.03234647147407152,"247":0.07756456036227967,"248":-0.0012016875423974875,"249":0.02728943484254008,"250":-0.10243384219165136,"251":0.036653080387803086,"252":0.027125489980967952,"253":-0.04996113304307448,"254":0.10699305096396358,"255":-0.010983693772509016,"256":-0.05069335214403756,"257":-0.09816743496337975,"258":0.01965864553852688,"259":0.030143960179516965,"260":0.09595397602554046,"261":0.014658375418597883,"262":-0.018137983672257815,"263":-0.0706832775252586,"264":-0.03196356925729691,"265":0.022894032231771177,"266":-0.022767952098392046,"267":0.029356906770191475,"268":-0.021404120999273236,"269":0.00835634926424401,"270":-0.05641756049468779,"271":-0.05399429233669176,"272":0.05926184968605658,"273":-0.06288365307499749,"274":-0.0030725135489006188,"275":-0.05519307595081189,"276":-0.015349128819052005,"277":0.033773873449725975,"278":0.07257935224036977,"279":-0.036643616695695665,"280":0.030950498478435985,"281":0.0523953447777575,"282":0.052225051290458305,"283":0.09969860358203425,"284":-0.04331623861176368,"285":0.0038084909379411387,"286":0.14210079173057566,"287":-0.060088468561243565,"288":0.007076281380716941,"289":0.057807836649113806,"290":-0.03009787763964715,"291":0.07745488315181642,"292":-0.03914635349909745,"293":-0.0011183450984348635,"294":0.03708109788799436,"295":-0.04306173771731258,"296":-0.02583866891558178,"297":0.07644977504712433,"298":-0.005559756993035043,"299":-0.051977088498629025,"300":0.05083824918475503,"301":0.016124389347753277,"302":-0.04936401678967828,"303":0.0537417317967976,"304":0.03352095695725019,"305":-0.03666483657050944,"306":-0.027950633870968578,"307":-0.056294138414790446,"308":0.019887297185183533,"309":0.026436113060667104,"310":0.010888371414567593,"311":0.0031645697810074604,"312":0.015997205373303715,"313":0.0269749048862907,"314":-0.05265448396508804,"315":-0.06085272897213954,"316":-0.025049950283844043,"317":-0.04143141935016252,"318":0.04467975142788114,"319":-0.007905457810970677,"320":0.04313645856942739,"321":-0.07162067042554995,"322":0.005867173340740416,"323":0.045915842494879164,"324":-0.08634625196588487,"325":-0.02770368904546685,"326":-0.015229796016745817,"327":0.023123822326399975,"328":-0.05623601314649112,"329":-0.010269083236120215,"330":0.009082055749440583,"331":0.02311761994276275,"332":-0.005429058760798507,"333":0.038056639154195514,"334":-0.00682640621739788,"335":-0.041378857937683027,"336":0.058142661094737286,"337":-0.10138727871813719,"338":-0.002799353873645535,"339":-0.023480661056746018,"340":0.0012809219440198438,"341":-0.022936595602603988,"342":0.0019829998636378392,"343":0.04820120388528935,"344":-0.01355863653743939,"345":-0.059173891375502836,"346":0.01690155329079695,"347":-0.03904220726275284,"348":0.08874282484490867,"349":0.011746197357408965,"350":-0.058206064958432446,"351":0.0524130645028208,"352":-0.01108195072918541,"353":0.044190933366329115,"354":-0.04094923756144434,"355":-0.02218454627489796,"356":-0.0053137935024611515,"357":-0.12402399187070456,"358":0.037502751149330105,"359":-0.013709297423340285,"360":-0.04410223307224215,"361":0.03042772923383849,"362":0.04381161166006353,"363":0.02993587357509412,"364":0.03833227643042461,"365":0.006158628653097213,"366":-0.038180611339903796,"367":0.005563062614469752,"368":-0.04923059921713975,"369":0.037363899954046334,"370":-0.005577886784403818,"371":0.03108176925556898,"372":-0.036447838031189325,"373":-0.02206918175366162,"374":0.002093780778895815,"375":0.014518895133723645,"376":0.0740145112955728,"377":-0.016502050202382337,"378":0.02433041560402837,"379":0.014385037248649837,"380":-0.05891877183604743,"381":-0.027158667423147563,"382":-0.10005067026373246,"383":0.06323803062044148,"384":0.04033008548651334,"385":0.033285639586076964,"386":-0.024069803326365748,"387":-0.02948086527536347,"388":-0.00806294789551526,"389":-0.006151343757936335,"390":-0.03436573195097636,"391":-0.02996670088590622,"392":-0.002713060444816066,"393":0.018042337172717065,"394":0.024930270051341,"395":0.05542332385917372}},{"sx":1,"sy":1,"depth":396,"w":{"0":-0.05223489353758777,"1":-0.07970688781381152,"2":0.0672198489184724,"3":0.006800742562420513,"4":-0.047844626258080475,"5":0.01706053390725394,"6":-0.002988246653068178,"7":0.032862710277564655,"8":-0.009888944826213558,"9":-0.012869387043145214,"10":0.05946853871624197,"11":0.03413273601445659,"12":0.047518302541702986,"13":0.019709722901769557,"14":0.04629491493579481,"15":-0.005638714808264831,"16":-0.0012115422254754288,"17":-0.04127990702652838,"18":0.028571788793871376,"19":0.049374570579431405,"20":-0.009866330429206089,"21":0.004289402913845189,"22":-0.05362562523827644,"23":-0.02847830327518405,"24":0.0032112660938652627,"25":0.07069173047666484,"26":-0.13315050595339956,"27":0.017764943343783937,"28":0.007990461597226526,"29":0.003944477836204606,"30":0.0007438769526197471,"31":-0.00860670536503577,"32":-0.010264319155547931,"33":0.02087510432319884,"34":-0.03428731236739617,"35":0.08006407395626891,"36":-0.04629147448742646,"37":-0.07323942096067984,"38":0.011024949457179826,"39":-0.03060572859895602,"40":0.025423262205310413,"41":0.008829796871853457,"42":-0.0008514140802117385,"43":-0.012902227109850326,"44":0.03166935327810374,"45":0.03148020278049032,"46":-0.017484802657774152,"47":0.04366240438967218,"48":-0.04656294522445361,"49":0.041677718020421806,"50":-0.015677373285984945,"51":-0.019369161164439975,"52":0.05416883971431214,"53":-0.013448094999141454,"54":-0.026509353730923408,"55":0.011429257704960597,"56":-0.0023274000831327987,"57":0.023158676100180846,"58":-0.05878282704770333,"59":0.020436271892697613,"60":-0.03775740819175469,"61":0.047059153155606916,"62":-0.010742455082339519,"63":0.003842797480360758,"64":0.04449611921159854,"65":0.036556607099627686,"66":-0.09427519217489068,"67":-0.07187795458861579,"68":-0.04204106564065572,"69":0.03317091741002034,"70":-0.0076864045860887235,"71":0.013539296912315564,"72":-0.038913686233174566,"73":-0.08957635725638062,"74":0.03656197009413127,"75":0.0027737126621716693,"76":-0.027968868186801932,"77":-0.013701798048523993,"78":-0.019709821740801433,"79":-0.0048264051543352934,"80":-0.08551065611248543,"81":-0.030723479695740616,"82":-0.021333927723909612,"83":-0.006492551460960186,"84":0.04514766239331922,"85":-0.011677499356612338,"86":0.002918239181905074,"87":-0.027170776334653462,"88":0.0084068805217053,"89":0.024893412991473487,"90":-0.03624026544025366,"91":0.008277815299352205,"92":-0.01776008554138587,"93":-0.027050608297332704,"94":0.009285072142269526,"95":-0.018677571148006302,"96":0.05239333211110043,"97":0.012093312402913742,"98":0.0042403644098896204,"99":-0.03486553458859534,"100":0.026109444396753778,"101":-0.007994963551845532,"102":-0.050699036405619145,"103":-0.015333425908156634,"104":0.027177270534922332,"105":0.028721097736641835,"106":-0.01514587797967404,"107":0.09045330681925008,"108":-0.02538525668208829,"109":-0.04419645699464568,"110":0.06477166667158077,"111":-0.01742528854856539,"112":-0.03745741291116182,"113":0.04143907757631902,"114":0.013793766764446838,"115":-0.03690633752286164,"116":-0.06525840808559952,"117":-0.003449627771694038,"118":-0.04047284600111604,"119":-0.0069653363112288525,"120":-0.015920896809560277,"121":0.044396124125707176,"122":-0.021444291414165182,"123":-0.06191470666765432,"124":-0.03947908776420482,"125":0.005411268137501283,"126":0.039485617705307056,"127":-0.03551146495653476,"128":0.01786366443932873,"129":0.0024656119169348943,"130":0.03119699925125257,"131":0.013988555383876725,"132":-0.03255292504165253,"133":0.08077778354999317,"134":-0.01992796898453228,"135":-0.05382378186288285,"136":-0.0058634188087304875,"137":-0.09000171821778936,"138":0.012025778203795896,"139":-0.07447161799641756,"140":0.024487154303332526,"141":0.01997519778234542,"142":-0.016687937436918477,"143":-0.043054887816016,"144":-0.05151672763504041,"145":-0.001924258772522609,"146":0.029370643268864023,"147":0.026925198646695184,"148":-0.07394334707080572,"149":-0.0006422872565520419,"150":0.038291920804015736,"151":-0.0034395408914954574,"152":-0.008466214117953725,"153":0.012755201810365041,"154":-0.028858339010570676,"155":-0.028745948729655826,"156":-0.08433810591944131,"157":0.00004059100229452379,"158":0.013917635297648953,"159":-0.0368115508265549,"160":-0.015397490264208467,"161":-0.06691838964407844,"162":0.006849906063275665,"163":-0.051616454741699166,"164":-0.009151776662165772,"165":-0.0648861584795194,"166":-0.050254860238063206,"167":-0.011303245435455175,"168":0.10653089936747548,"169":-0.0809726082899219,"170":0.022090199043819824,"171":0.03920463706367189,"172":-0.025415520645046933,"173":0.040015856044206086,"174":0.000719229568676647,"175":-0.015104642156881043,"176":-0.002526990229865362,"177":0.037855297625453574,"178":0.037468734011582384,"179":-0.0049415428329452355,"180":0.02034932435344093,"181":-0.06645595176424612,"182":-0.0017684783790460463,"183":-0.04406228631032837,"184":-0.049609530639526576,"185":-0.0005643702068336461,"186":-0.012946186475504067,"187":0.0263123245402812,"188":0.004336060947909288,"189":0.031181108027682973,"190":-0.09441993266281352,"191":0.0000897083757354453,"192":-0.00431892691064235,"193":-0.012456906264529603,"194":-0.014369769607645227,"195":-0.07458931010401772,"196":-0.08231808631005773,"197":0.05249338431926408,"198":0.051673895516663924,"199":0.01757234596907946,"200":0.04836680333192572,"201":-0.027603675063691734,"202":-0.0046315858845311616,"203":-0.019755734994654453,"204":0.03947863335618432,"205":-0.049910914083768465,"206":0.028168541579001616,"207":-0.004869708733932022,"208":0.01843445544421805,"209":-0.013956202002121701,"210":-0.020631615962676843,"211":0.0426804207053872,"212":-0.07944907234742403,"213":-0.0028317664994355926,"214":0.045235455465562895,"215":-0.052226244357718145,"216":0.0003365789204588384,"217":0.020419739112233812,"218":-0.05281984563993715,"219":-0.026482104351978314,"220":0.03838317089386114,"221":-0.07122763370572995,"222":0.06033956439332518,"223":0.057741435695233934,"224":-0.046739961969390044,"225":-0.08987153184507547,"226":-0.04688452948773398,"227":0.017291386378764873,"228":-0.009755843635659397,"229":-0.05799085910784473,"230":-0.0019594667880052704,"231":-0.018314169997431805,"232":-0.009444613112087729,"233":-0.03720338770539902,"234":-0.046337611684855846,"235":-0.029078322284150308,"236":0.07987143764949459,"237":-0.0111747872884895,"238":0.013479446646902836,"239":0.021767974477318392,"240":0.016013940371308794,"241":0.016096985019488377,"242":0.07792706315486979,"243":-0.09082354265716797,"244":-0.023140213396359872,"245":0.01575392323832034,"246":0.04224866459682889,"247":-0.005783702682694164,"248":0.03475595302540322,"249":0.0572761499288357,"250":-0.0344290265629849,"251":-0.012507657829463325,"252":0.02305384010753082,"253":-0.027812938501555907,"254":0.0718519352942687,"255":0.11043776011682958,"256":-0.011721195456048352,"257":0.03852124160969542,"258":-0.02528893649303839,"259":-0.019819372144072762,"260":0.03327745412009973,"261":-0.023821709006982727,"262":0.00444134904946977,"263":0.00576884433058838,"264":-0.011096927161079913,"265":-0.1053889894180082,"266":-0.025952895916852896,"267":0.11310579689178675,"268":-0.030532691851467085,"269":-0.022476480083716936,"270":0.0038401584300667385,"271":-0.02217437262878592,"272":0.006137943069806768,"273":0.0472792672762095,"274":0.028462500715749784,"275":-0.017951245534604136,"276":-0.044567777485861194,"277":-0.02225021585445965,"278":-0.003993993809483596,"279":-0.011151367418323267,"280":-0.13149168317162696,"281":0.0985083028626206,"282":0.026629682732834982,"283":-0.02443147926227722,"284":-0.06338478673667156,"285":-0.009848849641772683,"286":-0.007319791836831472,"287":-0.04992741093450774,"288":-0.01881720109080705,"289":0.038547884627133114,"290":-0.012403487801492391,"291":0.04270375267412491,"292":-0.0034473027596652285,"293":0.05046872818312059,"294":-0.06408224783193578,"295":-0.006456569612526307,"296":-0.024272459406027652,"297":-0.04037690371854759,"298":0.003044339171584692,"299":0.03054060963663771,"300":0.07459935643476726,"301":-0.053084815824210395,"302":0.062063469837398334,"303":0.043745125373129946,"304":-0.009904887776717684,"305":-0.02253465250245861,"306":-0.04631563815935407,"307":-0.03277642085634565,"308":0.011719032000980649,"309":0.06230335898327531,"310":0.026144365505800987,"311":0.043210134047000553,"312":0.04289222766168247,"313":0.03643911025678598,"314":-0.03604673742900109,"315":0.026692318887169646,"316":0.007479582183648227,"317":-0.007945540102827272,"318":-0.00898902705087674,"319":-0.0656036552129639,"320":0.015963693883984578,"321":-0.07248577251359285,"322":-0.00715956074191429,"323":0.018848361799062206,"324":-0.014366699361272932,"325":-0.11038546338853893,"326":0.051818848391998455,"327":0.023290607809529507,"328":0.019040894998503442,"329":-0.038128130518223,"330":-0.02789283589407142,"331":-0.07338515185321798,"332":0.07778439243987975,"333":0.048464487088987034,"334":0.007793903624922489,"335":-0.0018230039162702826,"336":0.02902714618151605,"337":-0.02016543617727735,"338":-0.03174479226989684,"339":-0.06252804629450297,"340":0.049503529196208214,"341":-0.01825629300747872,"342":0.006877871157674806,"343":-0.04067863997593239,"344":-0.03820133921319015,"345":-0.0619967920925,"346":0.04878930200085605,"347":-0.006693428825507068,"348":0.06980858847461534,"349":0.053290161018428386,"350":-0.06359542517438915,"351":-0.025495260477692072,"352":-0.032179143089112856,"353":0.03331767888858988,"354":-0.002742854948347281,"355":-0.05189941889526386,"356":-0.042313665604828805,"357":0.006515247589887543,"358":-0.012560412053442828,"359":0.005994237712213491,"360":0.009662765606478586,"361":0.014190278911303845,"362":-0.028998628834558428,"363":-0.026835316106591324,"364":0.02099469465486858,"365":-0.08875707550642971,"366":-0.012293186786038426,"367":0.057071163133448,"368":0.025614991889520388,"369":0.0430231690717407,"370":-0.04135377678681342,"371":0.06900457195878372,"372":-0.09926812621034556,"373":-0.0668070286212347,"374":0.011455387020464773,"375":0.050827728418409907,"376":-0.041184867357959565,"377":0.05046572469074792,"378":-0.009376456103269516,"379":-0.05215914329068889,"380":-0.07397430492367237,"381":0.05670648020103933,"382":0.07962620408640252,"383":-0.021908151955238733,"384":0.033384034579120446,"385":0.03904290052939533,"386":0.0016789260147430747,"387":-0.03248397652215885,"388":0.006618819422564387,"389":0.024732015237883452,"390":0.0073315727837824475,"391":0.005298730886636058,"392":0.0005050203600097336,"393":-0.02569705796799571,"394":-0.04178562075235186,"395":-0.015297854372929456}},{"sx":1,"sy":1,"depth":396,"w":{"0":0.030455533326782417,"1":-0.0747608508016594,"2":0.04102373744690467,"3":-0.0850515221484522,"4":-0.0013993523633387833,"5":0.011638525027540671,"6":0.0030565396995476768,"7":0.04095622553979641,"8":-0.0020578046097938004,"9":-0.00866473499073601,"10":-0.04467981739900069,"11":-0.016917865705014547,"12":-0.11032580292702834,"13":-0.0543701242382666,"14":-0.04343790697609514,"15":0.016603045584717785,"16":-0.030876021109617763,"17":-0.06307928880914923,"18":-0.00871027200438308,"19":0.01306754694375957,"20":0.032379049380095476,"21":0.009605954152786781,"22":-0.0027405503482897066,"23":0.06985339264627062,"24":0.016436736567174787,"25":0.018893356486328106,"26":-0.010864702888474746,"27":0.059761618797488786,"28":-0.005172850417303247,"29":0.0320556916835873,"30":0.01758802459660436,"31":0.00590901059616604,"32":-0.037275608780346345,"33":-0.01658728649068813,"34":-0.00611256903838611,"35":-0.06921588612108527,"36":0.10188219185386431,"37":-0.031789076255685236,"38":0.02535408575308391,"39":-0.0480200927016816,"40":0.017490993482724523,"41":-0.010504544962795473,"42":-0.0008042983589039739,"43":-0.006623616049468055,"44":-0.036591380163021714,"45":0.0031552682415007557,"46":-0.043962409805707106,"47":-0.04811599708658405,"48":0.026725031011024847,"49":-0.0058401134204066505,"50":-0.0015461243090421556,"51":-0.03741719031626562,"52":-0.049766942098481405,"53":0.01905451678348416,"54":0.03323151559911689,"55":0.014661472237953487,"56":0.036283385955486906,"57":-0.012293993901544108,"58":0.04042470768049271,"59":-0.008430307414028348,"60":-0.013140034212122023,"61":0.04214072225932119,"62":0.044819434676962915,"63":-0.022880265209083844,"64":0.06899621385435398,"65":0.05405981541407964,"66":-0.026830277792595662,"67":-0.05283961013295079,"68":0.01648441920436005,"69":0.0318752874336584,"70":-0.023040299574635895,"71":0.014841876337758115,"72":-0.015050330095833488,"73":-0.057427361346006955,"74":-0.013047724168346358,"75":-0.015055722920027182,"76":0.027915087673648767,"77":-0.03131984119548224,"78":0.0296239725350671,"79":-0.039144131653502466,"80":-0.02902834298191883,"81":-0.03221483381905131,"82":0.00020960555521245291,"83":-0.07238771575645356,"84":-0.08011610643613046,"85":0.029780118123824764,"86":-0.07412259871218968,"87":-0.009563989418101455,"88":-0.02222844515843481,"89":0.05055855698823399,"90":-0.023483519453479307,"91":-0.012015110990312003,"92":0.0343917074159243,"93":0.017610021980712518,"94":-0.032359462287874584,"95":-0.0033910469899462565,"96":0.1020106298312139,"97":-0.08451956692540163,"98":-0.053097274641028244,"99":0.015963020596713486,"100":0.010374092200597831,"101":0.0341518302277785,"102":0.0029102617675103673,"103":0.05563507482430595,"104":0.06192961406435839,"105":0.01774347724453708,"106":0.04859484538410973,"107":-0.007559013776496116,"108":0.009242738435104488,"109":0.009734556536334364,"110":-0.05162656313170818,"111":0.011555413676814966,"112":-0.057772021081669386,"113":0.02264364435400151,"114":-0.022952215291016067,"115":0.07512790541729913,"116":0.08106775134089936,"117":-0.09479355333406486,"118":-0.05677905599271423,"119":-0.011247296005627383,"120":-0.007091643082647563,"121":0.003552668411196081,"122":-0.039636086198617575,"123":-0.012773395017758265,"124":-0.06939030494485711,"125":-0.028550559082770453,"126":-0.016035212767042485,"127":-0.03800803393968767,"128":0.0200143069112841,"129":-0.0011513350245289044,"130":0.05044189250824653,"131":-0.0416887222186229,"132":-0.03826189430084553,"133":0.049158838461871565,"134":-0.03497280456847802,"135":0.03856311307289478,"136":0.013470409582471745,"137":-0.08336638204047943,"138":-0.0008375380630841975,"139":-0.05340205125804794,"140":0.070507127893238,"141":-0.0010523522922475147,"142":-0.014765990461444235,"143":0.035330377970442715,"144":0.05573400688434805,"145":0.0035000618814453608,"146":-0.0074221017887394335,"147":-0.028994416230944356,"148":0.01603861903986959,"149":0.026574714730901554,"150":0.03707479508074076,"151":-0.04797835285362694,"152":-0.059596096514844696,"153":-0.05438833354879947,"154":0.027337962499173567,"155":-0.06646073706854695,"156":0.03794090696029114,"157":-0.008391288432913204,"158":-0.022424286832434952,"159":-0.0665271811443984,"160":-0.007753861490802916,"161":0.0035327997720887953,"162":0.0038228479625669574,"163":0.0747685253585345,"164":-0.0682223204539313,"165":-0.05454074047173886,"166":-0.04714293204555596,"167":-0.010382815889356656,"168":0.016490124725136147,"169":-0.036895582011191905,"170":-0.09289825250185775,"171":-0.022192711016845966,"172":-0.05396642897864767,"173":0.027791823629574445,"174":0.0440639134194052,"175":0.03298782917642948,"176":0.05881701178649957,"177":0.009193390361920793,"178":0.008228905595979866,"179":-0.054840767827646804,"180":0.02178139209025764,"181":-0.04400052105285543,"182":-0.022295839169297484,"183":-0.03165099607102269,"184":0.01028131455201041,"185":-0.017956877524618643,"186":-0.04259351752969279,"187":0.025527518706486455,"188":-0.022672672375927305,"189":0.0290322154901216,"190":0.0554958219050787,"191":-0.030339285645798346,"192":0.009024080164095748,"193":-0.015165143036086605,"194":-0.10171378118630088,"195":0.0038937195382152913,"196":-0.020855124237235,"197":-0.008876827389090658,"198":-0.026546355289182966,"199":-0.019973905863048726,"200":-0.0489014569644779,"201":-0.03535958686049526,"202":0.030556874960768598,"203":0.014658654850870726,"204":-0.06446209975500694,"205":0.06548148490612886,"206":0.009700986134819156,"207":0.009358604984189105,"208":0.052218819825902464,"209":0.011217084016473026,"210":0.06524635747775624,"211":-0.08505122009542154,"212":0.06526118106820913,"213":-0.06704148996773744,"214":0.02194882275981364,"215":0.0253835673504517,"216":-0.04475920457952399,"217":0.018056636100930175,"218":-0.015096415130773444,"219":-0.034453412124326614,"220":-0.028986802900040846,"221":0.015385473394798522,"222":0.024272470503654338,"223":0.013967945766603788,"224":0.05116005937754372,"225":0.05434211566663931,"226":-0.011867769163955258,"227":-0.004808873501118401,"228":0.09208317754944655,"229":0.009137953989120477,"230":0.003170794908039746,"231":0.01483190638832542,"232":0.021039447453430185,"233":-0.028900980614258696,"234":-0.03708912329787254,"235":0.023969562987297015,"236":0.010038159135049102,"237":-0.04186921503769623,"238":0.03575086454998858,"239":-0.05768498046912495,"240":0.00047315009940818864,"241":-0.003869138010266884,"242":0.03411946639111324,"243":0.026488637774927177,"244":0.0011248811032098418,"245":0.08896427953041319,"246":0.04466165720424166,"247":0.01730746097550915,"248":-0.007757302923974677,"249":-0.07977695969161822,"250":0.031581625028694764,"251":-0.029833772070959427,"252":0.03282515100194368,"253":0.01118988848268917,"254":0.026543298909888494,"255":0.010926421526580235,"256":0.03595926166566542,"257":0.009885227923506112,"258":-0.0021746481843118713,"259":-0.1146946696922691,"260":-0.03502133729532616,"261":0.038787663342335715,"262":0.018365441059519094,"263":0.03688270445772109,"264":-0.06528214282826379,"265":0.054016695706750745,"266":-0.007836099471642717,"267":-0.028985566146124856,"268":0.011082303116218988,"269":0.08575285949796026,"270":0.013040038306196142,"271":0.08857164060916753,"272":-0.052351342112206385,"273":-0.0634716069965708,"274":0.06656609792218884,"275":0.012395223830924805,"276":-0.017626840820281483,"277":0.05476223841265291,"278":-0.04831971447536509,"279":0.017018641064195074,"280":0.03600022612721928,"281":-0.032867905009546526,"282":-0.00801676386787297,"283":0.02103587639406746,"284":-0.04658656969549972,"285":0.0065959811926096425,"286":-0.06375733803160029,"287":-0.03513966345829786,"288":-0.0009670944720108042,"289":0.04126611933660042,"290":0.023011380774335323,"291":0.03601705934714771,"292":-0.06794056936132188,"293":0.04611050956014475,"294":0.03325694255115795,"295":0.023296129805723476,"296":0.10394465306068797,"297":0.000058254464619850373,"298":-0.08176052131058205,"299":-0.029419057515836865,"300":0.03607203863623113,"301":-0.026228427823562488,"302":0.022833796903108994,"303":0.018027473864687314,"304":0.04644039904641523,"305":0.06947686429522429,"306":-0.015388158144020097,"307":0.016398258186613158,"308":-0.020937856351243622,"309":0.11593504918209692,"310":-0.015871535962368913,"311":-0.06630579079730323,"312":-0.013773762344473169,"313":-0.040678702090251685,"314":0.04297936866825968,"315":0.030187197847194085,"316":0.09345561427752513,"317":-0.11075886763368921,"318":0.023306237728684794,"319":-0.023303882201995595,"320":-0.005212712858715957,"321":0.16275525373693694,"322":-0.017701202855445956,"323":-0.07300303838400206,"324":0.031041624185945558,"325":-0.057564372887203036,"326":0.05078819633315001,"327":0.07045263009357668,"328":-0.030498298631617383,"329":-0.008835865183070503,"330":0.012927341064117633,"331":-0.063532421538971,"332":0.03299831490436501,"333":0.057797249346605996,"334":-0.03979628524465748,"335":0.01650546203413091,"336":-0.009044733544713461,"337":0.07467925589336921,"338":0.049743444144433414,"339":-0.0480879701364098,"340":0.01701647751484634,"341":0.024695903492529026,"342":-0.05257516204851543,"343":0.005838601763012964,"344":-0.02050051799563574,"345":-0.020327403937772263,"346":-0.022940398136411425,"347":0.016398632973232557,"348":0.01668361201528065,"349":0.012837294900754144,"350":0.008579539645649548,"351":-0.03421101216660256,"352":0.07362223463836393,"353":0.02507642636671668,"354":0.05163202651526983,"355":0.04354632996461197,"356":0.006509533411102849,"357":-0.08485370731513997,"358":-0.014702606085900457,"359":-0.039963699654337666,"360":0.07472671273837778,"361":0.030201517430822805,"362":-0.029341007217199004,"363":-0.04134476702100969,"364":0.00358848374124934,"365":0.026696935948303583,"366":0.0573900778311611,"367":-0.02020835338143115,"368":0.09651635254284281,"369":0.024881129225708624,"370":-0.009051890503633296,"371":-0.06374137627818634,"372":0.0321581971708932,"373":-0.019234397196544163,"374":0.005137733725585027,"375":0.007940382824453588,"376":-0.020614122982820306,"377":0.00014965664046168254,"378":-0.002029619468751846,"379":-0.01174820334119858,"380":0.0032552647432424983,"381":-0.047257747183736286,"382":-0.01918477020452698,"383":-0.09278391415891434,"384":0.014757974083163497,"385":-0.030255032603967214,"386":-0.004162506131696121,"387":-0.05584236198838628,"388":0.04975730962711319,"389":-0.016128113685523637,"390":-0.021089933164895845,"391":0.014205882485300867,"392":0.009147178969740898,"393":0.04276144583093016,"394":0.020450613496536815,"395":0.04041590221147339}},{"sx":1,"sy":1,"depth":396,"w":{"0":-0.05510002780501064,"1":-0.0006557940288363848,"2":0.010015611525345976,"3":0.03578631444104563,"4":0.01981851844738701,"5":0.06689917589433471,"6":0.026187402960109695,"7":-0.025829322255121134,"8":-0.051214039915907186,"9":0.006447516425411612,"10":-0.038291682704578264,"11":0.025483951821463416,"12":0.0007679658292050587,"13":0.0264026830668917,"14":-0.05279917955810251,"15":0.012584534705138642,"16":0.0442595669646023,"17":-0.036374411743832394,"18":0.010787185913799605,"19":0.054065421667820655,"20":0.0352467940367549,"21":-0.020006565322550345,"22":0.05525497549394507,"23":0.03275206434048005,"24":-0.003984017632250585,"25":0.004617591578776768,"26":-0.011697723260763564,"27":0.026189027004037177,"28":0.05042063017306205,"29":-0.0041745861121707676,"30":0.02303241881488914,"31":-0.07402551855137753,"32":0.009183700854195795,"33":-0.100960799271041,"34":0.09374303900087702,"35":0.0075048636595438905,"36":0.03093587712109477,"37":0.0720666499248246,"38":0.04180095634099987,"39":0.022759019266953544,"40":0.016586879235793075,"41":0.04058053524447234,"42":-0.06690473068580423,"43":0.0403706664903896,"44":-0.015650099905048242,"45":0.01397982048530863,"46":-0.02330276730702075,"47":-0.008924784896488501,"48":0.03306616749121248,"49":0.017118414577903904,"50":-0.0194969137553363,"51":-0.0517276318299103,"52":0.020530927108016066,"53":0.12360475886354343,"54":0.030556611313227955,"55":-0.007382985485016393,"56":0.0252697150698603,"57":-0.014105371811026725,"58":0.06709575802012764,"59":0.05139937747824939,"60":0.05964432388797707,"61":-0.0033195807269677546,"62":0.032166220686095814,"63":-0.005001853851700392,"64":-0.060039170187529356,"65":-0.003186280623464096,"66":0.0019839152210706376,"67":0.010961177198317443,"68":0.00659873719145552,"69":-0.0035658791229456065,"70":0.0174919744985816,"71":0.0005308279654536284,"72":-0.021947687106899438,"73":0.05212238947333046,"74":-0.04456504241830879,"75":-0.07501472625930022,"76":0.02731496281043957,"77":-0.04629162507965121,"78":0.11473816159249947,"79":-0.009432528364451036,"80":0.019613155716134815,"81":0.024682554019629415,"82":0.02264210882012609,"83":0.004551550769723997,"84":0.009405417766857507,"85":0.0037988633743552243,"86":0.02660718338905137,"87":-0.03955131556549639,"88":0.027019424215743177,"89":0.07053696982700154,"90":0.04255175433240495,"91":0.046284083018011915,"92":0.022200386394229155,"93":-0.0062158116646716015,