//<![CDATA[

// a few things don't have var in front of them - they update already existing variables the game needs
lanesSide = 4;
patchesAhead = 4*8;
patchesBehind = 4*3;
trainIterations = 10000;

// the number of other autonomous vehicles controlled by your network
otherAgents = 0; // max of 10

var num_inputs = (lanesSide * 2 + 1) * (patchesAhead + patchesBehind);
var num_actions = 5;
var temporal_window = 0;
var network_size = num_inputs * temporal_window + num_actions * temporal_window + num_inputs;

var layer_defs = [];
    layer_defs.push({
    type: 'input',
    out_sx: 1,
    out_sy: 1,
    out_depth: network_size
});
layer_defs.push({
    type: 'fc',
    num_neurons: network_size/2,
    activation: 'tanh'
});
layer_defs.push({
    type: 'svm',
    num_classes: network_size/4,
});
layer_defs.push({
    type: 'fc',
    num_neurons: num_actions * 3,
    activation: 'tanh'
});
layer_defs.push({
    type: 'regression',
    num_neurons: num_actions
});

var tdtrainer_options = {
    learning_rate: 0.01,
    momentum: 0.0,
    batch_size: 64,
    l2_decay: 0.05
};

var opt = {};
opt.temporal_window = temporal_window;
opt.experience_size = 10000;
opt.start_learn_threshold = 5000;
opt.gamma = 0.9;
opt.learning_steps_total = 10000;
opt.learning_steps_burnin = 1000;
opt.epsilon_min = 0.0;
opt.epsilon_test_time = 0.0;
opt.layer_defs = layer_defs;
opt.tdtrainer_options = tdtrainer_options;

brain = new deepqlearn.Brain(num_inputs, num_actions, opt);

learn = function (state, lastReward) {
    brain.backward(lastReward);
    var action = brain.forward(state);

    draw_net();
    draw_stats();
    
    return action;
}

//]]>
/*###########*/
if (brain) {
brain.value_net.fromJSON({"layers":[{"out_depth":396,"out_sx":1,"out_sy":1,"layer_type":"input"},{"out_depth":198,"out_sx":1,"out_sy":1,"layer_type":"fc","num_inputs":396,"l1_decay_mul":0,"l2_decay_mul":1,"filters":[{"sx":1,"sy":1,"depth":396,"w":{"0":-0.01268185245481526,"1":0.027228176157926744,"2":-0.004548216044418782,"3":0.011637487757418961,"4":-0.005537185113149924,"5":0.06381161885896677,"6":0.006549166088554428,"7":-0.0066962641946303695,"8":-0.02660794341042848,"9":0.10134372983386825,"10":0.05851779462578453,"11":0.013797951797132836,"12":0.053717593184731564,"13":0.034197638878024315,"14":-0.09385345339581617,"15":-0.05806599373056309,"16":0.07348907487798871,"17":-0.028099842584348132,"18":-0.016912817541008724,"19":-0.13080147607926446,"20":-0.010914692920450603,"21":0.0005620008937406965,"22":0.03453001495252991,"23":0.009305056155158212,"24":-0.015396054423795423,"25":-0.011471227928643114,"26":0.021294667906001877,"27":-0.00015567467845546245,"28":-0.0488604421159799,"29":-0.030689013862233282,"30":-0.013306993427910066,"31":-0.04565111296816701,"32":-0.04761885902274266,"33":-0.06808081432526711,"34":-0.0008381658138276572,"35":-0.019386863878339572,"36":-0.01851838370397271,"37":0.0024291187722875725,"38":0.04354856126998444,"39":-0.09063790764587178,"40":-0.08722543539119133,"41":0.03730240543644735,"42":-0.049407111336739834,"43":0.036094974326782714,"44":0.014912010523998086,"45":-0.06805623004309438,"46":0.024884830868385433,"47":0.023104864974412633,"48":-0.04625936539476434,"49":0.0023137534810908295,"50":-0.03396830792391376,"51":-0.02590972421871518,"52":-0.00004813732087870741,"53":-0.019305864430764583,"54":0.013322148926662291,"55":0.06271427964453755,"56":0.03627679347827294,"57":-0.017102059772490796,"58":0.0010232956979208218,"59":-0.03254685937107047,"60":0.01702183641192645,"61":-0.05942186397747254,"62":-0.025355274816139476,"63":0.04998976913220047,"64":0.0485599267074511,"65":-0.021812437194889362,"66":-0.06276378722898937,"67":-0.0069883144738957445,"68":0.03173225733405416,"69":-0.04417455400719444,"70":0.12729878395337105,"71":0.023141597030957996,"72":0.08275295249608228,"73":-0.05450164882849438,"74":-0.040547716821747154,"75":-0.03941755050504904,"76":0.05798626884907757,"77":0.07675191116446135,"78":-0.008440003418438402,"79":-0.012517932084857191,"80":-0.0035668992806474776,"81":0.012486050863120261,"82":0.043093623497417924,"83":0.02759179459225872,"84":0.040580835824354705,"85":-0.011468635247988824,"86":0.030813966500798703,"87":0.07161125018427915,"88":0.020888357074912857,"89":-0.03325716345871022,"90":0.12484697098510623,"91":0.00331486518375837,"92":0.022691502743879263,"93":-0.004533311165399742,"94":0.07105136133358013,"95":0.05066225246335915,"96":0.047924433772090456,"97":-0.0380048673660809,"98":-0.03318732390045277,"99":0.01955950791543639,"100":-0.003408702423552589,"101":-0.03417986451518309,"102":0.014894867794458491,"103":0.05149434685922985,"104":-0.050754423979814875,"105":0.07890127263453107,"106":-0.010780774513467978,"107":-0.011330453678491819,"108":-0.011777780665916518,"109":-0.006920055362306896,"110":-0.042285098748820936,"111":-0.009877506282340907,"112":-0.03420719903400812,"113":0.05163854658993792,"114":0.0828994524287847,"115":0.03332683215536117,"116":-0.061266867073221744,"117":-0.04038525223017914,"118":-0.07874680177048331,"119":-0.012565203081448043,"120":-0.049156909062224176,"121":0.028928101327007134,"122":-0.03074044568278072,"123":0.021128721971810396,"124":-0.05238918702971952,"125":0.006967615223573961,"126":-0.006486323367754015,"127":-0.024510061492772805,"128":0.012740749933833475,"129":0.03559264380631136,"130":0.029911426729491767,"131":0.0811563976626217,"132":-0.0059545988621919005,"133":-0.0004566518899075368,"134":-0.02900681879281721,"135":-0.03308974093080982,"136":0.005146747640869184,"137":0.024202046505592444,"138":0.01979816414639489,"139":0.038904518353211466,"140":0.04125556689935571,"141":-0.05988279244316116,"142":0.026713685541349026,"143":-0.008899671775913066,"144":0.029395766349351052,"145":0.0731256426445564,"146":0.04800097073429682,"147":-0.041272262498605536,"148":0.03521906217686941,"149":0.00882882698430747,"150":-0.01360962713644131,"151":0.004063324882694323,"152":0.026356344733597433,"153":-0.0671869098432204,"154":-0.005150308567869919,"155":0.04375180552568443,"156":0.02914838429606379,"157":-0.05302520547202908,"158":-0.06722916509985126,"159":0.00939730081829284,"160":-0.019356134835080186,"161":0.02104033802192943,"162":0.010276253431553696,"163":-0.055137756048251656,"164":-0.03516875177603807,"165":0.04018241680905111,"166":0.061943196588716,"167":-0.03864635103350153,"168":-0.04342221180581449,"169":-0.015167578911542426,"170":-0.011831834063362781,"171":0.08103888318790488,"172":0.07994314374103632,"173":-0.039832565681986114,"174":-0.09964438365257205,"175":0.023746803631417873,"176":-0.029051246495965015,"177":0.00584313177967093,"178":-0.00943991847667266,"179":-0.007415487720901285,"180":-0.05029482231282294,"181":-0.07121863182661156,"182":0.03707905613732631,"183":-0.07704558909375243,"184":-0.07121706848662868,"185":0.0922144390095398,"186":0.11235913652416317,"187":-0.004325311758586447,"188":0.01981646852152297,"189":-0.055410767517795355,"190":-0.02531453175770744,"191":-0.0398010086400739,"192":-0.07147962583016683,"193":-0.00011017884798674545,"194":0.09454079421408239,"195":0.0009017940808964271,"196":0.023139052240747436,"197":0.07136706380300761,"198":-0.004248815782728703,"199":0.040127316694789104,"200":-0.04535292505222226,"201":-0.016311552328049927,"202":0.05430472916500194,"203":0.02850289719157282,"204":-0.00032795766026558665,"205":-0.03992088773127573,"206":0.00840705580518713,"207":-0.019214183563058564,"208":-0.07700486903047118,"209":-0.033489602598787,"210":0.04833806243395298,"211":-0.021257364427255676,"212":-0.01805325567404615,"213":-0.008450787104984637,"214":0.02893895611836583,"215":0.006044781054289112,"216":0.05312893373887885,"217":-0.04887618974790715,"218":0.029747504445988168,"219":0.004523723593481899,"220":0.047069970341306396,"221":-0.011577998524923127,"222":0.01600523609124534,"223":0.012127413270151835,"224":0.013535221159735216,"225":0.046893351600373716,"226":0.01645386764287774,"227":-0.004704246508033939,"228":-0.038373463907284966,"229":0.02798687617584284,"230":0.007159787003172543,"231":-0.03110479981800199,"232":-0.012433688395995004,"233":0.07207674229267012,"234":0.021642206203800515,"235":0.06121853930011992,"236":0.02789927144075631,"237":-0.032262261632356445,"238":0.047435109333808144,"239":0.03614608260518768,"240":0.04090595904330088,"241":-0.07894981156969945,"242":-0.009234548095316946,"243":-0.03120019148653325,"244":-0.011373350888297282,"245":0.023278745011094518,"246":-0.014234268256756803,"247":-0.02606059064433188,"248":0.0578740260981744,"249":-0.020013663687300284,"250":0.007829732897102159,"251":0.06342092178383651,"252":0.01396184069121758,"253":-0.014074755000126438,"254":-0.03884391862659426,"255":0.04905822620951573,"256":0.031064083799030726,"257":-0.020353574619726644,"258":0.023625082424654595,"259":-0.0017349276824612143,"260":-0.09384664127725223,"261":-0.018213824789553315,"262":-0.028952813640960195,"263":0.01653640932807337,"264":-0.08530617774140474,"265":-0.022928739834628592,"266":0.019355306069039856,"267":-0.02657113905639158,"268":0.08678092702853839,"269":-0.03262197983593182,"270":-0.029882192322775027,"271":-0.003955671761064784,"272":0.010615342418963948,"273":0.013387843179789435,"274":0.04522378653838009,"275":-0.08464864941074603,"276":-0.027875075505770563,"277":0.019496312592313655,"278":0.006364189495064873,"279":0.004769746882743508,"280":0.024243780062394617,"281":0.048576654271594855,"282":0.03324926844070489,"283":0.014495756340202651,"284":-0.02068824444225393,"285":-0.012651913116690214,"286":0.05731168651884373,"287":-0.05186486982700181,"288":0.019005872950434027,"289":0.018251207542289448,"290":0.039576692431919164,"291":0.04790615320177923,"292":0.04223762361977255,"293":0.01593848568063156,"294":-0.011434535539323302,"295":0.046390235033433785,"296":0.019003055433360463,"297":-0.011623329342664945,"298":0.026423506536401766,"299":-0.0006156233891193801,"300":-0.004230775793317924,"301":0.014476504930759073,"302":-0.025841910353313836,"303":-0.06577268983803806,"304":0.008117384287838387,"305":-0.010473082385651448,"306":0.0708700517567954,"307":0.037321750526218514,"308":0.025289912654458006,"309":-0.02285721180556094,"310":0.04251332291478517,"311":0.09809455032779722,"312":0.04845943118480346,"313":-0.013441839403698908,"314":0.0360742981820133,"315":0.016579084241317942,"316":-0.030885401126857417,"317":-0.004019201992351024,"318":-0.03802023518245274,"319":-0.01906921309187173,"320":0.05019757917666743,"321":0.029207769772719775,"322":0.03465613348760838,"323":-0.00425734187296735,"324":0.02115044304627733,"325":0.12702521001345046,"326":0.02543244442992129,"327":-0.06186510058415115,"328":0.024425346116107072,"329":0.011958671338254822,"330":0.009110600471812391,"331":-0.007206499054620446,"332":-0.012064690945213492,"333":-0.012255646574052348,"334":0.032917205704248026,"335":0.07542845798048253,"336":0.02581450438793324,"337":-0.03520473760817767,"338":0.05568723146114808,"339":0.006438770754715369,"340":0.006690985280239622,"341":0.008839695121676216,"342":-0.0026902817289056365,"343":-0.024685363873067762,"344":0.036808981497002256,"345":-0.00006416317159444193,"346":-0.023089428379669215,"347":0.03305962984924447,"348":-0.06007035747620749,"349":-0.020796681107119585,"350":-0.024381927047071567,"351":0.0037863884287118827,"352":0.05493814600028238,"353":-0.02945351103220267,"354":-0.024619206559644388,"355":0.021260327222741238,"356":-0.009111396584045145,"357":-0.005533454712480234,"358":0.05072635085640593,"359":0.0700205950138532,"360":-0.011788430051792845,"361":0.020292190573571334,"362":-0.01459428734839273,"363":0.10927583313857182,"364":-0.024331543872871744,"365":0.07629600572482219,"366":-0.05040782303526505,"367":0.06222643999344762,"368":-0.012922217350091584,"369":-0.0025023887427844576,"370":0.003963503979498177,"371":-0.0552462032689004,"372":-0.08560498443949932,"373":-0.025860171273451242,"374":-0.0400339931833404,"375":-0.029818708946295323,"376":0.057627156520780196,"377":0.0014642364063550003,"378":0.004997982675260686,"379":-0.026499307005576383,"380":0.008393365540172205,"381":0.04979642868025237,"382":-0.06265493080246325,"383":0.003961628018859017,"384":0.047316809449453524,"385":0.02542052400309251,"386":-0.05404857531640571,"387":-0.011997503157663698,"388":-0.020247541548744113,"389":-0.018712793353218425,"390":0.038086694991218355,"391":0.054097540718509134,"392":-0.03665049653180401,"393":0.019674857490293792,"394":0.007921334670609683,"395":-0.027388420636321242}},{"sx":1,"sy":1,"depth":396,"w":{"0":0.026983499034080233,"1":-0.0587902534853845,"2":-0.013202820741949119,"3":-0.04733054128842206,"4":0.00031921129168250797,"5":-0.005427128243731453,"6":0.05869202694146693,"7":-0.06409561804942465,"8":-0.01700301870349971,"9":0.027932781819881826,"10":-0.021985135375762806,"11":-0.0387272909083878,"12":0.007508021555877703,"13":-0.019350882515347625,"14":0.03228399061382397,"15":-0.04066660903597032,"16":0.012621629654791822,"17":-0.007279449017014364,"18":-0.0364340726954913,"19":0.03208140351013638,"20":-0.004221883832410267,"21":-0.006552970174677176,"22":-0.0009491506840123309,"23":-0.010802035897595194,"24":-0.014025436030877015,"25":0.0041248916253476585,"26":0.04268479500174809,"27":0.02143796564916479,"28":0.004629885665369979,"29":-0.010643155234918048,"30":-0.016615654888922558,"31":-0.02516559796611038,"32":0.03790716353465569,"33":-0.026054757889647066,"34":-0.004269226300544384,"35":0.03554810231621174,"36":-0.05368496184916475,"37":-0.05567736319763989,"38":0.025173267740044514,"39":-0.024986426319346385,"40":-0.036292872518926066,"41":0.08301217950477151,"42":-0.047537903226102726,"43":-0.045789109139477445,"44":0.006954614833789943,"45":0.05321674232903565,"46":-0.0026224101592170943,"47":0.013990200665166048,"48":-0.04307756007373583,"49":0.010225617009847041,"50":-0.030311335292989013,"51":-0.005613960928606032,"52":-0.01778752539523686,"53":-0.038411159423922536,"54":-0.02522870374209549,"55":0.07298134784797632,"56":-0.03466752032710286,"57":0.004219646367550608,"58":0.07870656451036256,"59":0.014668533410875227,"60":0.06207960866687697,"61":0.026579629078576757,"62":-0.07256156425067943,"63":-0.018398459278821885,"64":-0.07382854456358706,"65":0.04281881301240975,"66":-0.0401084529237336,"67":0.01460847417191953,"68":0.0641192015045428,"69":-0.0065398683857317156,"70":-0.019618406632193525,"71":-0.01845357533146438,"72":0.015727055100633786,"73":-0.019308303990979242,"74":-0.02771042322999739,"75":-0.08021240256032007,"76":0.08705980252060329,"77":0.04901759957690912,"78":0.01380023609397437,"79":0.03523115140884776,"80":0.015390952378199655,"81":-0.033153253129507815,"82":0.04923117200061612,"83":0.023262222092490452,"84":-0.0074081920212589365,"85":0.0005336474166588884,"86":0.019201138614177028,"87":0.08046574255052205,"88":-0.02789913983833046,"89":-0.004396417126300257,"90":-0.0004765434400937804,"91":-0.030824481362514117,"92":0.05379605677080252,"93":-0.07814113315659242,"94":0.019856084468086392,"95":0.0886299273314026,"96":0.06114548373190172,"97":0.022567628904221853,"98":-0.0777707989933997,"99":0.013463150354307372,"100":0.06413860609775003,"101":0.0025510635250006217,"102":-0.05386470194603964,"103":-0.00407221130081853,"104":-0.009281146234407366,"105":0.0390721963157309,"106":0.002271394430222028,"107":0.0072415666142573165,"108":-0.02539904551116184,"109":0.012451629036108223,"110":0.028858108107304,"111":0.07558607398382627,"112":-0.037114087753159046,"113":-0.0029172340869471573,"114":0.02310562094913956,"115":-0.05027493707800001,"116":0.02445568021856766,"117":-0.006925525165207893,"118":0.02194798412528094,"119":0.03854101834527441,"120":-0.007660788686538094,"121":-0.036005980215684706,"122":0.0003557545949645296,"123":0.011229397737030857,"124":-0.0022840918396650565,"125":0.03411254927361161,"126":0.0053431724316658664,"127":-0.04163407816379172,"128":-0.0501984075753181,"129":-0.011173503266354889,"130":-0.030877707870638104,"131":-0.0106095425500654,"132":0.004507709914244659,"133":0.025273650439064772,"134":0.09204898237715643,"135":0.037006745205960444,"136":-0.037485760323018646,"137":-0.0005368409402305519,"138":-0.003520209358987306,"139":-0.035484523411059336,"140":0.06503753472880916,"141":0.07533138011059198,"142":0.03331742315527992,"143":0.022060661271345493,"144":0.052151276756635175,"145":0.021941491976049003,"146":0.007065519796305465,"147":-0.020140038229946693,"148":0.04237906038549919,"149":0.0065467194242170585,"150":0.015970900212333137,"151":0.053611898419851464,"152":-0.03130982368655624,"153":0.022194732808643695,"154":0.0400438766519181,"155":-0.03319971996704106,"156":0.08526300080568198,"157":0.02694444673179326,"158":0.017311725305797578,"159":0.0023338245298589527,"160":-0.006256699297885201,"161":-0.007720385771458776,"162":0.08393592620601559,"163":0.019278530472770502,"164":0.04554052349358998,"165":0.02895956091317823,"166":0.02657671049630581,"167":0.02219767138144692,"168":-0.017326129489646958,"169":0.019496394997401446,"170":-0.060337627238198514,"171":0.031174710784428065,"172":0.01827757190632238,"173":0.008955964356605435,"174":0.020952663555356833,"175":-0.05838593178626021,"176":-0.015425063511672133,"177":0.06738007130951926,"178":0.044525651899698336,"179":0.024788819914707848,"180":-0.14109009314115462,"181":-0.009986999450561982,"182":-0.027667877325754885,"183":0.02896034610002892,"184":0.020262565394514584,"185":0.03714963682644491,"186":0.005429852032677734,"187":0.05393703994134686,"188":0.05234810762888598,"189":-0.10709991389142277,"190":-0.02795823690434153,"191":0.024490725035294602,"192":-0.007446204802047223,"193":-0.023452612304910626,"194":-0.014250983276747547,"195":-0.15332104357608387,"196":-0.0032223038812209974,"197":-0.03079924935178912,"198":0.04722100466485474,"199":-0.028326321027023205,"200":-0.0014605374515810946,"201":0.05337668776165972,"202":-0.13981424845553017,"203":-0.014757862934853197,"204":0.021767856138938932,"205":-0.014171969981756722,"206":-0.006480480388641549,"207":0.005906810376587114,"208":0.06346331488159959,"209":0.05388319898093415,"210":0.018198185607873948,"211":-0.041253157959003715,"212":0.07867040634140157,"213":-0.06605656618602415,"214":-0.0683667494592106,"215":0.0017508625569738149,"216":-0.023727332344966864,"217":-0.04238082225862547,"218":0.027577362978671065,"219":0.017843416050631538,"220":0.005984526826780438,"221":0.06950043587649372,"222":-0.0009831707789225556,"223":-0.05750137688186262,"224":-0.06686888528601848,"225":0.037264527075874264,"226":0.031858451237102625,"227":-0.00409905115313126,"228":-0.027453156772263704,"229":0.0038314544758447124,"230":0.008427000360442667,"231":-0.0153641635370968,"232":0.007506905825981614,"233":-0.03429089280005857,"234":-0.02661593438114756,"235":0.04435153745844846,"236":0.021685222944913346,"237":-0.004517598082267055,"238":-0.012132687493575815,"239":0.052824290723001786,"240":-0.00763007405801551,"241":0.021978681298793528,"242":0.011813986101889502,"243":0.018453217328762657,"244":0.01111818968170636,"245":-0.09736293508538221,"246":-0.00747002034646129,"247":0.005955480241278741,"248":-0.0024377572340584163,"249":-0.033870085178656716,"250":-0.034772594611656334,"251":-0.02275171208618004,"252":0.021863911665051212,"253":-0.04445061484731208,"254":0.011236773867647036,"255":-0.02118642757642347,"256":0.005554323562876569,"257":0.02387829820645424,"258":0.015915578751616675,"259":-0.0210195646152554,"260":0.06020566427412397,"261":-0.04963313882719322,"262":0.05055443435077729,"263":0.017972383254594514,"264":-0.02951531477953746,"265":-0.009235078446779992,"266":-0.08006855167011322,"267":0.007903922325391983,"268":0.049230052545928216,"269":-0.008168483164559584,"270":0.006305784187556202,"271":-0.06909179696550602,"272":0.002766979508684202,"273":-0.0028685794457547938,"274":0.03169698587919394,"275":0.01258339719390918,"276":0.03728671783964558,"277":0.030535713773016084,"278":-0.0040202568709977226,"279":0.0620756878130152,"280":-0.0009302134671896772,"281":-0.004977790537373325,"282":-0.007951016084357004,"283":-0.007469018249306213,"284":0.07380061372655168,"285":0.03363879504612824,"286":0.08298300037386531,"287":-0.0583658579936214,"288":0.006065097981452555,"289":-0.06544104723006773,"290":0.018065520140752644,"291":0.004606455652636664,"292":0.028569207974634657,"293":0.018293020829052348,"294":0.04843114744583914,"295":-0.055270221352801366,"296":-0.010981936639993233,"297":0.015572464736113378,"298":-0.05417096700043047,"299":0.10496809394579838,"300":0.01677976826427492,"301":0.01052213080892574,"302":-0.01960492439441459,"303":-0.014880264646824681,"304":-0.041994589252620916,"305":0.033978815499168334,"306":-0.06815486951193174,"307":-0.0006810814485218553,"308":0.030205647815387315,"309":0.04243142932543165,"310":-0.0015526688021563655,"311":0.06831906355843036,"312":0.07843721561526557,"313":0.016136621075651773,"314":0.05704773528011823,"315":0.03583232996196632,"316":0.08856004779027675,"317":-0.021897976479597094,"318":0.009559457321444382,"319":0.07349854004782023,"320":-0.0076815724601127745,"321":-0.04091468873535259,"322":0.021749213650259593,"323":0.015049991022287431,"324":0.004710587277243083,"325":0.0005594293579768914,"326":-0.004871665325811813,"327":-0.01086723652582206,"328":0.018625580567958478,"329":0.10196185813311488,"330":0.005758980290574629,"331":-0.04140139353317732,"332":0.0522458162491075,"333":0.003491397618727028,"334":0.018904668004129124,"335":0.028842509664595138,"336":-0.07953155920197556,"337":-0.01289327119922299,"338":-0.07953701295560198,"339":-0.01156180389766362,"340":-0.03879424835285343,"341":-0.04264574646602778,"342":0.03240594485697736,"343":-0.027892643819358232,"344":-0.07300951763951422,"345":0.003956434098203302,"346":0.008655778400476016,"347":0.00891987082288274,"348":-0.005891495582812964,"349":-0.021085173143036692,"350":0.0029938168840487073,"351":0.010170853620484734,"352":-0.015007463406513726,"353":-0.0048083444134025405,"354":0.1021868458640392,"355":0.016244864999848216,"356":-0.03759181768224421,"357":0.019097452068201185,"358":0.0338961996410497,"359":0.056146696886342114,"360":-0.015858496335655482,"361":0.016602868379132007,"362":-0.04116299795220392,"363":-0.08557432082626559,"364":0.012641226006755824,"365":-0.010638176129263521,"366":0.002352659466127524,"367":-0.023921875534172368,"368":0.03301348609879727,"369":-0.03383798069184846,"370":0.1050076750025499,"371":0.035815937927851,"372":-0.03169238460654112,"373":-0.04662582571587879,"374":0.03540084270002617,"375":0.05275644339847083,"376":-0.002653413528847355,"377":0.072932963268516,"378":0.008419374824177952,"379":-0.018281491092890092,"380":-0.06050717667293007,"381":0.06407770868292201,"382":-0.009985886880190318,"383":0.07698866861462272,"384":0.03934541061033954,"385":-0.014913394435078761,"386":0.04598757176178992,"387":0.014736107960046605,"388":-0.028299695834810845,"389":-0.025020367017774752,"390":0.0030018386741535283,"391":0.011131033228834063,"392":0.08538790250101409,"393":0.014598264606637084,"394":0.03907209478178353,"395":0.011210128228553188}},{"sx":1,"sy":1,"depth":396,"w":{"0":0.007047375839448326,"1":-0.04899849123409588,"2":-0.01043241616185618,"3":-0.045303325966627596,"4":0.007678814215691728,"5":0.008680148370422143,"6":-0.00625021866619462,"7":-0.011093430997652618,"8":0.043420036541812514,"9":-0.03417732804420498,"10":0.01503841025972155,"11":-0.006377301634946098,"12":0.03495257567650439,"13":0.059859675092319715,"14":0.028328331048019937,"15":0.04936157682117263,"16":-0.005591234324410508,"17":-0.035289986852942094,"18":0.04429201807409598,"19":-0.0559585907977313,"20":-0.06304024876314192,"21":0.028323328041415022,"22":-0.020927202297086268,"23":-0.017130647229070924,"24":-0.08515982382553956,"25":-0.009089842806905417,"26":-0.02287590507438489,"27":-0.09816735423563905,"28":-0.08617937071884622,"29":-0.019729265994430464,"30":0.013212680988693562,"31":0.02267192691450983,"32":-0.018878820278283404,"33":0.002313972903994218,"34":-0.020705313305113035,"35":-0.01120359357433613,"36":-0.026269747976949327,"37":-0.04879804550826662,"38":0.02593006890172516,"39":-0.022203472318321163,"40":0.022403799278201547,"41":-0.043180942304257515,"42":0.007989216369106895,"43":-0.005409060545879801,"44":0.003774030799154813,"45":0.03304794276451254,"46":0.05420472208650928,"47":0.031222934814548433,"48":0.031721830782454594,"49":-0.02746928450421562,"50":-0.04827415875028218,"51":0.014748825469398555,"52":-0.04546690536230094,"53":0.030164462902284524,"54":-0.04379717036445866,"55":0.01340752235069258,"56":-0.014771753880525169,"57":-0.050693028301216005,"58":-0.02872376647674095,"59":-0.014817338848959371,"60":-0.047262187379305626,"61":-0.03170166925100675,"62":-0.006772212480939814,"63":-0.06743785400674741,"64":-0.02386929224699908,"65":-0.006193842925956617,"66":0.06153521789714912,"67":-0.02682247280356428,"68":-0.0019715560830841153,"69":0.03410980624888241,"70":-0.012688985735775923,"71":-0.014240486743734872,"72":0.04177646908854306,"73":-0.017293026740077762,"74":0.04650092079881236,"75":0.09411286462583482,"76":0.04581459777241453,"77":-0.05012050653507923,"78":-0.031403325003399,"79":0.09790461308354188,"80":0.04152423656316326,"81":0.03595832499729335,"82":-0.0198888549325726,"83":0.004652094519948726,"84":0.09416227910589678,"85":-0.020238914159646463,"86":-0.04615293805382464,"87":-0.02455571882090297,"88":-0.006389968427675375,"89":0.055952271471425466,"90":0.07725696433103316,"91":0.032736300742440244,"92":0.009887898370283109,"93":-0.02904644030449624,"94":0.03520651921537576,"95":-0.03407487538381494,"96":0.00593494593802223,"97":-0.04698210757780835,"98":0.004905016636624051,"99":0.02102019919879973,"100":0.032351619398618595,"101":-0.0708443309674092,"102":0.029163793436331034,"103":-0.06964979513884492,"104":0.006308725792747198,"105":0.0556624271613833,"106":0.07442700486893607,"107":0.00798047305557316,"108":-0.07588041966289338,"109":-0.059556517092021984,"110":-0.039754682146800065,"111":0.030664646426537358,"112":0.04559962814290558,"113":0.055112891625464004,"114":0.01771919299943427,"115":0.00919670014575655,"116":0.061181083897871455,"117":-0.026416072486585986,"118":-0.004135522004877672,"119":-0.01974047371305117,"120":0.036015533302691194,"121":0.05033009580488582,"122":0.042376562909406584,"123":-0.001960679554489149,"124":0.09865156287420779,"125":0.00826435520578777,"126":-0.0020502317511575273,"127":0.024542009666089718,"128":0.03196858494345977,"129":0.02774298589433747,"130":0.05123418933699237,"131":-0.013950813907474668,"132":-0.051793324682766255,"133":-0.006234941894571446,"134":-0.020870403811173735,"135":0.014548860994700026,"136":0.02815019585091946,"137":0.022074704021380773,"138":0.026771765576778562,"139":-0.055400816326932355,"140":-0.016047764524030207,"141":-0.003428982523061285,"142":-0.00478877023639596,"143":-0.056590985749305614,"144":0.013781976215374438,"145":-0.025057390367369904,"146":0.04872512600266267,"147":-0.03459091807036611,"148":0.036586521471657626,"149":-0.011026858584724079,"150":0.11216021741288879,"151":-0.013115929019696333,"152":0.02384829483272409,"153":0.05124167855264435,"154":0.0026843488942277435,"155":-0.04538978981178126,"156":-0.08248812191015972,"157":0.014867490601550579,"158":0.02173112226844769,"159":0.07349732358073785,"160":-0.012791444981775642,"161":-0.006848293878463246,"162":0.03355520877304841,"163":-0.07079475396201072,"164":0.0026900801468368123,"165":-0.010447435307060923,"166":-0.00835904660889739,"167":-0.07404039705582433,"168":-0.06496490672356876,"169":-0.021654514656953713,"170":-0.02929589163642415,"171":-0.03237935176041547,"172":-0.03272898187938352,"173":0.01136125596406828,"174":-0.0786504056051005,"175":-0.03252984374567166,"176":-0.025187906310038352,"177":-0.00810468448653678,"178":-0.04783254576366532,"179":0.027908495852155067,"180":0.019595380108575304,"181":-0.04951610346263524,"182":0.032985328023519375,"183":-0.0046555528366063505,"184":0.02651740580643556,"185":-0.04768738993117769,"186":-0.10379572031541602,"187":0.039789302796804524,"188":-0.045111590103932724,"189":0.0007005964985644334,"190":0.00803325723795105,"191":-0.08067561120905449,"192":-0.0011828142191523312,"193":-0.006546857812479904,"194":-0.024840302990308996,"195":0.000981071414966703,"196":0.006596500555327948,"197":-0.014393095645295145,"198":0.013777114558550544,"199":-0.019546732909921354,"200":0.04176645048631303,"201":0.015442526702515143,"202":-0.05288711628180915,"203":0.010854684313693434,"204":-0.07980034197034919,"205":-0.016983792170863727,"206":-0.01317807473844329,"207":-0.00524030916658405,"208":0.022104984039254677,"209":0.013431055796326427,"210":0.04598438624168312,"211":-0.03190931571230643,"212":0.044825825627769246,"213":-0.025770916786701934,"214":0.06597777530418741,"215":-0.017031772684725863,"216":-0.0888295093438989,"217":-0.013290430987511669,"218":-0.05829217021614767,"219":-0.07026290305804796,"220":-0.017398055481252023,"221":-0.009219558816579486,"222":-0.05268189436160974,"223":0.006266723986933958,"224":0.03901059334060659,"225":-0.016021820783145478,"226":-0.02458681158946964,"227":0.01563557059895825,"228":-0.12146758309003096,"229":0.02446735476196927,"230":0.023516210222176443,"231":0.031024422884718482,"232":0.060079730331601536,"233":0.056351376377769685,"234":-0.08972164068103518,"235":-0.013121555687159262,"236":0.006291580300608537,"237":0.010570606904353842,"238":-0.10134241361510138,"239":0.007133645626191674,"240":0.008595551494348812,"241":-0.056042180802984384,"242":-0.01117632193948689,"243":0.05676264026203037,"244":0.017545681777376074,"245":0.02473323263758925,"246":0.04919795668809855,"247":0.0066566401736648925,"248":0.06686472654811997,"249":0.04404511294870241,"250":-0.050871814508896135,"251":0.00690680563632602,"252":0.05966524508083114,"253":-0.01524510828050724,"254":-0.008077123562690008,"255":0.044699577211025306,"256":-0.004766248683768024,"257":-0.07776509542833455,"258":0.050794980913904934,"259":-0.019818149489391687,"260":0.00022705890063150048,"261":0.01855926025434432,"262":-0.05532654326209368,"263":-0.002364515421163087,"264":0.03685899993092085,"265":0.02268273046120924,"266":0.008124939179632614,"267":-0.08371255858910351,"268":-0.060223707912467346,"269":0.019840492146622382,"270":0.005242970637641791,"271":-0.054096933578711356,"272":0.015458983625639269,"273":-0.012426509082935067,"274":-0.07372610091905435,"275":-0.013371737930360263,"276":-0.04243921964615425,"277":-0.015526610052927069,"278":-0.01825762803173922,"279":0.053340986531990285,"280":-0.03555597645949092,"281":0.03531791127130411,"282":-0.012377803478926063,"283":-0.07559844731556399,"284":0.0344072805097172,"285":0.006634281914742302,"286":0.012038353524940636,"287":0.06174110604400904,"288":0.04085275856583703,"289":0.03360806827407181,"290":0.05052744960208622,"291":-0.02811934359838069,"292":0.03355458285088173,"293":-0.046269291045753634,"294":-0.05872590430284894,"295":-0.05045570276882535,"296":-0.04042222181584244,"297":-0.03752467478348084,"298":-0.028132140815991195,"299":-0.008411101629748641,"300":-0.010876187393447787,"301":0.032451262182484716,"302":0.01081183018001656,"303":-0.04746805908667445,"304":0.017060071292630284,"305":-0.01229196640987932,"306":0.07342247997039701,"307":0.04950724524056435,"308":0.030629868879334,"309":0.012069458479518185,"310":0.013679504830563538,"311":0.03686353061024991,"312":0.04686783680948502,"313":0.0051727249439086085,"314":-0.07740891287112853,"315":-0.04311842472870564,"316":-0.016214762670306075,"317":-0.08420896031396298,"318":0.03411234779779092,"319":0.015804324427349546,"320":-0.03181833963031295,"321":0.05147779350437211,"322":-0.02543466626304082,"323":0.06797812439906764,"324":0.09373872364682906,"325":-0.06216878468462027,"326":0.05877583983440745,"327":0.0487210427130597,"328":0.07328523531377346,"329":-0.024138897896235793,"330":0.0346028898830461,"331":-0.02990420232252711,"332":0.025437401650709887,"333":0.035790323869680556,"334":-0.020821334485234416,"335":0.038634530559334065,"336":0.008002589995677897,"337":0.028564400053814235,"338":0.009702903914912507,"339":0.015683296385847638,"340":0.0835559937399033,"341":-0.05339578872678,"342":-0.017281947897932595,"343":0.023758851864854626,"344":-0.05579705450347223,"345":-0.041228238330132595,"346":0.0008436025248405335,"347":-0.014766093670982037,"348":0.006898397751120576,"349":-0.06804916886046848,"350":0.013814312730999694,"351":0.00800842649925296,"352":0.07818140508185163,"353":-0.07012791288796996,"354":0.07255530625564456,"355":-0.06889807276889608,"356":0.04927662154658925,"357":0.056767421679970356,"358":0.02826025104942896,"359":0.001664374952438292,"360":0.02440397273606269,"361":0.047616150123579684,"362":-0.02034926399944251,"363":-0.055313006737017216,"364":0.029573626816639737,"365":0.00953072427477274,"366":-0.02059298260489553,"367":-0.10028681368027775,"368":-0.01972281823998765,"369":0.0757755338028093,"370":-0.036068274926542625,"371":0.008079079592672154,"372":0.002152520099864259,"373":0.021144209640444812,"374":0.04853764545418371,"375":-0.011402606872236754,"376":-0.03787964721603779,"377":-0.00777693933199327,"378":-0.021850051100259824,"379":0.030336452752071027,"380":0.0073425504577328896,"381":-0.02494969575452904,"382":0.07995712644023933,"383":-0.01741868788227804,"384":-0.040595777021221066,"385":0.03056742048354731,"386":-0.019547242380915653,"387":0.05115733708589482,"388":0.008961625254801793,"389":0.0070696092531902415,"390":0.0054956500300048575,"391":0.019758808251136708,"392":-0.0429141912841563,"393":0.08654538573334103,"394":0.028664167296718626,"395":-0.007074859666913299}},{"sx":1,"sy":1,"depth":396,"w":{"0":0.04573403636695436,"1":0.035343967470017966,"2":-0.04052514991585601,"3":0.01077711923653695,"4":0.04089709455685141,"5":0.06455481684237367,"6":0.09059472532578546,"7":-0.035816133512184135,"8":-0.05832382365935187,"9":-0.00007002767333808432,"10":0.10289455777743065,"11":0.00945301828908328,"12":0.04057350878502329,"13":0.06654504062830835,"14":-0.02005680246216678,"15":0.02384070655815073,"16":-0.05039989779961113,"17":0.09833513886966162,"18":-0.04091658657757332,"19":0.011758457946402045,"20":-0.05871372420143843,"21":-0.06425360046010152,"22":0.11432167944365536,"23":-0.05859938455920212,"24":-0.04126458290225493,"25":0.06066038882142316,"26":-0.09739735174711286,"27":-0.028670475146544944,"28":-0.009651208415620907,"29":-0.031701881918875505,"30":0.052603170213033665,"31":0.06292641908516422,"32":-0.02432625536540593,"33":0.016751848818193808,"34":-0.01498104026224275,"35":-0.04799466053745149,"36":-0.063368948685708,"37":-0.08925361533446617,"38":0.04013368859636565,"39":-0.017555455126607725,"40":0.05615487142400598,"41":0.04933784017661917,"42":-0.012762607365543199,"43":-0.05410481163482081,"44":-0.02864286506167452,"45":-0.03530886671654007,"46":0.024528217198287485,"47":-0.02916732284975044,"48":-0.050696410029740194,"49":0.021283534510487926,"50":0.032289189115288865,"51":0.027345981731093573,"52":0.03392077497552526,"53":-0.032341340328017124,"54":-0.0554091437779343,"55":-0.01673799329888085,"56":0.019606923264263568,"57":-0.041626764925136575,"58":0.014494654458422691,"59":-0.013569373630118705,"60":-0.0012969783539334946,"61":-0.029098564831995723,"62":0.01934888153571633,"63":0.03471300307181633,"64":-0.031997439680755885,"65":-0.014002752755817121,"66":0.0016491579707422846,"67":-0.03491814329262614,"68":0.00028496332413086066,"69":-0.039302161171472824,"70":0.04919691942435555,"71":-0.019905816079415488,"72":-0.013051151763696424,"73":0.08567888539886537,"74":-0.08772935509767367,"75":-0.08099478504254307,"76":-0.0052668340794345065,"77":-0.004666143708992447,"78":-0.05743446236284962,"79":-0.01437079556040868,"80":-0.025997997846706943,"81":-0.04236153268620816,"82":-0.02105626728466239,"83":0.03610478943986257,"84":0.016011314355723047,"85":0.06114914385237749,"86":0.029801439399929755,"87":-0.04594774929367256,"88":-0.03968376345431293,"89":0.021599464287868905,"90":0.07584295750774124,"91":0.020512706010089605,"92":0.04706186474920824,"93":0.029963539634957355,"94":0.004164820164195413,"95":-0.06654515812876986,"96":-0.06946161183393669,"97":0.06175030670425095,"98":-0.11402393558255597,"99":-0.005022363172005066,"100":0.0004669429267091972,"101":0.047816755316965935,"102":0.004359893949469181,"103":-0.014577294652653158,"104":-0.04229643098101291,"105":-0.04708744916068329,"106":-0.008370730780319,"107":-0.02863695810029295,"108":0.0048511758174923725,"109":-0.02207161169043837,"110":0.015411947600598204,"111":-0.020414311879057574,"112":-0.04009753853019289,"113":0.008819200806714871,"114":0.010090968088484418,"115":-0.001543768609717647,"116":0.005044111688068222,"117":0.038695930202121136,"118":0.0317167327314105,"119":0.01460923055721953,"120":0.05878190093462133,"121":0.009672040158721397,"122":0.04345784163454203,"123":0.04284526205823543,"124":-0.05370914760321722,"125":0.030682659664451984,"126":-0.06637354716592404,"127":-0.01353103039918994,"128":0.003842520606243282,"129":-0.0060262033961312154,"130":-0.05837281678660802,"131":-0.04295719094587254,"132":0.12628010108542018,"133":0.004155836184381975,"134":-0.02978123100944281,"135":0.0402115749764673,"136":0.037382350994501885,"137":-0.06751556171890215,"138":0.024466633592907353,"139":0.02981804326360073,"140":-0.04479109614371873,"141":0.022506265664815124,"142":-0.053612001615961795,"143":0.011032117929555258,"144":-0.09522154184656234,"145":-0.06931144425848837,"146":0.030794058022866385,"147":0.08797942729877381,"148":-0.008249008403474466,"149":-0.041534174186456815,"150":-0.030384088428637945,"151":-0.10404044064472245,"152":0.023872886894815797,"153":0.009282314016142075,"154":-0.03180371778229025,"155":-0.03854922178440283,"156":0.034372898970393785,"157":-0.04105229938219157,"158":-0.058992385739881206,"159":-0.03774088678722064,"160":-0.016497070117214414,"161":0.034191418485014106,"162":-0.023818992289251863,"163":-0.004005373856691507,"164":-0.05038612780040765,"165":0.018245386948098113,"166":-0.0579437977471872,"167":0.04611068738024241,"168":0.033425447827119224,"169":-0.022069042725165453,"170":-0.06352081409852801,"171":-0.05423982748104676,"172":0.007380305994631392,"173":0.02283156634905746,"174":-0.030619566899332283,"175":-0.03716663986264227,"176":0.04189341341219337,"177":-0.019554762469223313,"178":-0.05539621102867076,"179":0.027797194389818355,"180":-0.0010483615012733495,"181":-0.02972967738679805,"182":0.06019990333433958,"183":-0.07075037266036187,"184":-0.01721587668922105,"185":0.003658921167623157,"186":0.05564265550746142,"187":0.013147713668954042,"188":0.003510508042928015,"189":-0.030030144850450677,"190":0.011215916455180023,"191":-0.05343129678414119,"192":0.05924467211676365,"193":0.06289038246036717,"194":0.05121455901169622,"195":0.015010018176609486,"196":-0.006979755996621182,"197":-0.04491209628791506,"198":-0.03868655190426768,"199":0.0634089646488746,"200":-0.051264819034799326,"201":-0.07253005297775354,"202":-0.022144361939482382,"203":0.005592206883348229,"204":0.04085789154690886,"205":-0.005594082516415939,"206":0.07454625029879546,"207":0.005013724254368539,"208":-0.0008233015707142158,"209":-0.04728037532284857,"210":0.026676249307588804,"211":-0.002154074994682083,"212":0.011492243321850146,"213":-0.04244309111506536,"214":-0.0688414035693183,"215":-0.04534164303161335,"216":0.02970232303612015,"217":0.049509060004033156,"218":-0.012370535317617084,"219":0.007569935932183813,"220":-0.08718572585545323,"221":0.06388262584675813,"222":-0.0389361246846913,"223":0.054342594945970726,"224":0.026886252193485064,"225":0.04955303889405624,"226":-0.050222715891114975,"227":-0.04679016998641001,"228":-0.030475166841452524,"229":0.08905892078314696,"230":0.005137074992118876,"231":-0.011517534420212437,"232":0.008370023547872012,"233":0.05790513654657127,"234":-0.028040443732602175,"235":0.015540528180200642,"236":0.09908137562166419,"237":-0.03315517048609449,"238":0.03798670275972008,"239":0.02591004807602312,"240":-0.08366103949186024,"241":0.0023687560185583012,"242":0.08094719079746578,"243":0.03224509045722473,"244":-0.026786526015816017,"245":-0.030569490614939947,"246":0.020009184282929793,"247":-0.05918764481405816,"248":-0.03963814361448269,"249":-0.0026987180491852432,"250":0.022157460951525088,"251":0.014141934920443565,"252":0.024110047683628996,"253":-0.026721876747103558,"254":0.06581440829788865,"255":0.022248503650883145,"256":0.04404378186649908,"257":0.0012113082506824266,"258":0.015841983985256217,"259":-0.07630227517107965,"260":-0.025454031028543492,"261":-0.04321985962495575,"262":-0.01814106432395288,"263":-0.04826409363328973,"264":0.07699992065723105,"265":0.04647796543857662,"266":-0.0032600326235212216,"267":0.0348500995700384,"268":-0.008720776657341445,"269":0.0048790184497364214,"270":0.013415833288821599,"271":0.008449964308315657,"272":-0.013557089446945999,"273":0.02135828403525415,"274":-0.0018222301061407624,"275":0.024784556450407374,"276":0.07676254288819956,"277":-0.09948785423893262,"278":-0.020178063119510852,"279":-0.026124359341155985,"280":0.01421417418757,"281":0.037892609079395616,"282":0.012444733894121644,"283":0.07409432355143435,"284":-0.001373252295055194,"285":-0.04256718505446477,"286":0.016777409171683792,"287":-0.0075447586803282845,"288":0.034639051442422145,"289":-0.01748902759089329,"290":-0.013243697064109331,"291":0.0720718851681019,"292":0.05768295730557193,"293":0.026314966802987363,"294":-0.015878348674684725,"295":-0.07830085292731771,"296":0.03930998824537186,"297":-0.008080458006602419,"298":0.05830884433602513,"299":-0.006380664534491968,"300":0.027375011901407616,"301":0.07760738795688882,"302":-0.05153521822660756,"303":0.02102635618820464,"304":-0.04530579554746164,"305":0.026372242746543945,"306":0.059246311384972404,"307":-0.06319655835429339,"308":0.015288881839984343,"309":-0.05936535737497353,"310":-0.007027879190777303,"311":0.06993573608216351,"312":0.014139719015237723,"313":-0.04092527661425207,"314":-0.0012877085520083364,"315":-0.08045582420524308,"316":0.02346549528384925,"317":0.05608733304013626,"318":-0.016278864440470706,"319":0.020807826515297816,"320":-0.014934419520595177,"321":-0.02953721755517839,"322":0.01728548627544364,"323":0.007601264314849779,"324":0.002352689125523671,"325":-0.03542675413999664,"326":-0.07142271813952311,"327":0.06006727094770446,"328":0.03904520263293792,"329":-0.059928184284224424,"330":0.0046607823233158815,"331":-0.012851573224616622,"332":-0.0019914626349115654,"333":-0.04356756971375775,"334":-0.021769591379687182,"335":-0.026433095403505337,"336":0.007360936275240734,"337":0.015156072163371304,"338":0.0006415901166641416,"339":0.030540009414246908,"340":0.05061734074557341,"341":0.07129764539493513,"342":0.03203254495329313,"343":0.03435707480702966,"344":-0.007834311830416121,"345":-0.03953483731118369,"346":-0.06305747421207729,"347":-0.015383827717984352,"348":0.029690538783939166,"349":-0.03208699476421461,"350":0.04543452380320335,"351":0.023022369518138106,"352":0.006752753360007273,"353":0.06206758802836576,"354":-0.04991819090625276,"355":0.06360369950649475,"356":0.0711810931088318,"357":-0.022976242068182003,"358":0.02952270338890795,"359":0.023630297855025892,"360":-0.0335389980054934,"361":-0.020328049823615302,"362":0.09024232647648442,"363":-0.02240909050127782,"364":0.03597987157725685,"365":-0.012566565590073667,"366":-0.019273049552805246,"367":-0.034229277219778025,"368":-0.06693549082783622,"369":0.019280707026926653,"370":-0.06486895287016871,"371":-0.013434473422031216,"372":0.01995101666655877,"373":0.013572985245493696,"374":0.0038991888199078374,"375":0.024657928879030983,"376":-0.05425603026828647,"377":0.01014851151087945,"378":-0.05955704328155853,"379":-0.03399509828628335,"380":-0.00150805400235858,"381":-0.02019524467885841,"382":-0.10129390311847711,"383":-0.056913851249648546,"384":-0.02172011792898932,"385":-0.033532278355816375,"386":0.03295342434141316,"387":-0.0067460204796285245,"388":-0.028225090595392733,"389":0.01107268899710695,"390":-0.022748156755597108,"391":0.023180188085737536,"392":0.016534745660890263,"393":0.08565145763726735,"394":0.02153639332051516,"395":0.017669353760461342}},{"sx":1,"sy":1,"depth":396,"w":{"0":0.03991742943811214,"1":-0.046569382153388225,"2":0.06217404143078037,"3":0.022933252204476947,"4":0.058852287196086824,"5":-0.055766554339219045,"6":-0.03151707747378209,"7":0.011986861787897929,"8":-0.00410944860467912,"9":0.01832891896785506,"10":-0.011202482070581677,"11":0.07100482218468865,"12":0.037339771988754704,"13":0.014896026261076773,"14":0.0003281915086503267,"15":-0.03823570064206074,"16":0.05703313357326589,"17":-0.005139673741846857,"18":-0.022088620285525964,"19":-0.06517518300960211,"20":-0.0117793788003605,"21":-0.016193346727181732,"22":0.03566067811908071,"23":0.029014460498021713,"24":-0.004816412047291896,"25":0.017096338012472578,"26":-0.02545577822040905,"27":-0.006960162508749942,"28":0.06097125342555432,"29":0.013653252489689278,"30":0.012807082142053583,"31":-0.02863845742254068,"32":0.10473210293330731,"33":0.03085165544750091,"34":0.03092573633678777,"35":-0.02408196128287991,"36":0.025965753049562085,"37":-0.049535937586792214,"38":-0.0051318069422000645,"39":-0.03445133275094849,"40":-0.04107794314722549,"41":0.0013254027968413855,"42":0.06151996305669832,"43":0.0025649599510174825,"44":-0.03794534294418567,"45":-0.004825622004622239,"46":-0.017928568978514515,"47":0.03942153357382218,"48":0.014033830518035667,"49":-0.011090915932760419,"50":-0.01339008615154544,"51":-0.06065271955423585,"52":-0.01167283110679864,"53":0.012423692175608757,"54":-0.03628631008999457,"55":-0.01458754673060939,"56":0.004747603070469564,"57":-0.06489576439098609,"58":0.0008787025956636419,"59":-0.028385723115454255,"60":-0.047833691607138025,"61":0.07387191463261349,"62":-0.046981950246062935,"63":-0.04184744621185663,"64":0.013043388089091326,"65":0.019301136857106032,"66":0.03734767662521625,"67":-0.023788461774570183,"68":0.021217664329431056,"69":0.074026423553558,"70":-0.004654094359157856,"71":-0.06422967943730223,"72":-0.014340767621528075,"73":0.06762092194968858,"74":-0.007543499697898696,"75":0.0013113524318710003,"76":-0.007161932169189798,"77":0.0303842600949217,"78":-0.05289089284813115,"79":-0.013581745241618001,"80":-0.03787782510547271,"81":0.0006417195881837877,"82":0.04099769593016431,"83":-0.026176116675884882,"84":0.036306220279281716,"85":-0.03777406109831531,"86":-0.037459729669024236,"87":-0.004740140100601766,"88":0.0297844044854135,"89":-0.015405274058139044,"90":0.0036041024192794945,"91":-0.023162683846358917,"92":-0.021192961515608226,"93":0.027152493033595043,"94":-0.08863033794602834,"95":0.00453824623244012,"96":-0.029189300077197906,"97":0.03392319418346868,"98":-0.0003642792549554333,"99":-0.02515706961710055,"100":0.004978296950529105,"101":0.0015967593367417368,"102":-0.037781646181515485,"103":-0.05459345985686988,"104":0.03737934910454375,"105":-0.04368208792239035,"106":-0.038523261921310205,"107":-0.02566251263154457,"108":-0.033687563708406,"109":-0.013758897628820497,"110":0.0016833055755195092,"111":0.005366251535053049,"112":-0.060220201919775694,"113":-0.0716869442420256,"114":0.0031451756689058843,"115":0.02373608122633533,"116":-0.030184449964470058,"117":-0.0006706412264182467,"118":-0.04695037362710468,"119":-0.0040483026140685704,"120":0.04165553860325652,"121":-0.05293636641547859,"122":0.08378694400913275,"123":0.07559937257548466,"124":0.003075989308373554,"125":0.011823620856291392,"126":-0.052880141059748,"127":-0.015910639499786147,"128":0.043262319426223064,"129":0.015459562232608214,"130":0.00005561262008913892,"131":0.07136938984034429,"132":0.055656017186250406,"133":-0.033496382752033725,"134":-0.00565944255020922,"135":-0.014215104582424223,"136":-0.05705373499607913,"137":0.021236304533772177,"138":-0.10821220737679303,"139":-0.04461869414244447,"140":-0.014103924831876757,"141":-0.006461984086783703,"142":0.015461647901316778,"143":0.013090261185063365,"144":0.03852141061911481,"145":0.09950038006961147,"146":-0.009159723439436412,"147":0.023765572573577073,"148":0.019616435289810375,"149":0.060449836398757686,"150":0.03340235639005405,"151":0.019271223649021296,"152":0.01226966441262647,"153":-0.006015038319361204,"154":0.014664069877078684,"155":0.029104024992568218,"156":0.009209071681257943,"157":0.08389842675233758,"158":-0.10754019701384843,"159":-0.028009075088681407,"160":-0.045697403448173246,"161":0.01131880157820732,"162":0.025029101203773205,"163":0.06868953476296281,"164":-0.04166200088872975,"165":-0.033394086767812255,"166":-0.04691302875005401,"167":0.03875529533380222,"168":-0.009542674381963736,"169":0.00830904638700773,"170":0.002619489982299707,"171":0.05486949405703336,"172":-0.014842518396177892,"173":-0.0213769744331347,"174":0.02998664989932755,"175":-0.06561458484081555,"176":-0.003293714197120037,"177":0.018284767894794746,"178":0.009687328885611884,"179":-0.026591290265574965,"180":0.018757218067776114,"181":0.05467543902035272,"182":-0.0675286345505219,"183":0.00974123014179525,"184":-0.024533165561063084,"185":0.016522418358636295,"186":0.056863128338042856,"187":-0.016834760266463467,"188":0.0511950951901025,"189":-0.046439673784454835,"190":-0.061924016511481786,"191":-0.02648043081764498,"192":-0.026910195773845073,"193":0.010101702576589964,"194":0.030184883878107686,"195":0.0048518893618279355,"196":0.025830818942156525,"197":0.06319715061478699,"198":0.047636222730416046,"199":0.03791160632658656,"200":0.03098096874798454,"201":0.010942430492540893,"202":0.053293295387042264,"203":0.03209344988939349,"204":0.008772506449830048,"205":-0.030331151969657667,"206":-0.011408063901912359,"207":0.010373053751365748,"208":0.05331703358857938,"209":-0.08456450262473304,"210":-0.03087333286567177,"211":-0.06867614066831547,"212":0.02820658109346845,"213":-0.008500581873034643,"214":-0.013487101745831983,"215":0.010594898224411268,"216":0.0658672256427673,"217":-0.04241523915865523,"218":-0.06937212726714448,"219":-0.00027435986704026484,"220":0.05380148662820315,"221":0.006429065129839572,"222":0.013828104540896679,"223":-0.042732175979890194,"224":-0.010068121787005495,"225":0.03532587563884967,"226":-0.06883072751840617,"227":0.059070377884242256,"228":0.06337717714040585,"229":0.0029679088310245517,"230":0.019867095286356055,"231":-0.039993419252655746,"232":0.013097529302160474,"233":0.0973341281847075,"234":-0.08770235165538762,"235":0.02074766626770009,"236":0.0003351931151132386,"237":0.025580842856216337,"238":0.03018479017895147,"239":-0.02948279953301242,"240":-0.04902378907755541,"241":-0.05180659543316133,"242":-0.03652805344294564,"243":-0.05491522901287956,"244":-0.02231836479141717,"245":0.021551653742830645,"246":0.013398823402936914,"247":-0.03911919981237092,"248":-0.05055134328046016,"249":0.04444682838596525,"250":0.010763192023473908,"251":0.01543133335189836,"252":-0.03930613798691987,"253":0.06170257942691482,"254":0.014683049709580056,"255":0.012496915280180586,"256":-0.0020294957494582048,"257":-0.0807584866619975,"258":0.10525196605985218,"259":0.016579799726970098,"260":-0.027115191240339353,"261":-0.01254960643001337,"262":-0.07426019123018177,"263":0.031043792692030645,"264":-0.03686976100686531,"265":-0.04576801096732196,"266":0.06659459090451748,"267":0.09484542517102136,"268":0.018537711826483123,"269":0.014950119139067772,"270":-0.03719490024764963,"271":0.03888939578130398,"272":0.007717211627635528,"273":0.024336035532208273,"274":0.01516565992588376,"275":0.02215157255879084,"276":0.0566237433019342,"277":0.050544697504563606,"278":-0.04090734690649035,"279":0.002633820307257879,"280":-0.026353680306793397,"281":-0.04715114943091314,"282":-0.06632409646211028,"283":0.009562621600485802,"284":-0.008489771247787284,"285":-0.05078041715335705,"286":-0.030862833909522207,"287":0.0617604027676215,"288":0.002642242688999041,"289":0.017265709478952656,"290":0.0054695768594855585,"291":0.009607850467555787,"292":0.012090514167720109,"293":0.01960047740110412,"294":-0.04139766415657789,"295":-0.028175828682436097,"296":-0.022185014100299404,"297":0.03774930365118959,"298":-0.015578550829088001,"299":-0.014306788040871462,"300":-0.02998133031717931,"301":0.008095411567196379,"302":-0.0032115421289841193,"303":0.017373480803505068,"304":0.019746192984072743,"305":0.0008040073248882112,"306":0.06215201407560181,"307":0.08959012685955295,"308":-0.03839149214881717,"309":0.0014019275512015378,"310":0.04052205200055234,"311":-0.04229669560259607,"312":0.022587761314580724,"313":-0.016056413897222725,"314":0.0950780664018919,"315":-0.010104962184318965,"316":-0.04576152527578426,"317":-0.01369913360055865,"318":0.01218597711094821,"319":-0.029851419753942104,"320":-0.00022651133599507794,"321":-0.03766759530859849,"322":0.0037398873520818323,"323":0.00205341742287804,"324":0.039853825251146426,"325":-0.028745217534309576,"326":-0.009538226019008857,"327":0.08231328272754827,"328":-0.02340611055384631,"329":-0.019414273122280144,"330":-0.010550477964985398,"331":0.016938434853830626,"332":-0.057108741998990145,"333":-0.05123750609210373,"334":-0.00825347880529934,"335":-0.05587705439857722,"336":0.06066061052508697,"337":-0.031257005962715925,"338":-0.017426730418405305,"339":-0.019171156949652584,"340":-0.04012793600946244,"341":-0.015245456156192435,"342":0.030792664582404542,"343":0.005477277536846749,"344":-0.0549134416010474,"345":0.015097596999637664,"346":-0.026814961780227676,"347":-0.01582888403853125,"348":0.01870041606042963,"349":0.09145633305843996,"350":-0.01825494469301478,"351":-0.021966796263270968,"352":0.0024810210847429647,"353":0.06495911369237356,"354":0.07764100042564628,"355":0.021948243554149042,"356":0.007236801892405861,"357":-0.06783548517201012,"358":0.07698091924574986,"359":-0.018336174296259226,"360":-0.05525613145204185,"361":-0.001389289749985981,"362":0.02788931623818659,"363":0.028969077867911232,"364":0.03433225577985462,"365":-0.04796476440517777,"366":-0.04403527467006524,"367":0.00022988597029878082,"368":0.013132574587675638,"369":-0.051575027678813286,"370":-0.022786110867663266,"371":0.06538664953055194,"372":-0.009861152835308045,"373":0.026516079889857123,"374":0.03289676158059838,"375":0.0013591879058238085,"376":-0.030380444037917672,"377":0.04726724210819626,"378":0.08717437556773378,"379":-0.03363395459212187,"380":0.01208786595086908,"381":0.013728206672345327,"382":-0.022001125174345333,"383":-0.0009421621200940227,"384":0.027864659703312172,"385":-0.0261637320914927,"386":0.0007640918503616005,"387":0.0005296504031933503,"388":-0.03223968814823073,"389":-0.0015347185341405588,"390":0.005277717622133807,"391":-0.044241276060581675,"392":0.06715523115401378,"393":0.057099132100584,"394":-0.057878086978118755,"395":-0.010195394531614936}},{"sx":1,"sy":1,"depth":396,"w":{"0":0.006449638687419367,"1":0.0025757573872198613,"2":-0.08795543148271548,"3":0.07562373019131964,"4":-0.006734309774280882,"5":-0.01339192305379773,"6":-0.018251680330594648,"7":0.025079517099899556,"8":0.06374797234932937,"9":0.05656203931938152,"10":0.005035042468177811,"11":0.015081962526795742,"12":0.02562706751817311,"13":-0.05041888736915415,"14":-0.04567675813306249,"15":0.026628816442388136,"16":0.09187470123189874,"17":-0.004312522180223342,"18":0.0668689170660066,"19":0.01980229271790894,"20":0.026106616488340614,"21":0.0017355334192200554,"22":0.028095804518129715,"23":-0.06859519689200304,"24":-0.054307996529991256,"25":-0.025688872955648805,"26":-0.03870510552817868,"27":-0.0005821109091225143,"28":0.01251066072270728,"29":-0.04915420305961679,"30":-0.07630588237592359,"31":-0.058450331012180626,"32":0.030550098853714687,"33":0.025585977513030895,"34":0.008371180020777653,"35":0.00562716966418718,"36":0.04799292919410051,"37":0.011916489631600571,"38":0.013167600891413455,"39":-0.012716331415936913,"40":-0.001020076959284976,"41":-0.00446369222744069,"42":0.002860680809201464,"43":0.04929938054908513,"44":0.0753138932204737,"45":0.07171719001455903,"46":-0.09691369565103129,"47":0.047563392248128895,"48":0.005421501857238069,"49":-0.056016266450411786,"50":-0.0069297609832611445,"51":-0.0160650179016714,"52":-0.051699829575821886,"53":-0.05814321572709009,"54":-0.015018708030955183,"55":0.019305815611615425,"56":0.05429960511208695,"57":0.07585989378757133,"58":-0.013271897726370217,"59":0.05334063738002893,"60":0.004005634319954355,"61":0.007632617895969488,"62":-0.027944724116228652,"63":-0.039154499691010335,"64":-0.05684225539851157,"65":-0.007975051254259439,"66":0.03191406434933687,"67":-0.04481128419961507,"68":0.004496725326718724,"69":0.016851663269428496,"70":-0.0003471955101141008,"71":0.015541766674410082,"72":-0.00570355753953237,"73":-0.0332084411528301,"74":-0.023838082294798023,"75":0.013804668454565606,"76":-0.01400192025867804,"77":0.0245937151258922,"78":-0.08821274662382896,"79":-0.008456605116144347,"80":-0.036659190531306,"81":0.006952367392109632,"82":-0.04242087014993706,"83":-0.036800312372500435,"84":-0.031013011890986757,"85":0.05795863407103179,"86":-0.019178768999227522,"87":-0.0037304987846115576,"88":-0.02415717727337585,"89":0.045371324986042176,"90":-0.05590260721011065,"91":-0.04253357180491165,"92":-0.030672934856278228,"93":-0.044472243068563636,"94":0.02346688277821498,"95":0.0006361950927026653,"96":-0.027307228027258112,"97":0.04089107734083737,"98":-0.01998135104079923,"99":-0.008892261305702682,"100":0.06528101219762494,"101":-0.05974179463369994,"102":0.06959266027943131,"103":0.007952665859853929,"104":0.023027578437866278,"105":-0.030972474132849443,"106":0.003745450307955951,"107":-0.034651941101748136,"108":0.023511268531738554,"109":-0.04134558310489083,"110":0.0055758071809254225,"111":-0.040823799842984516,"112":-0.05048467846121165,"113":0.02348472671076325,"114":0.05133883152458484,"115":-0.0261057053674008,"116":-0.03240189510745529,"117":-0.002942125783353661,"118":-0.05575344609439147,"119":0.007961798127824354,"120":-0.0705661584238323,"121":0.048783502640688,"122":-0.0693044155078011,"123":0.06114133291156615,"124":0.0012589313494126108,"125":0.06468054849336927,"126":0.07863686589997634,"127":-0.05691417742102362,"128":-0.06698248990535728,"129":-0.047172521726041146,"130":-0.037381170592730696,"131":0.007174106273003862,"132":0.024933793523585376,"133":-0.0003587014919797986,"134":0.09300456517143382,"135":0.01068253479768778,"136":0.07816160530750123,"137":-0.009831745730352044,"138":0.035612290097577486,"139":-0.007767564885059103,"140":-0.009980843282823402,"141":-0.03854314151016416,"142":-0.016718327594014926,"143":0.007003719822877939,"144":-0.004699119605494382,"145":0.009993844558830373,"146":-0.010180556495340175,"147":-0.02475041679940288,"148":-0.006431506755633348,"149":-0.05738618796489674,"150":-0.026292510165097656,"151":-0.07638621809271075,"152":0.0026452270155470966,"153":-0.018952587217860566,"154":0.0371938970345548,"155":0.05482935016172856,"156":0.009984046114021847,"157":-0.059985368154404764,"158":0.014735776119344936,"159":0.0004970965303170916,"160":0.009658014832868359,"161":-0.0011916889047318977,"162":-0.008949937030734182,"163":0.032745170079816255,"164":0.0090685364144106,"165":0.040024284550880695,"166":0.0009166901386641189,"167":-0.04756871906730464,"168":-0.03430800190783691,"169":-0.04516637324913262,"170":0.014519230850610156,"171":0.0771904736250422,"172":-0.05277444191455974,"173":-0.017552281992461696,"174":-0.06465457943210305,"175":0.03521011177996376,"176":-0.03520972469469627,"177":0.02372414363407652,"178":-0.019956112970501424,"179":-0.030619670110622058,"180":-0.023289724244503575,"181":0.014480435651139259,"182":-0.07610724281807522,"183":0.06457657419805862,"184":-0.025713968679116152,"185":0.01765465368194241,"186":-0.04955536402987158,"187":0.004919591031709529,"188":-0.040976508813387526,"189":-0.006257227117054324,"190":0.023019185236071632,"191":0.021917563611302954,"192":-0.0371821874939201,"193":-0.035838895366149474,"194":0.030042100854569032,"195":-0.03213350025955684,"196":0.07127236306250882,"197":-0.01080008789039301,"198":0.02598299008336121,"199":0.002259847464408214,"200":0.09298615440101393,"201":-0.013600974552365154,"202":0.036709342866168754,"203":-0.013871966352893856,"204":-0.04459782483313216,"205":0.012714772776032616,"206":0.04063415243821028,"207":-0.03488890372834817,"208":-0.04111907630109338,"209":0.037616758696571766,"210":-0.01362470371857359,"211":0.006903755560872423,"212":0.05364306964609445,"213":-0.022164009843429863,"214":0.037368546281207844,"215":-0.06842064007795907,"216":-0.003967951677054904,"217":0.011696020914843515,"218":0.07521169839902847,"219":0.006407741279641818,"220":-0.028834562835627985,"221":0.044679806238357135,"222":0.022406650521318607,"223":-0.03197595623004931,"224":-0.022164774163685026,"225":0.09307842081207492,"226":-0.006394862118321956,"227":0.041157075082953874,"228":-0.01828214013697584,"229":0.016827609373010803,"230":0.018952843464409033,"231":0.01582960711332093,"232":0.0013512498127844753,"233":-0.09166114814498397,"234":-0.04328070988493167,"235":-0.019172439251153795,"236":0.03684213288051456,"237":-0.017761001039277538,"238":-0.04821467633840609,"239":-0.04589420940641642,"240":0.04555736982284451,"241":0.008054335244650577,"242":0.11680609187124646,"243":0.009008077176598874,"244":0.004228869942871961,"245":-0.007476505760188787,"246":0.007902942989412678,"247":-0.003483780825208322,"248":-0.0006400262113089745,"249":-0.027257393195348218,"250":-0.0370630920147081,"251":0.029320793382521703,"252":-0.012445093199201545,"253":-0.040133253332924924,"254":-0.0026861321910792717,"255":-0.01290006361572866,"256":-0.06751697474007727,"257":-0.058249835464391976,"258":0.030436522157479044,"259":-0.06536496973001882,"260":0.014472630830722925,"261":-0.036006803110984836,"262":0.0063831190728365975,"263":-0.03534618223840066,"264":0.012800602488963482,"265":-0.021268694401112793,"266":0.025681378624917917,"267":-0.05386160757329012,"268":-0.048974795572268616,"269":0.07905026824592476,"270":-0.018187075175288007,"271":0.06059797306093807,"272":-0.023807862358247882,"273":-0.041878151608186774,"274":0.041359232894886196,"275":0.023026704992647907,"276":-0.04569683958609595,"277":0.024662201043601704,"278":0.014450032442916797,"279":-0.06494577822913952,"280":0.0058358258297629365,"281":-0.0064178359712000815,"282":-0.017502451452692615,"283":0.03204062350031614,"284":-0.03634832188608072,"285":-0.06131649118369556,"286":0.030064063414593837,"287":-0.013114259247344677,"288":-0.000917502531329586,"289":0.013392463799322955,"290":0.018127670536558917,"291":0.021112385670686427,"292":-0.023215397472890777,"293":0.026735237882726828,"294":-0.02639870140098357,"295":-0.03906361969336422,"296":0.05488320535972108,"297":0.04961949731512674,"298":0.009252758094690542,"299":0.0010241613309150935,"300":-0.009821879020276966,"301":0.05969858299407095,"302":0.044961868054764244,"303":0.03447502906459525,"304":-0.0836951444247214,"305":0.10012227932633756,"306":0.06823476081016214,"307":-0.0068946330307857575,"308":-0.03175843481844469,"309":-0.01428009012909021,"310":0.037953285609375886,"311":-0.005621510536788832,"312":0.01086276306638635,"313":0.03326956824811965,"314":0.0165967829108184,"315":0.010681123353440162,"316":-0.012200212624786896,"317":-0.019832688432616395,"318":-0.0018353381675361706,"319":0.042217884238301036,"320":0.002715860329424873,"321":-0.015442127763505484,"322":-0.03443407776214445,"323":0.029979612569947547,"324":0.026399256666139667,"325":-0.05563208341245359,"326":-0.02016721987563835,"327":-0.06060735241963198,"328":0.019172686182207146,"329":0.027467502740378187,"330":0.04934826282679419,"331":0.04398235757057107,"332":-0.023450639375895845,"333":0.09865766277344586,"334":-0.008561675290466239,"335":-0.016463441278153922,"336":-0.007218422130939995,"337":-0.007329115941721985,"338":-0.02450042663861032,"339":-0.05982944517055596,"340":-0.038988612263452134,"341":-0.03792308929221967,"342":-0.03085565013530378,"343":-0.02477315022358014,"344":-0.014747393470144322,"345":-0.023427486510855723,"346":-0.002206949069299332,"347":0.03802973313563014,"348":0.06905752489423492,"349":0.007736591529148354,"350":0.013565688356693324,"351":0.030385409577975662,"352":-0.08392390257893863,"353":0.07450208826753461,"354":-0.11365323137925178,"355":-0.03753362154169247,"356":0.02698338428085328,"357":0.018563129652873496,"358":0.01881344132573193,"359":-0.013531418496765325,"360":-0.05139252618888985,"361":0.05063534058369814,"362":0.04704407728320193,"363":0.041322715258073475,"364":0.04349274241690867,"365":0.03683671930269154,"366":0.001241621320404422,"367":-0.05150268262357459,"368":0.014554895595989683,"369":-0.005105354830182499,"370":-0.007401610027937798,"371":-0.005342136694415513,"372":0.06086936055647901,"373":0.007011205565413447,"374":0.008249410485512821,"375":-0.02503943313879604,"376":0.03441344239715528,"377":0.03365828311458374,"378":0.01607045733791139,"379":-0.00046401724790545284,"380":-0.000357026653791024,"381":-0.030176480963943302,"382":-0.06557950078242591,"383":0.016241040792960165,"384":-0.06687288048626011,"385":0.01301568546175679,"386":0.08256596816291033,"387":-0.04076447011656183,"388":0.04185123112694004,"389":0.009045251981100125,"390":0.01711007376376728,"391":-0.026013335081706616,"392":0.012237999409853963,"393":-0.030115696609866925,"394":0.0075240664842336465,"395":0.03830285540932851}},{"sx":1,"sy":1,"depth":396,"w":{"0":-0.010781810968700409,"1":-0.07298809035756404,"2":0.016318790536758096,"3":0.008557314550909618,"4":-0.041369429171699126,"5":0.0014543739408058995,"6":-0.02727215225169434,"7":-0.042752462334044776,"8":-0.06174308200998521,"9":-0.02603160186530445,"10":-0.06589391603349626,"11":-0.02432610663951191,"12":-0.07747069346049218,"13":-0.046141249990047546,"14":0.014904384058831132,"15":0.013289460471646022,"16":-0.017922883458161377,"17":-0.030859228731973075,"18":0.0226777492611942,"19":-0.0092410508877559,"20":-0.0003856960795668992,"21":-0.011303534003442051,"22":0.05542160873974001,"23":-0.05785944692380211,"24":0.013429443363607166,"25":0.06053900843419656,"26":-0.07877423140144701,"27":0.0208464899923287,"28":0.03127603364364269,"29":-0.049926322715336986,"30":0.019467660032162007,"31":0.0013026823694397853,"32":0.02490456667932245,"33":0.019971214699272127,"34":-0.007352028940738135,"35":0.05381059412628324,"36":0.0029742427960208727,"37":0.024967084582440225,"38":0.016172573189653972,"39":0.08256308331910309,"40":0.0439677932430794,"41":-0.11145344920379509,"42":-0.025521003406499813,"43":0.023974459855335552,"44":-0.005303938177760249,"45":-0.08764296704295096,"46":-0.04394610441557462,"47":0.1249222923635863,"48":-0.038634056955796005,"49":-0.024647467801483323,"50":-0.07948336585070684,"51":0.04120834186762067,"52":-0.014594930388280924,"53":-0.027933135834431466,"54":-0.01711677483786003,"55":0.0043137103496854465,"56":0.07652165186079064,"57":0.03384516975896118,"58":0.006322342738813031,"59":0.026523855021987564,"60":-0.022303999166379433,"61":0.05648905150234354,"62":-0.03465715159007805,"63":0.02829603565681776,"64":-0.08889053788875888,"65":-0.024659904049579604,"66":-0.008775496300033799,"67":0.00853231349358897,"68":0.01630236272348792,"69":0.00020621717638288873,"70":0.009409059382624202,"71":0.03276624709405782,"72":-0.011563615073085232,"73":-0.07848477641082356,"74":-0.06663397254141111,"75":-0.032601785152716216,"76":0.012504334573133593,"77":-0.03343101250072258,"78":0.07570484006678468,"79":0.00014021930422711642,"80":0.03705684327641877,"81":-0.012989137858722018,"82":-0.07365889531281358,"83":0.10197905549035288,"84":0.07786627496833752,"85":0.018916446733392007,"86":0.01270862917819637,"87":-0.01260534981138213,"88":0.06274401629630671,"89":-0.05794161670517619,"90":0.01990422112904715,"91":-0.01244478043269201,"92":0.017557933401982712,"93":0.06496582931868755,"94":-0.017070023896242008,"95":0.013090588569562479,"96":-0.015613570795295012,"97":-0.009057406963553751,"98":-0.011807008800011284,"99":-0.03815974190427858,"100":-0.0017988121327017286,"101":-0.046863326806858244,"102":0.008371648526498033,"103":0.023377048782459615,"104":0.04066582337178705,"105":-0.014981005442110413,"106":-0.02967617039181027,"107":0.004935074260398401,"108":-0.03353633813789877,"109":0.001505732232712342,"110":0.027420439390553233,"111":-0.020942976017728262,"112":-0.02246977796226278,"113":0.03336547299289101,"114":0.03332248760965303,"115":0.0684330573024914,"116":-0.023021071043458786,"117":0.029968213994344014,"118":0.0008618578046771004,"119":-0.010642231568868144,"120":0.017112670854219022,"121":-0.01097789818428856,"122":-0.037239831664084434,"123":0.05971141474000052,"124":0.012566845111356513,"125":0.022062862161743642,"126":0.027724816860931308,"127":0.07590135330110935,"128":0.014588105523837623,"129":0.042376773532665536,"130":0.04886222290981122,"131":-0.08583608013007489,"132":-0.003940627970253516,"133":-0.019289221698067037,"134":-0.040098659990967817,"135":-0.023058680033316684,"136":-0.0045871053440233595,"137":0.005965680964890079,"138":0.039673742266690404,"139":0.01767564273960676,"140":-0.008073684690584037,"141":0.02314472178512882,"142":0.052737015302063664,"143":0.05809667887569037,"144":-0.009072508094349438,"145":0.006098908464577707,"146":-0.02130559968814757,"147":0.08273218328475426,"148":0.003824815733793647,"149":0.04230352562304255,"150":-0.029290352085166123,"151":0.05804861292856962,"152":0.059142717028324035,"153":0.018758544360277723,"154":0.002335306006168749,"155":0.025666365488594366,"156":0.035031702184992033,"157":-0.025625511174867742,"158":0.002353539027827437,"159":0.03256623787660745,"160":-0.01459194558582913,"161":0.12797341211729057,"162":0.01479717224004852,"163":0.03943798693881108,"164":0.0005009495418159946,"165":0.09008522645871708,"166":-0.02365607861451402,"167":0.04214156950323113,"168":-0.09208468605032773,"169":-0.022965480006620496,"170":0.021017846665004718,"171":-0.029644202376696085,"172":-0.019681484840772995,"173":-0.04045506802028177,"174":-0.0077837319899685,"175":-0.050264604024209694,"176":0.01166163519167697,"177":0.07199043673156644,"178":0.0008581776796500067,"179":-0.05030009268522399,"180":-0.13548843812381534,"181":0.06455763951347611,"182":-0.006755694596011004,"183":-0.006643638124137758,"184":0.02715023023023646,"185":0.005265139839270929,"186":0.05654889042820415,"187":-0.0912618717179316,"188":-0.05343273307374258,"189":-0.028277314948663035,"190":-0.02019505083093964,"191":0.04599776153643697,"192":-0.0059566442112854966,"193":-0.0220640456737504,"194":0.08423800963753235,"195":-0.007305385431187015,"196":-0.0450931832035805,"197":-0.04987444517611377,"198":-0.0627816086237599,"199":-0.08585527559078754,"200":0.017484972052253717,"201":0.06656270497661176,"202":-0.007912173995213287,"203":-0.04462804519957253,"204":-0.004499902533387096,"205":0.014305390454404963,"206":0.03921697931388028,"207":0.1304493763151585,"208":0.05051532602576506,"209":-0.0037903937232262623,"210":0.015570933685462697,"211":0.00482121585979359,"212":-0.04519328240947637,"213":0.06604165623152115,"214":0.04698020418260276,"215":-0.04704616664046405,"216":0.008082193674102777,"217":-0.004927397062021233,"218":-0.014724186545091559,"219":0.006173764322875672,"220":-0.04403155364293316,"221":0.043904777861578106,"222":-0.008500269080525799,"223":0.015010683815876103,"224":-0.0304023968390491,"225":0.012721202824602403,"226":-0.041452524510800906,"227":-0.05518135959050982,"228":-0.042832656777507666,"229":0.048314463297390496,"230":0.009844307343491931,"231":-0.016203993779815122,"232":0.007159312070117566,"233":0.029985664761410253,"234":0.057084837477832884,"235":-0.02743266510758954,"236":-0.014539581757447923,"237":0.05741737598224788,"238":0.027623713831099555,"239":-0.05946780151852256,"240":0.03324542259750483,"241":-0.06359349555081845,"242":-0.03786084281255617,"243":0.0030625399588247644,"244":0.04160100753913503,"245":0.022294543975691923,"246":0.031107778922238073,"247":0.07459426286680196,"248":-0.0011556694965159891,"249":0.026244399073791985,"250":-0.09851118752187796,"251":0.03524946832104294,"252":0.026086732401762184,"253":-0.04804789550706653,"254":0.10289580358929344,"255":-0.010563078507609718,"256":-0.048752074630086295,"257":-0.09440816030434344,"258":0.018905827172318906,"259":0.028989611737305538,"260":0.09227946471085477,"261":0.014097039989243672,"262":-0.01744339832009325,"263":-0.06797649544301834,"264":-0.030739539761506222,"265":0.022017316289827994,"266":-0.02189606433445525,"267":0.028232698159362028,"268":-0.02058446049065826,"269":0.00803634689234901,"270":-0.0542570771778787,"271":-0.051926606907306355,"272":0.05699244568405246,"273":-0.0604755538559373,"274":-0.0029548531218125873,"275":-0.0530794836800805,"276":-0.014761341320791868,"277":0.03248051922646027,"278":0.06979996088978352,"279":-0.03524036703646859,"280":0.029765264040376913,"281":0.050388890275325136,"282":0.05022511809513415,"283":0.09588069355793051,"284":-0.041657464108806594,"285":0.0036626466110774377,"286":0.1366591103259335,"287":-0.05778740958739115,"288":0.00680529859213069,"289":0.05559411337632216,"290":-0.02894529390611364,"291":0.0744887856923093,"292":-0.037647262738931195,"293":-0.0010755186113195461,"294":0.035661095097134526,"295":-0.04141270920357868,"296":-0.024849189529532828,"297":0.07352216771857467,"298":-0.005346848775741663,"299":-0.049986650919036056,"300":0.048891422908390325,"301":0.015506913620797078,"302":-0.04747364553311137,"303":0.051683718051691696,"304":0.03223728804929663,"305":-0.03526077430639274,"306":-0.026880277803762304,"307":-0.05413838148710936,"308":0.019125722714251628,"309":0.025423754838722536,"310":0.010471406473472526,"311":0.003043384104831539,"312":0.01538460009541624,"313":0.025941913890786296,"314":-0.050638105852240135,"315":-0.05852240301380634,"316":-0.024090674498067382,"317":-0.039844823093378626,"318":0.04296876185809631,"319":-0.007602722110196306,"320":0.04148456865663597,"321":-0.06887799133350275,"322":0.005642492762417853,"323":0.04415751741280177,"324":-0.08303966381840823,"325":-0.026642789611461118,"326":-0.014646578310696913,"327":0.02223830668341594,"328":-0.05408248209797492,"329":-0.00987583363766143,"330":0.008734262797087668,"331":0.02223234181707397,"332":-0.005221155569383715,"333":0.03659927848022228,"334":-0.006564992277888063,"335":-0.039794274494884076,"336":0.055916115881002,"337":-0.09750470169271168,"338":-0.0026921539648081874,"339":-0.022581480446384073,"340":0.0012318696548757578,"341":-0.02205824971686699,"342":0.0019070618385786397,"343":0.04635536198905787,"344":-0.013039415079067867,"345":-0.05690785569465348,"346":0.0162543164448088,"347":-0.037547104732566026,"348":0.08534446109286395,"349":0.011296382384834673,"350":-0.05597709172426309,"351":0.050405931432048585,"352":-0.010657572761436156,"353":0.042498662848869107,"354":-0.039381106224112214,"355":-0.021334999756090118,"356":-0.005110304338619759,"357":-0.11927455281358751,"358":0.03606660134983279,"359":-0.013184306478879096,"360":-0.04241335928983942,"361":0.029262513992313204,"362":0.04213386708472006,"363":0.028789493709215477,"364":0.03686436035966418,"365":0.005922786933909613,"366":-0.03671850321076536,"367":0.0053500278099949975,"368":-0.04734533712227894,"369":0.03593306739422215,"370":-0.00536428429547863,"371":0.029891507866300102,"372":-0.035052085621661434,"373":-0.021224053063652073,"374":0.00201360045202248,"375":0.013962901034725628,"376":0.07118016121992742,"377":-0.015870112134823543,"378":0.02339869405239421,"379":0.013834169172914705,"380":-0.056662505835133596,"381":-0.026118639329766893,"382":-0.0962192780155563,"383":0.060816360683894045,"384":0.03878566427979913,"385":0.03201098204355851,"386":-0.02314806179643226,"387":-0.028351909733258466,"388":-0.007754181187777144,"389":-0.005915781010301563,"390":-0.03304971279135666,"391":-0.02881914050300198,"392":-0.0026091651012896204,"393":0.017351414557203276,"394":0.023975577362447983,"395":0.05330091435564472}},{"sx":1,"sy":1,"depth":396,"w":{"0":-0.05023458343814825,"1":-0.07665455092000463,"2":0.064645697167255,"3":0.006540311400222256,"4":-0.04601243933040774,"5":0.016407208975100167,"6":-0.0028738131861855937,"7":0.031604248609295636,"8":-0.009510252445143832,"9":-0.012376560062317273,"10":0.057191219657337165,"11":0.03282563932204961,"12":0.04569861202364011,"13":0.01895494855252759,"14":0.04452207345709766,"15":-0.0054227829394516295,"16":-0.0011651467992500125,"17":-0.03969911286123203,"18":0.027477645897948825,"19":0.04748379517056721,"20":-0.00948850405558198,"21":0.0041251422944001736,"22":-0.05157205773792969,"23":-0.027387740362190695,"24":0.0030882922048704868,"25":0.06798462469272051,"26":-0.12805157143346252,"27":0.01708464339139736,"28":0.007684470717382719,"29":0.0037934259565430267,"30":0.0007153905428600551,"31":-0.00827711572679534,"32":-0.009871251995260955,"33":0.02007570225349808,"34":-0.03297429624797409,"35":0.07699805879110519,"36":-0.044518764759043435,"37":-0.07043475259623998,"38":0.010602754325698658,"39":-0.029433696957441628,"40":0.02444969061923298,"41":0.008491664051767297,"42":-0.0008188095879248562,"43":-0.012408142534478884,"44":0.030456590641585277,"45":0.03027468357121107,"46":-0.016815230558084104,"47":0.04199037363491204,"48":-0.04477983965489597,"49":0.04008168987464146,"50":-0.015077015823897444,"51":-0.018627428462964914,"52":0.05209447007713695,"53":-0.0129331066757587,"54":-0.02549419079277327,"55":0.01099157978378567,"56":-0.0022382734174801362,"57":0.022271825748710256,"58":-0.056531766987008424,"59":0.019653674699646195,"60":-0.03631150642342305,"61":0.04525704554222627,"62":-0.010331077936935464,"63":0.0036956394009720526,"64":0.042792161749126374,"65":0.035156689430991116,"66":-0.09066496907951255,"67":-0.06912542292341367,"68":-0.04043112327269292,"69":0.031900653098000914,"70":-0.00739205742309766,"71":0.013020816055577063,"72":-0.037423505353938756,"73":-0.08614607378194437,"74":0.03516184705220234,"75":0.0026674946711827156,"76":-0.026897813845249748,"77":-0.013177094289010875,"78":-0.01895504360656627,"79":-0.004641580292631404,"80":-0.08223606670591516,"81":-0.029546938832666323,"82":-0.02051695523298006,"83":-0.006243922328613189,"84":0.043418754398389374,"85":-0.011230315140903684,"86":0.0028064866174254597,"87":-0.026130284536336562,"88":0.008084943079634149,"89":0.02394013172594305,"90":-0.03485246192315946,"91":0.007960820347832387,"92":-0.01707997161620338,"93":-0.026014718276149883,"94":0.008929504774895871,"95":-0.017962322553243475,"96":0.05038695468276905,"97":0.011630204826790941,"98":0.00407798169634395,"99":-0.03353037572759894,"100":0.02510959579401858,"101":-0.007688800271817044,"102":-0.04875754121560758,"103":-0.014746239745308995,"104":0.02613653004433278,"105":0.027621237126640878,"106":-0.014565873874452375,"107":0.08698944098351244,"108":-0.024413140499224856,"109":-0.04250397495249857,"110":0.06229126688082659,"111":-0.016757995513034283,"112":-0.03602299931766711,"113":0.03985218805145178,"114":0.013265541107235917,"115":-0.035493027096045536,"116":-0.06275936876673867,"117":-0.0033175259370064407,"118":-0.03892295784922706,"119":-0.006698602110663911,"120":-0.015311213731382353,"121":0.04269599592690651,"122":-0.020623092598852096,"123":-0.05954371278476234,"124":-0.03796725510555179,"125":0.005204046229440329,"126":0.03797353498570348,"127":-0.03415157050308228,"128":0.017179584010117745,"129":0.002371192495649116,"130":0.030002325184776597,"131":0.013452870390266033,"132":-0.03130632644984613,"133":0.07768443721955391,"134":-0.019164837006625805,"135":-0.0517626260499994,"136":-0.005638882008403547,"137":-0.08655514575012623,"138":0.01156525681731385,"139":-0.07161976323973794,"140":0.023549430518670495,"141":0.01921025720036499,"142":-0.016048880907209004,"143":-0.04140612161595413,"144":-0.049543919353076865,"145":-0.0018505702092666773,"146":0.02824590862543134,"147":0.025894111127704678,"148":-0.07111172219488568,"149":-0.0006176911752927259,"150":0.036825550132539527,"151":-0.003307825329028742,"152":-0.00814200452438056,"153":0.012266747498051761,"154":-0.027753222812059584,"155":-0.02764513646284187,"156":-0.08110841875798791,"157":0.00003903658940426538,"158":0.013384666154595841,"159":-0.03540187021063851,"160":-0.014807850787689735,"161":-0.06435578213063681,"162":0.006587592208482011,"163":-0.04963982745819978,"164":-0.008801313781027317,"165":-0.062401374280103006,"166":-0.04833037456053829,"167":-0.010870393093472082,"168":0.10245134986568946,"169":-0.0778718012398661,"170":0.02124426550680247,"171":0.037703314362460834,"172":-0.024442245518292452,"173":0.03848346810269851,"174":0.0006916870186185325,"175":-0.01452621715764015,"176":-0.0024302203556366237,"177":0.03640564722838727,"178":0.03603388688199728,"179":-0.004752308829272174,"180":0.019570056774544334,"181":-0.06391105308677066,"182":-0.0017007553509575462,"183":-0.04237494226994064,"184":-0.04770975754828264,"185":-0.000542757921479995,"186":-0.012450418497389181,"187":0.025304706740126654,"188":0.004170013581513387,"189":0.02998704250796292,"190":-0.09080416680013566,"191":0.00008627303667691402,"192":-0.004153535683954339,"193":-0.011979875036529142,"194":-0.013819486198871585,"195":-0.07173294838474013,"196":-0.07916575482700254,"197":0.05048317543979138,"198":0.04969506856634232,"199":0.016899421440430825,"200":0.04651461988461305,"201":-0.02654660561696623,"202":-0.004454221532968352,"203":-0.018999198634467956,"204":0.03796681809886795,"205":-0.04799959965862928,"206":0.027089840841028164,"207":-0.0046832255824960116,"208":0.01772851684828315,"209":-0.013421755965688734,"210":-0.019841538162514327,"211":0.041045994543038845,"212":-0.0764066083727769,"213":-0.0027233253646987334,"214":0.04350318547719973,"215":-0.0502262654744577,"216":0.00032368979274638833,"217":0.01963777503405067,"218":-0.050797135081364596,"219":-0.02546798491567557,"220":0.03691330584412666,"221":-0.06850000576564062,"222":0.05802888982547367,"223":0.055530255215001836,"224":-0.044950077628810314,"225":-0.08642994480187706,"226":-0.04508910900364133,"227":0.01662922106235886,"228":-0.009382248300600074,"229":-0.05577012707811221,"230":-0.0018844299507473827,"231":-0.017612837674769937,"232":-0.009082936200086173,"233":-0.03577870188485807,"234":-0.044563135154709964,"235":-0.027964781932088633,"236":0.07681279939895311,"237":-0.01074685418939804,"238":0.012963257727263342,"239":0.020934380374939554,"240":0.01540069423472964,"241":0.015480558728089224,"242":0.07494288378947733,"243":-0.08734549881826806,"244":-0.022254070065243183,"245":0.015150634332663305,"246":0.04063077232678816,"247":-0.005562218573034362,"248":0.03342499053761085,"249":0.05508278734301527,"250":-0.033110583566671396,"251":-0.012028683094718202,"252":0.02217100439992532,"253":-0.026747855412227614,"254":0.06910040002541706,"255":0.10620859926361224,"256":-0.011272337919249408,"257":0.03704608920837247,"258":-0.024320508845441024,"259":-0.019060398829887543,"260":0.032003110036060066,"261":-0.02290946812956453,"262":0.004271269725915714,"263":0.005547929214368855,"264":-0.010671975678081723,"265":-0.10135316880796257,"266":-0.02495904226278499,"267":0.10877446485480277,"268":-0.029363457117033996,"269":-0.021615754100252304,"270":0.003693101411838454,"271":-0.021325215704857795,"272":0.005902893495072147,"273":0.0454687304985545,"274":0.0273725429541618,"275":-0.01726381122951559,"276":-0.04286107590427593,"277":-0.021398154550719205,"278":-0.003841045739464858,"279":-0.01072433117188425,"280":-0.1264562724714746,"281":0.09473597483149436,"282":0.02560991185348927,"283":-0.02349588752650747,"284":-0.06095749684530907,"285":-0.009471692686487239,"286":-0.007039483932566842,"287":-0.048015464770411784,"288":-0.018096605434609565,"289":0.03707171194428479,"290":-0.011928502207815455,"291":0.041068433025266936,"292":-0.0033152899601938944,"293":0.048536052535607124,"294":-0.06162824900372419,"295":-0.006209318387741539,"296":-0.023342957259092672,"297":-0.03883068963017815,"298":0.002927757668711388,"299":0.02937107169443359,"300":0.07174260999609092,"301":-0.05105195836000142,"302":0.059686779140543364,"303":0.04206992685813451,"304":-0.00952558486803416,"305":-0.021671698834225466,"306":-0.044542003094787994,"307":-0.03152126359991824,"308":0.011270257312651997,"309":0.05991748184707385,"310":0.025143179616007674,"311":0.041555422767266356,"312":0.041249690453917784,"313":0.035043692073176855,"314":-0.03466634497392347,"315":0.0256701493864498,"316":0.007193155184983579,"317":-0.0076412694699839615,"318":-0.008644796587746474,"319":-0.06309139482158035,"320":0.015352371912446282,"321":-0.06970996475358877,"322":-0.006885388810285929,"323":0.018126572858544552,"324":-0.013816533526105974,"325":-0.10615830521335248,"326":0.049834470541103466,"327":0.02239870519676824,"328":0.018311733091808512,"329":-0.03666803211688397,"330":-0.026824693172563394,"331":-0.07057490279441123,"332":0.07480567658082889,"333":0.04660856288922783,"334":0.007495439837994899,"335":-0.001753192858985195,"336":0.027915565593666168,"337":-0.019393210507553726,"338":-0.030529140733507903,"339":-0.060133564865894135,"340":0.04760781537920182,"341":-0.01755717705628212,"342":0.006614486393054985,"343":-0.03912087104285764,"344":-0.03673843732012396,"345":-0.05962265478778386,"346":0.046920939170429415,"347":-0.0064371071911975076,"348":0.06713530218844906,"349":0.05124943995887056,"350":-0.0611600689854663,"351":-0.024518931752437422,"352":-0.030946858297221033,"353":0.03204179441640723,"354":-0.0026378186386527293,"355":-0.04991195563573736,"356":-0.04069328415248185,"357":0.006265749320210306,"358":-0.012079417121088986,"359":0.005764691264960685,"360":0.009292734649734223,"361":0.013646869012330521,"362":-0.027888140304780453,"363":-0.025807670596200292,"364":0.020190712930993473,"365":-0.0853581660321631,"366":-0.011822425116643774,"367":0.05488565041826576,"368":0.024634078107494548,"369":0.04137561752571981,"370":-0.03977015381461196,"371":0.06636207509799634,"372":-0.09546670110993656,"373":-0.06424868562454768,"374":0.011016708489732546,"375":0.04888130502972717,"376":-0.039607712691014076,"377":0.04853316406052876,"378":-0.009017389231106284,"379":-0.0501617340104845,"380":-0.0711414945316816,"381":0.05453493284317627,"382":0.07657695693709186,"383":-0.021069189823831762,"384":0.03210560904771569,"385":0.037547771450896245,"386":0.0016146323513304107,"387":-0.03124001828071139,"388":0.006365354919419701,"389":0.023784914621621453,"390":0.007050813733826293,"391":0.005095818538415793,"392":0.0004856808484661121,"393":-0.02471300150500555,"394":-0.04018546052340219,"395":-0.014712030404897361}},{"sx":1,"sy":1,"depth":396,"w":{"0":0.029289253340904094,"1":-0.07189792001395455,"2":0.03945275317232693,"3":-0.08179451505598402,"4":-0.0013457648383054133,"5":0.011192833314999618,"6":0.002939490983329978,"7":0.03938782660119774,"8":-0.0019790019729954253,"9":-0.008332923135917885,"10":-0.042968825302883755,"11":-0.016270004182977676,"12":-0.10610092942049211,"13":-0.05228804650715513,"14":-0.04177447324170333,"15":0.015967239947616892,"16":-0.029693638746540373,"17":-0.0606636978138387,"18":-0.00837671633155121,"19":0.01256713152494206,"20":0.03113910927303575,"21":0.009238098763309503,"22":-0.002635602292144801,"23":0.06717839060592204,"24":0.015807299653830823,"25":0.01816984449592429,"26":-0.01044864432219122,"27":0.057473076377976946,"28":-0.004974758601050628,"29":0.03082813440383408,"30":0.016914499662463185,"31":0.005682727880289523,"32":-0.03584815728851162,"33":-0.015952084340505806,"34":-0.005878491149968374,"35":-0.06656529708618962,"36":0.09798066236818331,"37":-0.030571728885381254,"38":0.024383163245939345,"39":-0.04618118637102974,"40":0.016821184308373545,"41":-0.010102278470877146,"42":-0.0007734981404806264,"43":-0.006369967861805422,"44":-0.035190130876663894,"45":0.0030344387633020036,"46":-0.04227889048797822,"47":-0.04627341814368591,"48":0.025701608815271563,"49":-0.0056164690887052044,"50":-0.001486916223011693,"51":-0.035984317027677105,"52":-0.047861141011202785,"53":0.018324833237091612,"54":0.03195893070862115,"55":0.014100018217392988,"56":0.03489393115902222,"57":-0.011823201324049687,"58":0.03887666296241595,"59":-0.008107472850394608,"60":-0.012636842928261668,"61":0.04052696358912616,"62":0.04310309600440527,"63":-0.022004076468646508,"64":0.06635403706315146,"65":0.05198962080999184,"66":-0.02580282522201321,"67":-0.05081614270263392,"68":0.0158531563073822,"69":0.03065463864780026,"70":-0.022157982395218517,"71":0.014273513829051504,"72":-0.014473984950821757,"73":-0.05522820819176717,"74":-0.012548067853169588,"75":-0.014479171259409306,"76":0.026846092830955116,"77":-0.03012046295589465,"78":0.02848953676935112,"79":-0.037645125977843606,"80":-0.027916716563173714,"81":-0.03098118226784004,"82":0.00020157881139056062,"83":-0.06961566303275489,"84":-0.07704809871220102,"85":0.028639702837963972,"86":-0.07128410948096356,"87":-0.009197741047935035,"88":-0.02137721755301704,"89":0.048622441389876876,"90":-0.02258422938219059,"91":-0.011554998099634603,"92":0.033074693538380336,"93":0.016935654667337666,"94":-0.03112027225908135,"95":-0.00326118847809188,"96":0.09810418187502701,"97":-0.08128293080208954,"98":-0.051063940072427566,"99":0.01535172440838706,"100":0.00997682133440111,"101":0.032844002331665144,"102":0.0027988146942742567,"103":0.05350455641951503,"104":0.05955804930988688,"105":0.01706399932608625,"106":0.046733929176199916,"107":-0.00726954498322583,"108":0.008888792216665022,"109":0.009361776380495018,"110":-0.04964954875228024,"111":0.011112904673435852,"112":-0.05555966934878929,"113":0.021776516895287843,"114":-0.022073271256831558,"115":0.07225091844980748,"116":0.07796330083351308,"117":-0.09116347984766215,"118":-0.054604729379850794,"119":-0.010816586220122628,"120":-0.006820072025081799,"121":0.0034166206848278676,"122":-0.03811824136050554,"123":-0.012284244005327002,"124":-0.06673303662507929,"125":-0.027457229168413363,"126":-0.015421152014310354,"127":-0.03655253457900295,"128":0.01924786866404028,"129":-0.001107245204076868,"130":0.048510244519982246,"131":-0.04009227267237027,"132":-0.03679667347985184,"133":0.04727632441058422,"134":-0.033633537855247204,"135":0.03708635722404799,"136":0.01295456673286368,"137":-0.08017390657713282,"138":-0.0008054649461925814,"139":-0.05135704541563375,"140":0.06780709137634904,"141":-0.0010120529678727791,"142":-0.014200533965835621,"143":0.03397741815593818,"144":0.0535996999239486,"145":0.0033660286968064594,"146":-0.007137875974123799,"147":-0.02788408902079371,"148":0.015424427845559493,"149":0.025557048824725398,"150":0.035655033652850186,"151":-0.046141044930360836,"152":-0.05731389269145535,"153":-0.052305558500908365,"154":0.02629106838717846,"155":-0.06391565514014695,"156":0.036487978194964,"157":-0.008069948082375556,"158":-0.021565559564399667,"159":-0.063979554772103,"160":-0.007456931098123036,"161":0.003397512905689389,"162":0.0036764538403574205,"163":0.0719053006773687,"164":-0.06560977953790559,"165":-0.05245212907411024,"166":-0.04533761615991991,"167":-0.009985210953698935,"168":0.015858643337987113,"169":-0.0354826834615171,"170":-0.08934075864832818,"171":-0.021342851833176118,"172":-0.051899810563143904,"173":0.026727549124102974,"174":0.04237650706965874,"175":0.03172457614016745,"176":0.05656464263769078,"177":0.008841333904185232,"178":0.007913783618003115,"179":-0.05274066702687231,"180":0.02094728416685134,"181":-0.042315542283265575,"182":-0.021442030742680813,"183":-0.030438936414911247,"184":0.00988759656119832,"185":-0.017269227545184087,"186":-0.04096241928261823,"187":0.024549954667890804,"188":-0.021804433303089732,"189":0.02792044077553928,"190":0.05337063612378611,"191":-0.029177457308895764,"192":0.008678507358871176,"193":-0.01458440118480479,"194":-0.09781870090605253,"195":0.0037446114231375377,"196":-0.020056487295306853,"197":-0.008536893557989847,"198":-0.025529775394173716,"199":-0.019209014754495785,"200":-0.047028799213716936,"201":-0.03400550850560859,"202":0.029386714145807832,"203":0.014097308720792092,"204":-0.061993554680282184,"205":0.0629739029678255,"206":0.00932949154134329,"207":0.009000221712036705,"208":0.050219125261513425,"209":0.010787531184547288,"210":0.06274777963112066,"211":-0.0817942245699288,"212":0.0627620355593141,"213":-0.06447416838666759,"214":0.02110830315952648,"215":0.02441151585972974,"216":-0.04304517238954975,"217":0.01736516591484482,"218":-0.014518305181536425,"219":-0.033134035294682146,"220":-0.02787676723873158,"221":0.014796294098508283,"222":0.023342967931741,"223":0.013433050008364077,"224":0.049200909534782344,"225":0.0522611105102937,"226":-0.011413298657580201,"227":-0.0046247200056337735,"228":0.08855689659880053,"229":0.00878802044059133,"230":0.0030493708436212202,"231":0.014263925674032278,"232":0.020233751942680393,"233":-0.02779423147606407,"234":-0.035668813177805216,"235":0.023051660112887295,"236":0.009653752663861986,"237":-0.040265853605836,"238":0.03438180240436409,"239":-0.05547596191459649,"240":0.00045503104415031237,"241":-0.003720971232967112,"242":0.03281287785254358,"243":0.025474268144338053,"244":0.0010818043229384314,"245":0.08555743527780664,"246":0.0429513605440395,"247":0.016644680090159937,"248":-0.007460240743268388,"249":-0.07672193942898663,"250":0.030372221903250587,"251":-0.028691302133024683,"252":0.03156812764805164,"253":0.010761377090636343,"254":0.025526836057452918,"255":0.010507999474765004,"256":0.03458221905282931,"257":0.009506677879436083,"258":-0.002091371079081882,"259":-0.11030249253635674,"260":-0.033680212044686735,"261":0.03730230844903042,"262":0.017662145336219157,"263":0.03547029904775627,"264":-0.0627821945988596,"265":0.05194815235109518,"266":-0.0075360198150802235,"267":-0.027875577845711475,"268":0.010657911653977965,"269":0.08246899502935265,"270":0.01254067631741002,"271":0.08517983227501379,"272":-0.05034657267066659,"273":-0.06104099236515517,"274":0.06401698125062501,"275":0.011920554702022098,"276":-0.016951829437542715,"277":0.052665144858017675,"278":-0.04646933427314372,"279":0.016366920398296885,"280":0.034621614800050375,"281":-0.03160924441151737,"282":-0.007709765755238008,"283":0.020230317635316693,"284":-0.044802559438197435,"285":0.006343391268485554,"286":-0.06131578146776421,"287":-0.03379400696421589,"288":-0.0009300600548145068,"289":0.03968585316425185,"290":0.02213017102645249,"291":0.034637803399926156,"292":-0.06533881796773824,"293":0.04434472979652598,"294":0.03198338394777547,"295":0.022404015730776543,"296":0.0999641426160677,"297":0.000056023637943948964,"298":-0.07862954151074215,"299":-0.028292468872125477,"300":0.034690677283603956,"301":-0.025224022807782548,"302":0.021959387644076563,"303":0.017337120432398757,"304":0.044661986323745816,"305":0.06681628122679821,"306":-0.014798876036550968,"307":0.015770294784327413,"308":-0.020136051222841067,"309":0.11149537229080435,"310":-0.015263743134069198,"311":-0.06376664246176163,"312":-0.013246302746894015,"313":-0.039120930778538975,"314":0.04133349443760251,"315":0.02903119363931602,"316":0.08987677652313912,"317":-0.10651741012271075,"318":0.022413736575694496,"319":-0.02241147125276578,"320":-0.0050130945294613455,"321":0.15652261965388842,"322":-0.017023343814372323,"323":-0.07020742217652967,"324":0.029852900132790097,"325":-0.055359972941957464,"326":0.04884328680663959,"327":0.06775468054368781,"328":-0.02933038096897982,"329":-0.008497499979927839,"330":0.012432294761958628,"331":-0.06109947804393421,"332":0.0317346603222001,"333":0.05558393150946626,"334":-0.03827230566120553,"335":0.015873393312118022,"336":-0.008698369828221727,"337":0.07181944974339353,"338":0.04783854289999217,"339":-0.04624646447207462,"340":0.016364839701028693,"341":0.023750185758169243,"342":-0.050561821530272784,"343":0.005615015319503594,"344":-0.019715460529003682,"345":-0.01954897579064015,"346":-0.022061906634473098,"347":0.015770655218673633,"348":0.016044721125510156,"349":0.01234569687306827,"350":0.008250990305554052,"351":-0.032900917926635145,"352":0.07080290660844452,"353":0.024116136692093365,"354":0.049654802918198716,"355":0.04187874422407515,"356":0.006260253963151107,"357":-0.08160427544647529,"358":-0.014139576864436768,"359":-0.0384333090166692,"360":0.07186508925137051,"361":0.02904496486138381,"362":-0.028217407472096636,"363":-0.03976148907345171,"364":0.00345106448406008,"365":0.02567458963945082,"366":0.055192352431172105,"367":-0.019434484218036997,"368":0.09282030529018417,"369":0.023928318361074244,"370":-0.008705252714845457,"371":-0.061300430962012195,"372":0.030926714492855282,"373":-0.018497825216337145,"374":0.004940986686134797,"375":0.0076363096871025745,"376":-0.0198247150678993,"377":0.000143925611467659,"378":-0.0019518961683599085,"379":-0.011298311550440775,"380":0.003130605947153035,"381":-0.04544803450766173,"382":-0.018450098666086365,"383":-0.08923079883717966,"384":0.014192824570901694,"385":-0.029096430696737625,"386":-0.0040031049634288276,"387":-0.05370390562144567,"388":0.047851877410688304,"389":-0.015510495336845592,"390":-0.020282304328132127,"391":0.013661875054973632,"392":0.008796892155020336,"393":0.041123916850408955,"394":0.01966746709867119,"395":0.038868194694592996}},{"sx":1,"sy":1,"depth":396,"w":{"0":-0.052989998768224224,"1":-0.0006306807122353008,"2":0.009632068504016881,"3":0.03441589475891041,"4":0.019059577825105416,"5":0.06433730416218836,"6":0.025184568971724126,"7":-0.024840200794934444,"8":-0.049252822914418584,"9":0.006200611888068732,"10":-0.0368253211510054,"11":0.024508056155754625,"12":0.0007385569475141651,"13":0.025391605030463917,"14":-0.05077726039718414,"15":0.012102616007452022,"16":0.04256466815654021,"17":-0.034981471158627736,"18":0.010374095822740525,"19":0.051995012374944784,"20":0.03389703502874923,"21":-0.019240423535719718,"22":0.05313901281001089,"23":0.03149783980510106,"24":-0.003831451595135938,"25":0.004440763132415178,"26":-0.011249764580382349,"27":0.02518613082367138,"28":0.04848979641568693,"29":-0.004014722346867126,"30":0.022150403425371935,"31":-0.0711907469581699,"32":0.00883201545149353,"33":-0.09709455407071294,"34":0.09015319445509112,"35":0.007217468518931622,"36":0.02975120260087564,"37":0.06930689226257072,"38":0.040200208843066236,"39":0.021887473581495967,"40":0.015951692681240904,"41":0.03902652318485629,"42":-0.06434264623559324,"43":0.03882469125366969,"44":-0.015050786863952897,"45":0.013444469990433222,"46":-0.0224103990521572,"47":-0.008583014555731083,"48":0.03179991452690201,"49":0.016462873133334423,"50":-0.01875028882989961,"51":-0.04974674707334429,"52":0.019744705139066097,"53":0.1188713741325955,"54":0.02938646059452272,"55":-0.007100257610419193,"56":0.024302023497409297,"57":-0.013565213388579874,"58":0.06452635827011952,"59":0.049431063064042026,"60":0.057360273220552926,"61":-0.0031924589812465966,"62":0.030934430751406054,"63":-0.004810310266600966,"64":-0.0577399990711635,"65":-0.0030642635410290018,"66":0.0019079421428392454,"67":0.01054142419478616,"68":0.006346041727682514,"69":-0.0034293254987312503,"70":0.016822127756700632,"71":0.0005105001640846517,"72":-0.02110721099589384,"73":0.05012638766286674,"74":-0.04285844557481878,"75":-0.07214207343317366,"76":0.02626894946045115,"77":-0.0445189095844114,"78":0.11034431893520699,"79":-0.009071314232041954,"80":0.018862079360774213,"81":0.023737347496907174,"82":0.021775040163942994,"83":0.0043772513243496396,"84":0.009045241821730748,"85":0.003653387730403825,"86":0.02558827411124352,"87":-0.038036716977967025,"88":0.025984728373951296,"89":0.06783579052762637,"90":0.040922255386863456,