//<![CDATA[

// a few things don't have var in front of them - they update already existing variables the game needs
lanesSide = 6;
patchesAhead = 4*3;
patchesBehind = 4*2;
trainIterations = 10000;

// the number of other autonomous vehicles controlled by your network
otherAgents = 9; // max of 10

var num_inputs = (lanesSide * 2 + 1) * (patchesAhead + patchesBehind);
var num_actions = 5;
var temporal_window = 0;
var network_size = num_inputs * temporal_window + num_actions * temporal_window + num_inputs;

var layer_defs = [];
    layer_defs.push({
    type: 'input',
    out_sx: 1,
    out_sy: 1,
    out_depth: network_size
});
layer_defs.push({
    type: 'svm',
    num_classes: 14,
});
layer_defs.push({
    type: 'fc',
    num_neurons: num_actions * 2,
    activation: 'maxout'
});
layer_defs.push({
    type: 'regression',
    num_neurons: num_actions
});

var tdtrainer_options = {
    learning_rate: 0.001,
    momentum: 0.0,
    batch_size: 64,
    l2_decay: 0.01
};

var opt = {};
opt.temporal_window = temporal_window;
opt.experience_size = 3000;
opt.start_learn_threshold = 500;
opt.gamma = 0.5;
opt.learning_steps_total = 10000;
opt.learning_steps_burnin = 1000;
opt.epsilon_min = 0.0;
opt.epsilon_test_time = 0.0;
opt.layer_defs = layer_defs;
opt.tdtrainer_options = tdtrainer_options;

brain = new deepqlearn.Brain(num_inputs, num_actions, opt);

learn = function (state, lastReward) {
    brain.backward(lastReward);
    var action = brain.forward(state);

    draw_net();
    draw_stats();
    
    return action;
}

//]]>
/*###########*/
if (brain) {
brain.value_net.fromJSON({"layers":[{"out_depth":260,"out_sx":1,"out_sy":1,"layer_type":"input"},{"out_depth":14,"out_sx":1,"out_sy":1,"layer_type":"fc","num_inputs":260,"l1_decay_mul":0,"l2_decay_mul":1,"filters":[{"sx":1,"sy":1,"depth":260,"w":{"0":0.020939021756349468,"1":-0.022236802012089944,"2":-0.015876927057840034,"3":0.018870336955849252,"4":0.03239315723803811,"5":-0.027835462724201787,"6":0.006923078512228826,"7":-0.006220410437162554,"8":0.010918070812526263,"9":0.0022188148404955117,"10":-0.05649858246412466,"11":-0.05675045642996406,"12":0.043574653247022116,"13":-0.07733310776628252,"14":0.0699109654420602,"15":-0.08920102352521851,"16":-0.050483469405636444,"17":-0.03571545054205088,"18":-0.015305943494450767,"19":0.07797006905591813,"20":0.019139562219306072,"21":0.08100205102502459,"22":-0.0034148579835446345,"23":-0.16233929664496224,"24":-0.058200607383768095,"25":0.011424960670866348,"26":0.022040827794355778,"27":0.06092349682652145,"28":-0.032953292008723364,"29":0.016618923786807047,"30":-0.06845530918513737,"31":-0.011557306028495385,"32":0.007551381780422596,"33":0.013281897012718405,"34":-0.08455134388004554,"35":-0.03769217984687598,"36":0.023507147566764166,"37":-0.014534489756531007,"38":0.031966279262962714,"39":0.08130980468363226,"40":0.09060851864220758,"41":-0.02870039103529171,"42":0.0019116098126784004,"43":-0.02128286261340939,"44":0.08042896112884257,"45":0.03244148539035897,"46":-0.10542440261986025,"47":0.06364715653067834,"48":-0.07435000553654397,"49":-0.013833905052132521,"50":0.048234539399882655,"51":0.048027515081054566,"52":-0.005890306914192002,"53":0.013063354084097291,"54":0.03117174745329142,"55":0.12019179999843382,"56":0.023730470808807122,"57":-0.07276702365518735,"58":-0.10935115940947425,"59":-0.03924708564099197,"60":0.036642395267288026,"61":0.05751834862825039,"62":-0.007463143030029733,"63":0.018044606629202223,"64":-0.0075115607604756005,"65":-0.010664932617627122,"66":-0.014746918017504294,"67":-0.012538068682697422,"68":0.04902611943805412,"69":0.005925395976951068,"70":-0.018943023940913583,"71":0.027676631913939372,"72":-0.04503955095307945,"73":0.02668820463425438,"74":0.004542264419793183,"75":0.0018620088451151314,"76":-0.05949219610821418,"77":-0.007300686572236957,"78":-0.0016776177086134296,"79":0.01606527344582109,"80":0.009721948700410913,"81":0.009224789790713589,"82":-0.024307054849806522,"83":0.0673539697656913,"84":-0.055676463888257,"85":-0.04705712213607612,"86":0.036593916620161815,"87":-0.0399367486666514,"88":-0.05545024125939891,"89":0.020272687725048814,"90":-0.08837887346612759,"91":-0.013013316435341619,"92":-0.07701277054362538,"93":0.11562254499968089,"94":0.07750221082566318,"95":0.02111219129444597,"96":0.10149157304492251,"97":0.11262418243234525,"98":-0.03382821732749627,"99":-0.06333750672385657,"100":0.06298254198050711,"101":0.01375611290730851,"102":-0.07173125290762598,"103":0.06110559841773853,"104":0.07951454376231742,"105":0.09352641927402006,"106":0.00023971040763376823,"107":-0.13357309007165943,"108":-0.08167635900589532,"109":0.011703821279331181,"110":-0.0023077083726610456,"111":-0.02151425607972028,"112":-0.06436167058330919,"113":0.021142767520214756,"114":-0.053235644889874804,"115":0.04271245278367259,"116":-0.040949793359208723,"117":-0.10731697273693296,"118":-0.04876621848355226,"119":0.03377387904706991,"120":-0.0035251367136185634,"121":0.06316897597860692,"122":-0.02338268696424326,"123":0.07085314458751196,"124":-0.027682042545054887,"125":-0.02946113022786824,"126":-0.03907236422128683,"127":0.06763610699330906,"128":-0.0924171346705594,"129":0.01944667217507633,"130":0.004392988413354019,"131":-0.03367374947689519,"132":-0.028913534578839852,"133":-0.0683472269182743,"134":0.1300373775439759,"135":0.09466103316579268,"136":0.006853288083240328,"137":-0.054858560649856794,"138":-0.06607034183225478,"139":0.011839829567033623,"140":-0.06239775563933653,"141":-0.0015922940512971837,"142":-0.05740170221449771,"143":0.007531308229768037,"144":-0.1000808857365471,"145":-0.031502284781349,"146":0.08824734837723892,"147":-0.008351940860982537,"148":-0.08122438798921278,"149":-0.13700221706644897,"150":-0.0038934423107120264,"151":-0.07143377168060068,"152":0.06660591879227504,"153":0.08235255781038127,"154":-0.0810757699458804,"155":0.011529933124589433,"156":0.07108495527124264,"157":-0.044358571528557225,"158":0.0946142801216812,"159":0.05164083201319901,"160":0.067822861484824,"161":0.10310896606101196,"162":0.041832503389045456,"163":0.044707881037939226,"164":-0.052785779674018714,"165":0.010610793867333638,"166":-0.03129240410747226,"167":-0.09073134762085777,"168":0.012632195340540156,"169":0.005467951925530272,"170":0.002033518146614129,"171":-0.05788772550513933,"172":-0.013013841191213507,"173":-0.0033408586490384783,"174":0.10147589789059887,"175":0.013904657073564622,"176":0.07295965283754383,"177":0.07915776937145425,"178":0.06193884825239859,"179":-0.0034266552317643653,"180":-0.04537539008184141,"181":-0.0359005792091535,"182":-0.10802351133960761,"183":0.08086633035463163,"184":-0.04830429337492273,"185":0.10947047048394394,"186":0.041762296972283036,"187":0.08924723686776374,"188":-0.0324089766944396,"189":-0.004668378669042868,"190":0.08748280072209441,"191":-0.06989500056908003,"192":-0.04752089002063493,"193":0.018741692751563652,"194":-0.0489499195915592,"195":0.14383832677700037,"196":0.1071853895797895,"197":0.09201995338429649,"198":-0.08744784108075569,"199":-0.1339032906047547,"200":0.050324353055051334,"201":-0.04945716918616749,"202":-0.0847535841052493,"203":0.03546754890793539,"204":0.06994349895557861,"205":-0.04172518902685982,"206":0.11703282892774887,"207":0.0010841443261915733,"208":0.008404501435620593,"209":0.05115654468181525,"210":-0.06863262132624916,"211":0.02066094188385699,"212":-0.09282900074005021,"213":0.016657589702490923,"214":0.024495563529486446,"215":-0.030597440001913993,"216":0.05610527222888288,"217":-0.11849560185360622,"218":0.03217214630101112,"219":0.0527129809333464,"220":-0.02737574336284563,"221":0.046332284659709705,"222":-0.04564075609424793,"223":0.027206724597682048,"224":-0.010223399493894806,"225":-0.01299425721641516,"226":-0.03291516918208891,"227":-0.14388729399163913,"228":-0.02968858876310075,"229":0.007554079640308476,"230":0.018645291992885542,"231":-0.004393419392973427,"232":0.02727645119297555,"233":0.13726766511578659,"234":0.08514237866330784,"235":-0.10989237710703738,"236":0.004259606923576211,"237":-0.015280973345502321,"238":-0.0032665764190409445,"239":0.0589907527498131,"240":0.12733473983479526,"241":-0.026539906947566375,"242":0.05338807038393462,"243":0.05921674730860987,"244":0.050022517966386716,"245":0.10316849118204198,"246":0.0819298971674492,"247":0.04304323681356419,"248":-0.05588189504183633,"249":0.029739104432793543,"250":0.01850592533289897,"251":-0.0038411675580552773,"252":-0.00605890382948115,"253":0.05653586600762575,"254":-0.1669230001238735,"255":0.045339184470566285,"256":-0.060802573765133226,"257":-0.09853144827680803,"258":0.05415377186083238,"259":0.02500638704843825}},{"sx":1,"sy":1,"depth":260,"w":{"0":-0.026005235811632058,"1":0.0493827087337012,"2":0.0295617165004978,"3":-0.0025624931033298164,"4":-0.01340417854283965,"5":0.03928302064277809,"6":-0.07216576477657884,"7":0.015262602406683319,"8":-0.01699467618368795,"9":0.07771766701834787,"10":-0.15885928594585036,"11":-0.014559615431825,"12":-0.041560916783284586,"13":-0.03780127537765434,"14":0.024715384975629695,"15":-0.043886400014777206,"16":-0.008215269135265236,"17":-0.046548987208639474,"18":0.0836040825591424,"19":0.0042430869418519646,"20":-0.12672284903236944,"21":-0.013766982533940623,"22":-0.010478936976008426,"23":0.04257343380408925,"24":0.07212337183496799,"25":-0.11185105003845751,"26":-0.10495440154268199,"27":-0.06292986617628475,"28":-0.031038388038049158,"29":-0.013754787661412965,"30":-0.01479470443685845,"31":0.04210056723692498,"32":-0.06393327055135375,"33":-0.0030333279507121576,"34":-0.006230839115408759,"35":-0.15360271424280747,"36":0.059909430137676654,"37":0.06270831523401532,"38":-0.07924548977431685,"39":-0.035079546199322194,"40":-0.04701622973634335,"41":0.014686591154612553,"42":0.03203247446632536,"43":0.005626255782483349,"44":-0.024433856972146513,"45":0.0531127545749389,"46":-0.07943509856593918,"47":0.09342475440618864,"48":0.05805476994154697,"49":-0.06309603935649738,"50":-0.13331509661889462,"51":-0.17159764689888035,"52":0.020890350796672043,"53":0.02494173207660721,"54":-0.18450440620846084,"55":-0.12035243760570304,"56":-0.04126302812619162,"57":0.03666113605465959,"58":0.1390702288063879,"59":-0.001619853080375693,"60":-0.11407364828435253,"61":0.040556019410002454,"62":-0.08350076758927058,"63":0.058687900677816346,"64":0.07123427621294036,"65":-0.17856570813548386,"66":-0.06986997812863123,"67":0.12305136271849713,"68":0.01320746688708862,"69":0.04671930907792937,"70":-0.01833382916965899,"71":0.07242888840368214,"72":0.04375785646309184,"73":0.08694973103258022,"74":-0.14098789190966626,"75":0.11656875284661357,"76":0.07808462080911487,"77":0.0017855346749106006,"78":-0.03985620475222614,"79":-0.02193148323974427,"80":0.048735453270273364,"81":-0.09207808445953924,"82":0.015227076147443898,"83":-0.09997348144520575,"84":-0.055506509338604584,"85":0.09029768609524497,"86":-0.06526484956571925,"87":-0.033504223540768895,"88":0.02368535426771031,"89":-0.011340343893071302,"90":0.0457668719299051,"91":-0.010059491404526827,"92":-0.06996382901945139,"93":0.04254747649691057,"94":0.014918057761680018,"95":-0.14028152984677575,"96":-0.03225123957640097,"97":-0.001341183803917971,"98":-0.06728371777617888,"99":0.043415310577370796,"100":-0.12378622671312757,"101":-0.01160764194305962,"102":0.015285930015776284,"103":-0.19442720941288028,"104":0.003212866567862965,"105":0.009665839850478227,"106":0.08799772453036439,"107":0.04210048761999434,"108":-0.03611005044808103,"109":-0.03185939294332812,"110":-0.04646514309234228,"111":0.12945539405697742,"112":-0.016960732397087005,"113":-0.05018317026728045,"114":-0.043522726878445266,"115":0.046825317499617325,"116":-0.056475630290695175,"117":-0.015698467475829907,"118":-0.028235772221595793,"119":0.04135253408730477,"120":0.00896639930811353,"121":0.011654741849464868,"122":-0.03570609432343586,"123":-0.13525004555173725,"124":-0.037668782152321355,"125":0.009450969388552166,"126":0.030898550918543127,"127":-0.0050058784562854635,"128":0.03583708137304629,"129":-0.027505202116344985,"130":0.024880338366205422,"131":0.03167818758082602,"132":-0.013849871364386233,"133":0.001421362178944565,"134":0.1153600621367995,"135":-0.04213255925933361,"136":0.11096442747797283,"137":-0.024929526991977168,"138":-0.0012843435733744491,"139":-0.09342937952770083,"140":-0.024257459749505987,"141":0.06539460926988898,"142":-0.0103126673892677,"143":0.12939151898902745,"144":-0.009072230013664778,"145":-0.007972098531323435,"146":-0.0239548011153117,"147":0.06525248609067708,"148":0.10637485206054928,"149":0.010460696579113068,"150":0.04421140228315978,"151":-0.03633894504135809,"152":-0.019050256060901754,"153":-0.06445017457666452,"154":0.11663491320648173,"155":0.01021290809279253,"156":0.10414014668363646,"157":-0.06580229403865492,"158":-0.065372432251091,"159":0.013965076640824322,"160":-0.031685917791221124,"161":-0.045590219963280394,"162":-0.06291745347048944,"163":0.0770022449952517,"164":-0.09917462682682628,"165":-0.1667054102313991,"166":0.03429452316579084,"167":-0.012040738122220652,"168":0.042910055930324875,"169":0.013529881921821654,"170":-0.07823648829537505,"171":-0.025681418299304322,"172":-0.015874319637635238,"173":0.051647159317057906,"174":-0.03709364755909501,"175":-0.12029910500505424,"176":-0.19018714454459332,"177":-0.035021062231313536,"178":0.023252161741430803,"179":-0.060895195876436346,"180":0.08254037846545144,"181":0.03246532329060714,"182":-0.14414397824065012,"183":0.1109120687939825,"184":-0.0015209300926254355,"185":0.09264852758389873,"186":0.011774650647858294,"187":-0.04769284135206071,"188":-0.03524538706934113,"189":0.058244673718280966,"190":-0.118851078053154,"191":-0.11511358533506806,"192":-0.11372569034388645,"193":0.04504825344678418,"194":-0.08138897759757202,"195":-0.06471484286044031,"196":0.036639443817963024,"197":-0.02424705128385947,"198":0.04140480828426108,"199":0.09047873382047028,"200":-0.007051892000046802,"201":0.15230690120529938,"202":0.0040151802381588175,"203":0.11303733262546808,"204":-0.03220014071475383,"205":0.06920662003946088,"206":-0.14775730271276605,"207":0.06696743854803928,"208":-0.15285047840057425,"209":-0.022015489482899674,"210":-0.002716461916984892,"211":-0.004705619172495926,"212":0.016410316422445788,"213":-0.021811374245670766,"214":0.0031997394005334147,"215":-0.03398920287583518,"216":0.0207625933370961,"217":0.03572640029491584,"218":-0.07029554638504451,"219":0.021385011977502213,"220":-0.06097401266447654,"221":0.014172719080478926,"222":0.005064005666224728,"223":-0.021363388672183008,"224":0.061140391607317476,"225":0.09681614001640634,"226":-0.01694628521744733,"227":0.022266460963312293,"228":-0.012411431411397654,"229":0.019393509802552823,"230":-0.0453323911860775,"231":0.002226099432374274,"232":-0.00027502694909843574,"233":-0.05750455128446375,"234":0.009522034767469168,"235":0.05204383588935955,"236":0.054469195665583045,"237":0.03546977558746812,"238":-0.006668132842098431,"239":0.04852301608437198,"240":0.06910983714433057,"241":0.03739512640854807,"242":0.014909580224276742,"243":-0.04723433975118186,"244":-0.07286703594644248,"245":0.04483834206039544,"246":0.08224778480289574,"247":0.007839409655731062,"248":-0.012300836765967377,"249":-0.011239495821490272,"250":0.04247150105524062,"251":-0.09150062758985662,"252":-0.01483125179315221,"253":-0.07638136461342306,"254":0.031150225630171054,"255":0.19007246664169852,"256":-0.09818482584682345,"257":-0.028560974483418888,"258":0.06662896730843738,"259":-0.05057388818367846}},{"sx":1,"sy":1,"depth":260,"w":{"0":0.01622694075526377,"1":0.10384500991509424,"2":0.0426927948751463,"3":0.08688977413110247,"4":0.09138110764747825,"5":-0.10644701535288704,"6":-0.0008591472811591235,"7":-0.11492936517847459,"8":0.052292890550732544,"9":0.08205200871179692,"10":0.03973767914954091,"11":0.059097782724709856,"12":-0.15516644206218264,"13":0.040934503733484305,"14":-0.025828135547017468,"15":-0.06773183475026114,"16":0.039851869334400214,"17":0.13231317487686106,"18":-0.12775736061199172,"19":0.024890760427726182,"20":0.01159313499264397,"21":-0.024507300653097933,"22":-0.0952907527704631,"23":0.08071839682258122,"24":-0.04187250516264241,"25":-0.025933223510510743,"26":0.11092076758733667,"27":-0.01507779318388853,"28":0.010037030842714264,"29":-0.0014191999080742194,"30":0.12354738614021597,"31":0.10212133028740686,"32":-0.05460991524969346,"33":0.029044122934011644,"34":-0.06380133773698955,"35":-0.038185666169942935,"36":-0.03293761664752055,"37":0.03389976106812944,"38":0.04873049125232187,"39":-0.06309690981677979,"40":0.07834880957399451,"41":-0.021078911468485242,"42":-0.036777853488157736,"43":-0.11894937413243704,"44":-0.04543684283889054,"45":0.034115934843238556,"46":0.09615279276757382,"47":-0.024700714096183112,"48":0.058624938021891206,"49":0.1066195394630132,"50":0.03129078221215881,"51":0.055327881691894065,"52":-0.026170926407018735,"53":0.018572842422769686,"54":0.00410694791557003,"55":-0.09458442713252165,"56":0.017594812503530625,"57":-0.00813085429249835,"58":0.008353254972688613,"59":0.058396976747797404,"60":-0.07788882498934883,"61":0.006665942611681341,"62":0.016889480998133748,"63":0.005373131763435405,"64":-0.012117527357980782,"65":0.056731645928151386,"66":-0.0535408175400532,"67":0.07941292218024125,"68":-0.11445968418575711,"69":0.09720898909599313,"70":0.00807722693245204,"71":0.0606799682700129,"72":-0.01901629908813676,"73":-0.002268977820584622,"74":0.04601819853952928,"75":-0.11811256208760172,"76":0.15855237538095515,"77":0.08596745492400665,"78":0.06710902273898832,"79":0.03540500893326065,"80":0.03784091823736875,"81":-0.04692057375805705,"82":-0.04159905343739356,"83":0.023873605525894695,"84":-0.06274696832568072,"85":-0.03514830692017538,"86":0.023512612696322002,"87":-0.05627097380004801,"88":0.002911569540068661,"89":0.019740847141568842,"90":-0.08037656779875926,"91":-0.11775894734623939,"92":0.0897674170261947,"93":0.10090641512986671,"94":0.11058390903647378,"95":0.032050518920025396,"96":0.04750053706726131,"97":0.13357200271630484,"98":0.07686757519538127,"99":-0.08895251960422311,"100":-0.11492006797508288,"101":0.07584800972424624,"102":-0.06556575915719502,"103":0.12518079745020674,"104":0.02876534288607632,"105":-0.04001570958800881,"106":-0.05095522775970782,"107":0.01856627263975355,"108":-0.05458584715493598,"109":-0.0702466126744255,"110":0.019033083234751235,"111":0.06023613839282144,"112":0.001061568519895133,"113":0.028230175576739618,"114":0.0015375628396653229,"115":0.014980583268421095,"116":-0.015296999039483854,"117":0.11064121823407135,"118":0.034648378211718484,"119":-0.052606773912486166,"120":0.0004319992462177546,"121":0.051859870607069446,"122":0.019466258795969672,"123":0.0082893992335703,"124":0.015362202554560023,"125":0.0040800342651761135,"126":0.07701229387084209,"127":0.02091424651766932,"128":-0.1263541985843461,"129":-0.02480640510407268,"130":-0.01786607397653702,"131":0.003933243223668823,"132":0.047310213137833845,"133":-0.09268287631005886,"134":-0.11343431704449689,"135":-0.023430622946377613,"136":0.10229530118293792,"137":0.12800123572040328,"138":0.003928653436710766,"139":-0.03771842627849879,"140":0.006888760264355451,"141":0.03408525231172788,"142":0.06522147121484709,"143":-0.002637536593190403,"144":0.05593412452016286,"145":-0.08835432207847789,"146":-0.04713546452888854,"147":-0.011257711472871572,"148":-0.014386792782570063,"149":0.06388486135858527,"150":0.0012399095893184141,"151":0.05713606565995654,"152":0.04345962484545739,"153":-0.03903831134854557,"154":0.0008708884316766705,"155":-0.009035768930706801,"156":0.050053276185446256,"157":0.01752536829439147,"158":0.05699119210273201,"159":0.02593256005149747,"160":0.03787245689747326,"161":-0.038414211494407026,"162":-0.008471070841690343,"163":0.01824676154993385,"164":-0.0008261989131058945,"165":-0.0055595823081665925,"166":-0.021044635555443215,"167":-0.039736192422651986,"168":0.0782322291458043,"169":0.11835374531339031,"170":-0.018420788904416657,"171":-0.06120343101730675,"172":-0.021026325937854126,"173":0.05249286810940517,"174":0.02035693458544115,"175":-0.08080689556510226,"176":-0.15080412086364126,"177":0.004917497160470066,"178":0.035304552946616434,"179":0.05889865705476701,"180":0.021957865828272843,"181":0.014469979607261376,"182":-0.023099748811586756,"183":-0.023932881130050057,"184":0.053794936641022244,"185":0.06635051324511704,"186":-0.025898623043604387,"187":0.04581300584538353,"188":-0.064236521600516,"189":0.14624887390373553,"190":-0.052012186622374314,"191":0.01970349426351133,"192":-0.014467785219572827,"193":-0.017044901193348796,"194":-0.04966318195251263,"195":-0.05294572101760349,"196":0.0003569970413883787,"197":-0.015849197688907815,"198":0.06418718777182988,"199":-0.20743483952206257,"200":-0.06305188265015839,"201":0.01785103162611533,"202":0.025410647938074724,"203":-0.1388811497983498,"204":0.08812080348571537,"205":-0.0024895154947075448,"206":-0.01061224877533276,"207":0.08450558997212927,"208":0.05942695507294555,"209":0.053164968054129666,"210":0.05985796222772687,"211":0.05701745276176851,"212":-0.10502771288609833,"213":0.04524783994218621,"214":-0.009070699408199342,"215":-0.10291240171261314,"216":0.0775933714238912,"217":-0.05317983271622738,"218":-0.0009554172075335393,"219":-0.02620939946843352,"220":0.0004090630820146626,"221":-0.05377992666996007,"222":0.03364981816095647,"223":-0.06487452501448772,"224":-0.0795043529069061,"225":-0.026441758265443892,"226":0.06600301593307027,"227":0.07927452874492386,"228":0.006437960347166509,"229":-0.04339132094287957,"230":0.21410062544285335,"231":-0.004594055777153669,"232":0.11962014850875882,"233":-0.015008033676255769,"234":0.029998953508251863,"235":0.0397831657151671,"236":-0.00869978996413956,"237":0.008358062986296325,"238":0.15439110711690102,"239":-0.0849082360074687,"240":-0.014526412624080475,"241":0.05257278290519825,"242":-0.02209429251235771,"243":0.017489487661902302,"244":-0.0014293437818845471,"245":0.03302002339892324,"246":-0.007845090280224435,"247":0.022015022530403182,"248":0.009302450064833124,"249":0.07612002906540381,"250":0.026565772717304766,"251":-0.015638116117327714,"252":0.08306354625206742,"253":-0.00763038189890467,"254":0.0038096061625236353,"255":0.008347106532377892,"256":0.06548970529444106,"257":-0.12227602412900515,"258":-0.03542394536803799,"259":0.08152973307095329}},{"sx":1,"sy":1,"depth":260,"w":{"0":-0.023909750619327454,"1":0.07284084647004485,"2":0.0039710585775566245,"3":-0.058839371854447424,"4":-0.07929137822535583,"5":-0.021406392329953405,"6":0.0013925102500033266,"7":0.09531584206759329,"8":0.032304183725416186,"9":-0.036445175214798425,"10":0.03448512050865867,"11":-0.017741626119899233,"12":-0.04938219877176649,"13":-0.021475811432385854,"14":0.004428470529140352,"15":0.04125845670216792,"16":0.06332552997139095,"17":-0.020680748956578832,"18":-0.137998706225214,"19":0.06919419383692178,"20":0.06361770654806617,"21":-0.024419749743583265,"22":-0.010783980390829395,"23":0.12824238892703155,"24":-0.022280718059708642,"25":0.07290735262611378,"26":-0.07928628553307249,"27":-0.016656848424714786,"28":0.05565098686600787,"29":-0.030690591715563178,"30":0.009127992327936416,"31":0.03424509575736011,"32":0.03150757562176612,"33":-0.04044578446901458,"34":0.08628998953995981,"35":-0.06801644670447045,"36":-0.0034590253639802293,"37":-0.00267509368280905,"38":0.0063147974713987495,"39":-0.10051461317115967,"40":0.06996818188449383,"41":-0.022373379160171257,"42":0.005305923065096864,"43":0.025946590579398292,"44":-0.0868276798610259,"45":0.0698253882944975,"46":-0.028407350191024253,"47":0.0033497044108788563,"48":0.04415568835609768,"49":-0.018847036629878185,"50":-0.03969706439030944,"51":0.0872780554298784,"52":-0.1393380153527544,"53":-0.06739027540448489,"54":0.03295657649125235,"55":-0.06615995694508346,"56":-0.05991563486654688,"57":-0.03279965117134738,"58":-0.005075547366942288,"59":-0.11938067402502683,"60":0.05029230669795753,"61":0.004769894659650216,"62":0.023569400529425518,"63":-0.04049375848545417,"64":-0.03214818712553331,"65":-0.049073601594008684,"66":-0.003616923244142344,"67":-0.01805990642948767,"68":0.11021844215313656,"69":-0.10722319438210233,"70":-0.023974954087921264,"71":0.10072628215624739,"72":0.04948260531823035,"73":-0.017578428905056995,"74":-0.007190142204956163,"75":-0.038848997659799926,"76":0.05830386691309842,"77":0.03907248196724436,"78":0.07279087891561657,"79":-0.1645133135391879,"80":0.0625251326514585,"81":0.07951470866509801,"82":-0.009316374848380887,"83":-0.07544345065586669,"84":-0.01595035734247312,"85":0.016879312935599054,"86":-0.016461847465550336,"87":0.00781313755384671,"88":-0.0917817078826248,"89":-0.12451125011693774,"90":-0.10972669505518809,"91":-0.07854453739342762,"92":0.06419159656364694,"93":0.025112891223836937,"94":0.015774526965518162,"95":-0.042821245352681045,"96":0.060540061240651005,"97":0.030468209329838156,"98":-0.10028827641260281,"99":-0.07248125199723689,"100":0.07984770504379733,"101":0.1551586699790065,"102":0.06480424167340912,"103":0.05327483859283355,"104":-0.12353680438969625,"105":0.033085442380793466,"106":-0.03280549941459226,"107":0.008463631710463935,"108":0.02623413541160072,"109":0.060292568477483155,"110":0.09549391125070543,"111":-0.005129812355159474,"112":-0.10497091203603248,"113":-0.012373425073908376,"114":-0.0916474781477957,"115":-0.05822103292135462,"116":0.05837460723579126,"117":0.04179888520393161,"118":-0.05354186649866627,"119":-0.1010372091271413,"120":0.03611175688009193,"121":0.02597418218691326,"122":-0.018849599482127808,"123":0.029545793641180415,"124":0.09863949521221539,"125":-0.059996085850110584,"126":0.1120343044756467,"127":-0.05861147329172664,"128":-0.04438580207941407,"129":0.004894277944203072,"130":-0.005212171777584387,"131":0.047664625344326875,"132":0.07392140534469435,"133":-0.039608719781708726,"134":-0.0486688591804194,"135":-0.002443303956097798,"136":-0.06135890589978304,"137":0.03765828386980194,"138":-0.008327440569523508,"139":-0.004721132539639471,"140":-0.05090590594673288,"141":0.02719945116042677,"142":-0.04528545180405287,"143":0.022723535612765855,"144":0.01399460852831714,"145":-0.08576401158914476,"146":0.01901351616030572,"147":-0.04071307211501477,"148":-0.029289258756304594,"149":-0.09699808033808649,"150":-0.03062248799654482,"151":0.004739308114176721,"152":-0.0014375016082531025,"153":0.004249954305558184,"154":0.09936547935659401,"155":0.038387367280562995,"156":-0.08247879889439881,"157":0.025080909001934323,"158":-0.06748600196801766,"159":0.12697548265945602,"160":-0.04411109977976474,"161":0.014237717816962295,"162":-0.010780022379469265,"163":0.011617740398839426,"164":0.06906041203169867,"165":0.07056267136526033,"166":-0.06532420439996084,"167":0.04365790808074663,"168":-0.08874479022647225,"169":0.0329556151110999,"170":0.07341814580573139,"171":-0.0508165234104368,"172":-0.06767748129268261,"173":-0.024053455075191237,"174":-0.055794434405994006,"175":-0.06028508914081768,"176":0.000652222502686576,"177":-0.03499473067529774,"178":0.11957887409163269,"179":0.08516243062704337,"180":0.07023925112520742,"181":0.023300721997381948,"182":0.07889071447924005,"183":-0.024818868313433395,"184":-0.043081310066644084,"185":-0.014245486496651664,"186":-0.010290920546169724,"187":-0.1520482217969406,"188":-0.03178258990560768,"189":0.10299529232210028,"190":-0.053607736201238695,"191":0.07665111099900511,"192":-0.03706336620383388,"193":0.04571722450219998,"194":0.02012653303422307,"195":0.02816977644455895,"196":-0.03264428145201673,"197":-0.019828109083084015,"198":-0.021591602205516817,"199":-0.03545803679389276,"200":-0.01371582991638633,"201":0.08175198511816437,"202":-0.07012448479012308,"203":0.01396984712581452,"204":-0.06153084895203688,"205":-0.09547637775073581,"206":0.02003405163313982,"207":0.017211067495300228,"208":0.003730692430954281,"209":0.046463873049720154,"210":0.12114993071762419,"211":-0.029648605702595983,"212":-0.023521340165799653,"213":-0.025506624599820445,"214":0.039131883775100615,"215":0.0945434331375829,"216":0.013655509220604965,"217":-0.05767102133289549,"218":-0.011456332692637546,"219":-0.04692351478050416,"220":-0.025646891371885645,"221":0.008198576173618534,"222":0.0024464583897616096,"223":-0.014263426759329427,"224":-0.0450717035041835,"225":-0.05170104380552333,"226":0.03739583751116509,"227":0.003369799206792639,"228":-0.09080049945737383,"229":-0.022930117836549278,"230":0.025637326305790548,"231":-0.034807717015990405,"232":-0.10515754555314086,"233":-0.08771871053898259,"234":0.12499264524392835,"235":-0.03533539357086861,"236":0.12419923696948387,"237":-0.006471052981134973,"238":-0.03566088965102929,"239":-0.042418274213546964,"240":-0.10533176965066585,"241":-0.06575454993759183,"242":-0.040020511486946055,"243":-0.038747526663973374,"244":-0.010194505885344155,"245":-0.17470010986137824,"246":0.0346242481957039,"247":0.012602347773344022,"248":-0.021553653852480623,"249":-0.04324548400480698,"250":0.0756237903931384,"251":0.03725795861245685,"252":-0.004408700655980809,"253":0.0508014474675367,"254":-0.106431499834755,"255":-0.10124041825333784,"256":0.00004331924738215007,"257":-0.012592500773067266,"258":-0.03455749625212792,"259":-0.11906371682291646}},{"sx":1,"sy":1,"depth":260,"w":{"0":0.011425486662917546,"1":-0.03716923966508127,"2":-0.04828317106784236,"3":0.12429248697659893,"4":0.029836633616891206,"5":-0.008680423775206664,"6":0.0821791089806764,"7":0.02475645525480651,"8":0.07485857901446588,"9":0.0071004532244766695,"10":-0.0464937356249765,"11":0.030103641424002358,"12":-0.029747476915093517,"13":-0.13389005642171417,"14":-0.058756266626562165,"15":-0.050899059490420534,"16":-0.005073296017072001,"17":0.014804637892581046,"18":-0.0022088679259462665,"19":0.03278960143707176,"20":-0.006833831182482192,"21":0.050817345274568326,"22":-0.06864156344999249,"23":-0.025221421610272146,"24":0.04127997673388067,"25":-0.0636658348504626,"26":-0.005837936572898284,"27":0.018642317373629144,"28":0.01970595808207542,"29":0.03534642291452453,"30":0.03715923581704607,"31":-0.06894959736869345,"32":-0.01108927686711272,"33":0.06926481401124603,"34":-0.08511973908106815,"35":-0.0031353456273766067,"36":0.027962746333892133,"37":0.06450236216754181,"38":-0.01600681632851405,"39":-0.22225837232078077,"40":-0.035509259593558135,"41":-0.10902247984077741,"42":-0.08457541782935535,"43":-0.07449721033745411,"44":-0.0008487372158480134,"45":-0.04952189787631621,"46":0.09011713484180481,"47":0.057865108978990304,"48":-0.028585126268425073,"49":0.07801143840125663,"50":-0.0837066538703575,"51":0.0614130597310342,"52":0.043338033124910004,"53":-0.04348190179974531,"54":-0.020359020735897054,"55":-0.03110853794124185,"56":0.033212633945041266,"57":-0.00487179960457152,"58":0.019330630046460805,"59":0.11443697207166528,"60":-0.004828920603892625,"61":-0.04833697979980593,"62":0.041622573705362195,"63":0.15795057426884496,"64":-0.037836865052559635,"65":0.002668617115204965,"66":0.06757024521950769,"67":-0.03331807556392171,"68":0.05949154829498015,"69":-0.07463737763228213,"70":-0.01475272811529969,"71":-0.06288997830536265,"72":0.06110862787282342,"73":0.009738319048235999,"74":0.0382537752219271,"75":0.06355001405246001,"76":-0.08651999713384356,"77":-0.01725185288142143,"78":0.0705242181753342,"79":-0.05225341748496553,"80":0.010609547449037044,"81":-0.030405052254212417,"82":0.040386965181743714,"83":0.03108344073080548,"84":0.005962777039790933,"85":-0.020096381913853757,"86":-0.0016849495279639421,"87":-0.026645165884453172,"88":-0.022917360225184744,"89":0.0660798066418755,"90":0.01015544924231883,"91":0.05145849724348324,"92":-0.054667200018947947,"93":-0.02950756435103438,"94":0.001994249052736559,"95":-0.04267416617808958,"96":-0.04551944973127988,"97":-0.05375998790889234,"98":-0.039276153809379676,"99":-0.06067880419637219,"100":-0.1266897942039316,"101":0.054460102654417045,"102":0.020775348917319855,"103":-0.05054249614506214,"104":-0.06649293696324066,"105":0.0005275423869742868,"106":-0.13743953706646958,"107":0.003877781250642027,"108":0.0002097653293248221,"109":0.01382705384351484,"110":-0.04006724796968877,"111":-0.014782222335475548,"112":-0.06620311657069478,"113":-0.10234700456328434,"114":-0.03965506930845284,"115":0.0015631927608336731,"116":0.05276115024006239,"117":0.02042228316986723,"118":-0.1073580835518985,"119":0.025848357174692475,"120":-0.06313107011152319,"121":0.06900549385638538,"122":0.1072623987974563,"123":-0.060339770377884565,"124":-0.044367765962975696,"125":-0.08722031614974546,"126":-0.02407061957954122,"127":-0.05401845795899139,"128":-0.0338913430077389,"129":0.1200912917839312,"130":0.02270859535285805,"131":0.13100659500737605,"132":0.052895859139429666,"133":-0.11609439386780732,"134":0.018817877688073484,"135":0.04674622610902985,"136":-0.09102965437063752,"137":0.03914570350512871,"138":0.0359870681191811,"139":-0.06123260388948225,"140":-0.09153531283111632,"141":0.1723668310915942,"142":0.0823337410605166,"143":-0.07219691264851716,"144":-0.13780573601475202,"145":0.03207737026622694,"146":-0.017706880599385272,"147":0.022301360247737153,"148":-0.040198401107771446,"149":0.020960463651412353,"150":0.011422432454776456,"151":-0.035211930713041614,"152":0.09196863710999936,"153":0.04955696938537114,"154":-0.0481418756037273,"155":0.022341973718923963,"156":-0.005487586745869039,"157":-0.2166519685642443,"158":-0.06571907284095853,"159":0.015415294349649632,"160":0.06923443837734432,"161":0.021174122642306083,"162":-0.06537894929253282,"163":0.013886718870733603,"164":-0.007087788059146464,"165":-0.015125213111169069,"166":-0.03976034686580833,"167":0.09341856196567487,"168":-0.10241251349513057,"169":0.0060241765516235455,"170":0.0037918576918619168,"171":0.04888691743006753,"172":0.05348842068809525,"173":0.021707198202104993,"174":-0.06700543685225482,"175":0.07974258427848639,"176":-0.012169909061427387,"177":0.10301911028565126,"178":-0.10318343445180748,"179":0.09245873127869877,"180":-0.1177523083772701,"181":0.005632226704904841,"182":0.09275290023803526,"183":0.005796019815454007,"184":-0.037174932931709044,"185":-0.03395038904977945,"186":-0.01873090212435066,"187":0.015512621732438347,"188":0.10535545422028546,"189":-0.06669234974818833,"190":0.011137907895627533,"191":-0.001542239853660699,"192":-0.010881911903582588,"193":0.027357927273998415,"194":-0.022882096165391767,"195":-0.044615905300764154,"196":-0.0569825228478098,"197":0.008978245036589562,"198":-0.10241196257437304,"199":0.07041784800524868,"200":0.06379255602094668,"201":0.07847491376245612,"202":-0.007513768291700671,"203":0.08763161984233733,"204":-0.014495972085555258,"205":0.09115908697878548,"206":-0.02007701283205175,"207":0.05205701987712879,"208":0.0601099906710047,"209":0.03228803489310385,"210":0.007137945556321637,"211":0.012348223385617203,"212":-0.0376064198485076,"213":0.06476888886528966,"214":-0.05832961555533513,"215":0.07543892733755521,"216":0.030270784406964703,"217":0.03479478512739404,"218":0.09837340680580435,"219":-0.1045024250984536,"220":0.03845194079322194,"221":-0.017554278296098458,"222":0.060779053130112164,"223":0.020821571088258557,"224":-0.08188972927863244,"225":-0.031021591947267155,"226":0.02955785464121171,"227":-0.04340831444117176,"228":0.05205113801979019,"229":-0.029000399747601054,"230":-0.024370566102618573,"231":-0.02478987280544823,"232":-0.053411647885490465,"233":-0.07253689384108485,"234":0.0034578524929972394,"235":-0.036809230939045784,"236":0.1452594524724969,"237":0.08717168775973273,"238":0.03526876863848348,"239":-0.051360722432766084,"240":-0.055741669519128616,"241":0.01801836071991451,"242":0.014739473548785215,"243":-0.004184250225073433,"244":0.1329153394322039,"245":-0.11580644462018495,"246":-0.0779259539024797,"247":0.10087394282759778,"248":0.08557253676017967,"249":0.08693688955131071,"250":-0.03269910505976964,"251":-0.06296626681280254,"252":0.06670435811882867,"253":0.06365230709254502,"254":0.00500791775683345,"255":0.08540092148664676,"256":-0.11616849183256678,"257":0.045431543786847654,"258":0.0559914204432608,"259":0.012692353818001212}},{"sx":1,"sy":1,"depth":260,"w":{"0":-0.05720977119207589,"1":-0.056358121420929747,"2":-0.03657271578373765,"3":-0.04362682703594743,"4":-0.06431292849413973,"5":0.0762953009754003,"6":-0.1058561096720707,"7":0.041130288297383515,"8":0.039477850916469576,"9":0.10629385747872744,"10":-0.026824226267712217,"11":0.017710444604523826,"12":-0.028525164185105423,"13":-0.010754503947046743,"14":0.034807810577047564,"15":-0.08081216369012341,"16":0.008451101044736712,"17":-0.03433062668150014,"18":-0.0009552471654548182,"19":-0.06080174695466102,"20":-0.011206995337715714,"21":0.05935829204631198,"22":0.04706761664527802,"23":-0.06985239388295957,"24":0.0634201537806347,"25":0.01902483283258069,"26":0.09277237459023842,"27":-0.09354260567608545,"28":-0.033935694792898846,"29":0.1047457920725424,"30":-0.026182616873159183,"31":0.0388576010875382,"32":0.14137043424224124,"33":0.10055497819148922,"34":0.05357814257666105,"35":0.1221072561546318,"36":-0.048899912912568726,"37":-0.02839037656708485,"38":0.04830764864473825,"39":-0.045772014070435955,"40":0.028131898081555543,"41":0.006370033677148346,"42":0.01579830685713014,"43":0.05858545725047218,"44":-0.06076633732924058,"45":0.018104923587522775,"46":0.177876682764757,"47":-0.04241508311754582,"48":-0.11417389964754567,"49":-0.034188331726877755,"50":-0.08056010288354987,"51":-0.06314786754232103,"52":0.011486260940547355,"53":-0.01066768455457135,"54":-0.015347872468740491,"55":-0.033435070065393646,"56":0.04654899045981674,"57":0.01029856846029195,"58":-0.010836274598730829,"59":0.06695124709650555,"60":-0.048008838001573496,"61":-0.13407302655561623,"62":-0.04719261491294223,"63":-0.06615326231770333,"64":0.056164450576477835,"65":0.016344027392524503,"66":-0.026426482003438685,"67":-0.004905729449556483,"68":0.02419826675876136,"69":-0.02196308324036356,"70":0.024811231219109765,"71":-0.03399789687783986,"72":-0.04409353562093818,"73":-0.057463521273458405,"74":-0.07527571048916236,"75":0.03941213011807379,"76":0.022794597183622124,"77":-0.033380189177728115,"78":-0.09906355570524304,"79":-0.01936959605154109,"80":0.09324956204397401,"81":-0.041728771509163674,"82":0.03284597372770846,"83":-0.009807192548014333,"84":0.03565761908935323,"85":-0.03611045224123651,"86":0.05403225709708503,"87":-0.06443053794932142,"88":0.02778360768152551,"89":0.02454481472040286,"90":-0.09890090680243842,"91":-0.017385038674913072,"92":-0.11386325248126473,"93":-0.052529445551214825,"94":0.05318023259696468,"95":-0.015527019605878267,"96":-0.03669725254534877,"97":0.09623298579613332,"98":0.055582832405111145,"99":-0.14495848874363645,"100":-0.07224854026765098,"101":-0.06301058184451784,"102":0.10085642737095686,"103":0.03744733564460939,"104":0.00519454941581737,"105":0.10242749382278395,"106":0.02914608483954361,"107":0.02483208117333093,"108":-0.11235724962125974,"109":0.013759439078131683,"110":0.021483633027518788,"111":-0.016133651771612287,"112":0.02222166340737371,"113":-0.08772706240462814,"114":-0.05376697965934155,"115":0.10986884412958206,"116":-0.06308333229667118,"117":0.07772713833316422,"118":-0.03485205308755537,"119":-0.03310852426012166,"120":0.041185113924936435,"121":-0.006597556557567801,"122":0.08796461287258939,"123":-0.0008779694287715885,"124":-0.023879553877027046,"125":-0.031080261407596815,"126":-0.08019590566041372,"127":-0.015763303607035296,"128":-0.12189307609543432,"129":-0.07688781949876987,"130":0.03976569280096498,"131":-0.002932553422804612,"132":0.04591715885273255,"133":0.0688013866347411,"134":0.027405726167227855,"135":-0.01356165933658407,"136":-0.002068570951037612,"137":-0.13216789762029804,"138":0.01486529428723513,"139":-0.01646605222072901,"140":0.033736301114509606,"141":0.12425080186380909,"142":-0.03445610402963049,"143":0.011601131566922355,"144":0.029214368832207852,"145":0.0767872923377584,"146":0.03282900207707198,"147":-0.09141620805744076,"148":-0.08786974826655804,"149":0.06942492449840405,"150":0.02037071303807921,"151":0.012270363069473912,"152":0.020358113588804832,"153":0.00167277411470202,"154":0.08862485778601767,"155":0.03310990208269443,"156":0.05795448553401031,"157":-0.009809555546923561,"158":-0.07100951760570998,"159":-0.05789996118972145,"160":-0.08202317044096147,"161":0.010143857723792069,"162":-0.0011272696434776977,"163":0.000793493180195174,"164":0.04399753013986864,"165":0.0065544532678684835,"166":-0.08088211881894851,"167":0.0232219688248149,"168":-0.04009237181355832,"169":-0.025258138747348245,"170":-0.1073417309805415,"171":-0.007862434495139308,"172":-0.1089596842332026,"173":-0.008433072225292793,"174":0.005415581018884856,"175":-0.0865080227200498,"176":0.09516335042272331,"177":-0.004454970869188251,"178":-0.018862592658219567,"179":-0.008157891378097708,"180":0.017651882139755444,"181":-0.024544508196865374,"182":-0.013263352505098233,"183":0.06396296042747457,"184":-0.025661717628261076,"185":-0.045647126001699685,"186":-0.048423281330561896,"187":-0.012732611857367406,"188":-0.03002684706386464,"189":-0.07112380324358765,"190":0.006373825604746448,"191":0.04330220853607547,"192":-0.04509128271297796,"193":-0.07801158079321885,"194":-0.02653674621993084,"195":0.12127675303574324,"196":-0.019046967803556223,"197":-0.030917303022547166,"198":0.00046823532757028736,"199":-0.014089984916535493,"200":0.0039013002828974077,"201":-0.00939365112783557,"202":0.03523205993216746,"203":0.04386107400598135,"204":-0.08425840210232112,"205":-0.058368066624183264,"206":0.0508266636400379,"207":0.01502020656936127,"208":-0.12407632530594424,"209":-0.11924862124113898,"210":-0.024513107535640743,"211":-0.02362850747361599,"212":-0.03353704611242629,"213":-0.008486924870033805,"214":-0.06403200080043807,"215":0.11641163853737484,"216":0.05797598254159079,"217":-0.01822160180842008,"218":0.019610866531269328,"219":0.019504181826012875,"220":0.051899617615081536,"221":-0.06249092997760794,"222":0.06419623689647933,"223":-0.09294970939031093,"224":0.053382101727259684,"225":0.039897237638195984,"226":0.05562829335021056,"227":-0.01590133110511307,"228":-0.011787932443125178,"229":-0.007733305758268614,"230":-0.062072856619650986,"231":-0.03409091507720293,"232":-0.004908199554939287,"233":-0.051233308529854665,"234":-0.03709669955705525,"235":-0.1342443378496602,"236":0.048684429001050765,"237":0.0018345870531321987,"238":0.07207487863018694,"239":-0.04696664396758615,"240":-0.09618171185884297,"241":-0.06185794699918637,"242":-0.07513494490422151,"243":-0.056687186804634075,"244":0.013132607528743498,"245":-0.030965279830390786,"246":0.09770891546584524,"247":-0.08637125856421703,"248":0.07208646363679161,"249":-0.0057350998496704594,"250":0.0022826114569072914,"251":-0.0025631773068816133,"252":-0.026770638108054398,"253":0.06953985463792244,"254":-0.08477444357814672,"255":0.02707705094957155,"256":-0.021315622232486994,"257":-0.04302471292797613,"258":-0.017324654240070583,"259":-0.08246804148851125}},{"sx":1,"sy":1,"depth":260,"w":{"0":-0.12815736022518442,"1":-0.028591509453905057,"2":-0.04757547997906939,"3":0.06913775891918743,"4":0.008640686191155704,"5":0.027228568992026504,"6":0.14211892037684942,"7":0.05109311783285736,"8":0.04159374507683347,"9":0.029853303294319785,"10":0.01064513192673696,"11":-0.05133173550465099,"12":0.06149640106357731,"13":-0.008200824739911391,"14":0.1389408279589203,"15":-0.016656713691057774,"16":0.0550456790769462,"17":-0.0493661901964527,"18":-0.06687324953900999,"19":0.06217829685819176,"20":0.009701689426422569,"21":-0.043466273224742315,"22":-0.01363895732126081,"23":-0.0023542657368821707,"24":-0.07019972516334562,"25":-0.05839301060059579,"26":-0.029777864525497095,"27":-0.06365005503992908,"28":-0.022533279370734238,"29":0.018690137424037995,"30":0.0377470472210555,"31":-0.09937576383877253,"32":-0.015870813254456634,"33":-0.03354208097435491,"34":0.021871467450582164,"35":-0.16488425998286024,"36":-0.020787690005028094,"37":-0.14642946676431992,"38":-0.15779972334808565,"39":-0.05638005550511813,"40":0.011236647865105935,"41":-0.07012698039257563,"42":-0.043810708962050304,"43":0.03753230226073174,"44":-0.04137055501307007,"45":0.055611172437681385,"46":0.02653818304265148,"47":-0.014090865755310907,"48":0.004280174663479287,"49":-0.07731658600191686,"50":-0.03916967440262433,"51":-0.02660102618206039,"52":-0.048567636233959724,"53":-0.03640026018590106,"54":-0.03735734316439213,"55":0.058754973086372855,"56":-0.04086098985354132,"57":0.08455084900785702,"58":0.008494083544180403,"59":-0.05754807610499089,"60":0.03420839964718611,"61":0.04285206087985798,"62":-0.06055219762355763,"63":0.046812120821252766,"64":0.02197494015339467,"65":-0.046638967186187326,"66":-0.005685485140375325,"67":0.0245001625758685,"68":0.04127078222877874,"69":0.05406377699653803,"70":-0.04187378386104955,"71":0.04156286195986505,"72":0.00874207624634845,"73":0.010730369917963055,"74":-0.044049703207977596,"75":-0.01616212823347551,"76":0.10835331987150461,"77":0.04315765900146137,"78":0.028171229406481205,"79":-0.014784322424351603,"80":-0.09452714565358536,"81":-0.10101301704430427,"82":-0.05702616729555301,"83":0.02185387022782512,"84":-0.08552208939263543,"85":-0.07753016626842058,"86":0.04297290699466039,"87":0.06701221878741807,"88":-0.018122939832085582,"89":0.06956708651318894,"90":-0.0057761045251314095,"91":0.06983352293506044,"92":-0.021420367008146785,"93":0.011965782365568887,"94":-0.03882658217171193,"95":0.04938739385547356,"96":-0.05863336958131269,"97":-0.030421858202444828,"98":0.08385823801274633,"99":-0.04175405268904465,"100":0.18944678874702883,"101":0.013069134274699743,"102":0.05577122087067502,"103":-0.05251555462024578,"104":-0.03203106464442854,"105":-0.005360338759523481,"106":-0.040580712398051194,"107":-0.06519857083296111,"108":0.03921530808058808,"109":0.04985538562062656,"110":-0.02589535985029748,"111":-0.0063287314127474775,"112":0.13771273955973767,"113":0.0753810522479034,"114":0.03934039605344925,"115":-0.055561765273963344,"116":0.030635825280030945,"117":0.029445384575196663,"118":0.04565122733628111,"119":-0.03870353134752499,"120":-0.03408085190366756,"121":0.012537925766143874,"122":-0.07122399305261361,"123":0.03943945735085562,"124":0.020556400868375343,"125":-0.040232808506115464,"126":0.05186450134542993,"127":-0.0242963743763169,"128":0.03193567183177163,"129":0.041239279206351044,"130":0.014946043020608693,"131":0.07097137580716784,"132":0.001014893662194996,"133":0.07656095623751565,"134":0.0726626273527604,"135":-0.042908670119448857,"136":0.061632452053610655,"137":-0.06001866924985799,"138":-0.03754114211013349,"139":-0.021782523832000335,"140":-0.07503151554711975,"141":0.07737083585304314,"142":-0.004213201392440685,"143":0.003994992114520335,"144":0.058485463030220806,"145":-0.051670908294139624,"146":0.044149866680492235,"147":-0.00642981841654717,"148":0.00968378734094826,"149":0.03706253758520338,"150":-0.013436015248373429,"151":-0.027282010056315666,"152":0.07431611335775869,"153":-0.04872866891350046,"154":0.08548117116621277,"155":0.030929198664028528,"156":0.03373253966955452,"157":-0.0238438618389747,"158":0.10679612244245978,"159":-0.03910309559571946,"160":0.023524522427414075,"161":-0.028842253450120783,"162":-0.06342893785627808,"163":0.00577612646073462,"164":-0.07360475845036756,"165":0.004067837709065905,"166":-0.025234293292288733,"167":-0.06860104553749351,"168":-0.0034652610870174114,"169":0.018671882736511963,"170":0.012880459098560478,"171":0.03882858002283995,"172":0.11699454591503784,"173":-0.12543726071337374,"174":-0.11662845902203364,"175":0.05564153732728329,"176":-0.008852332007111822,"177":0.09394775464478729,"178":-0.018246051148211602,"179":-0.051878595089870846,"180":-0.01451521753555335,"181":0.021598060897366003,"182":-0.00182507110172616,"183":-0.025828301261258145,"184":-0.03354204706708451,"185":0.06404020271414756,"186":0.037181843067413525,"187":0.014493474468986566,"188":-0.021124458184194235,"189":-0.03428776120037506,"190":-0.07218444481151626,"191":-0.059501314239602206,"192":0.004443369250791757,"193":-0.09235385624111575,"194":-0.015611716968522728,"195":0.18218274280601068,"196":-0.02846217739537373,"197":-0.04514342469467625,"198":-0.06122154374754525,"199":0.033904537866211934,"200":-0.024609766073045807,"201":-0.04198096578255544,"202":-0.04019887684671477,"203":0.0009392234035213654,"204":-0.09770610810910534,"205":-0.0000780680232705037,"206":0.004340842101631349,"207":0.12707892070110924,"208":0.0071005696097795785,"209":-0.012857909282243575,"210":0.06021868742239909,"211":-0.02695074880526973,"212":-0.029327127491932736,"213":0.11111901199433011,"214":0.09641836027523658,"215":-0.09082851031817558,"216":-0.036156486492739615,"217":0.06544330854681732,"218":0.04091393202208091,"219":-0.048351812942109385,"220":0.035760755721102384,"221":-0.05401102185039241,"222":-0.05253195912532905,"223":-0.003907331128277736,"224":0.06345278250962322,"225":0.06646889343519023,"226":0.08095882427747299,"227":0.04774146184419368,"228":0.021048625089344995,"229":0.05444313401187303,"230":-0.06664680572328953,"231":-0.19466191203556996,"232":0.07904733764577063,"233":0.08048520661567744,"234":0.16226939310192987,"235":0.006290730157858229,"236":-0.017749883241834467,"237":-0.04420277464911746,"238":-0.04579799637520692,"239":0.10824844839222568,"240":0.03270595328861184,"241":0.002313741474034123,"242":0.06194070213073839,"243":-0.047881585415910484,"244":-0.07624313237055842,"245":-0.07309356581127169,"246":-0.036786604687764644,"247":0.000004525090935699038,"248":-0.02211715601231336,"249":0.07781360873983847,"250":-0.004767509066223657,"251":-0.04927998457135583,"252":0.17403707386689196,"253":0.007418323714793517,"254":0.08545896852808856,"255":0.04182599669438756,"256":-0.051988168423067305,"257":-0.11925725474577104,"258":-0.04920283434990816,"259":-0.11926302719053714}},{"sx":1,"sy":1,"depth":260,"w":{"0":-0.04849731665432564,"1":-0.001746802987592751,"2":0.02269020784622143,"3":0.037937465543896036,"4":-0.018789120106381275,"5":0.061811926844749704,"6":-0.05755824516861464,"7":0.03229676669408847,"8":-0.07321156607568237,"9":-0.12100467609936624,"10":0.017224121858608752,"11":-0.018304112693670865,"12":0.04086726660323625,"13":0.02964292485905447,"14":0.07900479265576817,"15":0.01759348418848263,"16":-0.015410478926148724,"17":-0.09108143873059096,"18":0.05062695536439704,"19":-0.02971236002332485,"20":-0.10640173168536708,"21":0.08681324255968036,"22":-0.061993119093574446,"23":-0.03923512096418329,"24":0.009162903558559013,"25":-0.00910819471441163,"26":-0.049887529467494425,"27":0.047984860536377946,"28":-0.04723231900422217,"29":0.02776058815809332,"30":-0.028674088518021428,"31":0.034536149423521005,"32":-0.08696816150274746,"33":-0.040500055975558946,"34":0.049438863813309086,"35":-0.027918088214426352,"36":0.026114066936891327,"37":-0.03091185386601548,"38":0.08274325249023975,"39":-0.07352832901902095,"40":0.08516661880655974,"41":-0.022865422873004554,"42":0.08516251950819567,"43":0.013300264606849296,"44":0.02170515309523034,"45":0.09895847277280763,"46":0.1256247399531735,"47":-0.03227225467848423,"48":0.07684853662147373,"49":-0.0012652067475889155,"50":0.010223380966327219,"51":0.06654729373887516,"52":-0.0022344622123648414,"53":0.10760295552747341,"54":0.10987749743758048,"55":0.03852503904358087,"56":-0.007000148252655397,"57":-0.008730990239113908,"58":-0.019736155476089822,"59":0.007199580271843235,"60":0.038188560950523746,"61":0.0598859999443567,"62":0.028390099321100603,"63":0.07521780611317676,"64":-0.12114500416520203,"65":0.09352710342031258,"66":-0.06096039883966754,"67":-0.046760640750079324,"68":0.09486955613910156,"69":0.07225864819548196,"70":-0.015926203558360878,"71":-0.030210525018933867,"72":-0.038234562871482004,"73":0.016388853145868743,"74":0.07616782468413619,"75":0.003996738698228596,"76":0.031930279420602364,"77":0.01815889452373788,"78":0.08013357508656624,"79":0.07965483287480363,"80":0.1336234331565473,"81":0.05646431627465599,"82":0.00218422471920509,"83":-0.03298758742750019,"84":0.012671180985858402,"85":-0.027690490406866556,"86":-0.010631708933177858,"87":0.05753108744268276,"88":-0.08099697924386419,"89":-0.0543998322691559,"90":-0.02173383000149801,"91":0.014825157285852734,"92":0.026527706978953246,"93":-0.1072069354687418,"94":0.019723227258573547,"95":-0.04545211268671492,"96":0.03642352619723604,"97":-0.032714047339548566,"98":0.008979678476833515,"99":0.03560211128311431,"100":0.03380792833591604,"101":0.08413995316658389,"102":-0.05060111298321543,"103":-0.004824397802895657,"104":-0.027076518896817236,"105":0.022328266451733383,"106":0.00828055353661115,"107":-0.041127508329428984,"108":-0.07867791758616384,"109":0.06664561030263219,"110":-0.04953130195720045,"111":-0.079427530934388,"112":-0.1173569410058983,"113":0.04282118746357917,"114":0.03997420387311785,"115":0.002569909130315099,"116":0.20719485142962232,"117":-0.052151689414069204,"118":0.006430503884406639,"119":-0.025759625930213696,"120":-0.08905619348862205,"121":-0.009849142695077069,"122":-0.030606983085218448,"123":-0.10425183577934813,"124":0.07761972924267597,"125":-0.08534522240707225,"126":0.045953512442471756,"127":-0.02235732431847692,"128":-0.07542600491920597,"129":0.002607091339981192,"130":-0.06330853043483119,"131":-0.006556578385305394,"132":-0.1541005079477859,"133":0.0801365453560864,"134":-0.0037757754643399886,"135":0.08970170150657594,"136":0.02303405761678743,"137":0.015308160843980949,"138":-0.005390072819015282,"139":0.007282099396247115,"140":0.13209274571299523,"141":-0.12865757703429923,"142":0.05635021349561902,"143":-0.04414827065475076,"144":0.044474462920137126,"145":-0.012957220308220383,"146":-0.004685753336303525,"147":-0.12848334466908995,"148":-0.07254358300970004,"149":-0.03595101345114908,"150":0.0503197893421026,"151":0.048800647166275225,"152":0.0934516264662641,"153":0.047848813245410994,"154":0.049827541589693276,"155":0.0033114210996380436,"156":0.0676658613467069,"157":0.12089922350882441,"158":-0.09841729016226616,"159":0.02653002696352029,"160":0.0653785300052429,"161":0.03175391699315525,"162":0.11821184112643078,"163":0.03932402839602725,"164":-0.1775808263670694,"165":0.042179341559575124,"166":0.07818895864619957,"167":-0.019808319338213656,"168":0.019220748789909772,"169":-0.14144483075977385,"170":-0.013753869564465894,"171":0.037589805156605136,"172":-0.1371046846190872,"173":0.06532865991968843,"174":-0.035584112212943685,"175":0.004542100937597263,"176":0.08140766616704675,"177":0.0836557582197136,"178":-0.03823897456237243,"179":0.07241693726624089,"180":-0.10864034556950519,"181":-0.04435775136332078,"182":0.06794072996457082,"183":-0.025381568664854994,"184":-0.05992281572342723,"185":-0.02648768267207453,"186":0.12404098071129604,"187":0.05754244773206336,"188":0.013288143788649166,"189":-0.07303717804105986,"190":0.01768807713857737,"191":0.03827962132717572,"192":-0.022622632665700828,"193":-0.08713732779945252,"194":-0.052534911993102465,"195":0.05844834571751671,"196":0.015303233845538305,"197":0.05986911079876358,"198":-0.03860795429735814,"199":-0.06851011945983518,"200":0.03564437532455689,"201":-0.04153768043466433,"202":-0.03194511618171341,"203":-0.08396468499915592,"204":0.06387677604791332,"205":-0.03905700647381141,"206":0.052778649309005395,"207":0.10929055576732927,"208":-0.08905305470722975,"209":-0.032647812483315684,"210":0.04568128408372961,"211":-0.02180107500971341,"212":-0.04031150787363274,"213":-0.007421540989244735,"214":-0.013532656891070742,"215":0.046553956187287505,"216":0.06669860685107354,"217":-0.08211806047056813,"218":0.06307601263257162,"219":-0.020633651921838674,"220":0.012668645522882575,"221":-0.06158267206935236,"222":-0.028701828850901015,"223":0.03935158699063127,"224":0.09280721814132903,"225":0.0024221512473771734,"226":0.09650184630668374,"227":0.053288871199562764,"228":0.04305089392453067,"229":-0.047443611802828536,"230":-0.008407906266770241,"231":-0.01939596291567301,"232":-0.07386768270602057,"233":-0.015609689403846274,"234":-0.08001690803105761,"235":-0.03724548187950738,"236":-0.06135455407989217,"237":0.06342414659294564,"238":-0.029127584779216006,"239":0.03133638005349848,"240":-0.0036598972409034296,"241":0.037984601919300094,"242":-0.055392265401023946,"243":0.05101609403582956,"244":-0.12753241668754528,"245":0.05463727378929117,"246":0.06353154565790685,"247":0.08750700915778944,"248":-0.07638744712336443,"249":0.009257570009210516,"250":0.03395943925425122,"251":-0.08715556745555267,"252":-0.029288902451798427,"253":-0.1002035588699179,"254":0.01958318932711761,"255":0.025071286743961262,"256":-0.01759050904180276,"257":0.011969354919485085,"258":-0.06586517258065079,"259":0.043236921839593455}},{"sx":1,"sy":1,"depth":260,"w":{"0":-0.08048168120726006,"1":0.0428724785359953,"2":0.0042247265387397575,"3":-0.017363453920727804,"4":0.024541210600244796,"5":-0.021982777107544385,"6":0.03501195099319891,"7":-0.026314121014407315,"8":0.0012361995349502624,"9":-0.011980277358752314,"10":-0.09879269829011873,"11":-0.0050202312863139404,"12":0.08384047555715057,"13":0.011587176538831949,"14":-0.030867725252071553,"15":0.018958290174561757,"16":-0.01625727596469956,"17":0.055287578211915676,"18":0.01589789286956507,"19":0.030085685164463635,"20":-0.05173083990027259,"21":-0.04510566526463126,"22":-0.11340661388823373,"23":-0.014663504296473454,"24":0.06056980458041976,"25":-0.05114536924109421,"26":0.05998749735106454,"27":-0.035164712809954125,"28":-0.05827629695926149,"29":0.09838306684109129,"30":-0.03873805029937845,"31":-0.09694666718939694,"32":-0.06775065223085888,"33":0.004597118709744842,"34":0.0782383316049295,"35":0.08921420664324275,"36":0.05030812986649522,"37":0.12899474012885806,"38":-0.037099581919899,"39":0.06619614205990658,"40":0.018894712916950992,"41":-0.0660927161271785,"42":-0.01519871438557735,"43":-0.06034190698430683,"44":0.006384585334675779,"45":-0.04837689957196848,"46":-0.036156803422750745,"47":-0.02828247101885242,"48":-0.013326741762901193,"49":0.0005136915844332297,"50":0.08572804578247271,"51":-0.045226354876109195,"52":-0.023468743499175524,"53":0.016449978299765928,"54":0.060084885910878724,"55":-0.06222014973738568,"56":0.10744742632798276,"57":-0.0057808828271445276,"58":0.09516461035561077,"59":-0.0018471704540266288,"60":-0.008320123145522638,"61":0.10938452588220945,"62":-0.11266380139753027,"63":-0.0017344541878228298,"64":-0.1433000769834561,"65":-0.06604574648166812,"66":0.025002323355091876,"67":0.0029879402272033184,"68":0.05693336357644602,"69":-0.07610333235799964,"70":-0.00896491317022503,"71":0.018292426150768783,"72":-0.09993157233207073,"73":0.03868474383835659,"74":0.049989202172193874,"75":-0.0927097377439325,"76":-0.05186873535969222,"77":-0.1608751285704375,"78":-0.026301117191225125,"79":0.02036871228958709,"80":-0.02340495633396294,"81":-0.006922489016699293,"82":-0.013884454756663236,"83":-0.005082101683259293,"84":0.08392639634619277,"85":0.00249163630667048,"86":0.05437316048801976,"87":0.013732636836314897,"88":0.07182788388285466,"89":-0.028782467810865194,"90":-0.009047780507978415,"91":0.11594994344157519,"92":-0.05689822859069783,"93":0.007224890877847898,"94":-0.08723863754484264,"95":0.055639461170121716,"96":-0.0029863755083810437,"97":-0.009639211723377734,"98":-0.09711521919370802,"99":-0.011335243636507484,"100":0.008482711096970796,"101":-0.021679319933914636,"102":-0.07543347640301447,"103":0.007428031073708614,"104":-0.08491741286444775,"105":0.07894247291638251,"106":0.0023313650122730135,"107":0.07612868399415577,"108":-0.1381380644693371,"109":-0.026076931232009996,"110":0.001869074395901439,"111":-0.052212370575653325,"112":0.06568402850392444,"113":0.06029538781675397,"114":-0.018161886671910106,"115":0.028506582797389195,"116":0.040087837989976734,"117":-0.12053407245947141,"118":0.032929971751659196,"119":0.05645218102708889,"120":0.009211608743338881,"121":0.13578612591422373,"122":-0.05401167003347611,"123":0.04759766816443602,"124":0.07415848585841735,"125":-0.006051399534253023,"126":-0.05032202579085546,"127":0.10746787498615372,"128":0.06027520541855684,"129":0.004794227250095583,"130":-0.06286099378868652,"131":0.05540125878497164,"132":0.07029962231641086,"133":0.021444497869739253,"134":-0.04638437879747456,"135":0.015184442981102365,"136":-0.007876917341528582,"137":0.01728710418027451,"138":-0.016174354557462543,"139":-0.062282432113954594,"140":-0.026400488369909724,"141":0.025311921016272276,"142":0.1410590646425764,"143":0.087462175868719,"144":0.0020376477448328222,"145":-0.08708193857403207,"146":0.03414981005724014,"147":0.019519353330323334,"148":0.0763525717851391,"149":0.0009472180306398816,"150":0.003574154477280965,"151":0.005646447741718612,"152":0.11643074973196704,"153":0.021989962404608394,"154":-0.005215225375089095,"155":-0.0836557503546197,"156":0.13047021146182228,"157":-0.05513211665269281,"158":0.05080363468654171,"159":0.05943412897427701,"160":0.04586581646477395,"161":0.10542233727734547,"162":0.07592798932977007,"163":0.05193831502449463,"164":0.010926907383717698,"165":-0.026499855452378627,"166":0.033279128555602944,"167":-0.03101103004232147,"168":-0.0480164051640286,"169":0.004290892089393078,"170":-0.04487566046002142,"171":-0.06837751580175666,"172":0.050977851795541006,"173":0.06566776815369006,"174":0.03616967567133985,"175":-0.1226244886237389,"176":0.0141653220165992,"177":-0.013121244661101981,"178":-0.09228598655470482,"179":0.04425855516492598,"180":-0.008066521071638372,"181":-0.05034928550725624,"182":-0.06635152058479456,"183":-0.0640551319067591,"184":0.037304240317905586,"185":0.029249779487683963,"186":0.03338234965376588,"187":0.028623059918728447,"188":-0.10252217171787294,"189":-0.02031678628641721,"190":0.0033196328582200648,"191":-0.0413593193003306,"192":-0.15809819570850445,"193":0.035264686501033836,"194":-0.018231856705581962,"195":0.04045844735079441,"196":-0.11313987755039805,"197":0.057722355523600416,"198":0.014399959307220775,"199":0.011454407097024636,"200":0.10686719080746991,"201":0.006122904833412991,"202":-0.0492160834284659,"203":0.046914509081617393,"204":-0.05645775613060678,"205":0.05992069003408273,"206":0.05474389846567963,"207":0.06861798925868162,"208":0.07979290106540425,"209":-0.011317519452291746,"210":0.08597586945500885,"211":0.10349896554898318,"212":0.0014659843515515563,"213":0.02862928700254297,"214":0.07349246244136191,"215":-0.03749767556432922,"216":0.08083162193287054,"217":-0.09589664983190793,"218":0.055425855099250305,"219":-0.10047028752069519,"220":-0.09753258561521003,"221":0.060328436186311056,"222":-0.017311679983640218,"223":0.02487380070132936,"224":-0.07556855265217327,"225":-0.012909362971006618,"226":-0.003625131742621287,"227":-0.05944776373896506,"228":0.0182618324213438,"229":-0.009924202423257783,"230":0.022481306615867808,"231":-0.04124568891278569,"232":0.16430615375962013,"233":0.03155006811552868,"234":0.030524674077681734,"235":0.06598390749478204,"236":0.019827599364474723,"237":0.04343861355130995,"238":-0.04193466056544338,"239":0.07937974170186136,"240":-0.04914898725022387,"241":-0.019111189990892365,"242":0.03794956377219294,"243":-0.08730645370825788,"244":-0.041699024987531245,"245":-0.09375195108941316,"246":-0.08092997587362405,"247":-0.06679529749198118,"248":0.0150938770151636,"249":0.042834107646078944,"250":-0.01705263570751526,"251":-0.009515994258491702,"252":-0.06530606946931969,"253":0.0614648799729106,"254":-0.030518164347877054,"255":-0.009002744922809813,"256":-0.019937497408986118,"257":-0.009298831459326879,"258":0.037399749157227234,"259":-0.06251420868063143}},{"sx":1,"sy":1,"depth":260,"w":{"0":0.05718681284808423,"1":-0.070555265941442,"2":0.09659119455772168,"3":-0.05211111309769448,"4":0.08955526967543358,"5":0.024748000048709487,"6":0.07853880433954305,"7":-0.07470257932584407,"8":-0.10979369646904069,"9":0.031962731636019114,"10":0.07896764174143486,"11":-0.006101367698088835,"12":-0.07954296243747473,"13":0.0917239483394859,"14":0.05441847678875915,"15":-0.024408191594785168,"16":0.0026816019112879193,"17":0.024778215341504647,"18":-0.0708578215945623,"19":-0.06537128271700517,"20":-0.11601224133187787,"21":-0.002708099275247791,"22":-0.012449951748558282,"23":-0.0042134083295202055,"24":-0.06343024541120904,"25":0.04257244137662002,"26":0.04110574915805502,"27":0.07082013035625966,"28":-0.11851860315076089,"29":-0.026058902969700388,"30":0.10842603350935287,"31":-0.07664196281323292,"32":0.07302219278704272,"33":0.010808904803033332,"34":0.024673184025268417,"35":-0.023541485340765216,"36":0.020385767528210814,"37":-0.08810996761919888,"38":-0.05289625039332169,"39":-0.0726384208951999,"40":-0.012367015767767397,"41":-0.09129888801184337,"42":-0.025022585705954652,"43":-0.04405354881125437,"44":-0.05697240826400985,"45":-0.007797550813763075,"46":-0.14502679964619045,"47":-0.07621010514107156,"48":0.07604488825299384,"49":-0.06100213454669432,"50":-0.1027116543547388,"51":0.03499682045463381,"52":0.016048182055576787,"53":0.07595102172290753,"54":0.07582584210786426,"55":0.008731805263546276,"56":-0.04458886268419466,"57":-0.15397421343566892,"58":0.007986862267255975,"59":-0.07846670330308339,"60":-0.021532347527380195,"61":0.006697871482702083,"62":-0.09253483106035447,"63":-0.005918681076934089,"64":0.013216796760512689,"65":-0.0028499572386604544,"66":-0.12132030125859831,"67":0.032862111020066434,"68":0.03677869951404026,"69":-0.021648384055464945,"70":-0.14880347871919386,"71":0.017180491332186736,"72":-0.017941675917857756,"73":-0.040389624057399286,"74":-0.050200325447413936,"75":-0.03558630488417147,"76":-0.03508331013923722,"77":0.009719698445017324,"78":0.06452831180052265,"79":0.017989009605352057,"80":0.08431688341509094,"81":0.0753167089149065,"82":0.13425608305199416,"83":-0.044324925331625485,"84":0.07629887513380387,"85":-0.05780132866521267,"86":0.04236760745067918,"87":0.024501805636880303,"88":-0.055331337942094445,"89":-0.07059294851941483,"90":0.03798500515300587,"91":-0.01293798486690792,"92":0.04049935268722805,"93":-0.01754442769740558,"94":0.043856981332151504,"95":-0.07071569045643725,"96":0.02786977429513771,"97":0.07227533538171281,"98":0.022550113777215063,"99":-0.03271706962583005,"100":0.08567522934986978,"101":-0.02083867290989647,"102":0.12668155957383104,"103":0.06873455260122097,"104":-0.06463261450589751,"105":-0.07365798468051325,"106":-0.013144993870334526,"107":-0.10057093194010934,"108":0.11637359167713367,"109":0.06338737861971169,"110":0.07836647015367591,"111":-0.020592627174951843,"112":0.006350745557205128,"113":-0.10486308076015145,"114":0.01895166080767715,"115":-0.08542483057742953,"116":0.0678101487000879,"117":-0.07337386349212494,"118":0.10728374030346854,"119":-0.09327421610497037,"120":0.0501960775548109,"121":0.05220870563720054,"122":-0.05734472352747922,"123":0.07575278585869881,"124":-0.042183330930103555,"125":-0.07793310460931771,"126":-0.03436230005191293,"127":-0.000514943419358354,"128":0.026197151567116897,"129":0.08161245934807529,"130":0.06393504683698818,"131":-0.06176723752148349,"132":-0.007058434009835456,"133":-0.012230715696995315,"134":0.004669692956836048,"135":0.07055589789237691,"136":0.03454810653549559,"137":-0.018690738005115996,"138":0.06699338391100729,"139":-0.030597101620945828,"140":0.006553727004939209,"141":-0.0487152365919585,"142":0.023505980584700836,"143":0.020095106000820328,"144":-0.0369904325906725,"145":0.09655754696279183,"146":0.12792931472915642,"147":0.028068589572628977,"148":-0.08294453200448018,"149":0.0578540660731975,"150":-0.005451191343984858,"151":-0.04092618808070479,"152":-0.056110219606384806,"153":0.015594904117768957,"154":-0.10115066171119871,"155":0.001045944992778304,"156":-0.01851774385644515,"157":0.022134923830964843,"158":-0.08104054993668965,"159":-0.05547664298971386,"160":-0.07956400012399356,"161":0.0773126644349908,"162":-0.12801674687795134,"163":-0.0225621649761595,"164":0.045906324978285104,"165":-0.012085328400699603,"166":0.0985607800155449,"167":0.02212147675783118,"168":-0.10727879450512305,"169":0.10471502092943144,"170":-0.02448667295824354,"171":0.019976795634957235,"172":0.013712940217282543,"173":0.011772172489607987,"174":0.013332276094241268,"175":0.045410861335811174,"176":-0.17235942380033845,"177":0.02110062550431438,"178":0.01883944915212873,"179":0.028028571208279923,"180":0.11585620966142897,"181":-0.04929372319807407,"182":-0.09813319617223848,"183":-0.12732869282375878,"184":-0.055361244278246236,"185":0.03402048753988088,"186":-0.08436809418258542,"187":0.0000028025104456782484,"188":0.1090702030704795,"189":-0.025471733300050495,"190":0.016571134983921442,"191":0.03645228282524585,"192":0.011276659769902758,"193":-0.10306558976065926,"194":0.019826379628695552,"195":0.009086256957120939,"196":0.06570177885671262,"197":0.0024044778670041685,"198":-0.046809742104743424,"199":0.1145963875450008,"200":0.03387098160921397,"201":-0.10176793798999727,"202":0.055882500117943386,"203":-0.11060237790846575,"204":-0.11941552317491128,"205":0.05493299912968348,"206":0.09527405245631049,"207":-0.025169327999015008,"208":0.018034062966585995,"209":-0.059850808097659636,"210":-0.013366005755298935,"211":-0.06084614552390126,"212":-0.015057456312219044,"213":0.07084923062735599,"214":-0.10358446177643968,"215":-0.01682419586934046,"216":-0.02751780809103183,"217":0.1019215549026473,"218":-0.009076095867895286,"219":0.02968024687515846,"220":-0.004551492213595958,"221":-0.00713642527164746,"222":-0.022531993862208125,"223":0.062384072587208864,"224":0.035065751808335245,"225":-0.002304162080034804,"226":0.04743853420104133,"227":0.0011448374975526988,"228":-0.056780001890660445,"229":0.11381359483407248,"230":0.010580495852598999,"231":-0.06931444552162423,"232":0.0015662313269662778,"233":-0.09840757769629264,"234":-0.029879601481293358,"235":0.059884733851323355,"236":0.029167654578715833,"237":0.14096095119118457,"238":0.034977593552848726,"239":0.12570221790026476,"240":0.08986524856092831,"241":-0.0977809991900413,"242":0.11817619334249221,"243":0.01649449231146022,"244":0.03165157710992684,"245":-0.04319216121767059,"246":0.04226106789213512,"247":-0.06463821286115902,"248":-0.03140046832045365,"249":0.032614754175734645,"250":0.020495837180026847,"251":-0.05131630534950207,"252":0.03962768793694575,"253":-0.05363439267836263,"254":0.005713359692485779,"255":-0.12450085320141209,"256":-0.07715438308154185,"257":0.09665641992911739,"258":0.05087655442388693,"259":0.064442472989806}},{"sx":1,"sy":1,"depth":260,"w":{"0":-0.026882396743980796,"1":0.03659401086447008,"2":0.014046592471690341,"3":0.03924360113026769,"4":0.057631942416652454,"5":0.03262447489474593,"6":-0.04857195962717349,"7":0.06342425211795819,"8":0.008798017185853053,"9":0.029002409761796792,"10":0.004747101383490323,"11":0.052102406409941175,"12":0.00794546891336911,"13":0.05469578112135274,"14":-0.03673113663496547,"15":-0.08286072724155615,"16":-0.05851675745352809,"17":-0.00010047707383632408,"18":-0.017448713448972995,"19":0.02612479128956409,"20":-0.05244374983083882,"21":-0.018251941662570777,"22":-0.045644913697351734,"23":-0.015888880917575142,"24":-0.06304263378227029,"25":-0.037920788032269566,"26":-0.0358916033759916,"27":-0.05862903222747955,"28":-0.01343286839057515,"29":0.004050000345552134,"30":0.0028863424232314695,"31":0.0534266485973991,"32":-0.03458907758132046,"33":0.041068094091977404,"34":0.024197020786386206,"35":0.022187940884392267,"36":0.13796949815939308,"37":-0.08413680433610392,"38":0.05592069812335785,"39":0.013341247836147692,"40":-0.08219155054995105,"41":0.03221174545392883,"42":0.044190385169428546,"43":-0.07731300282832315,"44":-0.10989855320817499,"45":0.04607152271515741,"46":0.06364998400880714,"47":0.08814676668762285,"48":-0.0836785707037648,"49":-0.021924152767087434,"50":-0.014650052471081018,"51":0.08906294362496464,"52":-0.015629417741319422,"53":0.030970161468335426,"54":0.027872853981726536,"55":-0.04457935114419409,"56":-0.003864635869916306,"57":-0.0497997414046594,"58":0.06899551179257389,"59":0.056180469320811166,"60":-0.20020988271917065,"61":-0.035388699225578774,"62":-0.004662107389622417,"63":-0.08754327153509432,"64":0.07906794322810645,"65":0.03785406982259317,"66":-0.00006020135728074433,"67":0.03553912184203412,"68":-0.008497140376481006,"69":-0.09855849737274054,"70":-0.04141534121513531,"71":-0.010789294803107677,"72":0.06761237224676268,"73":-0.05426119914709897,"74":-0.01778474574105818,"75":0.0015931424847998139,"76":0.059375677919570116,"77":0.024748026828900944,"78":-0.035144520094055505,"79":-0.05304698780777674,"80":-0.08473447950777067,"81":-0.0019014335593614843,"82":0.13422056215517764,"83":0.024898549028990653,"84":0.022071638896013265,"85":-0.008629387756407857,"86":0.08175854885173792,"87":-0.04200851994722693,"88":0.03192359060435354,"89":0.02679385952142531,"90":0.0008666489186502271,"91":-0.0007867118217404144,"92":0.028730583784533883,"93":0.05530089924539698,"94":0.08210732070860276,"95":0.04212920351655983,"96":-0.104208806658877,"97":0.002144428835716669,"98":0.01680781599628541,"99":-0.04094803492879712,"100":0.0025181863376862804,"101":0.10334417521520302,"102":-0.027139531794006792,"103":0.11602417097180459,"104":-0.09836184595682236,"105":0.11584503728187395,"106":0.005416082993368981,"107":0.14874309917330264,"108":-0.11463398376831062,"109":0.019154594809532927,"110":-0.07911581154383825,"111":-0.08885022620465706,"112":-0.05579089140879757,"113":0.02338560489164357,"114":-0.1370936725941351,"115":0.006090880548685663,"116":-0.031551021138770376,"117":-0.01661764033795839,"118":-0.07444579270340518,"119":0.10092843289259239,"120":0.002072564573317228,"121":-0.051278854772493325,"122":0.02065002909253738,"123":0.005999253084791676,"124":-0.02520881702074193,"125":-0.009931500138033515,"126":-0.0308376292526809,"127":-0.08394706566633657,"128":0.009407463860843521,"129":0.08855381173592682,"130":-0.07592754468126994,"131":-0.11542089374058838,"132":0.06801189192762284,"133":0.03994435577929796,"134":-0.010120611766712528,"135":-0.02319483714623682,"136":0.051693075375152886,"137":0.04970703312769645,"138":0.05250565025579968,"139":-0.04954727462335276,"140":0.02265956213234123,"141":0.007195203896149609,"142":0.06415906832713643,"143":-0.006600542578133298,"144":-0.0015158972361881211,"145":-0.023016623815718885,"146":0.07310422963338097,"147":-0.13130450293825446,"148":-0.017312141050743562,"149":-0.029150622025857904,"150":-0.10254130658537133,"151":0.0716273008790867,"152":-0.01901379627872491,"153":0.030285656821851595,"154":-0.007069452565995449,"155":-0.009336549423987312,"156":0.03849233554369326,"157":0.07390733903921932,"158":0.009534394247810468,"159":-0.06517069525494015,"160":-0.051928815237622335,"161":-0.0927911396054354,"162":0.05546968152338274,"163":-0.04450814254212822,"164":-0.04473427327734621,"165":0.01765710609011254,"166":0.07817603234275744,"167":-0.05973298488874736,"168":0.035203220891350216,"169":0.0791899947063403,"170":-0.005888302663826128,"171":0.005333957003138782,"172":0.0648142601542485,"173":-0.06152074745606799,"174":-0.031021692465299414,"175":-0.018215068343072443,"176":0.010847845767643725,"177":-0.07582080385631378,"178":-0.01395487080773291,"179":0.013964613514635555,"180":-0.024842303079909908,"181":0.050877737349757535,"182":0.13201142318379883,"183":-0.08102698131539272,"184":0.019227294564490415,"185":0.020376412902794086,"186":-0.015414800143186826,"187":0.04267631753711151,"188":0.055189797683412777,"189":-0.005333144010056037,"190":0.09365086272690197,"191":-0.04509146911133098,"192":0.023328379970727873,"193":0.07400873254504468,"194":-0.03547891069587145,"195":0.0040156138688842834,"196":0.060785527085026866,"197":0.02696496013952047,"198":0.04060798660750378,"199":-0.0306951795228585,"200":0.09691702875169735,"201":0.04809574734680532,"202":-0.02086911191121485,"203":0.015230898328699956,"204":0.13852404702727505,"205":-0.07329500115576967,"206":-0.041616440885879694,"207":0.06570355647481987,"208":-0.03512806529482568,"209":-0.05709588305672888,"210":-0.06528111278073534,"211":-0.016733409387068222,"212":0.06707683547322729,"213":0.01071450681704256,"214":0.03136015477703712,"215":0.10688240185733262,"216":0.0397409281266023,"217":-0.013507779162061435,"218":-0.018844713308926703,"219":-0.04690407505864094,"220":-0.07875476516514168,"221":0.08854154018661724,"222":0.055890656831756626,"223":0.062495670545901244,"224":-0.013468447336506111,"225":-0.005820420730589269,"226":-0.07464574522438261,"227":0.06448058312144528,"228":-0.06942699792109264,"229":0.010979180804458267,"230":-0.1645185248933676,"231":0.07149948946372972,"232":-0.03516639582407781,"233":-0.020481522024513876,"234":-0.013025942322777689,"235":0.010347569029943932,"236":-0.07552588474336461,"237":-0.13648326225996824,"238":0.013216407691131813,"239":-0.022344194823845358,"240":0.053000297173957926,"241":-0.11692653561858563,"242":-0.06351828682348243,"243":-0.07210344158798065,"244":0.10197098919463131,"245":-0.09151348493461543,"246":0.06873225979557093,"247":0.1104419558460922,"248":-0.09902337201976891,"249":-0.07097147475247945,"250":-0.09462490938951727,"251":0.03448330035483501,"252":0.0018080393618950348,"253":-0.014093175917487622,"254":-0.07561592331394704,"255":0.05305112739726303,"256":-0.07649767117346211,"257":-0.04310314414066705,"258":0.014956422601768892,"259":0.006701846723244156}},{"sx":1,"sy":1,"depth":260,"w":{"0":-0.045802411542149854,"1":0.05294378805505107,"2":-0.06511623935746036,"3":-0.06509719132445133,"4":0.0817813451723081,"5":-0.1553829437817142,"6":0.019596454457777007,"7":-0.02854159653840452,"8":-0.008432091590905308,"9":-0.009865744247432437,"10":-0.010102693203877777,"11":0.04052324668182177,"12":-0.023589689821236288,"13":0.061476977097887985,"14":0.09146187857773717,"15":-0.03706923218974399,"16":-0.06509519677321737,"17":-0.024489360321251354,"18":-0.00025752966488102973,"19":0.01723338994829318,"20":0.014132124942792288,"21":0.08906868369981202,"22":0.10441607499508604,"23":-0.02126100088526394,"24":-0.027939739233320948,"25":0.05395453214244087,"26":-0.10227241181333595,"27":0.06953027712228743,"28":0.0003437669852475389,"29":-0.07221854540921716,"30":-0.00551569162885465,"31":0.08009984311292022,"32":0.04628248822105891,"33":-0.05515491078932108,"34":-0.0032401995493294583,"35":-0.006887156725921651,"36":-0.023233038187663695,"37":0.007140938702004159,"38":0.06493292064713978,"39":0.0413889818024404,"40":0.0983583940719099,"41":-0.014561870700821431,"42":0.03838323126600973,"43":-0.020609126536509415,"44":0.0007056634291847488,"45":-0.053455645967324744,"46":0.04922891480004009,"47":0.038206091262014845,"48":0.03394213064699688,"49":0.02245613359243467,"50":0.012677832113745749,"51":0.06159051954760193,"52":-0.09526082464978314,"53":0.04114885262289716,"54":-0.00264725036059287,"55":-0.05712451069071201,"56":-0.0032069129246019303,"57":0.06292324936043696,"58":-0.07824250515872902,"59":-0.042015638340058996,"60":0.03431386695406901,"61":-0.03391362747770084,"62":-0.006854551007238938,"63":0.0410321152212741,"64":-0.07050477018126852,"65":-0.0505423129465425,"66":-0.05884302161179705,"67":0.019157827606366154,"68":-0.0033177416646730305,"69":0.05173946318516073,"70":0.0538742144233612,"71":0.08082215192909073,"72":0.0008764517952248407,"73":-0.14993538416528926,"74":-0.053918192131727445,"75":-0.04318664706726619,"76":0.024680888555735813,"77":0.05307967058570356,"78":0.010811613715215614,"79":-0.09875876702998455,"80":-0.017965869295147093,"81":0.08129633986690837,"82":-0.06301686870616952,"83":-0.11246063714825807,"84":-0.08141635928287728,"85":0.00779691223566367,"86":0.15535479315865866,"87":0.006689090182465102,"88":0.020368790247440732,"89":-0.09052374237463587,"90":0.07067905064816726,"91":-0.09526538128942055,"92":0.07203556618296947,"93":0.025242821021494322,"94":0.038183977798300336,"95":0.018474321816316214,"96":-0.1364433583917005,"97":-0.05576036087471284,"98":-0.025700587665332297,"99":-0.048574300866866774,"100":0.003732972550783817,"101":-0.06418298033644855,"102":-0.03906728949801976,"103":-0.049008415973543225,"104":0.011288131028626974,"105":-0.05781036847434787,"106":-0.004206800207013999,"107":-0.025721030674329667,"108":-0.11092585138422659,"109":-0.058704630433092125,"110":-0.00862183043256523,"111":0.04859894505330679,"112":-0.12203854195550107,"113":0.02969598474995437,"114":-0.01305904196575042,"115":-0.05021723615031827,"116":-0.012827271387418408,"117":-0.06793553656409054,"118":0.05871599569232063,"119":-0.02256820950265397,"120":0.019560535593288398,"121":0.06611656908651484,"122":0.12764967658454343,"123":-0.06483354668910597,"124":-0.06718558773828268,"125":-0.1340730432457379,"126":-0.07568616741324381,"127":-0.06491829505662597,"128":-0.02843975042831456,"129":-0.010474313583866662,"130":-0.033729842459363994,"131":-0.08395916298280487,"132":0.004721796283169922,"133":-0.05404960553239396,"134":-0.08147950048485814,"135":-0.02958668452093625,"136":0.05150236440954399,"137":-0.04812542812023361,"138":0.08072192578258987,"139":0.06902544134042111,"140":-0.07580473212240002,"141":0.02779934660401816,"142":-0.07806201027426488,"143":0.06563709063420949,"144":-0.09770043136988808,"145":0.04316973738700212,"146":0.005085133003134553,"147":-0.005505683777614889,"148":-0.007976844709216379,"149":-0.07143460427401263,"150":0.06485460760785694,"151":-0.04916578850442895,"152":-0.07125839219606618,"153":0.016589052729989236,"154":-0.043723384987371404,"155":-0.0070983181446719985,"156":0.05721184600381712,"157":-0.05955389495537457,"158":-0.008716745539387616,"159":0.0516162779244868,"160":0.07931707986469994,"161":0.016787862519395173,"162":-0.008921737155962147,"163":-0.05686877510817427,"164":-0.05181082376694641,"165":-0.04787931070571859,"166":-0.06254404675939568,"167":-0.018928659595334147,"168":-0.017298962099598972,"169":-0.017779211032340658,"170":-0.039938165487778704,"171":0.0023431401711229522,"172":0.0042853505136197885,"173":0.018479023720609226,"174":0.04768042821948649,"175":-0.11434170318333406,"176":0.08546000372079984,"177":0.1117824491453424,"178":-0.0161109814566757,"179":0.008722464385576972,"180":-0.001990147600125797,"181":0.08118689379631865,"182":0.030277117365611218,"183":-0.02105529786264763,"184":0.04366598795422329,"185":0.08381608204462045,"186":-0.008485084195723512,"187":-0.0018962048400216651,"188":-0.014307234499453276,"189":-0.09116749656737674,"190":0.026374161352849233,"191":-0.11232325597688578,"192":0.10669757998423872,"193":-0.029966582231023928,"194":0.0873009408547136,"195":0.030215496185646267,"196":0.053045884692000875,"197":0.007961108939419178,"198":0.046034079373485436,"199":-0.0837547899778799,"200":-0.021043081220871705,"201":0.054628874011670034,"202":-0.03597981887837576,"203":-0.0021211288934807064,"204":0.051723804569466285,"205":-0.1538176435286606,"206":-0.03729558901750221,"207":0.050430851698391545,"208":-0.011925769319336154,"209":0.048433955388065726,"210":-0.17105763764193696,"211":0.07787661264900048,"212":-0.21179154718562032,"213":-0.07264644444222386,"214":-0.09905268602301369,"215":-0.025370814637129965,"216":0.06376867492636781,"217":0.07303097672831935,"218":-0.006723149714038583,"219":0.005535435377485984,"220":0.06495637304535283,"221":0.026355360237821923,"222":-0.13337119683149234,"223":0.008040539526001405,"224":0.027941526967029763,"225":0.018801265643548313,"226":0.025044665025014543,"227":-0.04868799624128398,"228":0.09089023962984068,"229":0.023405178589324702,"230":-0.04235508451086726,"231":0.06950728349699908,"232":-0.04141108147622031,"233":-0.12696808506150545,"234":0.06103551639370994,"235":-0.07544850723295926,"236":0.15311259855836576,"237":-0.03115495469077414,"238":0.025471614738523555,"239":-0.05009329985762853,"240":0.018768591266917288,"241":0.017513594261467737,"242":0.020391443688293966,"243":0.017213316827875483,"244":0.055760404195203415,"245":-0.017111264941119836,"246":-0.05518313914066229,"247":-0.04069975082131602,"248":-0.021206505731679474,"249":0.08241979654061483,"250":-0.019337214273283446,"251":-0.04248231482617828,"252":0.11122081907352271,"253":-0.06929426622079708,"254":0.0788624991994846,"255":-0.03605907334551987,"256":0.004725539991741637,"257":-0.007000166953214994,"258":-0.04127323845915116,"259":-0.02364230524560755}},{"sx":1,"sy":1,"depth":260,"w":{"0":0.030441225436157883,"1":0.012513250499800366,"2":0.038135221592351366,"3":0.07807179010838702,"4":0.000845047520819965,"5":-0.02921659698952244,"6":-0.03413881440563031,"7":-0.023195174170458542,"8":0.02173091877552441,"9":-0.041136469991257946,"10":-0.10968226479912864,"11":-0.007433854906695589,"12":0.004575170737453995,"13":-0.13883030819719894,"14":-0.0012234689624956178,"15":-0.05828119314067735,"16":-0.02843713631712826,"17":-0.037858563826879355,"18":-0.05955085157615858,"19":-0.007979571469535696,"20":-0.2075179591936204,"21":-0.031023984007453816,"22":-0.0017535285392432573,"23":-0.015560669993749698,"24":-0.0598722506256825,"25":0.004196719283301331,"26":0.05795117148625622,"27":-0.005628097433308622,"28":0.004092918146919179,"29":-0.04434198952144964,"30":0.002172044203091651,"31":-0.04651413098336397,"32":0.011767943321393495,"33":0.024029875407048686,"34":0.05616358930128496,"35":0.042324205946266395,"36":0.04640030422567876,"37":-0.06015737869766469,"38":0.08918619609523805,"39":-0.06835126100052448,"40":-0.11255336969616263,"41":0.06059956426990394,"42":0.06221873745524403,"43":-0.07531924629974489,"44":0.12542590621670788,"45":0.06980905269020542,"46":0.025985101205469006,"47":-0.06496038578250432,"48":-0.09074905372249802,"49":0.03613201536364687,"50":0.017152993859240205,"51":-0.07196203896461739,"52":0.013745021394861948,"53":-0.00861969392162113,"54":0.0516863623909874,"55":0.022925709121352913,"56":0.02318863556102011,"57":0.00109563009606804,"58":-0.0826101259652077,"59":-0.01635623826918844,"60":-0.040224736021723266,"61":0.1050258287478276,"62":0.004955813263784329,"63":0.04003001249180945,"64":0.022679801379898463,"65":-0.03583280776411477,"66":0.0033303050663706646,"67":0.013108405535466184,"68":0.12409442216839724,"69":0.021017824008426753,"70":-0.12391951020531883,"71":0.01295203398118785,"72":-0.015065117330256195,"73":0.045878348289219203,"74":-0.01838741212140449,"75":0.09503312459136276,"76":0.008724011184017184,"77":-0.0911143529156521,"78":-0.04178826287766447,"79":-0.04158315727509244,"80":0.016688922247714084,"81":-0.012437933765897512,"82":0.02127433389929532,"83":-0.049173250931983166,"84":-0.04369157407154269,"85":0.0169014563861623,"86":0.03817098537193558,"87":-0.04697484109232619,"88":0.0514093977957812,"89":-0.015397665135673052,"90":0.07180577109477473,"91":0.008331827991737609,"92":0.12852513724408915,"93":-0.0766637832059569,"94":-0.049029614023350654,"95":-0.12468910026317667,"96":-0.06689141324670808,"97":0.035225377321117336,"98":-0.15552272779277662,"99":0.0471009137802002,"100":0.0055741843140741125,"101":0.11364325468937078,"102":-0.01845044370455139,"103":-0.031059021027460988,"104":-0.15311122663143742,"105":-0.046140206637864466,"106":0.06560512165982764,"107":0.037958341174138564,"108":0.0030486753859387743,"109":0.050244084477386035,"110":-0.007023857559302411,"111":-0.11743707667991957,"112":0.09793943583690384,"113":-0.0985122866138301,"114":-0.04813683421234256,"115":-0.06756961066369431,"116":-0.10699521072802426,"117":0.015239837761602482,"118":-0.02151992442308507,"119":0.08633888868869637,"120":-0.022877771245387868,"121":0.012750161097215358,"122":0.03197471950049347,"123":0.013637292822388106,"124":-0.02582102151711612,"125":-0.07147531165013862,"126":-0.031722478464663036,"127":0.024834858833764614,"128":-0.083804317202511,"129":0.03420560662320971,"130":0.00491630895378334,"131":-0.0579333632149658,"132":0.01934774541355833,"133":-0.04294973318194503,"134":0.06706746057341394,"135":0.18305828410727779,"136":-0.08464096467765855,"137":0.07917883339913176,"138":0.05483513548992425,"139":-0.04732472422987909,"140":-0.06558650990489841,"141":-0.03479028105022414,"142":-0.09079753548314215,"143":0.06762732320294525,"144":-0.014801946194933904,"145":-0.02516179513688025,"146":0.05257693923029748,"147":-0.04774965568389838,"148":-0.08854186475357831,"149":-0.025395926335163594,"150":0.006853362506121709,"151":-0.01456108280431782,"152":0.07623229187235309,"153":0.027531117034787965,"154":-0.18106048691629834,"155":-0.07562510651912187,"156":-0.004848887179798772,"157":-0.057858097965690865,"158":0.13864911851987152,"159":0.0601049268792648,"160":-0.033293146922596266,"161":-0.013918197351141333,"162":0.02656329208068729,"163":0.05327671611743558,"164":-0.03957654988235889,"165":-0.07271375392613612,"166":0.059928578508746874,"167":0.001993577099111096,"168":0.011849090132242198,"169":0.006836655946047524,"170":0.00453589996655902,"171":-0.02602423107551826,"172":0.08197206664486538,"173":0.049409001163153665,"174":-0.005018915968074146,"175":0.08585649721720699,"176":-0.02512222771110491,"177":0.07591089521775571,"178":-0.021439637311629327,"179":0.009652168117779617,"180":0.04196014916262439,"181":-0.0005511432115651185,"182":-0.056908650682743395,"183":0.018393132769339623,"184":0.0026006924767798816,"185":0.0036996464609978363,"186":-0.07964661336520223,"187":0.07215632291852277,"188":-0.02531813262175732,"189":-0.02811435621259513,"190":-0.03297352286628617,"191":0.17108250342550255,"192":-0.010732959318568509,"193":0.04086922705077761,"194":-0.0521997910296964,"195":-0.12839947156778822,"196":0.014121371554195098,"197":-0.03413794660153063,"198":-0.08100915646281334,"199":0.0640705560021556,"200":-0.018657152035533937,"201":-0.04040994998471063,"202":-0.08939987134398232,"203":0.053766031506407,"204":-0.08096241169318144,"205":0.05129392755054803,"206":-0.035218333535709086,"207":-0.12348536225253069,"208":-0.012436238278980811,"209":0.09255199811455239,"210":0.0009257360257999202,"211":0.014099808355575524,"212":-0.029892833700115903,"213":-0.05018794346263298,"214":-0.0939892003257467,"215":0.07816687428436361,"216":-0.07029320008499933,"217":-0.05659222047003327,"218":0.042334289978304664,"219":-0.00843212604907143,"220":0.044329527361449766,"221":0.020887114843189777,"222":0.02269155991718705,"223":-0.012762590125683069,"224":0.046037384145775836,"225":0.004442159031939556,"226":0.001120461291231676,"227":0.04076101339100397,"228":-0.02014024132033024,"229":0.10613361033144654,"230":0.05371640499983845,"231":0.06506734385377572,"232":0.007354732114203269,"233":0.001460693840802897,"234":0.00036674607397669943,"235":0.05781141279744493,"236":-0.05794035922149578,"237":0.011743425928013035,"238":-0.03954010548218273,"239":0.018101945208832404,"240":-0.13637468722685556,"241":-0.04914792010793139,"242":0.07986864982268449,"243":0.028987118804180607,"244":0.008819307820333687,"245":0.11111651841916372,"246":0.0308934723477764,"247":-0.09582472701519563,"248":0.025557282516526274,"249":0.013227714026821664,"250":-0.120474886655914,"251":0.019728458510852788,"252":0.03653916507955704,"253":-0.05771912700668984,"254":-0.04984909892450675,"255":0.005331821003063235,"256":0.04298582286445042,"257":-0.03579943141559363,"258":-0.10309009405523617,"259":0.042098246114427695}},{"sx":1,"sy":1,"depth":260,"w":{"0":-0.12292091481846555,"1":-0.0020808880929168486,"2":-0.028633247246286134,"3":-0.06079288113520292,"4":0.025479551899691515,"5":-0.06979064466732887,"6":0.05364320323751389,"7":0.029999913808819625,"8":0.016998255309864457,"9":0.0810842213383399,"10":0.009807919542159918,"11":0.015047148060900977,"12":0.047329667863015935,"13":-0.15174219433380698,"14":-0.0003224346580587875,"15":-0.019995948604907318,"16":0.06481272074225905,"17":0.04163257983238054,"18":-0.06792701914473578,"19":-0.07453395820130213,"20":0.054085064924533355,"21":-0.05408902679363036,"22":-0.005380569246132859,"23":0.08104446950269768,"24":0.042325776909221374,"25":0.06966819193260342,"26":0.10208977150295445,"27":0.019649607633837662,"28":-0.006232354101857577,"29":-0.019452610151239086,"30":0.004942703307061284,"31":0.07758249029125772,"32":0.03556714074892071,"33":0.05729221430917977,"34":-0.06861216904918542,"35":-0.016362835739392324,"36":-0.09559443052098669,"37":-0.09728647939593285,"38":0.005359793034705169,"39":-0.017458931971026152,"40":-0.11282821543908703,"41":-0.0018747478755594973,"42":-0.02402835463341495,"43":-0.022290099759384483,"44":0.02979513139011413,"45":-0.023924515180584884,"46":-0.08255446169343551,"47":-0.06051581196134917,"48":0.03925319533797832,"49":0.1099209233502003,"50":0.01627080649277754,"51":0.08021970598471583,"52":0.04178522823900072,"53":-0.038752155128206296,"54":0.11897911282095498,"55":0.0014639237105613517,"56":-0.006290123260900459,"57":-0.023703020920653958,"58":0.03505118967768802,"59":0.033069565146544994,"60":-0.05371973511475825,"61":-0.04337721851080087,"62":0.1940521912394372,"63":-0.06033866688810009,"64":-0.021839750536208773,"65":-0.010273839996621025,"66":0.03431062184696916,"67":0.08966754651923423,"68":-0.006563247252361517,"69":-0.012555305393615476,"70":-0.07675662356501892,"71":-0.08135804432791591,"72":0.10256805309116412,"73":0.00466128179660268,"74":-0.023479217151918814,"75":-0.004447031480720919,"76":-0.004596951961131267,"77":0.01612971395426759,"78":-0.1018460439910551,"79":0.10939573284118295,"80":-0.006288452648539966,"81":0.024125987375217872,"82":-0.08131900166317209,"83":-0.022310713299242592,"84":0.04315731119102632,"85":0.01519139113036254,"86":-0.09457832687919346,"87":-0.022704453899206768,"88":0.06957906399618434,"89":-0.0845325297505067,"90":-0.09918889229715565,"91":-0.08906131877610635,"92":-0.024947537325794907,"93":0.01611110039797732,"94":0.040603595645831714,"95":-0.04116199440846517,"96":-0.047510282661900105,"97":0.04407996426850824,"98":-0.04608784051154281,"99":0.03794017229598289,"100":0.10645203430588815,"101":-0.12950193820878866,"102":-0.0023618987845808203,"103":-0.00697921831463866,"104":-0.05840817313712671,"105":0.009924156230311345,"106":0.09324547732753488,"107":-0.02791581386342277,"108":-0.06463868699482456,"109":0.014259662854500116,"110":0.014911346752134676,"111":0.03782611949114107,"112":0.011020314442668114,"113":0.05189275280919927,"114":-0.04842729567486975,"115":-0.025653608048596937,"116":-0.033066415322813555,"117":0.08318780035947256,"118":-0.011791042549207483,"119":-0.037707626979015446,"120":0.0018274681505903142,"121":0.03746957219580551,"122":-0.05327882837702903,"123":0.003571799880350954,"124":0.043180856482947366,"125":0.06895321765461589,"126":0.005701517609505735,"127":-0.027461050119380718,"128":-0.06863688763246217,"129":-0.040119204526616326,"130":-0.0956382499486901,"131":-0.034200063946091964,"132":0.04775270212181755,"133":0.0592021603842466,"134":0.08378541310101986,"135":0.02853517864125522,"136":-0.08219884928065331,"137":0.07959838644988759,"138":-0.07715199362425199,"139":0.09923197610758216,"140":0.0704837286859851,"141":-0.09682717849210438,"142":0.05959047221426636,"143":-0.03665204036049424,"144":0.02799295282751333,"145":0.028849191996546234,"146":-0.05210444645789203,"147":-0.014292431782089443,"148":-0.11882226331537701,"149":-0.004438014028600924,"150":0.08244831711522972,"151":-0.009099339547163488,"152":-0.05660035041456511,"153":0.0025817759640624043,"154":-0.04360091832311159,"155":0.09099162674526148,"156":-0.0565951100756409,"157":0.05547155443706804,"158":0.09597021692584283,"159":0.06384369148034996,"160":-0.0675909582070136,"161":-0.0264942274245645,"162":-0.02367404006157373,"163":-0.055766205936028046,"164":-0.03310178735630485,"165":-0.003730936431739519,"166":0.08042616350187928,"167":0.11160955849279573,"168":-0.03723125564222302,"169":0.03592598843595471,"170":0.11091157107707127,"171":-0.030412381942360824,"172":-0.01637293940332038,"173":0.10403278898558024,"174":-0.1254718905747059,"175":-0.029838496416327548,"176":0.0726044913335721,"177":-0.07647160940307912,"178":-0.015559149712493014,"179":-0.024804805015049173,"180":-0.07125590958182505,"181":0.02194041138265822,"182":-0.003907844078317055,"183":0.08067205740794466,"184":-0.004356471852906941,"185":0.0425713195397227,"186":-0.05477217961950472,"187":-0.03452106190000912,"188":-0.013589554132335443,"189":0.10456069347310698,"190":-0.027785986018748498,"191":0.02672950247129211,"192":0.048896511974237236,"193":-0.03886966424622007,"194":0.03986253689937566,"195":0.015699625947336576,"196":-0.009700151408722537,"197":0.13387320227225535,"198":-0.05211030861230681,"199":0.06582374658729598,"200":0.04770293555427834,"201":-0.045748736679080554,"202":-0.03649905589579574,"203":-0.012003284184783003,"204":-0.006214823230666445,"205":-0.00633534549923207,"206":0.0574652300050645,"207":0.024253759022075116,"208":-0.06376516741403047,"209":-0.011924999441402555,"210":0.07467774186602807,"211":0.0034729741759447663,"212":-0.08700572974773929,"213":0.02497023900594332,"214":-0.01686434222043359,"215":0.11058403054893416,"216":-0.13658184284392802,"217":0.004727711311011732,"218":0.004736898372718116,"219":0.08256137320351804,"220":0.08170783484024895,"221":0.05624099139957542,"222":-0.12566799081149208,"223":0.0582633847529513,"224":0.03917414868364667,"225":0.03769058661114007,"226":-0.07248659864952912,"227":0.04056148249637583,"228":-0.0051384525063405476,"229":-0.02630193878470931,"230":0.0763210152299984,"231":-0.020303591083602315,"232":0.03806890632056807,"233":-0.11997767252230139,"234":-0.10404139916673608,"235":-0.018114907720598226,"236":-0.09308607919203314,"237":-0.10165238571274743,"238":0.014544246783770507,"239":-0.0874357377034235,"240":-0.0017250577564552564,"241":-0.10865836623114469,"242":-0.021951244761585283,"243":0.09561321961354705,"244":-0.08440018301656885,"245":-0.004340502900196256,"246":-0.023298180280541397,"247":-0.14989160936610893,"248":-0.13558146385319989,"249":-0.01822423903380061,"250":-0.05369612404998707,"251":0.028219224952554453,"252":0.015100661472311084,"253":-0.049984877701550155,"254":0.054507451269647754,"255":-0.05616401686789608,"256":0.028062147573668855,"257":-0.006909298522842862,"258":0.09007692437933082,"259":0.023334581620403194}}],"biases":{"sx":1,"sy":1,"depth":14,"w":{"0":0,"1":0,"2":0,"3":0,"4":0,"5":0,"6":0,"7":0,"8":0,"9":0,"10":0,"11":0,"12":0,"13":0}}},{"out_depth":14,"out_sx":1,"out_sy":1,"layer_type":"svm","num_inputs":14},{"out_depth":10,"out_sx":1,"out_sy":1,"layer_type":"fc","num_inputs":14,"l1_decay_mul":0,"l2_decay_mul":1,"filters":[{"sx":1,"sy":1,"depth":14,"w":{"0":-0.21271947832820892,"1":-0.13914984307512276,"2":0.7491342016381756,"3":0.2267017157412783,"4":0.27419633544502714,"5":0.3256790473378947,"6":0.10023482979834462,"7":0.03683427167387256,"8":0.026336205497884735,"9":-0.015318613963878128,"10":-0.39946031298373513,"11":0.18992756088062357,"12":-0.6372196812901266,"13":-0.365078103697029}},{"sx":1,"sy":1,"depth":14,"w":{"0":-0.10643544740460936,"1":-0.11325754335913794,"2":-0.24825899616059457,"3":-0.2928264384592612,"4":-0.1660782482278814,"5":-0.22290671139701962,"6":-0.4053297440820574,"7":0.10349678553584425,"8":0.05721138426383083,"9":0.09662802932311856,"10":0.12111844666677964,"11":0.10845306794241455,"12":-0.1884215240480192,"13":0.23710553232006765}},{"sx":1,"sy":1,"depth":14,"w":{"0":-0.10384575087621171,"1":-0.4317239836759799,"2":0.5195139634905719,"3":0.0657895131695409,"4":0.19080214309137045,"5":0.3498960414483385,"6":0.1576235621060465,"7":-0.4396060141684029,"8":0.15686761112314987,"9":0.2732387797096963,"10":-0.26113657195014756,"11":-0.5514528678448941,"12":-0.3123056530259109,"13":0.5165780358502114}},{"sx":1,